digraph Tree {
node [shape=box, fontname="helvetica"] ;
edge [fontname="helvetica"] ;
0 [label="X[0] <= 1.5\ngini = 0.499\nsamples = 54044\nvalue = [5246, 13309, 35489]"] ;
1 [label="X[36] <= 1.5\ngini = 0.446\nsamples = 36217\nvalue = [3246, 7189, 25782]"] ;
0 -> 1 [labeldistance=2.5, labelangle=45, headlabel="True"] ;
2 [label="X[6] <= 1.5\ngini = 0.39\nsamples = 25128\nvalue = [2093, 3914, 19121]"] ;
1 -> 2 ;
3 [label="X[0] <= 0.5\ngini = 0.306\nsamples = 14196\nvalue = [1019, 1487, 11690]"] ;
2 -> 3 ;
4 [label="X[12] <= 1.5\ngini = 0.376\nsamples = 7820\nvalue = [646, 1134, 6040]"] ;
3 -> 4 ;
5 [label="X[6] <= 0.5\ngini = 0.27\nsamples = 2541\nvalue = [188, 200, 2153]"] ;
4 -> 5 ;
6 [label="X[20] <= 0.5\ngini = 0.438\nsamples = 1034\nvalue = [131, 155, 748]"] ;
5 -> 6 ;
7 [label="X[19] <= 1.5\ngini = 0.332\nsamples = 662\nvalue = [75, 54, 533]"] ;
6 -> 7 ;
8 [label="X[30] <= 1.5\ngini = 0.42\nsamples = 473\nvalue = [73, 51, 349]"] ;
7 -> 8 ;
9 [label="X[37] <= 1.5\ngini = 0.309\nsamples = 306\nvalue = [36, 19, 251]"] ;
8 -> 9 ;
10 [label="X[17] <= 1.5\ngini = 0.243\nsamples = 236\nvalue = [19, 13, 204]"] ;
9 -> 10 ;
11 [label="X[16] <= 1.5\ngini = 0.226\nsamples = 232\nvalue = [16, 13, 203]"] ;
10 -> 11 ;
12 [label="X[32] <= 1.5\ngini = 0.176\nsamples = 200\nvalue = [11, 8, 181]"] ;
11 -> 12 ;
13 [label="X[15] <= 1.5\ngini = 0.132\nsamples = 173\nvalue = [6, 6, 161]"] ;
12 -> 13 ;
14 [label="X[26] <= 0.5\ngini = 0.074\nsamples = 132\nvalue = [2, 3, 127]"] ;
13 -> 14 ;
15 [label="gini = 0.0\nsamples = 75\nvalue = [0, 0, 75]"] ;
14 -> 15 ;
16 [label="X[19] <= 0.5\ngini = 0.164\nsamples = 57\nvalue = [2, 3, 52]"] ;
14 -> 16 ;
17 [label="X[31] <= 1.5\ngini = 0.14\nsamples = 54\nvalue = [2, 2, 50]"] ;
16 -> 17 ;
18 [label="X[27] <= 0.5\ngini = 0.117\nsamples = 49\nvalue = [2, 1, 46]"] ;
17 -> 18 ;
19 [label="gini = 0.0\nsamples = 23\nvalue = [0, 0, 23]"] ;
18 -> 19 ;
20 [label="X[14] <= 0.5\ngini = 0.21\nsamples = 26\nvalue = [2, 1, 23]"] ;
18 -> 20 ;
21 [label="X[13] <= 1.5\ngini = 0.091\nsamples = 21\nvalue = [1, 0, 20]"] ;
20 -> 21 ;
22 [label="gini = 0.0\nsamples = 16\nvalue = [0, 0, 16]"] ;
21 -> 22 ;
23 [label="X[25] <= 1.5\ngini = 0.32\nsamples = 5\nvalue = [1, 0, 4]"] ;
21 -> 23 ;
24 [label="gini = 0.0\nsamples = 4\nvalue = [0, 0, 4]"] ;
23 -> 24 ;
25 [label="gini = 0.0\nsamples = 1\nvalue = [1, 0, 0]"] ;
23 -> 25 ;
26 [label="X[26] <= 1.5\ngini = 0.56\nsamples = 5\nvalue = [1, 1, 3]"] ;
20 -> 26 ;
27 [label="gini = 0.0\nsamples = 2\nvalue = [0, 0, 2]"] ;
26 -> 27 ;
28 [label="X[14] <= 1.5\ngini = 0.667\nsamples = 3\nvalue = [1, 1, 1]"] ;
26 -> 28 ;
29 [label="gini = 0.0\nsamples = 1\nvalue = [1, 0, 0]"] ;
28 -> 29 ;
30 [label="X[13] <= 1.5\ngini = 0.5\nsamples = 2\nvalue = [0, 1, 1]"] ;
28 -> 30 ;
31 [label="gini = 0.0\nsamples = 1\nvalue = [0, 1, 0]"] ;
30 -> 31 ;
32 [label="gini = 0.0\nsamples = 1\nvalue = [0, 0, 1]"] ;
30 -> 32 ;
33 [label="X[13] <= 0.5\ngini = 0.32\nsamples = 5\nvalue = [0, 1, 4]"] ;
17 -> 33 ;
34 [label="gini = 0.0\nsamples = 4\nvalue = [0, 0, 4]"] ;
33 -> 34 ;
35 [label="gini = 0.0\nsamples = 1\nvalue = [0, 1, 0]"] ;
33 -> 35 ;
36 [label="X[13] <= 1.5\ngini = 0.444\nsamples = 3\nvalue = [0, 1, 2]"] ;
16 -> 36 ;
37 [label="gini = 0.0\nsamples = 1\nvalue = [0, 1, 0]"] ;
36 -> 37 ;
38 [label="gini = 0.0\nsamples = 2\nvalue = [0, 0, 2]"] ;
36 -> 38 ;
39 [label="X[26] <= 0.5\ngini = 0.297\nsamples = 41\nvalue = [4, 3, 34]"] ;
13 -> 39 ;
40 [label="X[19] <= 0.5\ngini = 0.237\nsamples = 38\nvalue = [3, 2, 33]"] ;
39 -> 40 ;
41 [label="X[25] <= 0.5\ngini = 0.18\nsamples = 30\nvalue = [3, 0, 27]"] ;
40 -> 41 ;
42 [label="X[31] <= 0.5\ngini = 0.105\nsamples = 18\nvalue = [1, 0, 17]"] ;
41 -> 42 ;
43 [label="gini = 0.0\nsamples = 13\nvalue = [0, 0, 13]"] ;
42 -> 43 ;
44 [label="X[31] <= 1.5\ngini = 0.32\nsamples = 5\nvalue = [1, 0, 4]"] ;
42 -> 44 ;
45 [label="X[16] <= 0.5\ngini = 0.5\nsamples = 2\nvalue = [1, 0, 1]"] ;
44 -> 45 ;
46 [label="gini = 0.0\nsamples = 1\nvalue = [0, 0, 1]"] ;
45 -> 46 ;
47 [label="gini = 0.0\nsamples = 1\nvalue = [1, 0, 0]"] ;
45 -> 47 ;
48 [label="gini = 0.0\nsamples = 3\nvalue = [0, 0, 3]"] ;
44 -> 48 ;
49 [label="X[25] <= 1.5\ngini = 0.278\nsamples = 12\nvalue = [2, 0, 10]"] ;
41 -> 49 ;
50 [label="X[30] <= 0.5\ngini = 0.408\nsamples = 7\nvalue = [2, 0, 5]"] ;
49 -> 50 ;
51 [label="X[24] <= 1.5\ngini = 0.48\nsamples = 5\nvalue = [2, 0, 3]"] ;
50 -> 51 ;
52 [label="gini = 0.0\nsamples = 1\nvalue = [0, 0, 1]"] ;
51 -> 52 ;
53 [label="X[36] <= 0.5\ngini = 0.5\nsamples = 4\nvalue = [2, 0, 2]"] ;
51 -> 53 ;
54 [label="X[14] <= 1.5\ngini = 0.5\nsamples = 2\nvalue = [1, 0, 1]"] ;
53 -> 54 ;
55 [label="gini = 0.0\nsamples = 1\nvalue = [0, 0, 1]"] ;
54 -> 55 ;
56 [label="gini = 0.0\nsamples = 1\nvalue = [1, 0, 0]"] ;
54 -> 56 ;
57 [label="X[13] <= 1.5\ngini = 0.5\nsamples = 2\nvalue = [1, 0, 1]"] ;
53 -> 57 ;
58 [label="gini = 0.0\nsamples = 1\nvalue = [0, 0, 1]"] ;
57 -> 58 ;
59 [label="gini = 0.0\nsamples = 1\nvalue = [1, 0, 0]"] ;
57 -> 59 ;
60 [label="gini = 0.0\nsamples = 2\nvalue = [0, 0, 2]"] ;
50 -> 60 ;
61 [label="gini = 0.0\nsamples = 5\nvalue = [0, 0, 5]"] ;
49 -> 61 ;
62 [label="X[24] <= 1.5\ngini = 0.375\nsamples = 8\nvalue = [0, 2, 6]"] ;
40 -> 62 ;
63 [label="gini = 0.0\nsamples = 4\nvalue = [0, 0, 4]"] ;
62 -> 63 ;
64 [label="X[25] <= 1.5\ngini = 0.5\nsamples = 4\nvalue = [0, 2, 2]"] ;
62 -> 64 ;
65 [label="X[36] <= 0.5\ngini = 0.444\nsamples = 3\nvalue = [0, 2, 1]"] ;
64 -> 65 ;
66 [label="gini = 0.0\nsamples = 2\nvalue = [0, 2, 0]"] ;
65 -> 66 ;
67 [label="gini = 0.0\nsamples = 1\nvalue = [0, 0, 1]"] ;
65 -> 67 ;
68 [label="gini = 0.0\nsamples = 1\nvalue = [0, 0, 1]"] ;
64 -> 68 ;
69 [label="X[14] <= 1.5\ngini = 0.667\nsamples = 3\nvalue = [1, 1, 1]"] ;
39 -> 69 ;
70 [label="X[25] <= 1.5\ngini = 0.5\nsamples = 2\nvalue = [0, 1, 1]"] ;
69 -> 70 ;
71 [label="gini = 0.0\nsamples = 1\nvalue = [0, 1, 0]"] ;
70 -> 71 ;
72 [label="gini = 0.0\nsamples = 1\nvalue = [0, 0, 1]"] ;
70 -> 72 ;
73 [label="gini = 0.0\nsamples = 1\nvalue = [1, 0, 0]"] ;
69 -> 73 ;
74 [label="X[26] <= 0.5\ngini = 0.412\nsamples = 27\nvalue = [5, 2, 20]"] ;
12 -> 74 ;
75 [label="X[33] <= 0.5\ngini = 0.333\nsamples = 25\nvalue = [4, 1, 20]"] ;
74 -> 75 ;
76 [label="X[25] <= 0.5\ngini = 0.117\nsamples = 16\nvalue = [1, 0, 15]"] ;
75 -> 76 ;
77 [label="gini = 0.0\nsamples = 12\nvalue = [0, 0, 12]"] ;
76 -> 77 ;
78 [label="X[25] <= 1.5\ngini = 0.375\nsamples = 4\nvalue = [1, 0, 3]"] ;
76 -> 78 ;
79 [label="X[13] <= 1.5\ngini = 0.5\nsamples = 2\nvalue = [1, 0, 1]"] ;
78 -> 79 ;
80 [label="gini = 0.0\nsamples = 1\nvalue = [1, 0, 0]"] ;
79 -> 80 ;
81 [label="gini = 0.0\nsamples = 1\nvalue = [0, 0, 1]"] ;
79 -> 81 ;
82 [label="gini = 0.0\nsamples = 2\nvalue = [0, 0, 2]"] ;
78 -> 82 ;
83 [label="X[14] <= 0.5\ngini = 0.568\nsamples = 9\nvalue = [3, 1, 5]"] ;
75 -> 83 ;
84 [label="X[13] <= 0.5\ngini = 0.449\nsamples = 7\nvalue = [1, 1, 5]"] ;
83 -> 84 ;
85 [label="gini = 0.0\nsamples = 3\nvalue = [0, 0, 3]"] ;
84 -> 85 ;
86 [label="X[24] <= 1.5\ngini = 0.625\nsamples = 4\nvalue = [1, 1, 2]"] ;
84 -> 86 ;
87 [label="gini = 0.0\nsamples = 2\nvalue = [0, 0, 2]"] ;
86 -> 87 ;
88 [label="X[31] <= 1.5\ngini = 0.5\nsamples = 2\nvalue = [1, 1, 0]"] ;
86 -> 88 ;
89 [label="gini = 0.0\nsamples = 1\nvalue = [1, 0, 0]"] ;
88 -> 89 ;
90 [label="gini = 0.0\nsamples = 1\nvalue = [0, 1, 0]"] ;
88 -> 90 ;
91 [label="gini = 0.0\nsamples = 2\nvalue = [2, 0, 0]"] ;
83 -> 91 ;
92 [label="X[25] <= 1.5\ngini = 0.5\nsamples = 2\nvalue = [1, 1, 0]"] ;
74 -> 92 ;
93 [label="gini = 0.0\nsamples = 1\nvalue = [0, 1, 0]"] ;
92 -> 93 ;
94 [label="gini = 0.0\nsamples = 1\nvalue = [1, 0, 0]"] ;
92 -> 94 ;
95 [label="X[24] <= 1.5\ngini = 0.479\nsamples = 32\nvalue = [5, 5, 22]"] ;
11 -> 95 ;
96 [label="X[31] <= 0.5\ngini = 0.244\nsamples = 22\nvalue = [1, 2, 19]"] ;
95 -> 96 ;
97 [label="X[19] <= 0.5\ngini = 0.18\nsamples = 20\nvalue = [0, 2, 18]"] ;
96 -> 97 ;
98 [label="gini = 0.0\nsamples = 13\nvalue = [0, 0, 13]"] ;
97 -> 98 ;
99 [label="X[36] <= 0.5\ngini = 0.408\nsamples = 7\nvalue = [0, 2, 5]"] ;
97 -> 99 ;
100 [label="X[30] <= 0.5\ngini = 0.278\nsamples = 6\nvalue = [0, 1, 5]"] ;
99 -> 100 ;
101 [label="gini = 0.0\nsamples = 4\nvalue = [0, 0, 4]"] ;
100 -> 101 ;
102 [label="X[15] <= 1.5\ngini = 0.5\nsamples = 2\nvalue = [0, 1, 1]"] ;
100 -> 102 ;
103 [label="gini = 0.0\nsamples = 1\nvalue = [0, 0, 1]"] ;
102 -> 103 ;
104 [label="gini = 0.0\nsamples = 1\nvalue = [0, 1, 0]"] ;
102 -> 104 ;
105 [label="gini = 0.0\nsamples = 1\nvalue = [0, 1, 0]"] ;
99 -> 105 ;
106 [label="X[15] <= 1.5\ngini = 0.5\nsamples = 2\nvalue = [1, 0, 1]"] ;
96 -> 106 ;
107 [label="gini = 0.0\nsamples = 1\nvalue = [0, 0, 1]"] ;
106 -> 107 ;
108 [label="gini = 0.0\nsamples = 1\nvalue = [1, 0, 0]"] ;
106 -> 108 ;
109 [label="X[17] <= 0.5\ngini = 0.66\nsamples = 10\nvalue = [4, 3, 3]"] ;
95 -> 109 ;
110 [label="X[19] <= 0.5\ngini = 0.594\nsamples = 8\nvalue = [4, 3, 1]"] ;
109 -> 110 ;
111 [label="X[13] <= 1.5\ngini = 0.5\nsamples = 6\nvalue = [4, 1, 1]"] ;
110 -> 111 ;
112 [label="gini = 0.0\nsamples = 3\nvalue = [3, 0, 0]"] ;
111 -> 112 ;
113 [label="X[36] <= 0.5\ngini = 0.667\nsamples = 3\nvalue = [1, 1, 1]"] ;
111 -> 113 ;
114 [label="X[30] <= 0.5\ngini = 0.5\nsamples = 2\nvalue = [1, 0, 1]"] ;
113 -> 114 ;
115 [label="gini = 0.0\nsamples = 1\nvalue = [0, 0, 1]"] ;
114 -> 115 ;
116 [label="gini = 0.0\nsamples = 1\nvalue = [1, 0, 0]"] ;
114 -> 116 ;
117 [label="gini = 0.0\nsamples = 1\nvalue = [0, 1, 0]"] ;
113 -> 117 ;
118 [label="gini = 0.0\nsamples = 2\nvalue = [0, 2, 0]"] ;
110 -> 118 ;
119 [label="gini = 0.0\nsamples = 2\nvalue = [0, 0, 2]"] ;
109 -> 119 ;
120 [label="X[24] <= 0.5\ngini = 0.375\nsamples = 4\nvalue = [3, 0, 1]"] ;
10 -> 120 ;
121 [label="gini = 0.0\nsamples = 3\nvalue = [3, 0, 0]"] ;
120 -> 121 ;
122 [label="gini = 0.0\nsamples = 1\nvalue = [0, 0, 1]"] ;
120 -> 122 ;
123 [label="X[15] <= 1.5\ngini = 0.483\nsamples = 70\nvalue = [17, 6, 47]"] ;
9 -> 123 ;
124 [label="X[24] <= 1.5\ngini = 0.456\nsamples = 67\nvalue = [14, 6, 47]"] ;
123 -> 124 ;
125 [label="X[39] <= 1.5\ngini = 0.213\nsamples = 33\nvalue = [4, 0, 29]"] ;
124 -> 125 ;
126 [label="X[38] <= 1.5\ngini = 0.133\nsamples = 28\nvalue = [2, 0, 26]"] ;
125 -> 126 ;
127 [label="gini = 0.0\nsamples = 17\nvalue = [0, 0, 17]"] ;
126 -> 127 ;
128 [label="X[15] <= 0.5\ngini = 0.298\nsamples = 11\nvalue = [2, 0, 9]"] ;
126 -> 128 ;
129 [label="X[14] <= 0.5\ngini = 0.18\nsamples = 10\nvalue = [1, 0, 9]"] ;
128 -> 129 ;
130 [label="gini = 0.0\nsamples = 7\nvalue = [0, 0, 7]"] ;
129 -> 130 ;
131 [label="X[30] <= 0.5\ngini = 0.444\nsamples = 3\nvalue = [1, 0, 2]"] ;
129 -> 131 ;
132 [label="gini = 0.0\nsamples = 2\nvalue = [0, 0, 2]"] ;
131 -> 132 ;
133 [label="gini = 0.0\nsamples = 1\nvalue = [1, 0, 0]"] ;
131 -> 133 ;
134 [label="gini = 0.0\nsamples = 1\nvalue = [1, 0, 0]"] ;
128 -> 134 ;
135 [label="X[19] <= 0.5\ngini = 0.48\nsamples = 5\nvalue = [2, 0, 3]"] ;
125 -> 135 ;
136 [label="X[14] <= 0.5\ngini = 0.375\nsamples = 4\nvalue = [1, 0, 3]"] ;
135 -> 136 ;
137 [label="gini = 0.0\nsamples = 3\nvalue = [0, 0, 3]"] ;
136 -> 137 ;
138 [label="gini = 0.0\nsamples = 1\nvalue = [1, 0, 0]"] ;
136 -> 138 ;
139 [label="gini = 0.0\nsamples = 1\nvalue = [1, 0, 0]"] ;
135 -> 139 ;
140 [label="X[30] <= 0.5\ngini = 0.602\nsamples = 34\nvalue = [10, 6, 18]"] ;
124 -> 140 ;
141 [label="X[26] <= 0.5\ngini = 0.637\nsamples = 19\nvalue = [9, 5, 5]"] ;
140 -> 141 ;
142 [label="X[40] <= 0.5\ngini = 0.625\nsamples = 12\nvalue = [5, 5, 2]"] ;
141 -> 142 ;
143 [label="X[19] <= 0.5\ngini = 0.579\nsamples = 11\nvalue = [5, 5, 1]"] ;
142 -> 143 ;
144 [label="X[39] <= 1.5\ngini = 0.58\nsamples = 10\nvalue = [5, 4, 1]"] ;
143 -> 144 ;
145 [label="X[39] <= 0.5\ngini = 0.568\nsamples = 9\nvalue = [5, 3, 1]"] ;
144 -> 145 ;
146 [label="X[38] <= 1.5\ngini = 0.612\nsamples = 7\nvalue = [3, 3, 1]"] ;
145 -> 146 ;
147 [label="X[38] <= 0.5\ngini = 0.611\nsamples = 6\nvalue = [3, 2, 1]"] ;
146 -> 147 ;
148 [label="X[25] <= 0.5\ngini = 0.5\nsamples = 4\nvalue = [2, 2, 0]"] ;
147 -> 148 ;
149 [label="X[14] <= 1.5\ngini = 0.5\nsamples = 2\nvalue = [1, 1, 0]"] ;
148 -> 149 ;
150 [label="gini = 0.0\nsamples = 1\nvalue = [0, 1, 0]"] ;
149 -> 150 ;
151 [label="gini = 0.0\nsamples = 1\nvalue = [1, 0, 0]"] ;
149 -> 151 ;
152 [label="X[13] <= 1.5\ngini = 0.5\nsamples = 2\nvalue = [1, 1, 0]"] ;
148 -> 152 ;
153 [label="gini = 0.0\nsamples = 1\nvalue = [0, 1, 0]"] ;
152 -> 153 ;
154 [label="gini = 0.0\nsamples = 1\nvalue = [1, 0, 0]"] ;
152 -> 154 ;
155 [label="X[14] <= 1.5\ngini = 0.5\nsamples = 2\nvalue = [1, 0, 1]"] ;
147 -> 155 ;
156 [label="gini = 0.0\nsamples = 1\nvalue = [1, 0, 0]"] ;
155 -> 156 ;
157 [label="gini = 0.0\nsamples = 1\nvalue = [0, 0, 1]"] ;
155 -> 157 ;
158 [label="gini = 0.0\nsamples = 1\nvalue = [0, 1, 0]"] ;
146 -> 158 ;
159 [label="gini = 0.0\nsamples = 2\nvalue = [2, 0, 0]"] ;
145 -> 159 ;
160 [label="gini = 0.0\nsamples = 1\nvalue = [0, 1, 0]"] ;
144 -> 160 ;
161 [label="gini = 0.0\nsamples = 1\nvalue = [0, 1, 0]"] ;
143 -> 161 ;
162 [label="gini = 0.0\nsamples = 1\nvalue = [0, 0, 1]"] ;
142 -> 162 ;
163 [label="X[38] <= 0.5\ngini = 0.49\nsamples = 7\nvalue = [4, 0, 3]"] ;
141 -> 163 ;
164 [label="X[13] <= 1.5\ngini = 0.32\nsamples = 5\nvalue = [4, 0, 1]"] ;
163 -> 164 ;
165 [label="gini = 0.0\nsamples = 4\nvalue = [4, 0, 0]"] ;
164 -> 165 ;
166 [label="gini = 0.0\nsamples = 1\nvalue = [0, 0, 1]"] ;
164 -> 166 ;
167 [label="gini = 0.0\nsamples = 2\nvalue = [0, 0, 2]"] ;
163 -> 167 ;
168 [label="X[26] <= 0.5\ngini = 0.24\nsamples = 15\nvalue = [1, 1, 13]"] ;
140 -> 168 ;
169 [label="X[38] <= 1.5\ngini = 0.142\nsamples = 13\nvalue = [0, 1, 12]"] ;
168 -> 169 ;
170 [label="gini = 0.0\nsamples = 10\nvalue = [0, 0, 10]"] ;
169 -> 170 ;
171 [label="X[25] <= 0.5\ngini = 0.444\nsamples = 3\nvalue = [0, 1, 2]"] ;
169 -> 171 ;
172 [label="gini = 0.0\nsamples = 2\nvalue = [0, 0, 2]"] ;
171 -> 172 ;
173 [label="gini = 0.0\nsamples = 1\nvalue = [0, 1, 0]"] ;
171 -> 173 ;
174 [label="X[25] <= 1.5\ngini = 0.5\nsamples = 2\nvalue = [1, 0, 1]"] ;
168 -> 174 ;
175 [label="gini = 0.0\nsamples = 1\nvalue = [0, 0, 1]"] ;
174 -> 175 ;
176 [label="gini = 0.0\nsamples = 1\nvalue = [1, 0, 0]"] ;
174 -> 176 ;
177 [label="gini = 0.0\nsamples = 3\nvalue = [3, 0, 0]"] ;
123 -> 177 ;
178 [label="X[24] <= 1.5\ngini = 0.57\nsamples = 167\nvalue = [37, 32, 98]"] ;
8 -> 178 ;
179 [label="X[24] <= 0.5\ngini = 0.48\nsamples = 127\nvalue = [23, 17, 87]"] ;
178 -> 179 ;
180 [label="X[31] <= 1.5\ngini = 0.585\nsamples = 87\nvalue = [22, 16, 49]"] ;
179 -> 180 ;
181 [label="X[31] <= 0.5\ngini = 0.649\nsamples = 63\nvalue = [21, 15, 27]"] ;
180 -> 181 ;
182 [label="X[19] <= 0.5\ngini = 0.536\nsamples = 26\nvalue = [3, 7, 16]"] ;
181 -> 182 ;
183 [label="X[14] <= 1.5\ngini = 0.482\nsamples = 19\nvalue = [3, 3, 13]"] ;
182 -> 183 ;
184 [label="X[15] <= 0.5\ngini = 0.645\nsamples = 11\nvalue = [3, 3, 5]"] ;
183 -> 184 ;
185 [label="X[37] <= 1.5\ngini = 0.5\nsamples = 6\nvalue = [0, 3, 3]"] ;
184 -> 185 ;
186 [label="gini = 0.0\nsamples = 2\nvalue = [0, 0, 2]"] ;
185 -> 186 ;
187 [label="X[13] <= 0.5\ngini = 0.375\nsamples = 4\nvalue = [0, 3, 1]"] ;
185 -> 187 ;
188 [label="gini = 0.0\nsamples = 1\nvalue = [0, 0, 1]"] ;
187 -> 188 ;
189 [label="gini = 0.0\nsamples = 3\nvalue = [0, 3, 0]"] ;
187 -> 189 ;
190 [label="X[36] <= 0.5\ngini = 0.48\nsamples = 5\nvalue = [3, 0, 2]"] ;
184 -> 190 ;
191 [label="gini = 0.0\nsamples = 2\nvalue = [0, 0, 2]"] ;
190 -> 191 ;
192 [label="gini = 0.0\nsamples = 3\nvalue = [3, 0, 0]"] ;
190 -> 192 ;
193 [label="gini = 0.0\nsamples = 8\nvalue = [0, 0, 8]"] ;
183 -> 193 ;
194 [label="X[16] <= 1.5\ngini = 0.49\nsamples = 7\nvalue = [0, 4, 3]"] ;
182 -> 194 ;
195 [label="X[13] <= 1.5\ngini = 0.48\nsamples = 5\nvalue = [0, 2, 3]"] ;
194 -> 195 ;
196 [label="X[16] <= 0.5\ngini = 0.444\nsamples = 3\nvalue = [0, 2, 1]"] ;
195 -> 196 ;
197 [label="X[37] <= 1.0\ngini = 0.5\nsamples = 2\nvalue = [0, 1, 1]"] ;
196 -> 197 ;
198 [label="gini = 0.0\nsamples = 1\nvalue = [0, 0, 1]"] ;
197 -> 198 ;
199 [label="gini = 0.0\nsamples = 1\nvalue = [0, 1, 0]"] ;
197 -> 199 ;
200 [label="gini = 0.0\nsamples = 1\nvalue = [0, 1, 0]"] ;
196 -> 200 ;
201 [label="gini = 0.0\nsamples = 2\nvalue = [0, 0, 2]"] ;
195 -> 201 ;
202 [label="gini = 0.0\nsamples = 2\nvalue = [0, 2, 0]"] ;
194 -> 202 ;
203 [label="X[33] <= 1.5\ngini = 0.628\nsamples = 37\nvalue = [18, 8, 11]"] ;
181 -> 203 ;
204 [label="X[19] <= 0.5\ngini = 0.586\nsamples = 32\nvalue = [18, 8, 6]"] ;
203 -> 204 ;
205 [label="X[37] <= 1.5\ngini = 0.56\nsamples = 30\nvalue = [18, 6, 6]"] ;
204 -> 205 ;
206 [label="X[14] <= 1.5\ngini = 0.505\nsamples = 20\nvalue = [13, 2, 5]"] ;
205 -> 206 ;
207 [label="X[16] <= 1.0\ngini = 0.314\nsamples = 11\nvalue = [9, 1, 1]"] ;
206 -> 207 ;
208 [label="X[34] <= 0.5\ngini = 0.18\nsamples = 10\nvalue = [9, 0, 1]"] ;
207 -> 208 ;
209 [label="gini = 0.0\nsamples = 7\nvalue = [7, 0, 0]"] ;
208 -> 209 ;
210 [label="X[34] <= 1.5\ngini = 0.444\nsamples = 3\nvalue = [2, 0, 1]"] ;
208 -> 210 ;
211 [label="gini = 0.0\nsamples = 1\nvalue = [0, 0, 1]"] ;
210 -> 211 ;
212 [label="gini = 0.0\nsamples = 2\nvalue = [2, 0, 0]"] ;
210 -> 212 ;
213 [label="gini = 0.0\nsamples = 1\nvalue = [0, 1, 0]"] ;
207 -> 213 ;
214 [label="X[33] <= 0.5\ngini = 0.593\nsamples = 9\nvalue = [4, 1, 4]"] ;
206 -> 214 ;
215 [label="X[15] <= 0.5\ngini = 0.594\nsamples = 8\nvalue = [3, 1, 4]"] ;
214 -> 215 ;
216 [label="gini = 0.0\nsamples = 2\nvalue = [0, 0, 2]"] ;
215 -> 216 ;
217 [label="X[32] <= 1.5\ngini = 0.611\nsamples = 6\nvalue = [3, 1, 2]"] ;
215 -> 217 ;
218 [label="X[15] <= 1.5\ngini = 0.48\nsamples = 5\nvalue = [3, 0, 2]"] ;
217 -> 218 ;
219 [label="gini = 0.0\nsamples = 2\nvalue = [2, 0, 0]"] ;
218 -> 219 ;
220 [label="X[36] <= 0.5\ngini = 0.444\nsamples = 3\nvalue = [1, 0, 2]"] ;
218 -> 220 ;
221 [label="gini = 0.0\nsamples = 2\nvalue = [0, 0, 2]"] ;
220 -> 221 ;
222 [label="gini = 0.0\nsamples = 1\nvalue = [1, 0, 0]"] ;
220 -> 222 ;
223 [label="gini = 0.0\nsamples = 1\nvalue = [0, 1, 0]"] ;
217 -> 223 ;
224 [label="gini = 0.0\nsamples = 1\nvalue = [1, 0, 0]"] ;
214 -> 224 ;
225 [label="X[32] <= 0.5\ngini = 0.58\nsamples = 10\nvalue = [5, 4, 1]"] ;
205 -> 225 ;
226 [label="X[38] <= 0.5\ngini = 0.5\nsamples = 6\nvalue = [4, 1, 1]"] ;
225 -> 226 ;
227 [label="gini = 0.0\nsamples = 2\nvalue = [2, 0, 0]"] ;
226 -> 227 ;
228 [label="X[39] <= 0.5\ngini = 0.625\nsamples = 4\nvalue = [2, 1, 1]"] ;
226 -> 228 ;
229 [label="X[13] <= 1.5\ngini = 0.5\nsamples = 2\nvalue = [0, 1, 1]"] ;
228 -> 229 ;
230 [label="gini = 0.0\nsamples = 1\nvalue = [0, 1, 0]"] ;
229 -> 230 ;
231 [label="gini = 0.0\nsamples = 1\nvalue = [0, 0, 1]"] ;
229 -> 231 ;
232 [label="gini = 0.0\nsamples = 2\nvalue = [2, 0, 0]"] ;
228 -> 232 ;
233 [label="X[38] <= 0.5\ngini = 0.375\nsamples = 4\nvalue = [1, 3, 0]"] ;
225 -> 233 ;
234 [label="gini = 0.0\nsamples = 2\nvalue = [0, 2, 0]"] ;
233 -> 234 ;
235 [label="X[32] <= 1.5\ngini = 0.5\nsamples = 2\nvalue = [1, 1, 0]"] ;
233 -> 235 ;
236 [label="gini = 0.0\nsamples = 1\nvalue = [0, 1, 0]"] ;
235 -> 236 ;
237 [label="gini = 0.0\nsamples = 1\nvalue = [1, 0, 0]"] ;
235 -> 237 ;
238 [label="gini = 0.0\nsamples = 2\nvalue = [0, 2, 0]"] ;
204 -> 238 ;
239 [label="gini = 0.0\nsamples = 5\nvalue = [0, 0, 5]"] ;
203 -> 239 ;
240 [label="X[13] <= 1.5\ngini = 0.156\nsamples = 24\nvalue = [1, 1, 22]"] ;
180 -> 240 ;
241 [label="gini = 0.0\nsamples = 18\nvalue = [0, 0, 18]"] ;
240 -> 241 ;
242 [label="X[32] <= 0.5\ngini = 0.5\nsamples = 6\nvalue = [1, 1, 4]"] ;
240 -> 242 ;
243 [label="X[37] <= 0.5\ngini = 0.5\nsamples = 2\nvalue = [1, 0, 1]"] ;
242 -> 243 ;
244 [label="gini = 0.0\nsamples = 1\nvalue = [1, 0, 0]"] ;
243 -> 244 ;
245 [label="gini = 0.0\nsamples = 1\nvalue = [0, 0, 1]"] ;
243 -> 245 ;
246 [label="X[14] <= 0.5\ngini = 0.375\nsamples = 4\nvalue = [0, 1, 3]"] ;
242 -> 246 ;
247 [label="gini = 0.0\nsamples = 2\nvalue = [0, 0, 2]"] ;
246 -> 247 ;
248 [label="X[15] <= 0.5\ngini = 0.5\nsamples = 2\nvalue = [0, 1, 1]"] ;
246 -> 248 ;
249 [label="gini = 0.0\nsamples = 1\nvalue = [0, 1, 0]"] ;
248 -> 249 ;
250 [label="gini = 0.0\nsamples = 1\nvalue = [0, 0, 1]"] ;
248 -> 250 ;
251 [label="X[33] <= 0.5\ngini = 0.096\nsamples = 40\nvalue = [1, 1, 38]"] ;
179 -> 251 ;
252 [label="X[19] <= 0.5\ngini = 0.05\nsamples = 39\nvalue = [0, 1, 38]"] ;
251 -> 252 ;
253 [label="gini = 0.0\nsamples = 37\nvalue = [0, 0, 37]"] ;
252 -> 253 ;
254 [label="X[26] <= 1.0\ngini = 0.5\nsamples = 2\nvalue = [0, 1, 1]"] ;
252 -> 254 ;
255 [label="gini = 0.0\nsamples = 1\nvalue = [0, 1, 0]"] ;
254 -> 255 ;
256 [label="gini = 0.0\nsamples = 1\nvalue = [0, 0, 1]"] ;
254 -> 256 ;
257 [label="gini = 0.0\nsamples = 1\nvalue = [1, 0, 0]"] ;
251 -> 257 ;
258 [label="X[26] <= 0.5\ngini = 0.661\nsamples = 40\nvalue = [14, 15, 11]"] ;
178 -> 258 ;
259 [label="X[25] <= 1.5\ngini = 0.662\nsamples = 32\nvalue = [12, 9, 11]"] ;
258 -> 259 ;
260 [label="X[13] <= 0.5\ngini = 0.656\nsamples = 29\nvalue = [12, 9, 8]"] ;
259 -> 260 ;
261 [label="X[32] <= 0.5\ngini = 0.5\nsamples = 12\nvalue = [8, 2, 2]"] ;
260 -> 261 ;
262 [label="X[38] <= 1.5\ngini = 0.245\nsamples = 7\nvalue = [6, 0, 1]"] ;
261 -> 262 ;
263 [label="gini = 0.0\nsamples = 5\nvalue = [5, 0, 0]"] ;
262 -> 263 ;
264 [label="X[31] <= 0.5\ngini = 0.5\nsamples = 2\nvalue = [1, 0, 1]"] ;
262 -> 264 ;
265 [label="gini = 0.0\nsamples = 1\nvalue = [0, 0, 1]"] ;
264 -> 265 ;
266 [label="gini = 0.0\nsamples = 1\nvalue = [1, 0, 0]"] ;
264 -> 266 ;
267 [label="X[37] <= 0.5\ngini = 0.64\nsamples = 5\nvalue = [2, 2, 1]"] ;
261 -> 267 ;
268 [label="X[25] <= 0.5\ngini = 0.444\nsamples = 3\nvalue = [2, 1, 0]"] ;
267 -> 268 ;
269 [label="gini = 0.0\nsamples = 1\nvalue = [1, 0, 0]"] ;
268 -> 269 ;
270 [label="X[32] <= 1.5\ngini = 0.5\nsamples = 2\nvalue = [1, 1, 0]"] ;
268 -> 270 ;
271 [label="gini = 0.0\nsamples = 1\nvalue = [0, 1, 0]"] ;
270 -> 271 ;
272 [label="gini = 0.0\nsamples = 1\nvalue = [1, 0, 0]"] ;
270 -> 272 ;
273 [label="X[31] <= 1.5\ngini = 0.5\nsamples = 2\nvalue = [0, 1, 1]"] ;
267 -> 273 ;
274 [label="gini = 0.0\nsamples = 1\nvalue = [0, 0, 1]"] ;
273 -> 274 ;
275 [label="gini = 0.0\nsamples = 1\nvalue = [0, 1, 0]"] ;
273 -> 275 ;
276 [label="X[14] <= 1.5\ngini = 0.651\nsamples = 17\nvalue = [4, 7, 6]"] ;
260 -> 276 ;
277 [label="X[25] <= 0.5\ngini = 0.604\nsamples = 15\nvalue = [2, 7, 6]"] ;
276 -> 277 ;
278 [label="X[31] <= 0.5\ngini = 0.562\nsamples = 11\nvalue = [1, 4, 6]"] ;
277 -> 278 ;
279 [label="X[13] <= 1.5\ngini = 0.32\nsamples = 5\nvalue = [0, 1, 4]"] ;
278 -> 279 ;
280 [label="gini = 0.0\nsamples = 3\nvalue = [0, 0, 3]"] ;
279 -> 280 ;
281 [label="X[37] <= 0.5\ngini = 0.5\nsamples = 2\nvalue = [0, 1, 1]"] ;
279 -> 281 ;
282 [label="gini = 0.0\nsamples = 1\nvalue = [0, 1, 0]"] ;
281 -> 282 ;
283 [label="gini = 0.0\nsamples = 1\nvalue = [0, 0, 1]"] ;
281 -> 283 ;
284 [label="X[14] <= 0.5\ngini = 0.611\nsamples = 6\nvalue = [1, 3, 2]"] ;
278 -> 284 ;
285 [label="X[31] <= 1.5\ngini = 0.56\nsamples = 5\nvalue = [1, 3, 1]"] ;
284 -> 285 ;
286 [label="X[32] <= 0.5\ngini = 0.375\nsamples = 4\nvalue = [1, 3, 0]"] ;
285 -> 286 ;
287 [label="X[13] <= 1.5\ngini = 0.5\nsamples = 2\nvalue = [1, 1, 0]"] ;
286 -> 287 ;
288 [label="gini = 0.0\nsamples = 1\nvalue = [0, 1, 0]"] ;
287 -> 288 ;
289 [label="gini = 0.0\nsamples = 1\nvalue = [1, 0, 0]"] ;
287 -> 289 ;
290 [label="gini = 0.0\nsamples = 2\nvalue = [0, 2, 0]"] ;
286 -> 290 ;
291 [label="gini = 0.0\nsamples = 1\nvalue = [0, 0, 1]"] ;
285 -> 291 ;
292 [label="gini = 0.0\nsamples = 1\nvalue = [0, 0, 1]"] ;
284 -> 292 ;
293 [label="X[31] <= 0.5\ngini = 0.375\nsamples = 4\nvalue = [1, 3, 0]"] ;
277 -> 293 ;
294 [label="gini = 0.0\nsamples = 2\nvalue = [0, 2, 0]"] ;
293 -> 294 ;
295 [label="X[31] <= 1.5\ngini = 0.5\nsamples = 2\nvalue = [1, 1, 0]"] ;
293 -> 295 ;
296 [label="gini = 0.0\nsamples = 1\nvalue = [1, 0, 0]"] ;
295 -> 296 ;
297 [label="gini = 0.0\nsamples = 1\nvalue = [0, 1, 0]"] ;
295 -> 297 ;
298 [label="gini = 0.0\nsamples = 2\nvalue = [2, 0, 0]"] ;
276 -> 298 ;
299 [label="gini = 0.0\nsamples = 3\nvalue = [0, 0, 3]"] ;
259 -> 299 ;
300 [label="X[27] <= 1.5\ngini = 0.375\nsamples = 8\nvalue = [2, 6, 0]"] ;
258 -> 300 ;
301 [label="X[37] <= 0.5\ngini = 0.245\nsamples = 7\nvalue = [1, 6, 0]"] ;
300 -> 301 ;
302 [label="gini = 0.0\nsamples = 5\nvalue = [0, 5, 0]"] ;
301 -> 302 ;
303 [label="X[37] <= 1.5\ngini = 0.5\nsamples = 2\nvalue = [1, 1, 0]"] ;
301 -> 303 ;
304 [label="gini = 0.0\nsamples = 1\nvalue = [1, 0, 0]"] ;
303 -> 304 ;
305 [label="gini = 0.0\nsamples = 1\nvalue = [0, 1, 0]"] ;
303 -> 305 ;
306 [label="gini = 0.0\nsamples = 1\nvalue = [1, 0, 0]"] ;
300 -> 306 ;
307 [label="X[26] <= 0.5\ngini = 0.052\nsamples = 189\nvalue = [2, 3, 184]"] ;
7 -> 307 ;
308 [label="X[38] <= 0.5\ngini = 0.012\nsamples = 165\nvalue = [0, 1, 164]"] ;
307 -> 308 ;
309 [label="gini = 0.0\nsamples = 145\nvalue = [0, 0, 145]"] ;
308 -> 309 ;
310 [label="X[14] <= 0.5\ngini = 0.095\nsamples = 20\nvalue = [0, 1, 19]"] ;
308 -> 310 ;
311 [label="gini = 0.0\nsamples = 17\nvalue = [0, 0, 17]"] ;
310 -> 311 ;
312 [label="X[37] <= 1.5\ngini = 0.444\nsamples = 3\nvalue = [0, 1, 2]"] ;
310 -> 312 ;
313 [label="gini = 0.0\nsamples = 1\nvalue = [0, 0, 1]"] ;
312 -> 313 ;
314 [label="X[13] <= 1.5\ngini = 0.5\nsamples = 2\nvalue = [0, 1, 1]"] ;
312 -> 314 ;
315 [label="gini = 0.0\nsamples = 1\nvalue = [0, 0, 1]"] ;
314 -> 315 ;
316 [label="gini = 0.0\nsamples = 1\nvalue = [0, 1, 0]"] ;
314 -> 316 ;
317 [label="X[30] <= 1.5\ngini = 0.292\nsamples = 24\nvalue = [2, 2, 20]"] ;
307 -> 317 ;
318 [label="X[31] <= 0.5\ngini = 0.244\nsamples = 22\nvalue = [1, 2, 19]"] ;
317 -> 318 ;
319 [label="X[13] <= 1.5\ngini = 0.188\nsamples = 19\nvalue = [0, 2, 17]"] ;
318 -> 319 ;
320 [label="X[30] <= 0.5\ngini = 0.117\nsamples = 16\nvalue = [0, 1, 15]"] ;
319 -> 320 ;
321 [label="gini = 0.0\nsamples = 12\nvalue = [0, 0, 12]"] ;
320 -> 321 ;
322 [label="X[27] <= 0.5\ngini = 0.375\nsamples = 4\nvalue = [0, 1, 3]"] ;
320 -> 322 ;
323 [label="gini = 0.0\nsamples = 1\nvalue = [0, 1, 0]"] ;
322 -> 323 ;
324 [label="gini = 0.0\nsamples = 3\nvalue = [0, 0, 3]"] ;
322 -> 324 ;
325 [label="X[14] <= 0.5\ngini = 0.444\nsamples = 3\nvalue = [0, 1, 2]"] ;
319 -> 325 ;
326 [label="gini = 0.0\nsamples = 1\nvalue = [0, 0, 1]"] ;
325 -> 326 ;
327 [label="X[24] <= 1.5\ngini = 0.5\nsamples = 2\nvalue = [0, 1, 1]"] ;
325 -> 327 ;
328 [label="gini = 0.0\nsamples = 1\nvalue = [0, 0, 1]"] ;
327 -> 328 ;
329 [label="gini = 0.0\nsamples = 1\nvalue = [0, 1, 0]"] ;
327 -> 329 ;
330 [label="X[25] <= 1.5\ngini = 0.444\nsamples = 3\nvalue = [1, 0, 2]"] ;
318 -> 330 ;
331 [label="gini = 0.0\nsamples = 2\nvalue = [0, 0, 2]"] ;
330 -> 331 ;
332 [label="gini = 0.0\nsamples = 1\nvalue = [1, 0, 0]"] ;
330 -> 332 ;
333 [label="X[25] <= 1.5\ngini = 0.5\nsamples = 2\nvalue = [1, 0, 1]"] ;
317 -> 333 ;
334 [label="gini = 0.0\nsamples = 1\nvalue = [1, 0, 0]"] ;
333 -> 334 ;
335 [label="gini = 0.0\nsamples = 1\nvalue = [0, 0, 1]"] ;
333 -> 335 ;
336 [label="X[20] <= 1.5\ngini = 0.57\nsamples = 372\nvalue = [56, 101, 215]"] ;
6 -> 336 ;
337 [label="X[21] <= 1.5\ngini = 0.644\nsamples = 191\nvalue = [52, 87, 52]"] ;
336 -> 337 ;
338 [label="X[21] <= 0.5\ngini = 0.568\nsamples = 135\nvalue = [34, 79, 22]"] ;
337 -> 338 ;
339 [label="X[32] <= 0.5\ngini = 0.635\nsamples = 96\nvalue = [34, 43, 19]"] ;
338 -> 339 ;
340 [label="X[14] <= 0.5\ngini = 0.605\nsamples = 83\nvalue = [34, 38, 11]"] ;
339 -> 340 ;
341 [label="X[13] <= 0.5\ngini = 0.541\nsamples = 41\nvalue = [11, 25, 5]"] ;
340 -> 341 ;
342 [label="X[30] <= 0.5\ngini = 0.62\nsamples = 19\nvalue = [8, 8, 3]"] ;
341 -> 342 ;
343 [label="X[26] <= 1.5\ngini = 0.32\nsamples = 5\nvalue = [4, 0, 1]"] ;
342 -> 343 ;
344 [label="gini = 0.0\nsamples = 4\nvalue = [4, 0, 0]"] ;
343 -> 344 ;
345 [label="gini = 0.0\nsamples = 1\nvalue = [0, 0, 1]"] ;
343 -> 345 ;
346 [label="X[30] <= 1.5\ngini = 0.571\nsamples = 14\nvalue = [4, 8, 2]"] ;
342 -> 346 ;
347 [label="X[25] <= 1.5\ngini = 0.494\nsamples = 9\nvalue = [1, 6, 2]"] ;
346 -> 347 ;
348 [label="X[31] <= 1.0\ngini = 0.278\nsamples = 6\nvalue = [0, 5, 1]"] ;
347 -> 348 ;
349 [label="gini = 0.0\nsamples = 3\nvalue = [0, 3, 0]"] ;
348 -> 349 ;
350 [label="X[36] <= 0.5\ngini = 0.444\nsamples = 3\nvalue = [0, 2, 1]"] ;
348 -> 350 ;
351 [label="gini = 0.0\nsamples = 1\nvalue = [0, 1, 0]"] ;
350 -> 351 ;
352 [label="X[37] <= 1.0\ngini = 0.5\nsamples = 2\nvalue = [0, 1, 1]"] ;
350 -> 352 ;
353 [label="gini = 0.0\nsamples = 1\nvalue = [0, 0, 1]"] ;
352 -> 353 ;
354 [label="gini = 0.0\nsamples = 1\nvalue = [0, 1, 0]"] ;
352 -> 354 ;
355 [label="X[31] <= 0.5\ngini = 0.667\nsamples = 3\nvalue = [1, 1, 1]"] ;
347 -> 355 ;
356 [label="X[26] <= 0.5\ngini = 0.5\nsamples = 2\nvalue = [1, 0, 1]"] ;
355 -> 356 ;
357 [label="gini = 0.0\nsamples = 1\nvalue = [0, 0, 1]"] ;
356 -> 357 ;
358 [label="gini = 0.0\nsamples = 1\nvalue = [1, 0, 0]"] ;
356 -> 358 ;
359 [label="gini = 0.0\nsamples = 1\nvalue = [0, 1, 0]"] ;
355 -> 359 ;
360 [label="X[24] <= 1.0\ngini = 0.48\nsamples = 5\nvalue = [3, 2, 0]"] ;
346 -> 360 ;
361 [label="gini = 0.0\nsamples = 2\nvalue = [2, 0, 0]"] ;
360 -> 361 ;
362 [label="X[25] <= 0.5\ngini = 0.444\nsamples = 3\nvalue = [1, 2, 0]"] ;
360 -> 362 ;
363 [label="gini = 0.0\nsamples = 2\nvalue = [0, 2, 0]"] ;
362 -> 363 ;
364 [label="gini = 0.0\nsamples = 1\nvalue = [1, 0, 0]"] ;
362 -> 364 ;
365 [label="X[26] <= 1.5\ngini = 0.376\nsamples = 22\nvalue = [3, 17, 2]"] ;
341 -> 365 ;
366 [label="X[37] <= 0.5\ngini = 0.322\nsamples = 21\nvalue = [3, 17, 1]"] ;
365 -> 366 ;
367 [label="X[24] <= 1.5\ngini = 0.142\nsamples = 13\nvalue = [0, 12, 1]"] ;
366 -> 367 ;
368 [label="X[31] <= 0.5\ngini = 0.375\nsamples = 4\nvalue = [0, 3, 1]"] ;
367 -> 368 ;
369 [label="gini = 0.0\nsamples = 1\nvalue = [0, 0, 1]"] ;
368 -> 369 ;
370 [label="gini = 0.0\nsamples = 3\nvalue = [0, 3, 0]"] ;
368 -> 370 ;
371 [label="gini = 0.0\nsamples = 9\nvalue = [0, 9, 0]"] ;
367 -> 371 ;
372 [label="X[24] <= 0.5\ngini = 0.469\nsamples = 8\nvalue = [3, 5, 0]"] ;
366 -> 372 ;
373 [label="X[30] <= 1.5\ngini = 0.32\nsamples = 5\nvalue = [1, 4, 0]"] ;
372 -> 373 ;
374 [label="gini = 0.0\nsamples = 3\nvalue = [0, 3, 0]"] ;
373 -> 374 ;
375 [label="X[37] <= 1.5\ngini = 0.5\nsamples = 2\nvalue = [1, 1, 0]"] ;
373 -> 375 ;
376 [label="gini = 0.0\nsamples = 1\nvalue = [1, 0, 0]"] ;
375 -> 376 ;
377 [label="gini = 0.0\nsamples = 1\nvalue = [0, 1, 0]"] ;
375 -> 377 ;
378 [label="X[13] <= 1.5\ngini = 0.444\nsamples = 3\nvalue = [2, 1, 0]"] ;
372 -> 378 ;
379 [label="gini = 0.0\nsamples = 1\nvalue = [0, 1, 0]"] ;
378 -> 379 ;
380 [label="gini = 0.0\nsamples = 2\nvalue = [2, 0, 0]"] ;
378 -> 380 ;
381 [label="gini = 0.0\nsamples = 1\nvalue = [0, 0, 1]"] ;
365 -> 381 ;
382 [label="X[19] <= 1.5\ngini = 0.584\nsamples = 42\nvalue = [23, 13, 6]"] ;
340 -> 382 ;
383 [label="X[31] <= 1.0\ngini = 0.278\nsamples = 6\nvalue = [0, 5, 1]"] ;
382 -> 383 ;
384 [label="gini = 0.0\nsamples = 5\nvalue = [0, 5, 0]"] ;
383 -> 384 ;
385 [label="gini = 0.0\nsamples = 1\nvalue = [0, 0, 1]"] ;
383 -> 385 ;
386 [label="X[31] <= 1.5\ngini = 0.523\nsamples = 36\nvalue = [23, 8, 5]"] ;
382 -> 386 ;
387 [label="X[30] <= 1.5\ngini = 0.486\nsamples = 34\nvalue = [23, 7, 4]"] ;
386 -> 387 ;
388 [label="X[15] <= 1.5\ngini = 0.412\nsamples = 27\nvalue = [20, 5, 2]"] ;
387 -> 388 ;
389 [label="X[13] <= 1.5\ngini = 0.32\nsamples = 20\nvalue = [16, 4, 0]"] ;
388 -> 389 ;
390 [label="gini = 0.0\nsamples = 7\nvalue = [7, 0, 0]"] ;
389 -> 390 ;
391 [label="X[37] <= 0.5\ngini = 0.426\nsamples = 13\nvalue = [9, 4, 0]"] ;
389 -> 391 ;
392 [label="X[31] <= 0.5\ngini = 0.463\nsamples = 11\nvalue = [7, 4, 0]"] ;
391 -> 392 ;
393 [label="X[24] <= 0.5\ngini = 0.48\nsamples = 10\nvalue = [6, 4, 0]"] ;
392 -> 393 ;
394 [label="X[15] <= 0.5\ngini = 0.444\nsamples = 3\nvalue = [1, 2, 0]"] ;
393 -> 394 ;
395 [label="gini = 0.0\nsamples = 1\nvalue = [1, 0, 0]"] ;
394 -> 395 ;
396 [label="gini = 0.0\nsamples = 2\nvalue = [0, 2, 0]"] ;
394 -> 396 ;
397 [label="X[24] <= 1.5\ngini = 0.408\nsamples = 7\nvalue = [5, 2, 0]"] ;
393 -> 397 ;
398 [label="gini = 0.0\nsamples = 3\nvalue = [3, 0, 0]"] ;
397 -> 398 ;
399 [label="X[15] <= 0.5\ngini = 0.5\nsamples = 4\nvalue = [2, 2, 0]"] ;
397 -> 399 ;
400 [label="X[36] <= 0.5\ngini = 0.444\nsamples = 3\nvalue = [1, 2, 0]"] ;
399 -> 400 ;
401 [label="gini = 0.0\nsamples = 2\nvalue = [0, 2, 0]"] ;
400 -> 401 ;
402 [label="gini = 0.0\nsamples = 1\nvalue = [1, 0, 0]"] ;
400 -> 402 ;
403 [label="gini = 0.0\nsamples = 1\nvalue = [1, 0, 0]"] ;
399 -> 403 ;
404 [label="gini = 0.0\nsamples = 1\nvalue = [1, 0, 0]"] ;
392 -> 404 ;
405 [label="gini = 0.0\nsamples = 2\nvalue = [2, 0, 0]"] ;
391 -> 405 ;
406 [label="X[14] <= 1.5\ngini = 0.571\nsamples = 7\nvalue = [4, 1, 2]"] ;
388 -> 406 ;
407 [label="gini = 0.0\nsamples = 4\nvalue = [4, 0, 0]"] ;
406 -> 407 ;
408 [label="X[16] <= 0.5\ngini = 0.444\nsamples = 3\nvalue = [0, 1, 2]"] ;
406 -> 408 ;
409 [label="gini = 0.0\nsamples = 2\nvalue = [0, 0, 2]"] ;
408 -> 409 ;
410 [label="gini = 0.0\nsamples = 1\nvalue = [0, 1, 0]"] ;
408 -> 410 ;
411 [label="X[24] <= 0.5\ngini = 0.653\nsamples = 7\nvalue = [3, 2, 2]"] ;
387 -> 411 ;
412 [label="X[36] <= 0.5\ngini = 0.48\nsamples = 5\nvalue = [3, 2, 0]"] ;
411 -> 412 ;
413 [label="X[14] <= 1.5\ngini = 0.444\nsamples = 3\nvalue = [1, 2, 0]"] ;
412 -> 413 ;
414 [label="gini = 0.0\nsamples = 2\nvalue = [0, 2, 0]"] ;
413 -> 414 ;
415 [label="gini = 0.0\nsamples = 1\nvalue = [1, 0, 0]"] ;
413 -> 415 ;
416 [label="gini = 0.0\nsamples = 2\nvalue = [2, 0, 0]"] ;
412 -> 416 ;
417 [label="gini = 0.0\nsamples = 2\nvalue = [0, 0, 2]"] ;
411 -> 417 ;
418 [label="X[14] <= 1.5\ngini = 0.5\nsamples = 2\nvalue = [0, 1, 1]"] ;
386 -> 418 ;
419 [label="gini = 0.0\nsamples = 1\nvalue = [0, 1, 0]"] ;
418 -> 419 ;
420 [label="gini = 0.0\nsamples = 1\nvalue = [0, 0, 1]"] ;
418 -> 420 ;
421 [label="X[31] <= 1.5\ngini = 0.473\nsamples = 13\nvalue = [0, 5, 8]"] ;
339 -> 421 ;
422 [label="X[36] <= 0.5\ngini = 0.408\nsamples = 7\nvalue = [0, 5, 2]"] ;
421 -> 422 ;
423 [label="X[30] <= 1.5\ngini = 0.278\nsamples = 6\nvalue = [0, 5, 1]"] ;
422 -> 423 ;
424 [label="X[24] <= 1.0\ngini = 0.5\nsamples = 2\nvalue = [0, 1, 1]"] ;
423 -> 424 ;
425 [label="gini = 0.0\nsamples = 1\nvalue = [0, 0, 1]"] ;
424 -> 425 ;
426 [label="gini = 0.0\nsamples = 1\nvalue = [0, 1, 0]"] ;
424 -> 426 ;
427 [label="gini = 0.0\nsamples = 4\nvalue = [0, 4, 0]"] ;
423 -> 427 ;
428 [label="gini = 0.0\nsamples = 1\nvalue = [0, 0, 1]"] ;
422 -> 428 ;
429 [label="gini = 0.0\nsamples = 6\nvalue = [0, 0, 6]"] ;
421 -> 429 ;
430 [label="X[32] <= 1.0\ngini = 0.142\nsamples = 39\nvalue = [0, 36, 3]"] ;
338 -> 430 ;
431 [label="X[15] <= 1.5\ngini = 0.1\nsamples = 38\nvalue = [0, 36, 2]"] ;
430 -> 431 ;
432 [label="X[26] <= 0.5\ngini = 0.054\nsamples = 36\nvalue = [0, 35, 1]"] ;
431 -> 432 ;
433 [label="gini = 0.0\nsamples = 34\nvalue = [0, 34, 0]"] ;
432 -> 433 ;
434 [label="X[25] <= 1.5\ngini = 0.5\nsamples = 2\nvalue = [0, 1, 1]"] ;
432 -> 434 ;
435 [label="gini = 0.0\nsamples = 1\nvalue = [0, 1, 0]"] ;
434 -> 435 ;
436 [label="gini = 0.0\nsamples = 1\nvalue = [0, 0, 1]"] ;
434 -> 436 ;
437 [label="X[13] <= 1.5\ngini = 0.5\nsamples = 2\nvalue = [0, 1, 1]"] ;
431 -> 437 ;
438 [label="gini = 0.0\nsamples = 1\nvalue = [0, 0, 1]"] ;
437 -> 438 ;
439 [label="gini = 0.0\nsamples = 1\nvalue = [0, 1, 0]"] ;
437 -> 439 ;
440 [label="gini = 0.0\nsamples = 1\nvalue = [0, 0, 1]"] ;
430 -> 440 ;
441 [label="X[22] <= 1.5\ngini = 0.589\nsamples = 56\nvalue = [18, 8, 30]"] ;
337 -> 441 ;
442 [label="X[22] <= 0.5\ngini = 0.625\nsamples = 47\nvalue = [18, 8, 21]"] ;
441 -> 442 ;
443 [label="X[24] <= 1.5\ngini = 0.533\nsamples = 31\nvalue = [11, 2, 18]"] ;
442 -> 443 ;
444 [label="X[30] <= 1.5\ngini = 0.386\nsamples = 23\nvalue = [6, 0, 17]"] ;
443 -> 444 ;
445 [label="X[15] <= 0.5\ngini = 0.266\nsamples = 19\nvalue = [3, 0, 16]"] ;
444 -> 445 ;
446 [label="X[25] <= 0.5\ngini = 0.117\nsamples = 16\nvalue = [1, 0, 15]"] ;
445 -> 446 ;
447 [label="gini = 0.0\nsamples = 15\nvalue = [0, 0, 15]"] ;
446 -> 447 ;
448 [label="gini = 0.0\nsamples = 1\nvalue = [1, 0, 0]"] ;
446 -> 448 ;
449 [label="X[13] <= 1.5\ngini = 0.444\nsamples = 3\nvalue = [2, 0, 1]"] ;
445 -> 449 ;
450 [label="gini = 0.0\nsamples = 1\nvalue = [0, 0, 1]"] ;
449 -> 450 ;
451 [label="gini = 0.0\nsamples = 2\nvalue = [2, 0, 0]"] ;
449 -> 451 ;
452 [label="X[31] <= 0.5\ngini = 0.375\nsamples = 4\nvalue = [3, 0, 1]"] ;
444 -> 452 ;
453 [label="gini = 0.0\nsamples = 2\nvalue = [2, 0, 0]"] ;
452 -> 453 ;
454 [label="X[36] <= 0.5\ngini = 0.5\nsamples = 2\nvalue = [1, 0, 1]"] ;
452 -> 454 ;
455 [label="gini = 0.0\nsamples = 1\nvalue = [1, 0, 0]"] ;
454 -> 455 ;
456 [label="gini = 0.0\nsamples = 1\nvalue = [0, 0, 1]"] ;
454 -> 456 ;
457 [label="X[30] <= 0.5\ngini = 0.531\nsamples = 8\nvalue = [5, 2, 1]"] ;
443 -> 457 ;
458 [label="gini = 0.0\nsamples = 4\nvalue = [4, 0, 0]"] ;
457 -> 458 ;
459 [label="X[36] <= 0.5\ngini = 0.625\nsamples = 4\nvalue = [1, 2, 1]"] ;
457 -> 459 ;
460 [label="X[13] <= 0.5\ngini = 0.444\nsamples = 3\nvalue = [1, 2, 0]"] ;
459 -> 460 ;
461 [label="gini = 0.0\nsamples = 2\nvalue = [0, 2, 0]"] ;
460 -> 461 ;
462 [label="gini = 0.0\nsamples = 1\nvalue = [1, 0, 0]"] ;
460 -> 462 ;
463 [label="gini = 0.0\nsamples = 1\nvalue = [0, 0, 1]"] ;
459 -> 463 ;
464 [label="X[30] <= 0.5\ngini = 0.633\nsamples = 16\nvalue = [7, 6, 3]"] ;
442 -> 464 ;
465 [label="X[13] <= 1.5\ngini = 0.494\nsamples = 9\nvalue = [6, 2, 1]"] ;
464 -> 465 ;
466 [label="X[24] <= 1.5\ngini = 0.278\nsamples = 6\nvalue = [5, 0, 1]"] ;
465 -> 466 ;
467 [label="gini = 0.0\nsamples = 4\nvalue = [4, 0, 0]"] ;
466 -> 467 ;
468 [label="X[36] <= 0.5\ngini = 0.5\nsamples = 2\nvalue = [1, 0, 1]"] ;
466 -> 468 ;
469 [label="gini = 0.0\nsamples = 1\nvalue = [0, 0, 1]"] ;
468 -> 469 ;
470 [label="gini = 0.0\nsamples = 1\nvalue = [1, 0, 0]"] ;
468 -> 470 ;
471 [label="X[24] <= 0.5\ngini = 0.444\nsamples = 3\nvalue = [1, 2, 0]"] ;
465 -> 471 ;
472 [label="gini = 0.0\nsamples = 2\nvalue = [0, 2, 0]"] ;
471 -> 472 ;
473 [label="gini = 0.0\nsamples = 1\nvalue = [1, 0, 0]"] ;
471 -> 473 ;
474 [label="X[30] <= 1.5\ngini = 0.571\nsamples = 7\nvalue = [1, 4, 2]"] ;
464 -> 474 ;
475 [label="gini = 0.0\nsamples = 3\nvalue = [0, 3, 0]"] ;
474 -> 475 ;
476 [label="X[31] <= 0.5\ngini = 0.625\nsamples = 4\nvalue = [1, 1, 2]"] ;
474 -> 476 ;
477 [label="X[36] <= 0.5\ngini = 0.444\nsamples = 3\nvalue = [1, 0, 2]"] ;
476 -> 477 ;
478 [label="gini = 0.0\nsamples = 2\nvalue = [0, 0, 2]"] ;
477 -> 478 ;
479 [label="gini = 0.0\nsamples = 1\nvalue = [1, 0, 0]"] ;
477 -> 479 ;
480 [label="gini = 0.0\nsamples = 1\nvalue = [0, 1, 0]"] ;
476 -> 480 ;
481 [label="gini = 0.0\nsamples = 9\nvalue = [0, 0, 9]"] ;
441 -> 481 ;
482 [label="X[23] <= 1.5\ngini = 0.183\nsamples = 181\nvalue = [4, 14, 163]"] ;
336 -> 482 ;
483 [label="X[33] <= 0.5\ngini = 0.158\nsamples = 176\nvalue = [2, 13, 161]"] ;
482 -> 483 ;
484 [label="X[24] <= 1.5\ngini = 0.148\nsamples = 175\nvalue = [1, 13, 161]"] ;
483 -> 484 ;
485 [label="X[32] <= 1.5\ngini = 0.08\nsamples = 120\nvalue = [0, 5, 115]"] ;
484 -> 485 ;
486 [label="X[37] <= 1.5\ngini = 0.066\nsamples = 117\nvalue = [0, 4, 113]"] ;
485 -> 486 ;
487 [label="X[14] <= 0.5\ngini = 0.037\nsamples = 106\nvalue = [0, 2, 104]"] ;
486 -> 487 ;
488 [label="gini = 0.0\nsamples = 63\nvalue = [0, 0, 63]"] ;
487 -> 488 ;
489 [label="X[30] <= 1.5\ngini = 0.089\nsamples = 43\nvalue = [0, 2, 41]"] ;
487 -> 489 ;
490 [label="X[36] <= 0.5\ngini = 0.057\nsamples = 34\nvalue = [0, 1, 33]"] ;
489 -> 490 ;
491 [label="gini = 0.0\nsamples = 26\nvalue = [0, 0, 26]"] ;
490 -> 491 ;
492 [label="X[13] <= 1.5\ngini = 0.219\nsamples = 8\nvalue = [0, 1, 7]"] ;
490 -> 492 ;
493 [label="X[19] <= 1.5\ngini = 0.5\nsamples = 2\nvalue = [0, 1, 1]"] ;
492 -> 493 ;
494 [label="gini = 0.0\nsamples = 1\nvalue = [0, 1, 0]"] ;
493 -> 494 ;
495 [label="gini = 0.0\nsamples = 1\nvalue = [0, 0, 1]"] ;
493 -> 495 ;
496 [label="gini = 0.0\nsamples = 6\nvalue = [0, 0, 6]"] ;
492 -> 496 ;
497 [label="X[15] <= 0.5\ngini = 0.198\nsamples = 9\nvalue = [0, 1, 8]"] ;
489 -> 497 ;
498 [label="gini = 0.0\nsamples = 7\nvalue = [0, 0, 7]"] ;
497 -> 498 ;
499 [label="X[13] <= 1.5\ngini = 0.5\nsamples = 2\nvalue = [0, 1, 1]"] ;
497 -> 499 ;
500 [label="gini = 0.0\nsamples = 1\nvalue = [0, 0, 1]"] ;
499 -> 500 ;
501 [label="gini = 0.0\nsamples = 1\nvalue = [0, 1, 0]"] ;
499 -> 501 ;
502 [label="X[13] <= 0.5\ngini = 0.298\nsamples = 11\nvalue = [0, 2, 9]"] ;
486 -> 502 ;
503 [label="gini = 0.0\nsamples = 5\nvalue = [0, 0, 5]"] ;
502 -> 503 ;
504 [label="X[13] <= 1.5\ngini = 0.444\nsamples = 6\nvalue = [0, 2, 4]"] ;
502 -> 504 ;
505 [label="gini = 0.0\nsamples = 2\nvalue = [0, 2, 0]"] ;
504 -> 505 ;
506 [label="gini = 0.0\nsamples = 4\nvalue = [0, 0, 4]"] ;
504 -> 506 ;
507 [label="X[36] <= 0.5\ngini = 0.444\nsamples = 3\nvalue = [0, 1, 2]"] ;
485 -> 507 ;
508 [label="gini = 0.0\nsamples = 2\nvalue = [0, 0, 2]"] ;
507 -> 508 ;
509 [label="gini = 0.0\nsamples = 1\nvalue = [0, 1, 0]"] ;
507 -> 509 ;
510 [label="X[30] <= 1.5\ngini = 0.279\nsamples = 55\nvalue = [1, 8, 46]"] ;
484 -> 510 ;
511 [label="X[22] <= 1.5\ngini = 0.211\nsamples = 51\nvalue = [1, 5, 45]"] ;
510 -> 511 ;
512 [label="X[15] <= 0.5\ngini = 0.12\nsamples = 47\nvalue = [0, 3, 44]"] ;
511 -> 512 ;
513 [label="X[37] <= 1.5\ngini = 0.085\nsamples = 45\nvalue = [0, 2, 43]"] ;
512 -> 513 ;
514 [label="X[25] <= 1.5\ngini = 0.046\nsamples = 42\nvalue = [0, 1, 41]"] ;
513 -> 514 ;
515 [label="gini = 0.0\nsamples = 35\nvalue = [0, 0, 35]"] ;
514 -> 515 ;
516 [label="X[26] <= 0.5\ngini = 0.245\nsamples = 7\nvalue = [0, 1, 6]"] ;
514 -> 516 ;
517 [label="gini = 0.0\nsamples = 5\nvalue = [0, 0, 5]"] ;
516 -> 517 ;
518 [label="X[13] <= 0.5\ngini = 0.5\nsamples = 2\nvalue = [0, 1, 1]"] ;
516 -> 518 ;
519 [label="gini = 0.0\nsamples = 1\nvalue = [0, 0, 1]"] ;
518 -> 519 ;
520 [label="gini = 0.0\nsamples = 1\nvalue = [0, 1, 0]"] ;
518 -> 520 ;
521 [label="X[13] <= 0.5\ngini = 0.444\nsamples = 3\nvalue = [0, 1, 2]"] ;
513 -> 521 ;
522 [label="gini = 0.0\nsamples = 2\nvalue = [0, 0, 2]"] ;
521 -> 522 ;
523 [label="gini = 0.0\nsamples = 1\nvalue = [0, 1, 0]"] ;
521 -> 523 ;
524 [label="X[13] <= 1.5\ngini = 0.5\nsamples = 2\nvalue = [0, 1, 1]"] ;
512 -> 524 ;
525 [label="gini = 0.0\nsamples = 1\nvalue = [0, 0, 1]"] ;
524 -> 525 ;
526 [label="gini = 0.0\nsamples = 1\nvalue = [0, 1, 0]"] ;
524 -> 526 ;
527 [label="X[36] <= 0.5\ngini = 0.625\nsamples = 4\nvalue = [1, 2, 1]"] ;
511 -> 527 ;
528 [label="X[25] <= 0.5\ngini = 0.444\nsamples = 3\nvalue = [1, 2, 0]"] ;
527 -> 528 ;
529 [label="gini = 0.0\nsamples = 2\nvalue = [0, 2, 0]"] ;
528 -> 529 ;
530 [label="gini = 0.0\nsamples = 1\nvalue = [1, 0, 0]"] ;
528 -> 530 ;
531 [label="gini = 0.0\nsamples = 1\nvalue = [0, 0, 1]"] ;
527 -> 531 ;
532 [label="X[37] <= 0.5\ngini = 0.375\nsamples = 4\nvalue = [0, 3, 1]"] ;
510 -> 532 ;
533 [label="gini = 0.0\nsamples = 3\nvalue = [0, 3, 0]"] ;
532 -> 533 ;
534 [label="gini = 0.0\nsamples = 1\nvalue = [0, 0, 1]"] ;
532 -> 534 ;
535 [label="gini = 0.0\nsamples = 1\nvalue = [1, 0, 0]"] ;
483 -> 535 ;
536 [label="X[36] <= 0.5\ngini = 0.64\nsamples = 5\nvalue = [2, 1, 2]"] ;
482 -> 536 ;
537 [label="X[13] <= 0.5\ngini = 0.444\nsamples = 3\nvalue = [0, 1, 2]"] ;
536 -> 537 ;
538 [label="gini = 0.0\nsamples = 2\nvalue = [0, 0, 2]"] ;
537 -> 538 ;
539 [label="gini = 0.0\nsamples = 1\nvalue = [0, 1, 0]"] ;
537 -> 539 ;
540 [label="gini = 0.0\nsamples = 2\nvalue = [2, 0, 0]"] ;
536 -> 540 ;
541 [label="X[23] <= 1.5\ngini = 0.128\nsamples = 1507\nvalue = [57, 45, 1405]"] ;
5 -> 541 ;
542 [label="X[37] <= 1.5\ngini = 0.122\nsamples = 1496\nvalue = [54, 42, 1400]"] ;
541 -> 542 ;
543 [label="X[17] <= 1.5\ngini = 0.095\nsamples = 1273\nvalue = [33, 30, 1210]"] ;
542 -> 543 ;
544 [label="X[20] <= 0.5\ngini = 0.094\nsamples = 1272\nvalue = [32, 30, 1210]"] ;
543 -> 544 ;
545 [label="X[34] <= 1.5\ngini = 0.057\nsamples = 861\nvalue = [20, 5, 836]"] ;
544 -> 545 ;
546 [label="X[19] <= 1.5\ngini = 0.055\nsamples = 858\nvalue = [19, 5, 834]"] ;
545 -> 546 ;
547 [label="X[19] <= 0.5\ngini = 0.076\nsamples = 588\nvalue = [18, 5, 565]"] ;
546 -> 547 ;
548 [label="X[14] <= 0.5\ngini = 0.052\nsamples = 525\nvalue = [13, 1, 511]"] ;
547 -> 548 ;
549 [label="X[24] <= 0.5\ngini = 0.035\nsamples = 390\nvalue = [6, 1, 383]"] ;
548 -> 549 ;
550 [label="gini = 0.0\nsamples = 165\nvalue = [0, 0, 165]"] ;
549 -> 550 ;
551 [label="X[30] <= 1.5\ngini = 0.061\nsamples = 225\nvalue = [6, 1, 218]"] ;
549 -> 551 ;
552 [label="X[10] <= 1.5\ngini = 0.021\nsamples = 190\nvalue = [1, 1, 188]"] ;
551 -> 552 ;
553 [label="X[26] <= 1.5\ngini = 0.011\nsamples = 173\nvalue = [1, 0, 172]"] ;
552 -> 553 ;
554 [label="gini = 0.0\nsamples = 141\nvalue = [0, 0, 141]"] ;
553 -> 554 ;
555 [label="X[7] <= 1.5\ngini = 0.061\nsamples = 32\nvalue = [1, 0, 31]"] ;
553 -> 555 ;
556 [label="gini = 0.0\nsamples = 23\nvalue = [0, 0, 23]"] ;
555 -> 556 ;
557 [label="X[27] <= 0.5\ngini = 0.198\nsamples = 9\nvalue = [1, 0, 8]"] ;
555 -> 557 ;
558 [label="gini = 0.0\nsamples = 7\nvalue = [0, 0, 7]"] ;
557 -> 558 ;
559 [label="X[12] <= 0.5\ngini = 0.5\nsamples = 2\nvalue = [1, 0, 1]"] ;
557 -> 559 ;
560 [label="gini = 0.0\nsamples = 1\nvalue = [1, 0, 0]"] ;
559 -> 560 ;
561 [label="gini = 0.0\nsamples = 1\nvalue = [0, 0, 1]"] ;
559 -> 561 ;
562 [label="X[30] <= 0.5\ngini = 0.111\nsamples = 17\nvalue = [0, 1, 16]"] ;
552 -> 562 ;
563 [label="gini = 0.0\nsamples = 14\nvalue = [0, 0, 14]"] ;
562 -> 563 ;
564 [label="X[8] <= 1.5\ngini = 0.444\nsamples = 3\nvalue = [0, 1, 2]"] ;
562 -> 564 ;
565 [label="gini = 0.0\nsamples = 2\nvalue = [0, 0, 2]"] ;
564 -> 565 ;
566 [label="gini = 0.0\nsamples = 1\nvalue = [0, 1, 0]"] ;
564 -> 566 ;
567 [label="X[10] <= 0.5\ngini = 0.245\nsamples = 35\nvalue = [5, 0, 30]"] ;
551 -> 567 ;
568 [label="X[26] <= 0.5\ngini = 0.17\nsamples = 32\nvalue = [3, 0, 29]"] ;
567 -> 568 ;
569 [label="X[32] <= 1.5\ngini = 0.124\nsamples = 30\nvalue = [2, 0, 28]"] ;
568 -> 569 ;
570 [label="X[7] <= 1.5\ngini = 0.071\nsamples = 27\nvalue = [1, 0, 26]"] ;
569 -> 570 ;
571 [label="gini = 0.0\nsamples = 20\nvalue = [0, 0, 20]"] ;
570 -> 571 ;
572 [label="X[31] <= 0.5\ngini = 0.245\nsamples = 7\nvalue = [1, 0, 6]"] ;
570 -> 572 ;
573 [label="gini = 0.0\nsamples = 4\nvalue = [0, 0, 4]"] ;
572 -> 573 ;
574 [label="X[24] <= 1.5\ngini = 0.444\nsamples = 3\nvalue = [1, 0, 2]"] ;
572 -> 574 ;
575 [label="gini = 0.0\nsamples = 2\nvalue = [0, 0, 2]"] ;
574 -> 575 ;
576 [label="gini = 0.0\nsamples = 1\nvalue = [1, 0, 0]"] ;
574 -> 576 ;
577 [label="X[36] <= 0.5\ngini = 0.444\nsamples = 3\nvalue = [1, 0, 2]"] ;
569 -> 577 ;
578 [label="gini = 0.0\nsamples = 2\nvalue = [0, 0, 2]"] ;
577 -> 578 ;
579 [label="gini = 0.0\nsamples = 1\nvalue = [1, 0, 0]"] ;
577 -> 579 ;
580 [label="X[26] <= 1.5\ngini = 0.5\nsamples = 2\nvalue = [1, 0, 1]"] ;
568 -> 580 ;
581 [label="gini = 0.0\nsamples = 1\nvalue = [1, 0, 0]"] ;
580 -> 581 ;
582 [label="gini = 0.0\nsamples = 1\nvalue = [0, 0, 1]"] ;
580 -> 582 ;
583 [label="X[8] <= 1.5\ngini = 0.444\nsamples = 3\nvalue = [2, 0, 1]"] ;
567 -> 583 ;
584 [label="gini = 0.0\nsamples = 1\nvalue = [0, 0, 1]"] ;
583 -> 584 ;
585 [label="gini = 0.0\nsamples = 2\nvalue = [2, 0, 0]"] ;
583 -> 585 ;
586 [label="X[14] <= 1.5\ngini = 0.098\nsamples = 135\nvalue = [7, 0, 128]"] ;
548 -> 586 ;
587 [label="X[15] <= 1.5\ngini = 0.237\nsamples = 51\nvalue = [7, 0, 44]"] ;
586 -> 587 ;
588 [label="X[25] <= 1.5\ngini = 0.342\nsamples = 32\nvalue = [7, 0, 25]"] ;
587 -> 588 ;
589 [label="X[36] <= 0.5\ngini = 0.393\nsamples = 26\nvalue = [7, 0, 19]"] ;
588 -> 589 ;
590 [label="X[30] <= 1.5\ngini = 0.351\nsamples = 22\nvalue = [5, 0, 17]"] ;
589 -> 590 ;
591 [label="X[15] <= 0.5\ngini = 0.486\nsamples = 12\nvalue = [5, 0, 7]"] ;
590 -> 591 ;
592 [label="X[7] <= 1.5\ngini = 0.42\nsamples = 10\nvalue = [3, 0, 7]"] ;
591 -> 592 ;
593 [label="gini = 0.0\nsamples = 3\nvalue = [0, 0, 3]"] ;
592 -> 593 ;
594 [label="X[25] <= 0.5\ngini = 0.49\nsamples = 7\nvalue = [3, 0, 4]"] ;
592 -> 594 ;
595 [label="X[30] <= 0.5\ngini = 0.444\nsamples = 6\nvalue = [2, 0, 4]"] ;
594 -> 595 ;
596 [label="gini = 0.0\nsamples = 3\nvalue = [0, 0, 3]"] ;
595 -> 596 ;
597 [label="X[24] <= 1.0\ngini = 0.444\nsamples = 3\nvalue = [2, 0, 1]"] ;
595 -> 597 ;
598 [label="gini = 0.0\nsamples = 2\nvalue = [2, 0, 0]"] ;
597 -> 598 ;
599 [label="gini = 0.0\nsamples = 1\nvalue = [0, 0, 1]"] ;
597 -> 599 ;
600 [label="gini = 0.0\nsamples = 1\nvalue = [1, 0, 0]"] ;
594 -> 600 ;
601 [label="gini = 0.0\nsamples = 2\nvalue = [2, 0, 0]"] ;
591 -> 601 ;
602 [label="gini = 0.0\nsamples = 10\nvalue = [0, 0, 10]"] ;
590 -> 602 ;
603 [label="X[7] <= 1.0\ngini = 0.5\nsamples = 4\nvalue = [2, 0, 2]"] ;
589 -> 603 ;
604 [label="gini = 0.0\nsamples = 2\nvalue = [2, 0, 0]"] ;
603 -> 604 ;
605 [label="gini = 0.0\nsamples = 2\nvalue = [0, 0, 2]"] ;
603 -> 605 ;
606 [label="gini = 0.0\nsamples = 6\nvalue = [0, 0, 6]"] ;
588 -> 606 ;
607 [label="gini = 0.0\nsamples = 19\nvalue = [0, 0, 19]"] ;
587 -> 607 ;
608 [label="gini = 0.0\nsamples = 84\nvalue = [0, 0, 84]"] ;
586 -> 608 ;
609 [label="X[11] <= 1.5\ngini = 0.255\nsamples = 63\nvalue = [5, 4, 54]"] ;
547 -> 609 ;
610 [label="X[9] <= 1.5\ngini = 0.233\nsamples = 62\nvalue = [4, 4, 54]"] ;
609 -> 610 ;
611 [label="X[32] <= 1.5\ngini = 0.132\nsamples = 43\nvalue = [2, 1, 40]"] ;
610 -> 611 ;
612 [label="X[15] <= 1.5\ngini = 0.093\nsamples = 41\nvalue = [2, 0, 39]"] ;
611 -> 612 ;
613 [label="X[14] <= 0.5\ngini = 0.053\nsamples = 37\nvalue = [1, 0, 36]"] ;
612 -> 613 ;
614 [label="gini = 0.0\nsamples = 26\nvalue = [0, 0, 26]"] ;
613 -> 614 ;
615 [label="X[14] <= 1.5\ngini = 0.165\nsamples = 11\nvalue = [1, 0, 10]"] ;
613 -> 615 ;
616 [label="gini = 0.0\nsamples = 1\nvalue = [1, 0, 0]"] ;
615 -> 616 ;
617 [label="gini = 0.0\nsamples = 10\nvalue = [0, 0, 10]"] ;
615 -> 617 ;
618 [label="X[7] <= 1.0\ngini = 0.375\nsamples = 4\nvalue = [1, 0, 3]"] ;
612 -> 618 ;
619 [label="gini = 0.0\nsamples = 3\nvalue = [0, 0, 3]"] ;
618 -> 619 ;
620 [label="gini = 0.0\nsamples = 1\nvalue = [1, 0, 0]"] ;
618 -> 620 ;
621 [label="X[30] <= 1.5\ngini = 0.5\nsamples = 2\nvalue = [0, 1, 1]"] ;
611 -> 621 ;
622 [label="gini = 0.0\nsamples = 1\nvalue = [0, 1, 0]"] ;
621 -> 622 ;
623 [label="gini = 0.0\nsamples = 1\nvalue = [0, 0, 1]"] ;
621 -> 623 ;
624 [label="X[24] <= 1.5\ngini = 0.421\nsamples = 19\nvalue = [2, 3, 14]"] ;
610 -> 624 ;
625 [label="X[30] <= 0.5\ngini = 0.231\nsamples = 15\nvalue = [0, 2, 13]"] ;
624 -> 625 ;
626 [label="gini = 0.0\nsamples = 8\nvalue = [0, 0, 8]"] ;
625 -> 626 ;
627 [label="X[10] <= 1.5\ngini = 0.408\nsamples = 7\nvalue = [0, 2, 5]"] ;
625 -> 627 ;
628 [label="X[24] <= 0.5\ngini = 0.278\nsamples = 6\nvalue = [0, 1, 5]"] ;
627 -> 628 ;
629 [label="gini = 0.0\nsamples = 5\nvalue = [0, 0, 5]"] ;
628 -> 629 ;
630 [label="gini = 0.0\nsamples = 1\nvalue = [0, 1, 0]"] ;
628 -> 630 ;
631 [label="gini = 0.0\nsamples = 1\nvalue = [0, 1, 0]"] ;
627 -> 631 ;
632 [label="X[8] <= 1.5\ngini = 0.625\nsamples = 4\nvalue = [2, 1, 1]"] ;
624 -> 632 ;
633 [label="gini = 0.0\nsamples = 1\nvalue = [0, 0, 1]"] ;
632 -> 633 ;
634 [label="X[30] <= 0.5\ngini = 0.444\nsamples = 3\nvalue = [2, 1, 0]"] ;
632 -> 634 ;
635 [label="gini = 0.0\nsamples = 2\nvalue = [2, 0, 0]"] ;
634 -> 635 ;
636 [label="gini = 0.0\nsamples = 1\nvalue = [0, 1, 0]"] ;
634 -> 636 ;
637 [label="gini = 0.0\nsamples = 1\nvalue = [1, 0, 0]"] ;
609 -> 637 ;
638 [label="X[14] <= 0.5\ngini = 0.007\nsamples = 270\nvalue = [1, 0, 269]"] ;
546 -> 638 ;
639 [label="gini = 0.0\nsamples = 219\nvalue = [0, 0, 219]"] ;
638 -> 639 ;
640 [label="X[25] <= 0.5\ngini = 0.038\nsamples = 51\nvalue = [1, 0, 50]"] ;
638 -> 640 ;
641 [label="gini = 0.0\nsamples = 47\nvalue = [0, 0, 47]"] ;
640 -> 641 ;
642 [label="X[14] <= 1.5\ngini = 0.375\nsamples = 4\nvalue = [1, 0, 3]"] ;
640 -> 642 ;
643 [label="gini = 0.0\nsamples = 1\nvalue = [1, 0, 0]"] ;
642 -> 643 ;
644 [label="gini = 0.0\nsamples = 3\nvalue = [0, 0, 3]"] ;
642 -> 644 ;
645 [label="X[12] <= 0.5\ngini = 0.444\nsamples = 3\nvalue = [1, 0, 2]"] ;
545 -> 645 ;
646 [label="gini = 0.0\nsamples = 2\nvalue = [0, 0, 2]"] ;
645 -> 646 ;
647 [label="gini = 0.0\nsamples = 1\nvalue = [1, 0, 0]"] ;
645 -> 647 ;
648 [label="X[20] <= 1.5\ngini = 0.167\nsamples = 411\nvalue = [12, 25, 374]"] ;
544 -> 648 ;
649 [label="X[7] <= 1.5\ngini = 0.286\nsamples = 201\nvalue = [11, 22, 168]"] ;
648 -> 649 ;
650 [label="X[12] <= 0.5\ngini = 0.213\nsamples = 128\nvalue = [10, 5, 113]"] ;
649 -> 650 ;
651 [label="X[22] <= 1.5\ngini = 0.083\nsamples = 70\nvalue = [1, 2, 67]"] ;
650 -> 651 ;
652 [label="X[37] <= 0.5\ngini = 0.034\nsamples = 58\nvalue = [1, 0, 57]"] ;
651 -> 652 ;
653 [label="gini = 0.0\nsamples = 53\nvalue = [0, 0, 53]"] ;
652 -> 653 ;
654 [label="X[31] <= 1.0\ngini = 0.32\nsamples = 5\nvalue = [1, 0, 4]"] ;
652 -> 654 ;
655 [label="gini = 0.0\nsamples = 4\nvalue = [0, 0, 4]"] ;
654 -> 655 ;
656 [label="gini = 0.0\nsamples = 1\nvalue = [1, 0, 0]"] ;
654 -> 656 ;
657 [label="X[36] <= 0.5\ngini = 0.278\nsamples = 12\nvalue = [0, 2, 10]"] ;
651 -> 657 ;
658 [label="gini = 0.0\nsamples = 8\nvalue = [0, 0, 8]"] ;
657 -> 658 ;
659 [label="X[21] <= 1.5\ngini = 0.5\nsamples = 4\nvalue = [0, 2, 2]"] ;
657 -> 659 ;
660 [label="gini = 0.0\nsamples = 2\nvalue = [0, 2, 0]"] ;
659 -> 660 ;
661 [label="gini = 0.0\nsamples = 2\nvalue = [0, 0, 2]"] ;
659 -> 661 ;
662 [label="X[24] <= 1.5\ngini = 0.344\nsamples = 58\nvalue = [9, 3, 46]"] ;
650 -> 662 ;
663 [label="X[14] <= 0.5\ngini = 0.156\nsamples = 36\nvalue = [2, 1, 33]"] ;
662 -> 663 ;
664 [label="gini = 0.0\nsamples = 27\nvalue = [0, 0, 27]"] ;
663 -> 664 ;
665 [label="X[7] <= 0.5\ngini = 0.494\nsamples = 9\nvalue = [2, 1, 6]"] ;
663 -> 665 ;
666 [label="X[15] <= 1.5\ngini = 0.406\nsamples = 8\nvalue = [1, 1, 6]"] ;
665 -> 666 ;
667 [label="X[21] <= 0.5\ngini = 0.278\nsamples = 6\nvalue = [0, 1, 5]"] ;
666 -> 667 ;
668 [label="gini = 0.0\nsamples = 3\nvalue = [0, 0, 3]"] ;
667 -> 668 ;
669 [label="X[21] <= 1.5\ngini = 0.444\nsamples = 3\nvalue = [0, 1, 2]"] ;
667 -> 669 ;
670 [label="gini = 0.0\nsamples = 1\nvalue = [0, 1, 0]"] ;
669 -> 670 ;
671 [label="gini = 0.0\nsamples = 2\nvalue = [0, 0, 2]"] ;
669 -> 671 ;
672 [label="X[13] <= 1.5\ngini = 0.5\nsamples = 2\nvalue = [1, 0, 1]"] ;
666 -> 672 ;
673 [label="gini = 0.0\nsamples = 1\nvalue = [0, 0, 1]"] ;
672 -> 673 ;
674 [label="gini = 0.0\nsamples = 1\nvalue = [1, 0, 0]"] ;
672 -> 674 ;
675 [label="gini = 0.0\nsamples = 1\nvalue = [1, 0, 0]"] ;
665 -> 675 ;
676 [label="X[30] <= 0.5\ngini = 0.541\nsamples = 22\nvalue = [7, 2, 13]"] ;
662 -> 676 ;
677 [label="X[22] <= 1.5\ngini = 0.494\nsamples = 18\nvalue = [4, 2, 12]"] ;
676 -> 677 ;
678 [label="X[13] <= 0.5\ngini = 0.443\nsamples = 17\nvalue = [4, 1, 12]"] ;
677 -> 678 ;
679 [label="X[36] <= 0.5\ngini = 0.18\nsamples = 10\nvalue = [1, 0, 9]"] ;
678 -> 679 ;
680 [label="gini = 0.0\nsamples = 8\nvalue = [0, 0, 8]"] ;
679 -> 680 ;
681 [label="X[25] <= 1.0\ngini = 0.5\nsamples = 2\nvalue = [1, 0, 1]"] ;
679 -> 681 ;
682 [label="gini = 0.0\nsamples = 1\nvalue = [0, 0, 1]"] ;
681 -> 682 ;
683 [label="gini = 0.0\nsamples = 1\nvalue = [1, 0, 0]"] ;
681 -> 683 ;
684 [label="X[25] <= 1.5\ngini = 0.612\nsamples = 7\nvalue = [3, 1, 3]"] ;
678 -> 684 ;
685 [label="X[7] <= 0.5\ngini = 0.5\nsamples = 6\nvalue = [3, 0, 3]"] ;
684 -> 685 ;
686 [label="X[21] <= 0.5\ngini = 0.48\nsamples = 5\nvalue = [3, 0, 2]"] ;
685 -> 686 ;
687 [label="X[14] <= 0.5\ngini = 0.375\nsamples = 4\nvalue = [3, 0, 1]"] ;
686 -> 687 ;
688 [label="gini = 0.0\nsamples = 2\nvalue = [2, 0, 0]"] ;
687 -> 688 ;
689 [label="X[13] <= 1.5\ngini = 0.5\nsamples = 2\nvalue = [1, 0, 1]"] ;
687 -> 689 ;
690 [label="gini = 0.0\nsamples = 1\nvalue = [1, 0, 0]"] ;
689 -> 690 ;
691 [label="gini = 0.0\nsamples = 1\nvalue = [0, 0, 1]"] ;
689 -> 691 ;
692 [label="gini = 0.0\nsamples = 1\nvalue = [0, 0, 1]"] ;
686 -> 692 ;
693 [label="gini = 0.0\nsamples = 1\nvalue = [0, 0, 1]"] ;
685 -> 693 ;
694 [label="gini = 0.0\nsamples = 1\nvalue = [0, 1, 0]"] ;
684 -> 694 ;
695 [label="gini = 0.0\nsamples = 1\nvalue = [0, 1, 0]"] ;
677 -> 695 ;
696 [label="X[13] <= 1.0\ngini = 0.375\nsamples = 4\nvalue = [3, 0, 1]"] ;
676 -> 696 ;
697 [label="gini = 0.0\nsamples = 3\nvalue = [3, 0, 0]"] ;
696 -> 697 ;
698 [label="gini = 0.0\nsamples = 1\nvalue = [0, 0, 1]"] ;
696 -> 698 ;
699 [label="X[22] <= 1.5\ngini = 0.378\nsamples = 73\nvalue = [1, 17, 55]"] ;
649 -> 699 ;
700 [label="X[10] <= 1.5\ngini = 0.318\nsamples = 67\nvalue = [1, 12, 54]"] ;
699 -> 700 ;
701 [label="X[8] <= 0.5\ngini = 0.29\nsamples = 64\nvalue = [1, 10, 53]"] ;
700 -> 701 ;
702 [label="X[21] <= 1.5\ngini = 0.438\nsamples = 30\nvalue = [1, 8, 21]"] ;
701 -> 702 ;
703 [label="X[21] <= 0.5\ngini = 0.517\nsamples = 22\nvalue = [1, 8, 13]"] ;
702 -> 703 ;
704 [label="X[13] <= 0.5\ngini = 0.357\nsamples = 14\nvalue = [1, 2, 11]"] ;
703 -> 704 ;
705 [label="X[12] <= 0.5\ngini = 0.198\nsamples = 9\nvalue = [1, 0, 8]"] ;
704 -> 705 ;
706 [label="gini = 0.0\nsamples = 6\nvalue = [0, 0, 6]"] ;
705 -> 706 ;
707 [label="X[30] <= 1.5\ngini = 0.444\nsamples = 3\nvalue = [1, 0, 2]"] ;
705 -> 707 ;
708 [label="gini = 0.0\nsamples = 2\nvalue = [0, 0, 2]"] ;
707 -> 708 ;
709 [label="gini = 0.0\nsamples = 1\nvalue = [1, 0, 0]"] ;
707 -> 709 ;
710 [label="X[13] <= 1.5\ngini = 0.48\nsamples = 5\nvalue = [0, 2, 3]"] ;
704 -> 710 ;
711 [label="gini = 0.0\nsamples = 2\nvalue = [0, 2, 0]"] ;
710 -> 711 ;
712 [label="gini = 0.0\nsamples = 3\nvalue = [0, 0, 3]"] ;
710 -> 712 ;
713 [label="X[25] <= 0.5\ngini = 0.375\nsamples = 8\nvalue = [0, 6, 2]"] ;
703 -> 713 ;
714 [label="X[31] <= 0.5\ngini = 0.245\nsamples = 7\nvalue = [0, 6, 1]"] ;
713 -> 714 ;
715 [label="gini = 0.0\nsamples = 5\nvalue = [0, 5, 0]"] ;
714 -> 715 ;
716 [label="X[31] <= 1.5\ngini = 0.5\nsamples = 2\nvalue = [0, 1, 1]"] ;
714 -> 716 ;
717 [label="gini = 0.0\nsamples = 1\nvalue = [0, 0, 1]"] ;
716 -> 717 ;
718 [label="gini = 0.0\nsamples = 1\nvalue = [0, 1, 0]"] ;
716 -> 718 ;
719 [label="gini = 0.0\nsamples = 1\nvalue = [0, 0, 1]"] ;
713 -> 719 ;
720 [label="gini = 0.0\nsamples = 8\nvalue = [0, 0, 8]"] ;
702 -> 720 ;
721 [label="X[9] <= 0.5\ngini = 0.111\nsamples = 34\nvalue = [0, 2, 32]"] ;
701 -> 721 ;
722 [label="gini = 0.0\nsamples = 25\nvalue = [0, 0, 25]"] ;
721 -> 722 ;
723 [label="X[21] <= 1.0\ngini = 0.346\nsamples = 9\nvalue = [0, 2, 7]"] ;
721 -> 723 ;
724 [label="X[12] <= 0.5\ngini = 0.219\nsamples = 8\nvalue = [0, 1, 7]"] ;
723 -> 724 ;
725 [label="gini = 0.0\nsamples = 6\nvalue = [0, 0, 6]"] ;
724 -> 725 ;
726 [label="X[9] <= 1.5\ngini = 0.5\nsamples = 2\nvalue = [0, 1, 1]"] ;
724 -> 726 ;
727 [label="gini = 0.0\nsamples = 1\nvalue = [0, 1, 0]"] ;
726 -> 727 ;
728 [label="gini = 0.0\nsamples = 1\nvalue = [0, 0, 1]"] ;
726 -> 728 ;
729 [label="gini = 0.0\nsamples = 1\nvalue = [0, 1, 0]"] ;
723 -> 729 ;
730 [label="X[19] <= 1.5\ngini = 0.444\nsamples = 3\nvalue = [0, 2, 1]"] ;
700 -> 730 ;
731 [label="gini = 0.0\nsamples = 2\nvalue = [0, 2, 0]"] ;
730 -> 731 ;
732 [label="gini = 0.0\nsamples = 1\nvalue = [0, 0, 1]"] ;
730 -> 732 ;
733 [label="X[8] <= 0.5\ngini = 0.278\nsamples = 6\nvalue = [0, 5, 1]"] ;
699 -> 733 ;
734 [label="gini = 0.0\nsamples = 5\nvalue = [0, 5, 0]"] ;
733 -> 734 ;
735 [label="gini = 0.0\nsamples = 1\nvalue = [0, 0, 1]"] ;
733 -> 735 ;
736 [label="X[8] <= 1.5\ngini = 0.038\nsamples = 210\nvalue = [1, 3, 206]"] ;
648 -> 736 ;
737 [label="X[14] <= 0.5\ngini = 0.011\nsamples = 173\nvalue = [1, 0, 172]"] ;
736 -> 737 ;
738 [label="gini = 0.0\nsamples = 163\nvalue = [0, 0, 163]"] ;
737 -> 738 ;
739 [label="X[7] <= 1.0\ngini = 0.18\nsamples = 10\nvalue = [1, 0, 9]"] ;
737 -> 739 ;
740 [label="gini = 0.0\nsamples = 9\nvalue = [0, 0, 9]"] ;
739 -> 740 ;
741 [label="gini = 0.0\nsamples = 1\nvalue = [1, 0, 0]"] ;
739 -> 741 ;
742 [label="X[22] <= 0.5\ngini = 0.149\nsamples = 37\nvalue = [0, 3, 34]"] ;
736 -> 742 ;
743 [label="X[30] <= 0.5\ngini = 0.108\nsamples = 35\nvalue = [0, 2, 33]"] ;
742 -> 743 ;
744 [label="gini = 0.0\nsamples = 23\nvalue = [0, 0, 23]"] ;
743 -> 744 ;
745 [label="X[24] <= 0.5\ngini = 0.278\nsamples = 12\nvalue = [0, 2, 10]"] ;
743 -> 745 ;
746 [label="gini = 0.0\nsamples = 9\nvalue = [0, 0, 9]"] ;
745 -> 746 ;
747 [label="X[7] <= 1.5\ngini = 0.444\nsamples = 3\nvalue = [0, 2, 1]"] ;
745 -> 747 ;
748 [label="gini = 0.0\nsamples = 2\nvalue = [0, 2, 0]"] ;
747 -> 748 ;
749 [label="gini = 0.0\nsamples = 1\nvalue = [0, 0, 1]"] ;
747 -> 749 ;
750 [label="X[21] <= 1.5\ngini = 0.5\nsamples = 2\nvalue = [0, 1, 1]"] ;
742 -> 750 ;
751 [label="gini = 0.0\nsamples = 1\nvalue = [0, 0, 1]"] ;
750 -> 751 ;
752 [label="gini = 0.0\nsamples = 1\nvalue = [0, 1, 0]"] ;
750 -> 752 ;
753 [label="gini = 0.0\nsamples = 1\nvalue = [1, 0, 0]"] ;
543 -> 753 ;
754 [label="X[25] <= 0.5\ngini = 0.262\nsamples = 223\nvalue = [21, 12, 190]"] ;
542 -> 754 ;
755 [label="X[20] <= 0.5\ngini = 0.209\nsamples = 192\nvalue = [15, 7, 170]"] ;
754 -> 755 ;
756 [label="X[14] <= 0.5\ngini = 0.127\nsamples = 148\nvalue = [9, 1, 138]"] ;
755 -> 756 ;
757 [label="X[9] <= 1.5\ngini = 0.098\nsamples = 136\nvalue = [6, 1, 129]"] ;
756 -> 757 ;
758 [label="X[24] <= 1.5\ngini = 0.087\nsamples = 133\nvalue = [5, 1, 127]"] ;
757 -> 758 ;
759 [label="X[38] <= 1.5\ngini = 0.054\nsamples = 108\nvalue = [2, 1, 105]"] ;
758 -> 759 ;
760 [label="X[31] <= 0.5\ngini = 0.024\nsamples = 81\nvalue = [1, 0, 80]"] ;
759 -> 760 ;
761 [label="gini = 0.0\nsamples = 60\nvalue = [0, 0, 60]"] ;
760 -> 761 ;
762 [label="X[7] <= 1.5\ngini = 0.091\nsamples = 21\nvalue = [1, 0, 20]"] ;
760 -> 762 ;
763 [label="gini = 0.0\nsamples = 15\nvalue = [0, 0, 15]"] ;
762 -> 763 ;
764 [label="X[12] <= 0.5\ngini = 0.278\nsamples = 6\nvalue = [1, 0, 5]"] ;
762 -> 764 ;
765 [label="gini = 0.0\nsamples = 5\nvalue = [0, 0, 5]"] ;
764 -> 765 ;
766 [label="gini = 0.0\nsamples = 1\nvalue = [1, 0, 0]"] ;
764 -> 766 ;
767 [label="X[8] <= 0.5\ngini = 0.14\nsamples = 27\nvalue = [1, 1, 25]"] ;
759 -> 767 ;
768 [label="X[30] <= 1.5\ngini = 0.087\nsamples = 22\nvalue = [0, 1, 21]"] ;
767 -> 768 ;
769 [label="gini = 0.0\nsamples = 15\nvalue = [0, 0, 15]"] ;
768 -> 769 ;
770 [label="X[13] <= 0.5\ngini = 0.245\nsamples = 7\nvalue = [0, 1, 6]"] ;
768 -> 770 ;
771 [label="gini = 0.0\nsamples = 6\nvalue = [0, 0, 6]"] ;
770 -> 771 ;
772 [label="gini = 0.0\nsamples = 1\nvalue = [0, 1, 0]"] ;
770 -> 772 ;
773 [label="X[19] <= 0.5\ngini = 0.32\nsamples = 5\nvalue = [1, 0, 4]"] ;
767 -> 773 ;
774 [label="gini = 0.0\nsamples = 4\nvalue = [0, 0, 4]"] ;
773 -> 774 ;
775 [label="gini = 0.0\nsamples = 1\nvalue = [1, 0, 0]"] ;
773 -> 775 ;
776 [label="X[30] <= 1.5\ngini = 0.211\nsamples = 25\nvalue = [3, 0, 22]"] ;
758 -> 776 ;
777 [label="X[8] <= 1.5\ngini = 0.091\nsamples = 21\nvalue = [1, 0, 20]"] ;
776 -> 777 ;
778 [label="gini = 0.0\nsamples = 17\nvalue = [0, 0, 17]"] ;
777 -> 778 ;
779 [label="X[19] <= 0.5\ngini = 0.375\nsamples = 4\nvalue = [1, 0, 3]"] ;
777 -> 779 ;
780 [label="gini = 0.0\nsamples = 3\nvalue = [0, 0, 3]"] ;
779 -> 780 ;
781 [label="gini = 0.0\nsamples = 1\nvalue = [1, 0, 0]"] ;
779 -> 781 ;
782 [label="X[13] <= 0.5\ngini = 0.5\nsamples = 4\nvalue = [2, 0, 2]"] ;
776 -> 782 ;
783 [label="X[7] <= 0.5\ngini = 0.444\nsamples = 3\nvalue = [1, 0, 2]"] ;
782 -> 783 ;
784 [label="gini = 0.0\nsamples = 2\nvalue = [0, 0, 2]"] ;
783 -> 784 ;
785 [label="gini = 0.0\nsamples = 1\nvalue = [1, 0, 0]"] ;
783 -> 785 ;
786 [label="gini = 0.0\nsamples = 1\nvalue = [1, 0, 0]"] ;
782 -> 786 ;
787 [label="X[19] <= 0.5\ngini = 0.444\nsamples = 3\nvalue = [1, 0, 2]"] ;
757 -> 787 ;
788 [label="gini = 0.0\nsamples = 2\nvalue = [0, 0, 2]"] ;
787 -> 788 ;
789 [label="gini = 0.0\nsamples = 1\nvalue = [1, 0, 0]"] ;
787 -> 789 ;
790 [label="X[14] <= 1.5\ngini = 0.375\nsamples = 12\nvalue = [3, 0, 9]"] ;
756 -> 790 ;
791 [label="X[30] <= 1.0\ngini = 0.5\nsamples = 6\nvalue = [3, 0, 3]"] ;
790 -> 791 ;
792 [label="X[38] <= 1.0\ngini = 0.48\nsamples = 5\nvalue = [2, 0, 3]"] ;
791 -> 792 ;
793 [label="X[7] <= 1.0\ngini = 0.375\nsamples = 4\nvalue = [1, 0, 3]"] ;
792 -> 793 ;
794 [label="gini = 0.0\nsamples = 3\nvalue = [0, 0, 3]"] ;
793 -> 794 ;
795 [label="gini = 0.0\nsamples = 1\nvalue = [1, 0, 0]"] ;
793 -> 795 ;
796 [label="gini = 0.0\nsamples = 1\nvalue = [1, 0, 0]"] ;
792 -> 796 ;
797 [label="gini = 0.0\nsamples = 1\nvalue = [1, 0, 0]"] ;
791 -> 797 ;
798 [label="gini = 0.0\nsamples = 6\nvalue = [0, 0, 6]"] ;
790 -> 798 ;
799 [label="X[20] <= 1.5\ngini = 0.434\nsamples = 44\nvalue = [6, 6, 32]"] ;
755 -> 799 ;
800 [label="X[19] <= 1.5\ngini = 0.635\nsamples = 23\nvalue = [6, 6, 11]"] ;
799 -> 800 ;
801 [label="gini = 0.0\nsamples = 2\nvalue = [2, 0, 0]"] ;
800 -> 801 ;
802 [label="X[38] <= 1.5\ngini = 0.608\nsamples = 21\nvalue = [4, 6, 11]"] ;
800 -> 802 ;
803 [label="X[38] <= 0.5\ngini = 0.549\nsamples = 18\nvalue = [3, 4, 11]"] ;
802 -> 803 ;
804 [label="X[24] <= 1.0\ngini = 0.639\nsamples = 13\nvalue = [3, 4, 6]"] ;
803 -> 804 ;
805 [label="X[13] <= 1.0\ngini = 0.56\nsamples = 10\nvalue = [2, 2, 6]"] ;
804 -> 805 ;
806 [label="X[22] <= 0.5\ngini = 0.494\nsamples = 9\nvalue = [1, 2, 6]"] ;
805 -> 806 ;
807 [label="X[21] <= 0.5\ngini = 0.375\nsamples = 8\nvalue = [0, 2, 6]"] ;
806 -> 807 ;
808 [label="gini = 0.0\nsamples = 4\nvalue = [0, 0, 4]"] ;
807 -> 808 ;
809 [label="X[21] <= 1.5\ngini = 0.5\nsamples = 4\nvalue = [0, 2, 2]"] ;
807 -> 809 ;
810 [label="gini = 0.0\nsamples = 2\nvalue = [0, 2, 0]"] ;
809 -> 810 ;
811 [label="gini = 0.0\nsamples = 2\nvalue = [0, 0, 2]"] ;
809 -> 811 ;
812 [label="gini = 0.0\nsamples = 1\nvalue = [1, 0, 0]"] ;
806 -> 812 ;
813 [label="gini = 0.0\nsamples = 1\nvalue = [1, 0, 0]"] ;
805 -> 813 ;
814 [label="X[7] <= 0.5\ngini = 0.444\nsamples = 3\nvalue = [1, 2, 0]"] ;
804 -> 814 ;
815 [label="gini = 0.0\nsamples = 2\nvalue = [0, 2, 0]"] ;
814 -> 815 ;
816 [label="gini = 0.0\nsamples = 1\nvalue = [1, 0, 0]"] ;
814 -> 816 ;
817 [label="gini = 0.0\nsamples = 5\nvalue = [0, 0, 5]"] ;
803 -> 817 ;
818 [label="X[39] <= 0.5\ngini = 0.444\nsamples = 3\nvalue = [1, 2, 0]"] ;
802 -> 818 ;
819 [label="gini = 0.0\nsamples = 2\nvalue = [0, 2, 0]"] ;
818 -> 819 ;
820 [label="gini = 0.0\nsamples = 1\nvalue = [1, 0, 0]"] ;
818 -> 820 ;
821 [label="gini = 0.0\nsamples = 21\nvalue = [0, 0, 21]"] ;
799 -> 821 ;
822 [label="X[7] <= 1.5\ngini = 0.52\nsamples = 31\nvalue = [6, 5, 20]"] ;
754 -> 822 ;
823 [label="X[25] <= 1.5\ngini = 0.435\nsamples = 25\nvalue = [2, 5, 18]"] ;
822 -> 823 ;
824 [label="X[19] <= 0.5\ngini = 0.57\nsamples = 16\nvalue = [2, 5, 9]"] ;
823 -> 824 ;
825 [label="X[26] <= 1.5\ngini = 0.579\nsamples = 11\nvalue = [1, 5, 5]"] ;
824 -> 825 ;
826 [label="X[8] <= 1.0\ngini = 0.571\nsamples = 7\nvalue = [1, 4, 2]"] ;
825 -> 826 ;
827 [label="X[39] <= 0.5\ngini = 0.5\nsamples = 6\nvalue = [1, 4, 1]"] ;
826 -> 827 ;
828 [label="X[12] <= 0.5\ngini = 0.375\nsamples = 4\nvalue = [1, 3, 0]"] ;
827 -> 828 ;
829 [label="gini = 0.0\nsamples = 2\nvalue = [0, 2, 0]"] ;
828 -> 829 ;
830 [label="X[30] <= 1.0\ngini = 0.5\nsamples = 2\nvalue = [1, 1, 0]"] ;
828 -> 830 ;
831 [label="gini = 0.0\nsamples = 1\nvalue = [1, 0, 0]"] ;
830 -> 831 ;
832 [label="gini = 0.0\nsamples = 1\nvalue = [0, 1, 0]"] ;
830 -> 832 ;
833 [label="X[38] <= 1.5\ngini = 0.5\nsamples = 2\nvalue = [0, 1, 1]"] ;
827 -> 833 ;
834 [label="gini = 0.0\nsamples = 1\nvalue = [0, 1, 0]"] ;
833 -> 834 ;
835 [label="gini = 0.0\nsamples = 1\nvalue = [0, 0, 1]"] ;
833 -> 835 ;
836 [label="gini = 0.0\nsamples = 1\nvalue = [0, 0, 1]"] ;
826 -> 836 ;
837 [label="X[27] <= 0.5\ngini = 0.375\nsamples = 4\nvalue = [0, 1, 3]"] ;
825 -> 837 ;
838 [label="gini = 0.0\nsamples = 3\nvalue = [0, 0, 3]"] ;
837 -> 838 ;
839 [label="gini = 0.0\nsamples = 1\nvalue = [0, 1, 0]"] ;
837 -> 839 ;
840 [label="X[20] <= 0.5\ngini = 0.32\nsamples = 5\nvalue = [1, 0, 4]"] ;
824 -> 840 ;
841 [label="gini = 0.0\nsamples = 3\nvalue = [0, 0, 3]"] ;
840 -> 841 ;
842 [label="X[19] <= 1.5\ngini = 0.5\nsamples = 2\nvalue = [1, 0, 1]"] ;
840 -> 842 ;
843 [label="gini = 0.0\nsamples = 1\nvalue = [0, 0, 1]"] ;
842 -> 843 ;
844 [label="gini = 0.0\nsamples = 1\nvalue = [1, 0, 0]"] ;
842 -> 844 ;
845 [label="gini = 0.0\nsamples = 9\nvalue = [0, 0, 9]"] ;
823 -> 845 ;
846 [label="X[24] <= 1.5\ngini = 0.444\nsamples = 6\nvalue = [4, 0, 2]"] ;
822 -> 846 ;
847 [label="gini = 0.0\nsamples = 2\nvalue = [0, 0, 2]"] ;
846 -> 847 ;
848 [label="gini = 0.0\nsamples = 4\nvalue = [4, 0, 0]"] ;
846 -> 848 ;
849 [label="X[20] <= 1.5\ngini = 0.645\nsamples = 11\nvalue = [3, 3, 5]"] ;
541 -> 849 ;
850 [label="X[30] <= 0.5\ngini = 0.444\nsamples = 3\nvalue = [2, 1, 0]"] ;
849 -> 850 ;
851 [label="gini = 0.0\nsamples = 2\nvalue = [2, 0, 0]"] ;
850 -> 851 ;
852 [label="gini = 0.0\nsamples = 1\nvalue = [0, 1, 0]"] ;
850 -> 852 ;
853 [label="X[22] <= 1.5\ngini = 0.531\nsamples = 8\nvalue = [1, 2, 5]"] ;
849 -> 853 ;
854 [label="gini = 0.0\nsamples = 4\nvalue = [0, 0, 4]"] ;
853 -> 854 ;
855 [label="X[36] <= 0.5\ngini = 0.625\nsamples = 4\nvalue = [1, 2, 1]"] ;
853 -> 855 ;
856 [label="X[12] <= 0.5\ngini = 0.444\nsamples = 3\nvalue = [0, 2, 1]"] ;
855 -> 856 ;
857 [label="gini = 0.0\nsamples = 2\nvalue = [0, 2, 0]"] ;
856 -> 857 ;
858 [label="gini = 0.0\nsamples = 1\nvalue = [0, 0, 1]"] ;
856 -> 858 ;
859 [label="gini = 0.0\nsamples = 1\nvalue = [1, 0, 0]"] ;
855 -> 859 ;
860 [label="X[36] <= 0.5\ngini = 0.419\nsamples = 5279\nvalue = [458, 934, 3887]"] ;
4 -> 860 ;
861 [label="X[18] <= 1.5\ngini = 0.481\nsamples = 2974\nvalue = [277, 688, 2009]"] ;
860 -> 861 ;
862 [label="X[24] <= 1.5\ngini = 0.452\nsamples = 2402\nvalue = [224, 481, 1697]"] ;
861 -> 862 ;
863 [label="X[24] <= 0.5\ngini = 0.404\nsamples = 1866\nvalue = [152, 317, 1397]"] ;
862 -> 863 ;
864 [label="X[14] <= 0.5\ngini = 0.483\nsamples = 891\nvalue = [94, 194, 603]"] ;
863 -> 864 ;
865 [label="X[6] <= 0.5\ngini = 0.359\nsamples = 429\nvalue = [26, 67, 336]"] ;
864 -> 865 ;
866 [label="X[30] <= 1.5\ngini = 0.532\nsamples = 116\nvalue = [10, 36, 70]"] ;
865 -> 866 ;
867 [label="X[20] <= 1.5\ngini = 0.34\nsamples = 59\nvalue = [3, 9, 47]"] ;
866 -> 867 ;
868 [label="X[32] <= 0.5\ngini = 0.462\nsamples = 39\nvalue = [3, 9, 27]"] ;
867 -> 868 ;
869 [label="X[13] <= 1.5\ngini = 0.569\nsamples = 12\nvalue = [1, 6, 5]"] ;
868 -> 869 ;
870 [label="X[13] <= 0.5\ngini = 0.278\nsamples = 6\nvalue = [1, 0, 5]"] ;
869 -> 870 ;
871 [label="gini = 0.0\nsamples = 3\nvalue = [0, 0, 3]"] ;
870 -> 871 ;
872 [label="X[22] <= 1.0\ngini = 0.444\nsamples = 3\nvalue = [1, 0, 2]"] ;
870 -> 872 ;
873 [label="gini = 0.0\nsamples = 1\nvalue = [0, 0, 1]"] ;
872 -> 873 ;
874 [label="X[30] <= 0.5\ngini = 0.5\nsamples = 2\nvalue = [1, 0, 1]"] ;
872 -> 874 ;
875 [label="gini = 0.0\nsamples = 1\nvalue = [0, 0, 1]"] ;
874 -> 875 ;
876 [label="gini = 0.0\nsamples = 1\nvalue = [1, 0, 0]"] ;
874 -> 876 ;
877 [label="gini = 0.0\nsamples = 6\nvalue = [0, 6, 0]"] ;
869 -> 877 ;
878 [label="X[34] <= 1.5\ngini = 0.318\nsamples = 27\nvalue = [2, 3, 22]"] ;
868 -> 878 ;
879 [label="X[20] <= 0.5\ngini = 0.095\nsamples = 20\nvalue = [0, 1, 19]"] ;
878 -> 879 ;
880 [label="gini = 0.0\nsamples = 16\nvalue = [0, 0, 16]"] ;
879 -> 880 ;
881 [label="X[32] <= 1.5\ngini = 0.375\nsamples = 4\nvalue = [0, 1, 3]"] ;
879 -> 881 ;
882 [label="gini = 0.0\nsamples = 2\nvalue = [0, 0, 2]"] ;
881 -> 882 ;
883 [label="X[33] <= 0.5\ngini = 0.5\nsamples = 2\nvalue = [0, 1, 1]"] ;
881 -> 883 ;
884 [label="gini = 0.0\nsamples = 1\nvalue = [0, 0, 1]"] ;
883 -> 884 ;
885 [label="gini = 0.0\nsamples = 1\nvalue = [0, 1, 0]"] ;
883 -> 885 ;
886 [label="X[32] <= 1.5\ngini = 0.653\nsamples = 7\nvalue = [2, 2, 3]"] ;
878 -> 886 ;
887 [label="X[13] <= 0.5\ngini = 0.48\nsamples = 5\nvalue = [0, 2, 3]"] ;
886 -> 887 ;
888 [label="gini = 0.0\nsamples = 2\nvalue = [0, 0, 2]"] ;
887 -> 888 ;
889 [label="X[33] <= 1.5\ngini = 0.444\nsamples = 3\nvalue = [0, 2, 1]"] ;
887 -> 889 ;
890 [label="gini = 0.0\nsamples = 1\nvalue = [0, 1, 0]"] ;
889 -> 890 ;
891 [label="X[18] <= 0.5\ngini = 0.5\nsamples = 2\nvalue = [0, 1, 1]"] ;
889 -> 891 ;
892 [label="gini = 0.0\nsamples = 1\nvalue = [0, 0, 1]"] ;
891 -> 892 ;
893 [label="gini = 0.0\nsamples = 1\nvalue = [0, 1, 0]"] ;
891 -> 893 ;
894 [label="gini = 0.0\nsamples = 2\nvalue = [2, 0, 0]"] ;
886 -> 894 ;
895 [label="gini = 0.0\nsamples = 20\nvalue = [0, 0, 20]"] ;
867 -> 895 ;
896 [label="X[22] <= 1.5\ngini = 0.598\nsamples = 57\nvalue = [7, 27, 23]"] ;
866 -> 896 ;
897 [label="X[35] <= 0.5\ngini = 0.607\nsamples = 52\nvalue = [7, 22, 23]"] ;
896 -> 897 ;
898 [label="X[19] <= 0.5\ngini = 0.585\nsamples = 50\nvalue = [5, 22, 23]"] ;
897 -> 898 ;
899 [label="gini = 0.0\nsamples = 4\nvalue = [0, 0, 4]"] ;
898 -> 899 ;
900 [label="X[20] <= 1.5\ngini = 0.589\nsamples = 46\nvalue = [5, 22, 19]"] ;
898 -> 900 ;
901 [label="X[22] <= 0.5\ngini = 0.58\nsamples = 30\nvalue = [5, 17, 8]"] ;
900 -> 901 ;
902 [label="X[21] <= 0.5\ngini = 0.506\nsamples = 25\nvalue = [2, 16, 7]"] ;
901 -> 902 ;
903 [label="X[19] <= 1.5\ngini = 0.537\nsamples = 18\nvalue = [1, 10, 7]"] ;
902 -> 903 ;
904 [label="X[33] <= 1.5\ngini = 0.346\nsamples = 9\nvalue = [0, 7, 2]"] ;
903 -> 904 ;
905 [label="X[13] <= 0.5\ngini = 0.5\nsamples = 4\nvalue = [0, 2, 2]"] ;
904 -> 905 ;
906 [label="gini = 0.0\nsamples = 1\nvalue = [0, 1, 0]"] ;
905 -> 906 ;
907 [label="X[32] <= 1.5\ngini = 0.444\nsamples = 3\nvalue = [0, 1, 2]"] ;
905 -> 907 ;
908 [label="gini = 0.0\nsamples = 1\nvalue = [0, 1, 0]"] ;
907 -> 908 ;
909 [label="gini = 0.0\nsamples = 2\nvalue = [0, 0, 2]"] ;
907 -> 909 ;
910 [label="gini = 0.0\nsamples = 5\nvalue = [0, 5, 0]"] ;
904 -> 910 ;
911 [label="X[31] <= 1.5\ngini = 0.568\nsamples = 9\nvalue = [1, 3, 5]"] ;
903 -> 911 ;
912 [label="X[32] <= 1.5\ngini = 0.408\nsamples = 7\nvalue = [0, 2, 5]"] ;
911 -> 912 ;
913 [label="gini = 0.0\nsamples = 3\nvalue = [0, 0, 3]"] ;
912 -> 913 ;
914 [label="X[20] <= 0.5\ngini = 0.5\nsamples = 4\nvalue = [0, 2, 2]"] ;
912 -> 914 ;
915 [label="gini = 0.0\nsamples = 2\nvalue = [0, 0, 2]"] ;
914 -> 915 ;
916 [label="gini = 0.0\nsamples = 2\nvalue = [0, 2, 0]"] ;
914 -> 916 ;
917 [label="X[33] <= 0.5\ngini = 0.5\nsamples = 2\nvalue = [1, 1, 0]"] ;
911 -> 917 ;
918 [label="gini = 0.0\nsamples = 1\nvalue = [0, 1, 0]"] ;
917 -> 918 ;
919 [label="gini = 0.0\nsamples = 1\nvalue = [1, 0, 0]"] ;
917 -> 919 ;
920 [label="X[21] <= 1.5\ngini = 0.245\nsamples = 7\nvalue = [1, 6, 0]"] ;
902 -> 920 ;
921 [label="gini = 0.0\nsamples = 4\nvalue = [0, 4, 0]"] ;
920 -> 921 ;
922 [label="X[19] <= 1.5\ngini = 0.444\nsamples = 3\nvalue = [1, 2, 0]"] ;
920 -> 922 ;
923 [label="gini = 0.0\nsamples = 2\nvalue = [0, 2, 0]"] ;
922 -> 923 ;
924 [label="gini = 0.0\nsamples = 1\nvalue = [1, 0, 0]"] ;
922 -> 924 ;
925 [label="X[31] <= 1.5\ngini = 0.56\nsamples = 5\nvalue = [3, 1, 1]"] ;
901 -> 925 ;
926 [label="X[23] <= 0.5\ngini = 0.375\nsamples = 4\nvalue = [3, 0, 1]"] ;
925 -> 926 ;
927 [label="gini = 0.0\nsamples = 3\nvalue = [3, 0, 0]"] ;
926 -> 927 ;
928 [label="gini = 0.0\nsamples = 1\nvalue = [0, 0, 1]"] ;
926 -> 928 ;
929 [label="gini = 0.0\nsamples = 1\nvalue = [0, 1, 0]"] ;
925 -> 929 ;
930 [label="X[32] <= 1.5\ngini = 0.43\nsamples = 16\nvalue = [0, 5, 11]"] ;
900 -> 930 ;
931 [label="X[21] <= 1.5\ngini = 0.337\nsamples = 14\nvalue = [0, 3, 11]"] ;
930 -> 931 ;
932 [label="X[13] <= 0.5\ngini = 0.18\nsamples = 10\nvalue = [0, 1, 9]"] ;
931 -> 932 ;
933 [label="X[19] <= 1.5\ngini = 0.375\nsamples = 4\nvalue = [0, 1, 3]"] ;
932 -> 933 ;
934 [label="X[21] <= 0.5\ngini = 0.444\nsamples = 3\nvalue = [0, 1, 2]"] ;
933 -> 934 ;
935 [label="gini = 0.0\nsamples = 1\nvalue = [0, 0, 1]"] ;
934 -> 935 ;
936 [label="X[32] <= 0.5\ngini = 0.5\nsamples = 2\nvalue = [0, 1, 1]"] ;
934 -> 936 ;
937 [label="gini = 0.0\nsamples = 1\nvalue = [0, 0, 1]"] ;
936 -> 937 ;
938 [label="gini = 0.0\nsamples = 1\nvalue = [0, 1, 0]"] ;
936 -> 938 ;
939 [label="gini = 0.0\nsamples = 1\nvalue = [0, 0, 1]"] ;
933 -> 939 ;
940 [label="gini = 0.0\nsamples = 6\nvalue = [0, 0, 6]"] ;
932 -> 940 ;
941 [label="X[31] <= 0.5\ngini = 0.5\nsamples = 4\nvalue = [0, 2, 2]"] ;
931 -> 941 ;
942 [label="gini = 0.0\nsamples = 1\nvalue = [0, 0, 1]"] ;
941 -> 942 ;
943 [label="X[32] <= 0.5\ngini = 0.444\nsamples = 3\nvalue = [0, 2, 1]"] ;
941 -> 943 ;
944 [label="gini = 0.0\nsamples = 2\nvalue = [0, 2, 0]"] ;
943 -> 944 ;
945 [label="gini = 0.0\nsamples = 1\nvalue = [0, 0, 1]"] ;
943 -> 945 ;
946 [label="gini = 0.0\nsamples = 2\nvalue = [0, 2, 0]"] ;
930 -> 946 ;
947 [label="gini = 0.0\nsamples = 2\nvalue = [2, 0, 0]"] ;
897 -> 947 ;
948 [label="gini = 0.0\nsamples = 5\nvalue = [0, 5, 0]"] ;
896 -> 948 ;
949 [label="X[34] <= 1.5\ngini = 0.265\nsamples = 313\nvalue = [16, 31, 266]"] ;
865 -> 949 ;
950 [label="X[10] <= 1.5\ngini = 0.243\nsamples = 302\nvalue = [15, 26, 261]"] ;
949 -> 950 ;
951 [label="X[21] <= 0.5\ngini = 0.213\nsamples = 281\nvalue = [11, 22, 248]"] ;
950 -> 951 ;
952 [label="X[11] <= 1.5\ngini = 0.166\nsamples = 236\nvalue = [8, 13, 215]"] ;
951 -> 952 ;
953 [label="X[13] <= 1.5\ngini = 0.159\nsamples = 235\nvalue = [7, 13, 215]"] ;
952 -> 953 ;
954 [label="X[9] <= 1.5\ngini = 0.203\nsamples = 162\nvalue = [6, 12, 144]"] ;
953 -> 954 ;
955 [label="X[20] <= 1.5\ngini = 0.237\nsamples = 136\nvalue = [6, 12, 118]"] ;
954 -> 955 ;
956 [label="X[20] <= 0.5\ngini = 0.281\nsamples = 112\nvalue = [6, 12, 94]"] ;
955 -> 956 ;
957 [label="X[19] <= 1.5\ngini = 0.266\nsamples = 100\nvalue = [6, 9, 85]"] ;
956 -> 957 ;
958 [label="X[19] <= 0.5\ngini = 0.312\nsamples = 83\nvalue = [6, 9, 68]"] ;
957 -> 958 ;
959 [label="X[33] <= 1.5\ngini = 0.27\nsamples = 72\nvalue = [5, 6, 61]"] ;
958 -> 959 ;
960 [label="X[30] <= 1.5\ngini = 0.319\nsamples = 54\nvalue = [5, 5, 44]"] ;
959 -> 960 ;
961 [label="X[7] <= 1.5\ngini = 0.18\nsamples = 20\nvalue = [0, 2, 18]"] ;
960 -> 961 ;
962 [label="X[13] <= 0.5\ngini = 0.444\nsamples = 3\nvalue = [0, 1, 2]"] ;
961 -> 962 ;
963 [label="gini = 0.0\nsamples = 2\nvalue = [0, 0, 2]"] ;
962 -> 963 ;
964 [label="gini = 0.0\nsamples = 1\nvalue = [0, 1, 0]"] ;
962 -> 964 ;
965 [label="X[31] <= 1.5\ngini = 0.111\nsamples = 17\nvalue = [0, 1, 16]"] ;
961 -> 965 ;
966 [label="X[9] <= 0.5\ngini = 0.375\nsamples = 4\nvalue = [0, 1, 3]"] ;
965 -> 966 ;
967 [label="gini = 0.0\nsamples = 3\nvalue = [0, 0, 3]"] ;
966 -> 967 ;
968 [label="gini = 0.0\nsamples = 1\nvalue = [0, 1, 0]"] ;
966 -> 968 ;
969 [label="gini = 0.0\nsamples = 13\nvalue = [0, 0, 13]"] ;
965 -> 969 ;
970 [label="X[33] <= 0.5\ngini = 0.386\nsamples = 34\nvalue = [5, 3, 26]"] ;
960 -> 970 ;
971 [label="X[32] <= 1.5\ngini = 0.328\nsamples = 26\nvalue = [3, 2, 21]"] ;
970 -> 971 ;
972 [label="X[10] <= 0.5\ngini = 0.421\nsamples = 19\nvalue = [3, 2, 14]"] ;
971 -> 972 ;
973 [label="X[18] <= 0.5\ngini = 0.477\nsamples = 16\nvalue = [3, 2, 11]"] ;
972 -> 973 ;
974 [label="X[32] <= 0.5\ngini = 0.611\nsamples = 6\nvalue = [2, 1, 3]"] ;
973 -> 974 ;
975 [label="X[7] <= 1.5\ngini = 0.5\nsamples = 2\nvalue = [1, 1, 0]"] ;
974 -> 975 ;
976 [label="gini = 0.0\nsamples = 1\nvalue = [0, 1, 0]"] ;
975 -> 976 ;
977 [label="gini = 0.0\nsamples = 1\nvalue = [1, 0, 0]"] ;
975 -> 977 ;
978 [label="X[8] <= 1.5\ngini = 0.375\nsamples = 4\nvalue = [1, 0, 3]"] ;
974 -> 978 ;
979 [label="gini = 0.0\nsamples = 1\nvalue = [1, 0, 0]"] ;
978 -> 979 ;
980 [label="gini = 0.0\nsamples = 3\nvalue = [0, 0, 3]"] ;
978 -> 980 ;
981 [label="X[13] <= 0.5\ngini = 0.34\nsamples = 10\nvalue = [1, 1, 8]"] ;
973 -> 981 ;
982 [label="X[9] <= 0.5\ngini = 0.56\nsamples = 5\nvalue = [1, 1, 3]"] ;
981 -> 982 ;
983 [label="X[8] <= 1.5\ngini = 0.5\nsamples = 2\nvalue = [0, 1, 1]"] ;
982 -> 983 ;
984 [label="gini = 0.0\nsamples = 1\nvalue = [0, 1, 0]"] ;
983 -> 984 ;
985 [label="gini = 0.0\nsamples = 1\nvalue = [0, 0, 1]"] ;
983 -> 985 ;
986 [label="X[31] <= 1.5\ngini = 0.444\nsamples = 3\nvalue = [1, 0, 2]"] ;
982 -> 986 ;
987 [label="gini = 0.0\nsamples = 1\nvalue = [1, 0, 0]"] ;
986 -> 987 ;
988 [label="gini = 0.0\nsamples = 2\nvalue = [0, 0, 2]"] ;
986 -> 988 ;
989 [label="gini = 0.0\nsamples = 5\nvalue = [0, 0, 5]"] ;
981 -> 989 ;
990 [label="gini = 0.0\nsamples = 3\nvalue = [0, 0, 3]"] ;
972 -> 990 ;
991 [label="gini = 0.0\nsamples = 7\nvalue = [0, 0, 7]"] ;
971 -> 991 ;
992 [label="X[18] <= 0.5\ngini = 0.531\nsamples = 8\nvalue = [2, 1, 5]"] ;
970 -> 992 ;
993 [label="X[7] <= 1.5\ngini = 0.32\nsamples = 5\nvalue = [1, 0, 4]"] ;
992 -> 993 ;
994 [label="X[31] <= 1.5\ngini = 0.5\nsamples = 2\nvalue = [1, 0, 1]"] ;
993 -> 994 ;
995 [label="gini = 0.0\nsamples = 1\nvalue = [1, 0, 0]"] ;
994 -> 995 ;
996 [label="gini = 0.0\nsamples = 1\nvalue = [0, 0, 1]"] ;
994 -> 996 ;
997 [label="gini = 0.0\nsamples = 3\nvalue = [0, 0, 3]"] ;
993 -> 997 ;
998 [label="X[31] <= 1.5\ngini = 0.667\nsamples = 3\nvalue = [1, 1, 1]"] ;
992 -> 998 ;
999 [label="gini = 0.0\nsamples = 1\nvalue = [0, 1, 0]"] ;
998 -> 999 ;
1000 [label="X[32] <= 1.5\ngini = 0.5\nsamples = 2\nvalue = [1, 0, 1]"] ;
998 -> 1000 ;
1001 [label="gini = 0.0\nsamples = 1\nvalue = [1, 0, 0]"] ;
1000 -> 1001 ;
1002 [label="gini = 0.0\nsamples = 1\nvalue = [0, 0, 1]"] ;
1000 -> 1002 ;
1003 [label="X[32] <= 1.5\ngini = 0.105\nsamples = 18\nvalue = [0, 1, 17]"] ;
959 -> 1003 ;
1004 [label="gini = 0.0\nsamples = 12\nvalue = [0, 0, 12]"] ;
1003 -> 1004 ;
1005 [label="X[30] <= 1.5\ngini = 0.278\nsamples = 6\nvalue = [0, 1, 5]"] ;
1003 -> 1005 ;
1006 [label="X[13] <= 0.5\ngini = 0.5\nsamples = 2\nvalue = [0, 1, 1]"] ;
1005 -> 1006 ;
1007 [label="gini = 0.0\nsamples = 1\nvalue = [0, 0, 1]"] ;
1006 -> 1007 ;
1008 [label="gini = 0.0\nsamples = 1\nvalue = [0, 1, 0]"] ;
1006 -> 1008 ;
1009 [label="gini = 0.0\nsamples = 4\nvalue = [0, 0, 4]"] ;
1005 -> 1009 ;
1010 [label="X[31] <= 1.5\ngini = 0.512\nsamples = 11\nvalue = [1, 3, 7]"] ;
958 -> 1010 ;
1011 [label="X[31] <= 0.5\ngini = 0.375\nsamples = 4\nvalue = [0, 3, 1]"] ;
1010 -> 1011 ;
1012 [label="gini = 0.0\nsamples = 1\nvalue = [0, 0, 1]"] ;
1011 -> 1012 ;
1013 [label="gini = 0.0\nsamples = 3\nvalue = [0, 3, 0]"] ;
1011 -> 1013 ;
1014 [label="X[32] <= 0.5\ngini = 0.245\nsamples = 7\nvalue = [1, 0, 6]"] ;
1010 -> 1014 ;
1015 [label="gini = 0.0\nsamples = 4\nvalue = [0, 0, 4]"] ;
1014 -> 1015 ;
1016 [label="X[32] <= 1.5\ngini = 0.444\nsamples = 3\nvalue = [1, 0, 2]"] ;
1014 -> 1016 ;
1017 [label="gini = 0.0\nsamples = 1\nvalue = [1, 0, 0]"] ;
1016 -> 1017 ;
1018 [label="gini = 0.0\nsamples = 2\nvalue = [0, 0, 2]"] ;
1016 -> 1018 ;
1019 [label="gini = 0.0\nsamples = 17\nvalue = [0, 0, 17]"] ;
957 -> 1019 ;
1020 [label="X[7] <= 1.5\ngini = 0.375\nsamples = 12\nvalue = [0, 3, 9]"] ;
956 -> 1020 ;
1021 [label="gini = 0.0\nsamples = 6\nvalue = [0, 0, 6]"] ;
1020 -> 1021 ;
1022 [label="X[8] <= 0.5\ngini = 0.5\nsamples = 6\nvalue = [0, 3, 3]"] ;
1020 -> 1022 ;
1023 [label="gini = 0.0\nsamples = 2\nvalue = [0, 2, 0]"] ;
1022 -> 1023 ;
1024 [label="X[9] <= 0.5\ngini = 0.375\nsamples = 4\nvalue = [0, 1, 3]"] ;
1022 -> 1024 ;
1025 [label="gini = 0.0\nsamples = 3\nvalue = [0, 0, 3]"] ;
1024 -> 1025 ;
1026 [label="gini = 0.0\nsamples = 1\nvalue = [0, 1, 0]"] ;
1024 -> 1026 ;
1027 [label="gini = 0.0\nsamples = 24\nvalue = [0, 0, 24]"] ;
955 -> 1027 ;
1028 [label="gini = 0.0\nsamples = 26\nvalue = [0, 0, 26]"] ;
954 -> 1028 ;
1029 [label="X[20] <= 0.5\ngini = 0.054\nsamples = 73\nvalue = [1, 1, 71]"] ;
953 -> 1029 ;
1030 [label="X[30] <= 0.5\ngini = 0.031\nsamples = 63\nvalue = [0, 1, 62]"] ;
1029 -> 1030 ;
1031 [label="X[19] <= 0.5\ngini = 0.219\nsamples = 8\nvalue = [0, 1, 7]"] ;
1030 -> 1031 ;
1032 [label="gini = 0.0\nsamples = 4\nvalue = [0, 0, 4]"] ;
1031 -> 1032 ;
1033 [label="X[8] <= 1.5\ngini = 0.375\nsamples = 4\nvalue = [0, 1, 3]"] ;
1031 -> 1033 ;
1034 [label="X[19] <= 1.5\ngini = 0.5\nsamples = 2\nvalue = [0, 1, 1]"] ;
1033 -> 1034 ;
1035 [label="gini = 0.0\nsamples = 1\nvalue = [0, 1, 0]"] ;
1034 -> 1035 ;
1036 [label="gini = 0.0\nsamples = 1\nvalue = [0, 0, 1]"] ;
1034 -> 1036 ;
1037 [label="gini = 0.0\nsamples = 2\nvalue = [0, 0, 2]"] ;
1033 -> 1037 ;
1038 [label="gini = 0.0\nsamples = 55\nvalue = [0, 0, 55]"] ;
1030 -> 1038 ;
1039 [label="X[31] <= 1.5\ngini = 0.18\nsamples = 10\nvalue = [1, 0, 9]"] ;
1029 -> 1039 ;
1040 [label="gini = 0.0\nsamples = 9\nvalue = [0, 0, 9]"] ;
1039 -> 1040 ;
1041 [label="gini = 0.0\nsamples = 1\nvalue = [1, 0, 0]"] ;
1039 -> 1041 ;
1042 [label="gini = 0.0\nsamples = 1\nvalue = [1, 0, 0]"] ;
952 -> 1042 ;
1043 [label="X[20] <= 1.5\ngini = 0.418\nsamples = 45\nvalue = [3, 9, 33]"] ;
951 -> 1043 ;
1044 [label="X[21] <= 1.5\ngini = 0.601\nsamples = 23\nvalue = [3, 9, 11]"] ;
1043 -> 1044 ;
1045 [label="gini = 0.0\nsamples = 7\nvalue = [0, 7, 0]"] ;
1044 -> 1045 ;
1046 [label="X[19] <= 1.5\ngini = 0.477\nsamples = 16\nvalue = [3, 2, 11]"] ;
1044 -> 1046 ;
1047 [label="X[13] <= 1.0\ngini = 0.5\nsamples = 2\nvalue = [1, 1, 0]"] ;
1046 -> 1047 ;
1048 [label="gini = 0.0\nsamples = 1\nvalue = [0, 1, 0]"] ;
1047 -> 1048 ;
1049 [label="gini = 0.0\nsamples = 1\nvalue = [1, 0, 0]"] ;
1047 -> 1049 ;
1050 [label="X[23] <= 1.5\ngini = 0.357\nsamples = 14\nvalue = [2, 1, 11]"] ;
1046 -> 1050 ;
1051 [label="X[13] <= 0.5\ngini = 0.272\nsamples = 13\nvalue = [1, 1, 11]"] ;
1050 -> 1051 ;
1052 [label="gini = 0.0\nsamples = 7\nvalue = [0, 0, 7]"] ;
1051 -> 1052 ;
1053 [label="X[7] <= 1.5\ngini = 0.5\nsamples = 6\nvalue = [1, 1, 4]"] ;
1051 -> 1053 ;
1054 [label="X[22] <= 1.5\ngini = 0.32\nsamples = 5\nvalue = [1, 0, 4]"] ;
1053 -> 1054 ;
1055 [label="gini = 0.0\nsamples = 4\nvalue = [0, 0, 4]"] ;
1054 -> 1055 ;
1056 [label="gini = 0.0\nsamples = 1\nvalue = [1, 0, 0]"] ;
1054 -> 1056 ;
1057 [label="gini = 0.0\nsamples = 1\nvalue = [0, 1, 0]"] ;
1053 -> 1057 ;
1058 [label="gini = 0.0\nsamples = 1\nvalue = [1, 0, 0]"] ;
1050 -> 1058 ;
1059 [label="gini = 0.0\nsamples = 22\nvalue = [0, 0, 22]"] ;
1043 -> 1059 ;
1060 [label="X[11] <= 0.5\ngini = 0.544\nsamples = 21\nvalue = [4, 4, 13]"] ;
950 -> 1060 ;
1061 [label="X[18] <= 0.5\ngini = 0.64\nsamples = 15\nvalue = [4, 4, 7]"] ;
1060 -> 1061 ;
1062 [label="X[7] <= 1.5\ngini = 0.625\nsamples = 8\nvalue = [4, 2, 2]"] ;
1061 -> 1062 ;
1063 [label="gini = 0.0\nsamples = 2\nvalue = [2, 0, 0]"] ;
1062 -> 1063 ;
1064 [label="X[9] <= 1.5\ngini = 0.667\nsamples = 6\nvalue = [2, 2, 2]"] ;
1062 -> 1064 ;
1065 [label="X[8] <= 1.5\ngini = 0.5\nsamples = 4\nvalue = [0, 2, 2]"] ;
1064 -> 1065 ;
1066 [label="X[31] <= 0.5\ngini = 0.5\nsamples = 2\nvalue = [0, 1, 1]"] ;
1065 -> 1066 ;
1067 [label="gini = 0.0\nsamples = 1\nvalue = [0, 1, 0]"] ;
1066 -> 1067 ;
1068 [label="gini = 0.0\nsamples = 1\nvalue = [0, 0, 1]"] ;
1066 -> 1068 ;
1069 [label="X[13] <= 0.5\ngini = 0.5\nsamples = 2\nvalue = [0, 1, 1]"] ;
1065 -> 1069 ;
1070 [label="gini = 0.0\nsamples = 1\nvalue = [0, 1, 0]"] ;
1069 -> 1070 ;
1071 [label="gini = 0.0\nsamples = 1\nvalue = [0, 0, 1]"] ;
1069 -> 1071 ;
1072 [label="gini = 0.0\nsamples = 2\nvalue = [2, 0, 0]"] ;
1064 -> 1072 ;
1073 [label="X[30] <= 1.5\ngini = 0.408\nsamples = 7\nvalue = [0, 2, 5]"] ;
1061 -> 1073 ;
1074 [label="X[13] <= 0.5\ngini = 0.278\nsamples = 6\nvalue = [0, 1, 5]"] ;
1073 -> 1074 ;
1075 [label="gini = 0.0\nsamples = 4\nvalue = [0, 0, 4]"] ;
1074 -> 1075 ;
1076 [label="X[8] <= 1.5\ngini = 0.5\nsamples = 2\nvalue = [0, 1, 1]"] ;
1074 -> 1076 ;
1077 [label="gini = 0.0\nsamples = 1\nvalue = [0, 1, 0]"] ;
1076 -> 1077 ;
1078 [label="gini = 0.0\nsamples = 1\nvalue = [0, 0, 1]"] ;
1076 -> 1078 ;
1079 [label="gini = 0.0\nsamples = 1\nvalue = [0, 1, 0]"] ;
1073 -> 1079 ;
1080 [label="gini = 0.0\nsamples = 6\nvalue = [0, 0, 6]"] ;
1060 -> 1080 ;
1081 [label="X[35] <= 0.5\ngini = 0.579\nsamples = 11\nvalue = [1, 5, 5]"] ;
949 -> 1081 ;
1082 [label="X[7] <= 0.5\ngini = 0.531\nsamples = 8\nvalue = [1, 5, 2]"] ;
1081 -> 1082 ;
1083 [label="X[13] <= 1.5\ngini = 0.278\nsamples = 6\nvalue = [0, 5, 1]"] ;
1082 -> 1083 ;
1084 [label="gini = 0.0\nsamples = 4\nvalue = [0, 4, 0]"] ;
1083 -> 1084 ;
1085 [label="X[31] <= 1.5\ngini = 0.5\nsamples = 2\nvalue = [0, 1, 1]"] ;
1083 -> 1085 ;
1086 [label="gini = 0.0\nsamples = 1\nvalue = [0, 0, 1]"] ;
1085 -> 1086 ;
1087 [label="gini = 0.0\nsamples = 1\nvalue = [0, 1, 0]"] ;
1085 -> 1087 ;
1088 [label="X[32] <= 1.5\ngini = 0.5\nsamples = 2\nvalue = [1, 0, 1]"] ;
1082 -> 1088 ;
1089 [label="gini = 0.0\nsamples = 1\nvalue = [0, 0, 1]"] ;
1088 -> 1089 ;
1090 [label="gini = 0.0\nsamples = 1\nvalue = [1, 0, 0]"] ;
1088 -> 1090 ;
1091 [label="gini = 0.0\nsamples = 3\nvalue = [0, 0, 3]"] ;
1081 -> 1091 ;
1092 [label="X[14] <= 1.5\ngini = 0.569\nsamples = 462\nvalue = [68, 127, 267]"] ;
864 -> 1092 ;
1093 [label="X[19] <= 1.5\ngini = 0.644\nsamples = 244\nvalue = [52, 92, 100]"] ;
1092 -> 1093 ;
1094 [label="X[8] <= 0.5\ngini = 0.64\nsamples = 187\nvalue = [40, 83, 64]"] ;
1093 -> 1094 ;
1095 [label="X[33] <= 1.5\ngini = 0.614\nsamples = 143\nvalue = [21, 63, 59]"] ;
1094 -> 1095 ;
1096 [label="X[15] <= 1.5\ngini = 0.615\nsamples = 128\nvalue = [20, 60, 48]"] ;
1095 -> 1096 ;
1097 [label="X[30] <= 1.5\ngini = 0.531\nsamples = 56\nvalue = [7, 35, 14]"] ;
1096 -> 1097 ;
1098 [label="X[32] <= 1.5\ngini = 0.632\nsamples = 22\nvalue = [4, 9, 9]"] ;
1097 -> 1098 ;
1099 [label="X[18] <= 0.5\ngini = 0.49\nsamples = 14\nvalue = [0, 8, 6]"] ;
1098 -> 1099 ;
1100 [label="X[17] <= 0.5\ngini = 0.278\nsamples = 6\nvalue = [0, 5, 1]"] ;
1099 -> 1100 ;
1101 [label="gini = 0.0\nsamples = 5\nvalue = [0, 5, 0]"] ;
1100 -> 1101 ;
1102 [label="gini = 0.0\nsamples = 1\nvalue = [0, 0, 1]"] ;
1100 -> 1102 ;
1103 [label="X[30] <= 0.5\ngini = 0.469\nsamples = 8\nvalue = [0, 3, 5]"] ;
1099 -> 1103 ;
1104 [label="X[7] <= 1.0\ngini = 0.48\nsamples = 5\nvalue = [0, 3, 2]"] ;
1103 -> 1104 ;
1105 [label="X[22] <= 0.5\ngini = 0.444\nsamples = 3\nvalue = [0, 1, 2]"] ;
1104 -> 1105 ;
1106 [label="gini = 0.0\nsamples = 2\nvalue = [0, 0, 2]"] ;
1105 -> 1106 ;
1107 [label="gini = 0.0\nsamples = 1\nvalue = [0, 1, 0]"] ;
1105 -> 1107 ;
1108 [label="gini = 0.0\nsamples = 2\nvalue = [0, 2, 0]"] ;
1104 -> 1108 ;
1109 [label="gini = 0.0\nsamples = 3\nvalue = [0, 0, 3]"] ;
1103 -> 1109 ;
1110 [label="X[15] <= 0.5\ngini = 0.594\nsamples = 8\nvalue = [4, 1, 3]"] ;
1098 -> 1110 ;
1111 [label="X[18] <= 0.5\ngini = 0.48\nsamples = 5\nvalue = [2, 0, 3]"] ;
1110 -> 1111 ;
1112 [label="X[13] <= 1.5\ngini = 0.444\nsamples = 3\nvalue = [2, 0, 1]"] ;
1111 -> 1112 ;
1113 [label="gini = 0.0\nsamples = 1\nvalue = [1, 0, 0]"] ;
1112 -> 1113 ;
1114 [label="X[34] <= 1.0\ngini = 0.5\nsamples = 2\nvalue = [1, 0, 1]"] ;
1112 -> 1114 ;
1115 [label="gini = 0.0\nsamples = 1\nvalue = [0, 0, 1]"] ;
1114 -> 1115 ;
1116 [label="gini = 0.0\nsamples = 1\nvalue = [1, 0, 0]"] ;
1114 -> 1116 ;
1117 [label="gini = 0.0\nsamples = 2\nvalue = [0, 0, 2]"] ;
1111 -> 1117 ;
1118 [label="X[33] <= 0.5\ngini = 0.444\nsamples = 3\nvalue = [2, 1, 0]"] ;
1110 -> 1118 ;
1119 [label="gini = 0.0\nsamples = 2\nvalue = [2, 0, 0]"] ;
1118 -> 1119 ;
1120 [label="gini = 0.0\nsamples = 1\nvalue = [0, 1, 0]"] ;
1118 -> 1120 ;
1121 [label="X[33] <= 0.5\ngini = 0.386\nsamples = 34\nvalue = [3, 26, 5]"] ;
1097 -> 1121 ;
1122 [label="X[15] <= 0.5\ngini = 0.34\nsamples = 29\nvalue = [1, 23, 5]"] ;
1121 -> 1122 ;
1123 [label="X[6] <= 0.5\ngini = 0.408\nsamples = 14\nvalue = [0, 10, 4]"] ;
1122 -> 1123 ;
1124 [label="gini = 0.0\nsamples = 4\nvalue = [0, 4, 0]"] ;
1123 -> 1124 ;
1125 [label="X[32] <= 1.5\ngini = 0.48\nsamples = 10\nvalue = [0, 6, 4]"] ;
1123 -> 1125 ;
1126 [label="X[18] <= 0.5\ngini = 0.5\nsamples = 8\nvalue = [0, 4, 4]"] ;
1125 -> 1126 ;
1127 [label="gini = 0.0\nsamples = 2\nvalue = [0, 0, 2]"] ;
1126 -> 1127 ;
1128 [label="X[7] <= 0.5\ngini = 0.444\nsamples = 6\nvalue = [0, 4, 2]"] ;
1126 -> 1128 ;
1129 [label="X[32] <= 0.5\ngini = 0.444\nsamples = 3\nvalue = [0, 1, 2]"] ;
1128 -> 1129 ;
1130 [label="gini = 0.0\nsamples = 2\nvalue = [0, 0, 2]"] ;
1129 -> 1130 ;
1131 [label="gini = 0.0\nsamples = 1\nvalue = [0, 1, 0]"] ;
1129 -> 1131 ;
1132 [label="gini = 0.0\nsamples = 3\nvalue = [0, 3, 0]"] ;
1128 -> 1132 ;
1133 [label="gini = 0.0\nsamples = 2\nvalue = [0, 2, 0]"] ;
1125 -> 1133 ;
1134 [label="X[17] <= 0.5\ngini = 0.24\nsamples = 15\nvalue = [1, 13, 1]"] ;
1122 -> 1134 ;
1135 [label="X[6] <= 0.5\ngini = 0.142\nsamples = 13\nvalue = [1, 12, 0]"] ;
1134 -> 1135 ;
1136 [label="X[16] <= 1.0\ngini = 0.278\nsamples = 6\nvalue = [1, 5, 0]"] ;
1135 -> 1136 ;
1137 [label="gini = 0.0\nsamples = 3\nvalue = [0, 3, 0]"] ;
1136 -> 1137 ;
1138 [label="X[18] <= 0.5\ngini = 0.444\nsamples = 3\nvalue = [1, 2, 0]"] ;
1136 -> 1138 ;
1139 [label="gini = 0.0\nsamples = 1\nvalue = [0, 1, 0]"] ;
1138 -> 1139 ;
1140 [label="X[19] <= 0.5\ngini = 0.5\nsamples = 2\nvalue = [1, 1, 0]"] ;
1138 -> 1140 ;
1141 [label="gini = 0.0\nsamples = 1\nvalue = [1, 0, 0]"] ;
1140 -> 1141 ;
1142 [label="gini = 0.0\nsamples = 1\nvalue = [0, 1, 0]"] ;
1140 -> 1142 ;
1143 [label="gini = 0.0\nsamples = 7\nvalue = [0, 7, 0]"] ;
1135 -> 1143 ;
1144 [label="X[31] <= 1.0\ngini = 0.5\nsamples = 2\nvalue = [0, 1, 1]"] ;
1134 -> 1144 ;
1145 [label="gini = 0.0\nsamples = 1\nvalue = [0, 0, 1]"] ;
1144 -> 1145 ;
1146 [label="gini = 0.0\nsamples = 1\nvalue = [0, 1, 0]"] ;
1144 -> 1146 ;
1147 [label="X[31] <= 1.5\ngini = 0.48\nsamples = 5\nvalue = [2, 3, 0]"] ;
1121 -> 1147 ;
1148 [label="gini = 0.0\nsamples = 3\nvalue = [0, 3, 0]"] ;
1147 -> 1148 ;
1149 [label="gini = 0.0\nsamples = 2\nvalue = [2, 0, 0]"] ;
1147 -> 1149 ;
1150 [label="X[19] <= 0.5\ngini = 0.624\nsamples = 72\nvalue = [13, 25, 34]"] ;
1096 -> 1150 ;
1151 [label="X[17] <= 1.5\ngini = 0.615\nsamples = 60\nvalue = [13, 16, 31]"] ;
1150 -> 1151 ;
1152 [label="X[18] <= 0.5\ngini = 0.586\nsamples = 55\nvalue = [11, 13, 31]"] ;
1151 -> 1152 ;
1153 [label="X[30] <= 1.5\ngini = 0.466\nsamples = 33\nvalue = [4, 6, 23]"] ;
1152 -> 1153 ;
1154 [label="X[17] <= 0.5\ngini = 0.637\nsamples = 17\nvalue = [4, 5, 8]"] ;
1153 -> 1154 ;
1155 [label="X[7] <= 1.5\ngini = 0.663\nsamples = 13\nvalue = [4, 5, 4]"] ;
1154 -> 1155 ;
1156 [label="X[16] <= 0.5\ngini = 0.661\nsamples = 11\nvalue = [4, 3, 4]"] ;
1155 -> 1156 ;
1157 [label="X[32] <= 0.5\ngini = 0.653\nsamples = 7\nvalue = [2, 3, 2]"] ;
1156 -> 1157 ;
1158 [label="gini = 0.0\nsamples = 1\nvalue = [0, 0, 1]"] ;
1157 -> 1158 ;
1159 [label="X[13] <= 1.5\ngini = 0.611\nsamples = 6\nvalue = [2, 3, 1]"] ;
1157 -> 1159 ;
1160 [label="X[33] <= 0.5\ngini = 0.5\nsamples = 2\nvalue = [1, 0, 1]"] ;
1159 -> 1160 ;
1161 [label="gini = 0.0\nsamples = 1\nvalue = [1, 0, 0]"] ;
1160 -> 1161 ;
1162 [label="gini = 0.0\nsamples = 1\nvalue = [0, 0, 1]"] ;
1160 -> 1162 ;
1163 [label="X[6] <= 0.5\ngini = 0.375\nsamples = 4\nvalue = [1, 3, 0]"] ;
1159 -> 1163 ;
1164 [label="X[32] <= 1.5\ngini = 0.5\nsamples = 2\nvalue = [1, 1, 0]"] ;
1163 -> 1164 ;
1165 [label="gini = 0.0\nsamples = 1\nvalue = [0, 1, 0]"] ;
1164 -> 1165 ;
1166 [label="gini = 0.0\nsamples = 1\nvalue = [1, 0, 0]"] ;
1164 -> 1166 ;
1167 [label="gini = 0.0\nsamples = 2\nvalue = [0, 2, 0]"] ;
1163 -> 1167 ;
1168 [label="X[32] <= 1.5\ngini = 0.5\nsamples = 4\nvalue = [2, 0, 2]"] ;
1156 -> 1168 ;
1169 [label="X[31] <= 1.0\ngini = 0.444\nsamples = 3\nvalue = [2, 0, 1]"] ;
1168 -> 1169 ;
1170 [label="gini = 0.0\nsamples = 1\nvalue = [1, 0, 0]"] ;
1169 -> 1170 ;
1171 [label="X[32] <= 0.5\ngini = 0.5\nsamples = 2\nvalue = [1, 0, 1]"] ;
1169 -> 1171 ;
1172 [label="gini = 0.0\nsamples = 1\nvalue = [0, 0, 1]"] ;
1171 -> 1172 ;
1173 [label="gini = 0.0\nsamples = 1\nvalue = [1, 0, 0]"] ;
1171 -> 1173 ;
1174 [label="gini = 0.0\nsamples = 1\nvalue = [0, 0, 1]"] ;
1168 -> 1174 ;
1175 [label="gini = 0.0\nsamples = 2\nvalue = [0, 2, 0]"] ;
1155 -> 1175 ;
1176 [label="gini = 0.0\nsamples = 4\nvalue = [0, 0, 4]"] ;
1154 -> 1176 ;
1177 [label="X[16] <= 1.5\ngini = 0.117\nsamples = 16\nvalue = [0, 1, 15]"] ;
1153 -> 1177 ;
1178 [label="gini = 0.0\nsamples = 12\nvalue = [0, 0, 12]"] ;
1177 -> 1178 ;
1179 [label="X[32] <= 0.5\ngini = 0.375\nsamples = 4\nvalue = [0, 1, 3]"] ;
1177 -> 1179 ;
1180 [label="gini = 0.0\nsamples = 3\nvalue = [0, 0, 3]"] ;
1179 -> 1180 ;
1181 [label="gini = 0.0\nsamples = 1\nvalue = [0, 1, 0]"] ;
1179 -> 1181 ;
1182 [label="X[30] <= 1.5\ngini = 0.665\nsamples = 22\nvalue = [7, 7, 8]"] ;
1152 -> 1182 ;
1183 [label="X[16] <= 0.5\ngini = 0.42\nsamples = 10\nvalue = [3, 0, 7]"] ;
1182 -> 1183 ;
1184 [label="gini = 0.0\nsamples = 4\nvalue = [0, 0, 4]"] ;
1183 -> 1184 ;
1185 [label="X[7] <= 0.5\ngini = 0.5\nsamples = 6\nvalue = [3, 0, 3]"] ;
1183 -> 1185 ;
1186 [label="X[31] <= 0.5\ngini = 0.375\nsamples = 4\nvalue = [1, 0, 3]"] ;
1185 -> 1186 ;
1187 [label="gini = 0.0\nsamples = 2\nvalue = [0, 0, 2]"] ;
1186 -> 1187 ;
1188 [label="X[31] <= 1.5\ngini = 0.5\nsamples = 2\nvalue = [1, 0, 1]"] ;
1186 -> 1188 ;
1189 [label="gini = 0.0\nsamples = 1\nvalue = [1, 0, 0]"] ;
1188 -> 1189 ;
1190 [label="gini = 0.0\nsamples = 1\nvalue = [0, 0, 1]"] ;
1188 -> 1190 ;
1191 [label="gini = 0.0\nsamples = 2\nvalue = [2, 0, 0]"] ;
1185 -> 1191 ;
1192 [label="X[13] <= 1.5\ngini = 0.542\nsamples = 12\nvalue = [4, 7, 1]"] ;
1182 -> 1192 ;
1193 [label="X[31] <= 1.5\ngini = 0.449\nsamples = 7\nvalue = [1, 5, 1]"] ;
1192 -> 1193 ;
1194 [label="gini = 0.0\nsamples = 4\nvalue = [0, 4, 0]"] ;
1193 -> 1194 ;
1195 [label="X[6] <= 0.5\ngini = 0.667\nsamples = 3\nvalue = [1, 1, 1]"] ;
1193 -> 1195 ;
1196 [label="X[32] <= 0.5\ngini = 0.5\nsamples = 2\nvalue = [0, 1, 1]"] ;
1195 -> 1196 ;
1197 [label="gini = 0.0\nsamples = 1\nvalue = [0, 0, 1]"] ;
1196 -> 1197 ;
1198 [label="gini = 0.0\nsamples = 1\nvalue = [0, 1, 0]"] ;
1196 -> 1198 ;
1199 [label="gini = 0.0\nsamples = 1\nvalue = [1, 0, 0]"] ;
1195 -> 1199 ;
1200 [label="X[31] <= 0.5\ngini = 0.48\nsamples = 5\nvalue = [3, 2, 0]"] ;
1192 -> 1200 ;
1201 [label="X[16] <= 0.5\ngini = 0.444\nsamples = 3\nvalue = [1, 2, 0]"] ;
1200 -> 1201 ;
1202 [label="gini = 0.0\nsamples = 1\nvalue = [0, 1, 0]"] ;
1201 -> 1202 ;
1203 [label="X[17] <= 0.5\ngini = 0.5\nsamples = 2\nvalue = [1, 1, 0]"] ;
1201 -> 1203 ;
1204 [label="gini = 0.0\nsamples = 1\nvalue = [1, 0, 0]"] ;
1203 -> 1204 ;
1205 [label="gini = 0.0\nsamples = 1\nvalue = [0, 1, 0]"] ;
1203 -> 1205 ;
1206 [label="gini = 0.0\nsamples = 2\nvalue = [2, 0, 0]"] ;
1200 -> 1206 ;
1207 [label="X[6] <= 0.5\ngini = 0.48\nsamples = 5\nvalue = [2, 3, 0]"] ;
1151 -> 1207 ;
1208 [label="X[30] <= 1.5\ngini = 0.444\nsamples = 3\nvalue = [2, 1, 0]"] ;
1207 -> 1208 ;
1209 [label="gini = 0.0\nsamples = 2\nvalue = [2, 0, 0]"] ;
1208 -> 1209 ;
1210 [label="gini = 0.0\nsamples = 1\nvalue = [0, 1, 0]"] ;
1208 -> 1210 ;
1211 [label="gini = 0.0\nsamples = 2\nvalue = [0, 2, 0]"] ;
1207 -> 1211 ;
1212 [label="X[17] <= 0.5\ngini = 0.375\nsamples = 12\nvalue = [0, 9, 3]"] ;
1150 -> 1212 ;
1213 [label="X[31] <= 1.5\ngini = 0.298\nsamples = 11\nvalue = [0, 9, 2]"] ;
1212 -> 1213 ;
1214 [label="X[20] <= 1.0\ngini = 0.18\nsamples = 10\nvalue = [0, 9, 1]"] ;
1213 -> 1214 ;
1215 [label="gini = 0.0\nsamples = 6\nvalue = [0, 6, 0]"] ;
1214 -> 1215 ;
1216 [label="X[30] <= 0.5\ngini = 0.375\nsamples = 4\nvalue = [0, 3, 1]"] ;
1214 -> 1216 ;
1217 [label="gini = 0.0\nsamples = 3\nvalue = [0, 3, 0]"] ;
1216 -> 1217 ;
1218 [label="gini = 0.0\nsamples = 1\nvalue = [0, 0, 1]"] ;
1216 -> 1218 ;
1219 [label="gini = 0.0\nsamples = 1\nvalue = [0, 0, 1]"] ;
1213 -> 1219 ;
1220 [label="gini = 0.0\nsamples = 1\nvalue = [0, 0, 1]"] ;
1212 -> 1220 ;
1221 [label="X[13] <= 1.5\ngini = 0.418\nsamples = 15\nvalue = [1, 3, 11]"] ;
1095 -> 1221 ;
1222 [label="X[31] <= 1.5\ngini = 0.611\nsamples = 6\nvalue = [1, 3, 2]"] ;
1221 -> 1222 ;
1223 [label="X[18] <= 0.5\ngini = 0.444\nsamples = 3\nvalue = [1, 0, 2]"] ;
1222 -> 1223 ;
1224 [label="gini = 0.0\nsamples = 2\nvalue = [0, 0, 2]"] ;
1223 -> 1224 ;
1225 [label="gini = 0.0\nsamples = 1\nvalue = [1, 0, 0]"] ;
1223 -> 1225 ;
1226 [label="gini = 0.0\nsamples = 3\nvalue = [0, 3, 0]"] ;
1222 -> 1226 ;
1227 [label="gini = 0.0\nsamples = 9\nvalue = [0, 0, 9]"] ;
1221 -> 1227 ;
1228 [label="X[7] <= 1.5\ngini = 0.594\nsamples = 44\nvalue = [19, 20, 5]"] ;
1094 -> 1228 ;
1229 [label="X[30] <= 1.5\ngini = 0.582\nsamples = 14\nvalue = [8, 3, 3]"] ;
1228 -> 1229 ;
1230 [label="X[31] <= 1.0\ngini = 0.469\nsamples = 8\nvalue = [5, 0, 3]"] ;
1229 -> 1230 ;
1231 [label="X[18] <= 0.5\ngini = 0.408\nsamples = 7\nvalue = [5, 0, 2]"] ;
1230 -> 1231 ;
1232 [label="X[9] <= 0.5\ngini = 0.32\nsamples = 5\nvalue = [4, 0, 1]"] ;
1231 -> 1232 ;
1233 [label="X[30] <= 0.5\ngini = 0.5\nsamples = 2\nvalue = [1, 0, 1]"] ;
1232 -> 1233 ;
1234 [label="gini = 0.0\nsamples = 1\nvalue = [1, 0, 0]"] ;
