digraph Tree {
node [shape=box, fontname="helvetica"] ;
edge [fontname="helvetica"] ;
0 [label="X[0] <= 1.5\ngini = 0.497\nsamples = 54045\nvalue = [5154, 13294, 35597]"] ;
1 [label="X[36] <= 1.5\ngini = 0.443\nsamples = 36187\nvalue = [3183, 7151, 25853]"] ;
0 -> 1 [labeldistance=2.5, labelangle=45, headlabel="True"] ;
2 [label="X[6] <= 1.5\ngini = 0.386\nsamples = 25055\nvalue = [2066, 3852, 19137]"] ;
1 -> 2 ;
3 [label="X[0] <= 0.5\ngini = 0.304\nsamples = 14149\nvalue = [1028, 1452, 11669]"] ;
2 -> 3 ;
4 [label="X[12] <= 1.5\ngini = 0.372\nsamples = 7805\nvalue = [650, 1105, 6050]"] ;
3 -> 4 ;
5 [label="X[6] <= 0.5\ngini = 0.265\nsamples = 2557\nvalue = [185, 197, 2175]"] ;
4 -> 5 ;
6 [label="X[20] <= 0.5\ngini = 0.428\nsamples = 1040\nvalue = [127, 152, 761]"] ;
5 -> 6 ;
7 [label="X[19] <= 1.5\ngini = 0.313\nsamples = 667\nvalue = [74, 47, 546]"] ;
6 -> 7 ;
8 [label="X[30] <= 1.5\ngini = 0.405\nsamples = 471\nvalue = [72, 46, 353]"] ;
7 -> 8 ;
9 [label="X[13] <= 1.5\ngini = 0.304\nsamples = 306\nvalue = [36, 18, 252]"] ;
8 -> 9 ;
10 [label="X[30] <= 0.5\ngini = 0.427\nsamples = 116\nvalue = [14, 17, 85]"] ;
9 -> 10 ;
11 [label="X[25] <= 1.5\ngini = 0.585\nsamples = 53\nvalue = [11, 12, 30]"] ;
10 -> 11 ;
12 [label="X[19] <= 0.5\ngini = 0.656\nsamples = 31\nvalue = [9, 9, 13]"] ;
11 -> 12 ;
13 [label="X[27] <= 1.5\ngini = 0.63\nsamples = 26\nvalue = [9, 5, 12]"] ;
12 -> 13 ;
14 [label="X[16] <= 1.5\ngini = 0.649\nsamples = 22\nvalue = [9, 5, 8]"] ;
13 -> 14 ;
15 [label="X[38] <= 1.5\ngini = 0.655\nsamples = 20\nvalue = [7, 5, 8]"] ;
14 -> 15 ;
16 [label="X[25] <= 0.5\ngini = 0.617\nsamples = 16\nvalue = [5, 3, 8]"] ;
15 -> 16 ;
17 [label="gini = 0.0\nsamples = 3\nvalue = [0, 0, 3]"] ;
16 -> 17 ;
18 [label="X[39] <= 1.0\ngini = 0.651\nsamples = 13\nvalue = [5, 3, 5]"] ;
16 -> 18 ;
19 [label="X[38] <= 0.5\ngini = 0.625\nsamples = 12\nvalue = [5, 2, 5]"] ;
18 -> 19 ;
20 [label="X[37] <= 1.0\ngini = 0.628\nsamples = 11\nvalue = [5, 2, 4]"] ;
19 -> 20 ;
21 [label="X[16] <= 0.5\ngini = 0.594\nsamples = 8\nvalue = [3, 1, 4]"] ;
20 -> 21 ;
22 [label="X[14] <= 1.0\ngini = 0.571\nsamples = 7\nvalue = [2, 1, 4]"] ;
21 -> 22 ;
23 [label="X[29] <= 0.5\ngini = 0.667\nsamples = 3\nvalue = [1, 1, 1]"] ;
22 -> 23 ;
24 [label="X[36] <= 0.5\ngini = 0.5\nsamples = 2\nvalue = [1, 1, 0]"] ;
23 -> 24 ;
25 [label="gini = 0.0\nsamples = 1\nvalue = [0, 1, 0]"] ;
24 -> 25 ;
26 [label="gini = 0.0\nsamples = 1\nvalue = [1, 0, 0]"] ;
24 -> 26 ;
27 [label="gini = 0.0\nsamples = 1\nvalue = [0, 0, 1]"] ;
23 -> 27 ;
28 [label="X[36] <= 0.5\ngini = 0.375\nsamples = 4\nvalue = [1, 0, 3]"] ;
22 -> 28 ;
29 [label="X[15] <= 1.5\ngini = 0.5\nsamples = 2\nvalue = [1, 0, 1]"] ;
28 -> 29 ;
30 [label="gini = 0.0\nsamples = 1\nvalue = [0, 0, 1]"] ;
29 -> 30 ;
31 [label="gini = 0.0\nsamples = 1\nvalue = [1, 0, 0]"] ;
29 -> 31 ;
32 [label="gini = 0.0\nsamples = 2\nvalue = [0, 0, 2]"] ;
28 -> 32 ;
33 [label="gini = 0.0\nsamples = 1\nvalue = [1, 0, 0]"] ;
21 -> 33 ;
34 [label="X[26] <= 1.0\ngini = 0.444\nsamples = 3\nvalue = [2, 1, 0]"] ;
20 -> 34 ;
35 [label="gini = 0.0\nsamples = 1\nvalue = [0, 1, 0]"] ;
34 -> 35 ;
36 [label="gini = 0.0\nsamples = 2\nvalue = [2, 0, 0]"] ;
34 -> 36 ;
37 [label="gini = 0.0\nsamples = 1\nvalue = [0, 0, 1]"] ;
19 -> 37 ;
38 [label="gini = 0.0\nsamples = 1\nvalue = [0, 1, 0]"] ;
18 -> 38 ;
39 [label="X[39] <= 0.5\ngini = 0.5\nsamples = 4\nvalue = [2, 2, 0]"] ;
15 -> 39 ;
40 [label="gini = 0.0\nsamples = 2\nvalue = [0, 2, 0]"] ;
39 -> 40 ;
41 [label="gini = 0.0\nsamples = 2\nvalue = [2, 0, 0]"] ;
39 -> 41 ;
42 [label="gini = 0.0\nsamples = 2\nvalue = [2, 0, 0]"] ;
14 -> 42 ;
43 [label="gini = 0.0\nsamples = 4\nvalue = [0, 0, 4]"] ;
13 -> 43 ;
44 [label="X[36] <= 0.5\ngini = 0.32\nsamples = 5\nvalue = [0, 4, 1]"] ;
12 -> 44 ;
45 [label="gini = 0.0\nsamples = 3\nvalue = [0, 3, 0]"] ;
44 -> 45 ;
46 [label="X[15] <= 1.0\ngini = 0.5\nsamples = 2\nvalue = [0, 1, 1]"] ;
44 -> 46 ;
47 [label="gini = 0.0\nsamples = 1\nvalue = [0, 1, 0]"] ;
46 -> 47 ;
48 [label="gini = 0.0\nsamples = 1\nvalue = [0, 0, 1]"] ;
46 -> 48 ;
49 [label="X[37] <= 1.5\ngini = 0.376\nsamples = 22\nvalue = [2, 3, 17]"] ;
11 -> 49 ;
50 [label="X[27] <= 1.5\ngini = 0.278\nsamples = 18\nvalue = [0, 3, 15]"] ;
49 -> 50 ;
51 [label="X[36] <= 0.5\ngini = 0.133\nsamples = 14\nvalue = [0, 1, 13]"] ;
50 -> 51 ;
52 [label="X[15] <= 1.5\ngini = 0.32\nsamples = 5\nvalue = [0, 1, 4]"] ;
51 -> 52 ;
53 [label="X[15] <= 0.5\ngini = 0.444\nsamples = 3\nvalue = [0, 1, 2]"] ;
52 -> 53 ;
54 [label="gini = 0.0\nsamples = 1\nvalue = [0, 0, 1]"] ;
53 -> 54 ;
55 [label="X[16] <= 0.5\ngini = 0.5\nsamples = 2\nvalue = [0, 1, 1]"] ;
53 -> 55 ;
56 [label="gini = 0.0\nsamples = 1\nvalue = [0, 1, 0]"] ;
55 -> 56 ;
57 [label="gini = 0.0\nsamples = 1\nvalue = [0, 0, 1]"] ;
55 -> 57 ;
58 [label="gini = 0.0\nsamples = 2\nvalue = [0, 0, 2]"] ;
52 -> 58 ;
59 [label="gini = 0.0\nsamples = 9\nvalue = [0, 0, 9]"] ;
51 -> 59 ;
60 [label="X[13] <= 0.5\ngini = 0.5\nsamples = 4\nvalue = [0, 2, 2]"] ;
50 -> 60 ;
61 [label="gini = 0.0\nsamples = 2\nvalue = [0, 0, 2]"] ;
60 -> 61 ;
62 [label="gini = 0.0\nsamples = 2\nvalue = [0, 2, 0]"] ;
60 -> 62 ;
63 [label="X[38] <= 0.5\ngini = 0.5\nsamples = 4\nvalue = [2, 0, 2]"] ;
49 -> 63 ;
64 [label="gini = 0.0\nsamples = 2\nvalue = [2, 0, 0]"] ;
63 -> 64 ;
65 [label="gini = 0.0\nsamples = 2\nvalue = [0, 0, 2]"] ;
63 -> 65 ;
66 [label="X[19] <= 0.5\ngini = 0.229\nsamples = 63\nvalue = [3, 5, 55]"] ;
10 -> 66 ;
67 [label="X[32] <= 1.5\ngini = 0.21\nsamples = 61\nvalue = [3, 4, 54]"] ;
66 -> 67 ;
68 [label="X[32] <= 0.5\ngini = 0.18\nsamples = 51\nvalue = [1, 4, 46]"] ;
67 -> 68 ;
69 [label="X[26] <= 1.5\ngini = 0.224\nsamples = 40\nvalue = [1, 4, 35]"] ;
68 -> 69 ;
70 [label="X[26] <= 0.5\ngini = 0.279\nsamples = 31\nvalue = [1, 4, 26]"] ;
69 -> 70 ;
71 [label="X[25] <= 1.5\ngini = 0.159\nsamples = 23\nvalue = [0, 2, 21]"] ;
70 -> 71 ;
72 [label="X[15] <= 1.5\ngini = 0.245\nsamples = 14\nvalue = [0, 2, 12]"] ;
71 -> 72 ;
73 [label="X[15] <= 0.5\ngini = 0.32\nsamples = 10\nvalue = [0, 2, 8]"] ;
72 -> 73 ;
74 [label="X[25] <= 0.5\ngini = 0.198\nsamples = 9\nvalue = [0, 1, 8]"] ;
73 -> 74 ;
75 [label="gini = 0.0\nsamples = 6\nvalue = [0, 0, 6]"] ;
74 -> 75 ;
76 [label="X[31] <= 1.0\ngini = 0.444\nsamples = 3\nvalue = [0, 1, 2]"] ;
74 -> 76 ;
77 [label="gini = 0.0\nsamples = 1\nvalue = [0, 1, 0]"] ;
76 -> 77 ;
78 [label="gini = 0.0\nsamples = 2\nvalue = [0, 0, 2]"] ;
76 -> 78 ;
79 [label="gini = 0.0\nsamples = 1\nvalue = [0, 1, 0]"] ;
73 -> 79 ;
80 [label="gini = 0.0\nsamples = 4\nvalue = [0, 0, 4]"] ;
72 -> 80 ;
81 [label="gini = 0.0\nsamples = 9\nvalue = [0, 0, 9]"] ;
71 -> 81 ;
82 [label="X[37] <= 1.0\ngini = 0.531\nsamples = 8\nvalue = [1, 2, 5]"] ;
70 -> 82 ;
83 [label="X[13] <= 0.5\ngini = 0.408\nsamples = 7\nvalue = [0, 2, 5]"] ;
82 -> 83 ;
84 [label="gini = 0.0\nsamples = 4\nvalue = [0, 0, 4]"] ;
83 -> 84 ;
85 [label="X[14] <= 1.0\ngini = 0.444\nsamples = 3\nvalue = [0, 2, 1]"] ;
83 -> 85 ;
86 [label="gini = 0.0\nsamples = 2\nvalue = [0, 2, 0]"] ;
85 -> 86 ;
87 [label="gini = 0.0\nsamples = 1\nvalue = [0, 0, 1]"] ;
85 -> 87 ;
88 [label="gini = 0.0\nsamples = 1\nvalue = [1, 0, 0]"] ;
82 -> 88 ;
89 [label="gini = 0.0\nsamples = 9\nvalue = [0, 0, 9]"] ;
69 -> 89 ;
90 [label="gini = 0.0\nsamples = 11\nvalue = [0, 0, 11]"] ;
68 -> 90 ;
91 [label="X[26] <= 0.5\ngini = 0.32\nsamples = 10\nvalue = [2, 0, 8]"] ;
67 -> 91 ;
92 [label="X[13] <= 0.5\ngini = 0.198\nsamples = 9\nvalue = [1, 0, 8]"] ;
91 -> 92 ;
93 [label="gini = 0.0\nsamples = 6\nvalue = [0, 0, 6]"] ;
92 -> 93 ;
94 [label="X[36] <= 0.5\ngini = 0.444\nsamples = 3\nvalue = [1, 0, 2]"] ;
92 -> 94 ;
95 [label="X[25] <= 1.5\ngini = 0.5\nsamples = 2\nvalue = [1, 0, 1]"] ;
94 -> 95 ;
96 [label="gini = 0.0\nsamples = 1\nvalue = [1, 0, 0]"] ;
95 -> 96 ;
97 [label="gini = 0.0\nsamples = 1\nvalue = [0, 0, 1]"] ;
95 -> 97 ;
98 [label="gini = 0.0\nsamples = 1\nvalue = [0, 0, 1]"] ;
94 -> 98 ;
99 [label="gini = 0.0\nsamples = 1\nvalue = [1, 0, 0]"] ;
91 -> 99 ;
100 [label="X[15] <= 1.0\ngini = 0.5\nsamples = 2\nvalue = [0, 1, 1]"] ;
66 -> 100 ;
101 [label="gini = 0.0\nsamples = 1\nvalue = [0, 0, 1]"] ;
100 -> 101 ;
102 [label="gini = 0.0\nsamples = 1\nvalue = [0, 1, 0]"] ;
100 -> 102 ;
103 [label="X[17] <= 1.5\ngini = 0.214\nsamples = 190\nvalue = [22, 1, 167]"] ;
9 -> 103 ;
104 [label="X[14] <= 1.5\ngini = 0.193\nsamples = 186\nvalue = [19, 1, 166]"] ;
103 -> 104 ;
105 [label="X[24] <= 0.5\ngini = 0.283\nsamples = 107\nvalue = [17, 1, 89]"] ;
104 -> 105 ;
106 [label="X[30] <= 0.5\ngini = 0.447\nsamples = 32\nvalue = [9, 1, 22]"] ;
105 -> 106 ;
107 [label="X[37] <= 0.5\ngini = 0.562\nsamples = 11\nvalue = [6, 1, 4]"] ;
106 -> 107 ;
108 [label="X[17] <= 0.5\ngini = 0.444\nsamples = 3\nvalue = [0, 1, 2]"] ;
107 -> 108 ;
109 [label="gini = 0.0\nsamples = 1\nvalue = [0, 1, 0]"] ;
108 -> 109 ;
110 [label="gini = 0.0\nsamples = 2\nvalue = [0, 0, 2]"] ;
108 -> 110 ;
111 [label="X[14] <= 0.5\ngini = 0.375\nsamples = 8\nvalue = [6, 0, 2]"] ;
107 -> 111 ;
112 [label="X[38] <= 1.5\ngini = 0.444\nsamples = 3\nvalue = [1, 0, 2]"] ;
111 -> 112 ;
113 [label="X[19] <= 0.5\ngini = 0.5\nsamples = 2\nvalue = [1, 0, 1]"] ;
112 -> 113 ;
114 [label="gini = 0.0\nsamples = 1\nvalue = [0, 0, 1]"] ;
113 -> 114 ;
115 [label="gini = 0.0\nsamples = 1\nvalue = [1, 0, 0]"] ;
113 -> 115 ;
116 [label="gini = 0.0\nsamples = 1\nvalue = [0, 0, 1]"] ;
112 -> 116 ;
117 [label="gini = 0.0\nsamples = 5\nvalue = [5, 0, 0]"] ;
111 -> 117 ;
118 [label="X[14] <= 0.5\ngini = 0.245\nsamples = 21\nvalue = [3, 0, 18]"] ;
106 -> 118 ;
119 [label="gini = 0.0\nsamples = 10\nvalue = [0, 0, 10]"] ;
118 -> 119 ;
120 [label="X[38] <= 1.0\ngini = 0.397\nsamples = 11\nvalue = [3, 0, 8]"] ;
118 -> 120 ;
121 [label="X[33] <= 0.5\ngini = 0.32\nsamples = 10\nvalue = [2, 0, 8]"] ;
120 -> 121 ;
122 [label="X[31] <= 1.5\ngini = 0.219\nsamples = 8\nvalue = [1, 0, 7]"] ;
121 -> 122 ;
123 [label="X[31] <= 0.5\ngini = 0.444\nsamples = 3\nvalue = [1, 0, 2]"] ;
122 -> 123 ;
124 [label="gini = 0.0\nsamples = 2\nvalue = [0, 0, 2]"] ;
123 -> 124 ;
125 [label="gini = 0.0\nsamples = 1\nvalue = [1, 0, 0]"] ;
123 -> 125 ;
126 [label="gini = 0.0\nsamples = 5\nvalue = [0, 0, 5]"] ;
122 -> 126 ;
127 [label="X[33] <= 1.5\ngini = 0.5\nsamples = 2\nvalue = [1, 0, 1]"] ;
121 -> 127 ;
128 [label="gini = 0.0\nsamples = 1\nvalue = [1, 0, 0]"] ;
127 -> 128 ;
129 [label="gini = 0.0\nsamples = 1\nvalue = [0, 0, 1]"] ;
127 -> 129 ;
130 [label="gini = 0.0\nsamples = 1\nvalue = [1, 0, 0]"] ;
120 -> 130 ;
131 [label="X[27] <= 0.5\ngini = 0.191\nsamples = 75\nvalue = [8, 0, 67]"] ;
105 -> 131 ;
132 [label="X[24] <= 1.5\ngini = 0.136\nsamples = 68\nvalue = [5, 0, 63]"] ;
131 -> 132 ;
133 [label="gini = 0.0\nsamples = 22\nvalue = [0, 0, 22]"] ;
132 -> 133 ;
134 [label="X[33] <= 0.5\ngini = 0.194\nsamples = 46\nvalue = [5, 0, 41]"] ;
132 -> 134 ;
135 [label="X[37] <= 1.5\ngini = 0.165\nsamples = 44\nvalue = [4, 0, 40]"] ;
134 -> 135 ;
136 [label="X[15] <= 1.5\ngini = 0.102\nsamples = 37\nvalue = [2, 0, 35]"] ;
135 -> 136 ;
137 [label="gini = 0.0\nsamples = 30\nvalue = [0, 0, 30]"] ;
136 -> 137 ;
138 [label="X[31] <= 0.5\ngini = 0.408\nsamples = 7\nvalue = [2, 0, 5]"] ;
136 -> 138 ;
139 [label="X[25] <= 0.5\ngini = 0.278\nsamples = 6\nvalue = [1, 0, 5]"] ;
138 -> 139 ;
140 [label="gini = 0.0\nsamples = 4\nvalue = [0, 0, 4]"] ;
139 -> 140 ;
141 [label="X[30] <= 0.5\ngini = 0.5\nsamples = 2\nvalue = [1, 0, 1]"] ;
139 -> 141 ;
142 [label="gini = 0.0\nsamples = 1\nvalue = [1, 0, 0]"] ;
141 -> 142 ;
143 [label="gini = 0.0\nsamples = 1\nvalue = [0, 0, 1]"] ;
141 -> 143 ;
144 [label="gini = 0.0\nsamples = 1\nvalue = [1, 0, 0]"] ;
138 -> 144 ;
145 [label="X[14] <= 0.5\ngini = 0.408\nsamples = 7\nvalue = [2, 0, 5]"] ;
135 -> 145 ;
146 [label="gini = 0.0\nsamples = 5\nvalue = [0, 0, 5]"] ;
145 -> 146 ;
147 [label="gini = 0.0\nsamples = 2\nvalue = [2, 0, 0]"] ;
145 -> 147 ;
148 [label="X[31] <= 1.5\ngini = 0.5\nsamples = 2\nvalue = [1, 0, 1]"] ;
134 -> 148 ;
149 [label="gini = 0.0\nsamples = 1\nvalue = [1, 0, 0]"] ;
148 -> 149 ;
150 [label="gini = 0.0\nsamples = 1\nvalue = [0, 0, 1]"] ;
148 -> 150 ;
151 [label="X[25] <= 1.5\ngini = 0.49\nsamples = 7\nvalue = [3, 0, 4]"] ;
131 -> 151 ;
152 [label="X[14] <= 0.5\ngini = 0.32\nsamples = 5\nvalue = [1, 0, 4]"] ;
151 -> 152 ;
153 [label="gini = 0.0\nsamples = 3\nvalue = [0, 0, 3]"] ;
152 -> 153 ;
154 [label="X[26] <= 1.5\ngini = 0.5\nsamples = 2\nvalue = [1, 0, 1]"] ;
152 -> 154 ;
155 [label="gini = 0.0\nsamples = 1\nvalue = [0, 0, 1]"] ;
154 -> 155 ;
156 [label="gini = 0.0\nsamples = 1\nvalue = [1, 0, 0]"] ;
154 -> 156 ;
157 [label="gini = 0.0\nsamples = 2\nvalue = [2, 0, 0]"] ;
151 -> 157 ;
158 [label="X[33] <= 0.5\ngini = 0.049\nsamples = 79\nvalue = [2, 0, 77]"] ;
104 -> 158 ;
159 [label="X[15] <= 1.5\ngini = 0.026\nsamples = 77\nvalue = [1, 0, 76]"] ;
158 -> 159 ;
160 [label="gini = 0.0\nsamples = 71\nvalue = [0, 0, 71]"] ;
159 -> 160 ;
161 [label="X[31] <= 0.5\ngini = 0.278\nsamples = 6\nvalue = [1, 0, 5]"] ;
159 -> 161 ;
162 [label="gini = 0.0\nsamples = 5\nvalue = [0, 0, 5]"] ;
161 -> 162 ;
163 [label="gini = 0.0\nsamples = 1\nvalue = [1, 0, 0]"] ;
161 -> 163 ;
164 [label="X[31] <= 1.5\ngini = 0.5\nsamples = 2\nvalue = [1, 0, 1]"] ;
158 -> 164 ;
165 [label="gini = 0.0\nsamples = 1\nvalue = [1, 0, 0]"] ;
164 -> 165 ;
166 [label="gini = 0.0\nsamples = 1\nvalue = [0, 0, 1]"] ;
164 -> 166 ;
167 [label="X[24] <= 0.5\ngini = 0.375\nsamples = 4\nvalue = [3, 0, 1]"] ;
103 -> 167 ;
168 [label="gini = 0.0\nsamples = 3\nvalue = [3, 0, 0]"] ;
167 -> 168 ;
169 [label="gini = 0.0\nsamples = 1\nvalue = [0, 0, 1]"] ;
167 -> 169 ;
170 [label="X[24] <= 1.5\ngini = 0.549\nsamples = 165\nvalue = [36, 28, 101]"] ;
8 -> 170 ;
171 [label="X[24] <= 0.5\ngini = 0.45\nsamples = 125\nvalue = [22, 14, 89]"] ;
170 -> 171 ;
172 [label="X[31] <= 1.5\ngini = 0.56\nsamples = 86\nvalue = [22, 13, 51]"] ;
171 -> 172 ;
173 [label="X[33] <= 1.5\ngini = 0.633\nsamples = 62\nvalue = [22, 12, 28]"] ;
172 -> 173 ;
174 [label="X[31] <= 0.5\ngini = 0.645\nsamples = 56\nvalue = [22, 12, 22]"] ;
173 -> 174 ;
175 [label="X[13] <= 1.5\ngini = 0.499\nsamples = 21\nvalue = [3, 4, 14]"] ;
174 -> 175 ;
176 [label="X[15] <= 0.5\ngini = 0.463\nsamples = 11\nvalue = [0, 4, 7]"] ;
175 -> 176 ;
177 [label="X[40] <= 0.5\ngini = 0.48\nsamples = 5\nvalue = [0, 3, 2]"] ;
176 -> 177 ;
178 [label="X[39] <= 0.5\ngini = 0.375\nsamples = 4\nvalue = [0, 3, 1]"] ;
177 -> 178 ;
179 [label="X[38] <= 0.5\ngini = 0.5\nsamples = 2\nvalue = [0, 1, 1]"] ;
178 -> 179 ;
180 [label="gini = 0.0\nsamples = 1\nvalue = [0, 1, 0]"] ;
179 -> 180 ;
181 [label="gini = 0.0\nsamples = 1\nvalue = [0, 0, 1]"] ;
179 -> 181 ;
182 [label="gini = 0.0\nsamples = 2\nvalue = [0, 2, 0]"] ;
178 -> 182 ;
183 [label="gini = 0.0\nsamples = 1\nvalue = [0, 0, 1]"] ;
177 -> 183 ;
184 [label="X[36] <= 0.5\ngini = 0.278\nsamples = 6\nvalue = [0, 1, 5]"] ;
176 -> 184 ;
185 [label="X[15] <= 1.5\ngini = 0.5\nsamples = 2\nvalue = [0, 1, 1]"] ;
184 -> 185 ;
186 [label="gini = 0.0\nsamples = 1\nvalue = [0, 0, 1]"] ;
185 -> 186 ;
187 [label="gini = 0.0\nsamples = 1\nvalue = [0, 1, 0]"] ;
185 -> 187 ;
188 [label="gini = 0.0\nsamples = 4\nvalue = [0, 0, 4]"] ;
184 -> 188 ;
189 [label="X[15] <= 1.5\ngini = 0.42\nsamples = 10\nvalue = [3, 0, 7]"] ;
175 -> 189 ;
190 [label="X[16] <= 1.5\ngini = 0.245\nsamples = 7\nvalue = [1, 0, 6]"] ;
189 -> 190 ;
191 [label="gini = 0.0\nsamples = 5\nvalue = [0, 0, 5]"] ;
190 -> 191 ;
192 [label="X[36] <= 0.5\ngini = 0.5\nsamples = 2\nvalue = [1, 0, 1]"] ;
190 -> 192 ;
193 [label="gini = 0.0\nsamples = 1\nvalue = [0, 0, 1]"] ;
192 -> 193 ;
194 [label="gini = 0.0\nsamples = 1\nvalue = [1, 0, 0]"] ;
192 -> 194 ;
195 [label="X[17] <= 0.5\ngini = 0.444\nsamples = 3\nvalue = [2, 0, 1]"] ;
189 -> 195 ;
196 [label="gini = 0.0\nsamples = 2\nvalue = [2, 0, 0]"] ;
195 -> 196 ;
197 [label="gini = 0.0\nsamples = 1\nvalue = [0, 0, 1]"] ;
195 -> 197 ;
198 [label="X[14] <= 1.5\ngini = 0.601\nsamples = 35\nvalue = [19, 8, 8]"] ;
174 -> 198 ;
199 [label="X[16] <= 0.5\ngini = 0.531\nsamples = 24\nvalue = [15, 6, 3]"] ;
198 -> 199 ;
200 [label="X[37] <= 1.5\ngini = 0.475\nsamples = 22\nvalue = [15, 5, 2]"] ;
199 -> 200 ;
201 [label="X[33] <= 0.5\ngini = 0.292\nsamples = 12\nvalue = [10, 1, 1]"] ;
200 -> 201 ;
202 [label="gini = 0.0\nsamples = 6\nvalue = [6, 0, 0]"] ;
201 -> 202 ;
203 [label="X[14] <= 0.5\ngini = 0.5\nsamples = 6\nvalue = [4, 1, 1]"] ;
201 -> 203 ;
204 [label="X[34] <= 1.5\ngini = 0.32\nsamples = 5\nvalue = [4, 0, 1]"] ;
203 -> 204 ;
205 [label="X[34] <= 0.5\ngini = 0.5\nsamples = 2\nvalue = [1, 0, 1]"] ;
204 -> 205 ;
206 [label="gini = 0.0\nsamples = 1\nvalue = [1, 0, 0]"] ;
205 -> 206 ;
207 [label="gini = 0.0\nsamples = 1\nvalue = [0, 0, 1]"] ;
205 -> 207 ;
208 [label="gini = 0.0\nsamples = 3\nvalue = [3, 0, 0]"] ;
204 -> 208 ;
209 [label="gini = 0.0\nsamples = 1\nvalue = [0, 1, 0]"] ;
203 -> 209 ;
210 [label="X[39] <= 0.5\ngini = 0.58\nsamples = 10\nvalue = [5, 4, 1]"] ;
200 -> 210 ;
211 [label="X[13] <= 1.5\ngini = 0.594\nsamples = 8\nvalue = [3, 4, 1]"] ;
210 -> 211 ;
212 [label="X[38] <= 0.5\ngini = 0.32\nsamples = 5\nvalue = [1, 4, 0]"] ;
211 -> 212 ;
213 [label="gini = 0.0\nsamples = 2\nvalue = [0, 2, 0]"] ;
212 -> 213 ;
214 [label="X[38] <= 1.5\ngini = 0.444\nsamples = 3\nvalue = [1, 2, 0]"] ;
212 -> 214 ;
215 [label="gini = 0.0\nsamples = 1\nvalue = [1, 0, 0]"] ;
214 -> 215 ;
216 [label="gini = 0.0\nsamples = 2\nvalue = [0, 2, 0]"] ;
214 -> 216 ;
217 [label="X[38] <= 0.5\ngini = 0.444\nsamples = 3\nvalue = [2, 0, 1]"] ;
211 -> 217 ;
218 [label="gini = 0.0\nsamples = 2\nvalue = [2, 0, 0]"] ;
217 -> 218 ;
219 [label="gini = 0.0\nsamples = 1\nvalue = [0, 0, 1]"] ;
217 -> 219 ;
220 [label="gini = 0.0\nsamples = 2\nvalue = [2, 0, 0]"] ;
210 -> 220 ;
221 [label="X[15] <= 1.5\ngini = 0.5\nsamples = 2\nvalue = [0, 1, 1]"] ;
199 -> 221 ;
222 [label="gini = 0.0\nsamples = 1\nvalue = [0, 1, 0]"] ;
221 -> 222 ;
223 [label="gini = 0.0\nsamples = 1\nvalue = [0, 0, 1]"] ;
221 -> 223 ;
224 [label="X[32] <= 0.5\ngini = 0.628\nsamples = 11\nvalue = [4, 2, 5]"] ;
198 -> 224 ;
225 [label="X[37] <= 1.5\ngini = 0.444\nsamples = 6\nvalue = [4, 0, 2]"] ;
224 -> 225 ;
226 [label="X[37] <= 0.5\ngini = 0.48\nsamples = 5\nvalue = [3, 0, 2]"] ;
225 -> 226 ;
227 [label="X[16] <= 0.5\ngini = 0.375\nsamples = 4\nvalue = [3, 0, 1]"] ;
226 -> 227 ;
228 [label="gini = 0.0\nsamples = 2\nvalue = [2, 0, 0]"] ;
227 -> 228 ;
229 [label="X[15] <= 1.5\ngini = 0.5\nsamples = 2\nvalue = [1, 0, 1]"] ;
227 -> 229 ;
230 [label="gini = 0.0\nsamples = 1\nvalue = [1, 0, 0]"] ;
229 -> 230 ;
231 [label="gini = 0.0\nsamples = 1\nvalue = [0, 0, 1]"] ;
229 -> 231 ;
232 [label="gini = 0.0\nsamples = 1\nvalue = [0, 0, 1]"] ;
226 -> 232 ;
233 [label="gini = 0.0\nsamples = 1\nvalue = [1, 0, 0]"] ;
225 -> 233 ;
234 [label="X[36] <= 0.5\ngini = 0.48\nsamples = 5\nvalue = [0, 2, 3]"] ;
224 -> 234 ;
235 [label="X[15] <= 1.5\ngini = 0.444\nsamples = 3\nvalue = [0, 2, 1]"] ;
234 -> 235 ;
236 [label="gini = 0.0\nsamples = 2\nvalue = [0, 2, 0]"] ;
235 -> 236 ;
237 [label="gini = 0.0\nsamples = 1\nvalue = [0, 0, 1]"] ;
235 -> 237 ;
238 [label="gini = 0.0\nsamples = 2\nvalue = [0, 0, 2]"] ;
234 -> 238 ;
239 [label="gini = 0.0\nsamples = 6\nvalue = [0, 0, 6]"] ;
173 -> 239 ;
240 [label="X[37] <= 1.5\ngini = 0.08\nsamples = 24\nvalue = [0, 1, 23]"] ;
172 -> 240 ;
241 [label="gini = 0.0\nsamples = 19\nvalue = [0, 0, 19]"] ;
240 -> 241 ;
242 [label="X[38] <= 0.5\ngini = 0.32\nsamples = 5\nvalue = [0, 1, 4]"] ;
240 -> 242 ;
243 [label="X[33] <= 0.5\ngini = 0.5\nsamples = 2\nvalue = [0, 1, 1]"] ;
242 -> 243 ;
244 [label="gini = 0.0\nsamples = 1\nvalue = [0, 1, 0]"] ;
243 -> 244 ;
245 [label="gini = 0.0\nsamples = 1\nvalue = [0, 0, 1]"] ;
243 -> 245 ;
246 [label="gini = 0.0\nsamples = 3\nvalue = [0, 0, 3]"] ;
242 -> 246 ;
247 [label="X[19] <= 0.5\ngini = 0.05\nsamples = 39\nvalue = [0, 1, 38]"] ;
171 -> 247 ;
248 [label="gini = 0.0\nsamples = 37\nvalue = [0, 0, 37]"] ;
247 -> 248 ;
249 [label="X[26] <= 1.0\ngini = 0.5\nsamples = 2\nvalue = [0, 1, 1]"] ;
247 -> 249 ;
250 [label="gini = 0.0\nsamples = 1\nvalue = [0, 1, 0]"] ;
249 -> 250 ;
251 [label="gini = 0.0\nsamples = 1\nvalue = [0, 0, 1]"] ;
249 -> 251 ;
252 [label="X[38] <= 0.5\ngini = 0.665\nsamples = 40\nvalue = [14, 14, 12]"] ;
170 -> 252 ;
253 [label="X[33] <= 0.5\ngini = 0.656\nsamples = 34\nvalue = [9, 14, 11]"] ;
252 -> 253 ;
254 [label="X[26] <= 1.5\ngini = 0.643\nsamples = 32\nvalue = [7, 14, 11]"] ;
253 -> 254 ;
255 [label="X[26] <= 0.5\ngini = 0.615\nsamples = 28\nvalue = [5, 14, 9]"] ;
254 -> 255 ;
256 [label="X[25] <= 1.5\ngini = 0.632\nsamples = 22\nvalue = [4, 9, 9]"] ;
255 -> 256 ;
257 [label="X[25] <= 0.5\ngini = 0.632\nsamples = 19\nvalue = [4, 9, 6]"] ;
256 -> 257 ;
258 [label="X[32] <= 0.5\ngini = 0.615\nsamples = 13\nvalue = [2, 5, 6]"] ;
257 -> 258 ;
259 [label="X[14] <= 0.5\ngini = 0.571\nsamples = 7\nvalue = [2, 1, 4]"] ;
258 -> 259 ;
260 [label="gini = 0.0\nsamples = 1\nvalue = [1, 0, 0]"] ;
259 -> 260 ;
261 [label="X[15] <= 0.5\ngini = 0.5\nsamples = 6\nvalue = [1, 1, 4]"] ;
259 -> 261 ;
262 [label="gini = 0.0\nsamples = 3\nvalue = [0, 0, 3]"] ;
261 -> 262 ;
263 [label="X[13] <= 1.5\ngini = 0.667\nsamples = 3\nvalue = [1, 1, 1]"] ;
261 -> 263 ;
264 [label="X[14] <= 1.5\ngini = 0.5\nsamples = 2\nvalue = [1, 0, 1]"] ;
263 -> 264 ;
265 [label="gini = 0.0\nsamples = 1\nvalue = [0, 0, 1]"] ;
264 -> 265 ;
266 [label="gini = 0.0\nsamples = 1\nvalue = [1, 0, 0]"] ;
264 -> 266 ;
267 [label="gini = 0.0\nsamples = 1\nvalue = [0, 1, 0]"] ;
263 -> 267 ;
268 [label="X[13] <= 1.5\ngini = 0.444\nsamples = 6\nvalue = [0, 4, 2]"] ;
258 -> 268 ;
269 [label="X[37] <= 1.5\ngini = 0.48\nsamples = 5\nvalue = [0, 3, 2]"] ;
268 -> 269 ;
270 [label="X[32] <= 1.5\ngini = 0.5\nsamples = 4\nvalue = [0, 2, 2]"] ;
269 -> 270 ;
271 [label="X[13] <= 0.5\ngini = 0.5\nsamples = 2\nvalue = [0, 1, 1]"] ;
270 -> 271 ;
272 [label="gini = 0.0\nsamples = 1\nvalue = [0, 1, 0]"] ;
271 -> 272 ;
273 [label="gini = 0.0\nsamples = 1\nvalue = [0, 0, 1]"] ;
271 -> 273 ;
274 [label="X[37] <= 0.5\ngini = 0.5\nsamples = 2\nvalue = [0, 1, 1]"] ;
270 -> 274 ;
275 [label="gini = 0.0\nsamples = 1\nvalue = [0, 1, 0]"] ;
274 -> 275 ;
276 [label="gini = 0.0\nsamples = 1\nvalue = [0, 0, 1]"] ;
274 -> 276 ;
277 [label="gini = 0.0\nsamples = 1\nvalue = [0, 1, 0]"] ;
269 -> 277 ;
278 [label="gini = 0.0\nsamples = 1\nvalue = [0, 1, 0]"] ;
268 -> 278 ;
279 [label="X[13] <= 0.5\ngini = 0.444\nsamples = 6\nvalue = [2, 4, 0]"] ;
257 -> 279 ;
280 [label="X[31] <= 1.5\ngini = 0.444\nsamples = 3\nvalue = [2, 1, 0]"] ;
279 -> 280 ;
281 [label="gini = 0.0\nsamples = 2\nvalue = [2, 0, 0]"] ;
280 -> 281 ;
282 [label="gini = 0.0\nsamples = 1\nvalue = [0, 1, 0]"] ;
280 -> 282 ;
283 [label="gini = 0.0\nsamples = 3\nvalue = [0, 3, 0]"] ;
279 -> 283 ;
284 [label="gini = 0.0\nsamples = 3\nvalue = [0, 0, 3]"] ;
256 -> 284 ;
285 [label="X[27] <= 1.5\ngini = 0.278\nsamples = 6\nvalue = [1, 5, 0]"] ;
255 -> 285 ;
286 [label="gini = 0.0\nsamples = 5\nvalue = [0, 5, 0]"] ;
285 -> 286 ;
287 [label="gini = 0.0\nsamples = 1\nvalue = [1, 0, 0]"] ;
285 -> 287 ;
288 [label="X[37] <= 0.5\ngini = 0.5\nsamples = 4\nvalue = [2, 0, 2]"] ;
254 -> 288 ;
289 [label="X[31] <= 0.5\ngini = 0.444\nsamples = 3\nvalue = [2, 0, 1]"] ;
288 -> 289 ;
290 [label="gini = 0.0\nsamples = 2\nvalue = [2, 0, 0]"] ;
289 -> 290 ;
291 [label="gini = 0.0\nsamples = 1\nvalue = [0, 0, 1]"] ;
289 -> 291 ;
292 [label="gini = 0.0\nsamples = 1\nvalue = [0, 0, 1]"] ;
288 -> 292 ;
293 [label="gini = 0.0\nsamples = 2\nvalue = [2, 0, 0]"] ;
253 -> 293 ;
294 [label="X[13] <= 0.5\ngini = 0.278\nsamples = 6\nvalue = [5, 0, 1]"] ;
252 -> 294 ;
295 [label="gini = 0.0\nsamples = 5\nvalue = [5, 0, 0]"] ;
294 -> 295 ;
296 [label="gini = 0.0\nsamples = 1\nvalue = [0, 0, 1]"] ;
294 -> 296 ;
297 [label="X[26] <= 0.5\ngini = 0.03\nsamples = 196\nvalue = [2, 1, 193]"] ;
7 -> 297 ;
298 [label="gini = 0.0\nsamples = 171\nvalue = [0, 0, 171]"] ;
297 -> 298 ;
299 [label="X[30] <= 1.5\ngini = 0.218\nsamples = 25\nvalue = [2, 1, 22]"] ;
297 -> 299 ;
300 [label="X[14] <= 0.5\ngini = 0.163\nsamples = 23\nvalue = [1, 1, 21]"] ;
299 -> 300 ;
301 [label="X[31] <= 0.5\ngini = 0.095\nsamples = 20\nvalue = [1, 0, 19]"] ;
300 -> 301 ;
302 [label="gini = 0.0\nsamples = 17\nvalue = [0, 0, 17]"] ;
301 -> 302 ;
303 [label="X[25] <= 1.5\ngini = 0.444\nsamples = 3\nvalue = [1, 0, 2]"] ;
301 -> 303 ;
304 [label="gini = 0.0\nsamples = 2\nvalue = [0, 0, 2]"] ;
303 -> 304 ;
305 [label="gini = 0.0\nsamples = 1\nvalue = [1, 0, 0]"] ;
303 -> 305 ;
306 [label="X[24] <= 1.5\ngini = 0.444\nsamples = 3\nvalue = [0, 1, 2]"] ;
300 -> 306 ;
307 [label="gini = 0.0\nsamples = 1\nvalue = [0, 0, 1]"] ;
306 -> 307 ;
308 [label="X[14] <= 1.5\ngini = 0.5\nsamples = 2\nvalue = [0, 1, 1]"] ;
306 -> 308 ;
309 [label="gini = 0.0\nsamples = 1\nvalue = [0, 1, 0]"] ;
308 -> 309 ;
310 [label="gini = 0.0\nsamples = 1\nvalue = [0, 0, 1]"] ;
308 -> 310 ;
311 [label="X[13] <= 0.5\ngini = 0.5\nsamples = 2\nvalue = [1, 0, 1]"] ;
299 -> 311 ;
312 [label="gini = 0.0\nsamples = 1\nvalue = [1, 0, 0]"] ;
311 -> 312 ;
313 [label="gini = 0.0\nsamples = 1\nvalue = [0, 0, 1]"] ;
311 -> 313 ;
314 [label="X[20] <= 1.5\ngini = 0.568\nsamples = 373\nvalue = [53, 105, 215]"] ;
6 -> 314 ;
315 [label="X[21] <= 1.5\ngini = 0.638\nsamples = 198\nvalue = [49, 93, 56]"] ;
314 -> 315 ;
316 [label="X[21] <= 0.5\ngini = 0.558\nsamples = 138\nvalue = [31, 83, 24]"] ;
315 -> 316 ;
317 [label="X[32] <= 0.5\ngini = 0.645\nsamples = 92\nvalue = [31, 40, 21]"] ;
316 -> 317 ;
318 [label="X[14] <= 0.5\ngini = 0.611\nsamples = 81\nvalue = [31, 38, 12]"] ;
317 -> 318 ;
319 [label="X[13] <= 0.5\ngini = 0.528\nsamples = 44\nvalue = [13, 27, 4]"] ;
318 -> 319 ;
320 [label="X[30] <= 0.5\ngini = 0.601\nsamples = 23\nvalue = [11, 9, 3]"] ;
319 -> 320 ;
321 [label="X[26] <= 1.5\ngini = 0.37\nsamples = 9\nvalue = [7, 1, 1]"] ;
320 -> 321 ;
322 [label="X[25] <= 0.5\ngini = 0.219\nsamples = 8\nvalue = [7, 1, 0]"] ;
321 -> 322 ;
323 [label="gini = 0.0\nsamples = 4\nvalue = [4, 0, 0]"] ;
322 -> 323 ;
324 [label="X[37] <= 1.5\ngini = 0.375\nsamples = 4\nvalue = [3, 1, 0]"] ;
322 -> 324 ;
325 [label="gini = 0.0\nsamples = 3\nvalue = [3, 0, 0]"] ;
324 -> 325 ;
326 [label="gini = 0.0\nsamples = 1\nvalue = [0, 1, 0]"] ;
324 -> 326 ;
327 [label="gini = 0.0\nsamples = 1\nvalue = [0, 0, 1]"] ;
321 -> 327 ;
328 [label="X[38] <= 0.5\ngini = 0.571\nsamples = 14\nvalue = [4, 8, 2]"] ;
320 -> 328 ;
329 [label="X[37] <= 1.5\ngini = 0.486\nsamples = 12\nvalue = [3, 8, 1]"] ;
328 -> 329 ;
330 [label="X[24] <= 1.0\ngini = 0.568\nsamples = 9\nvalue = [3, 5, 1]"] ;
329 -> 330 ;
331 [label="gini = 0.0\nsamples = 1\nvalue = [1, 0, 0]"] ;
330 -> 331 ;
332 [label="X[31] <= 0.5\ngini = 0.531\nsamples = 8\nvalue = [2, 5, 1]"] ;
330 -> 332 ;
333 [label="X[37] <= 0.5\ngini = 0.5\nsamples = 4\nvalue = [2, 2, 0]"] ;
332 -> 333 ;
334 [label="X[26] <= 1.5\ngini = 0.444\nsamples = 3\nvalue = [2, 1, 0]"] ;
333 -> 334 ;
335 [label="gini = 0.0\nsamples = 2\nvalue = [2, 0, 0]"] ;
334 -> 335 ;
336 [label="gini = 0.0\nsamples = 1\nvalue = [0, 1, 0]"] ;
334 -> 336 ;
337 [label="gini = 0.0\nsamples = 1\nvalue = [0, 1, 0]"] ;
333 -> 337 ;
338 [label="X[36] <= 0.5\ngini = 0.375\nsamples = 4\nvalue = [0, 3, 1]"] ;
332 -> 338 ;
339 [label="gini = 0.0\nsamples = 2\nvalue = [0, 2, 0]"] ;
338 -> 339 ;
340 [label="X[30] <= 1.5\ngini = 0.5\nsamples = 2\nvalue = [0, 1, 1]"] ;
338 -> 340 ;
341 [label="gini = 0.0\nsamples = 1\nvalue = [0, 0, 1]"] ;
340 -> 341 ;
342 [label="gini = 0.0\nsamples = 1\nvalue = [0, 1, 0]"] ;
340 -> 342 ;
343 [label="gini = 0.0\nsamples = 3\nvalue = [0, 3, 0]"] ;
329 -> 343 ;
344 [label="X[37] <= 1.5\ngini = 0.5\nsamples = 2\nvalue = [1, 0, 1]"] ;
328 -> 344 ;
345 [label="gini = 0.0\nsamples = 1\nvalue = [1, 0, 0]"] ;
344 -> 345 ;
346 [label="gini = 0.0\nsamples = 1\nvalue = [0, 0, 1]"] ;
344 -> 346 ;
347 [label="X[37] <= 0.5\ngini = 0.254\nsamples = 21\nvalue = [2, 18, 1]"] ;
319 -> 347 ;
348 [label="X[30] <= 1.5\ngini = 0.133\nsamples = 14\nvalue = [0, 13, 1]"] ;
347 -> 348 ;
349 [label="gini = 0.0\nsamples = 8\nvalue = [0, 8, 0]"] ;
348 -> 349 ;
350 [label="X[31] <= 0.5\ngini = 0.278\nsamples = 6\nvalue = [0, 5, 1]"] ;
348 -> 350 ;
351 [label="X[25] <= 0.5\ngini = 0.444\nsamples = 3\nvalue = [0, 2, 1]"] ;
350 -> 351 ;
352 [label="X[13] <= 1.5\ngini = 0.5\nsamples = 2\nvalue = [0, 1, 1]"] ;
351 -> 352 ;
353 [label="gini = 0.0\nsamples = 1\nvalue = [0, 1, 0]"] ;
352 -> 353 ;
354 [label="gini = 0.0\nsamples = 1\nvalue = [0, 0, 1]"] ;
352 -> 354 ;
355 [label="gini = 0.0\nsamples = 1\nvalue = [0, 1, 0]"] ;
351 -> 355 ;
356 [label="gini = 0.0\nsamples = 3\nvalue = [0, 3, 0]"] ;
350 -> 356 ;
357 [label="X[37] <= 1.5\ngini = 0.408\nsamples = 7\nvalue = [2, 5, 0]"] ;
347 -> 357 ;
358 [label="X[38] <= 1.0\ngini = 0.444\nsamples = 3\nvalue = [2, 1, 0]"] ;
357 -> 358 ;
359 [label="gini = 0.0\nsamples = 2\nvalue = [2, 0, 0]"] ;
358 -> 359 ;
360 [label="gini = 0.0\nsamples = 1\nvalue = [0, 1, 0]"] ;
358 -> 360 ;
361 [label="gini = 0.0\nsamples = 4\nvalue = [0, 4, 0]"] ;
357 -> 361 ;
362 [label="X[19] <= 1.5\ngini = 0.628\nsamples = 37\nvalue = [18, 11, 8]"] ;
318 -> 362 ;
363 [label="X[30] <= 0.5\ngini = 0.278\nsamples = 6\nvalue = [0, 5, 1]"] ;
362 -> 363 ;
364 [label="gini = 0.0\nsamples = 5\nvalue = [0, 5, 0]"] ;
363 -> 364 ;
365 [label="gini = 0.0\nsamples = 1\nvalue = [0, 0, 1]"] ;
363 -> 365 ;
366 [label="X[30] <= 0.5\ngini = 0.574\nsamples = 31\nvalue = [18, 6, 7]"] ;
362 -> 366 ;
367 [label="X[15] <= 0.5\ngini = 0.438\nsamples = 18\nvalue = [13, 3, 2]"] ;
366 -> 367 ;
368 [label="gini = 0.0\nsamples = 7\nvalue = [7, 0, 0]"] ;
367 -> 368 ;
369 [label="X[14] <= 1.5\ngini = 0.595\nsamples = 11\nvalue = [6, 3, 2]"] ;
367 -> 369 ;
370 [label="X[16] <= 1.5\ngini = 0.32\nsamples = 5\nvalue = [4, 1, 0]"] ;
369 -> 370 ;
371 [label="gini = 0.0\nsamples = 4\nvalue = [4, 0, 0]"] ;
370 -> 371 ;
372 [label="gini = 0.0\nsamples = 1\nvalue = [0, 1, 0]"] ;
370 -> 372 ;
373 [label="X[15] <= 1.5\ngini = 0.667\nsamples = 6\nvalue = [2, 2, 2]"] ;
369 -> 373 ;
374 [label="X[13] <= 1.5\ngini = 0.444\nsamples = 3\nvalue = [2, 1, 0]"] ;
373 -> 374 ;
375 [label="gini = 0.0\nsamples = 2\nvalue = [2, 0, 0]"] ;
374 -> 375 ;
376 [label="gini = 0.0\nsamples = 1\nvalue = [0, 1, 0]"] ;
374 -> 376 ;
377 [label="X[16] <= 0.5\ngini = 0.444\nsamples = 3\nvalue = [0, 1, 2]"] ;
373 -> 377 ;
378 [label="gini = 0.0\nsamples = 2\nvalue = [0, 0, 2]"] ;
377 -> 378 ;
379 [label="gini = 0.0\nsamples = 1\nvalue = [0, 1, 0]"] ;
377 -> 379 ;
380 [label="X[15] <= 0.5\ngini = 0.651\nsamples = 13\nvalue = [5, 3, 5]"] ;
366 -> 380 ;
381 [label="X[14] <= 1.5\ngini = 0.593\nsamples = 9\nvalue = [5, 2, 2]"] ;
380 -> 381 ;
382 [label="X[30] <= 1.5\ngini = 0.625\nsamples = 4\nvalue = [1, 2, 1]"] ;
381 -> 382 ;
383 [label="gini = 0.0\nsamples = 2\nvalue = [0, 2, 0]"] ;
382 -> 383 ;
384 [label="X[24] <= 0.5\ngini = 0.5\nsamples = 2\nvalue = [1, 0, 1]"] ;
382 -> 384 ;
385 [label="gini = 0.0\nsamples = 1\nvalue = [1, 0, 0]"] ;
384 -> 385 ;
386 [label="gini = 0.0\nsamples = 1\nvalue = [0, 0, 1]"] ;
384 -> 386 ;
387 [label="X[13] <= 1.5\ngini = 0.32\nsamples = 5\nvalue = [4, 0, 1]"] ;
381 -> 387 ;
388 [label="X[24] <= 0.5\ngini = 0.5\nsamples = 2\nvalue = [1, 0, 1]"] ;
387 -> 388 ;
389 [label="gini = 0.0\nsamples = 1\nvalue = [1, 0, 0]"] ;
388 -> 389 ;
390 [label="gini = 0.0\nsamples = 1\nvalue = [0, 0, 1]"] ;
388 -> 390 ;
391 [label="gini = 0.0\nsamples = 3\nvalue = [3, 0, 0]"] ;
387 -> 391 ;
392 [label="X[13] <= 1.5\ngini = 0.375\nsamples = 4\nvalue = [0, 1, 3]"] ;
380 -> 392 ;
393 [label="gini = 0.0\nsamples = 2\nvalue = [0, 0, 2]"] ;
392 -> 393 ;
394 [label="X[14] <= 1.5\ngini = 0.5\nsamples = 2\nvalue = [0, 1, 1]"] ;
392 -> 394 ;
395 [label="gini = 0.0\nsamples = 1\nvalue = [0, 0, 1]"] ;
394 -> 395 ;
396 [label="gini = 0.0\nsamples = 1\nvalue = [0, 1, 0]"] ;
394 -> 396 ;
397 [label="X[33] <= 0.5\ngini = 0.298\nsamples = 11\nvalue = [0, 2, 9]"] ;
317 -> 397 ;
398 [label="X[31] <= 1.5\ngini = 0.18\nsamples = 10\nvalue = [0, 1, 9]"] ;
397 -> 398 ;
399 [label="X[30] <= 1.5\ngini = 0.444\nsamples = 3\nvalue = [0, 1, 2]"] ;
398 -> 399 ;
400 [label="gini = 0.0\nsamples = 1\nvalue = [0, 0, 1]"] ;
399 -> 400 ;
401 [label="X[13] <= 0.5\ngini = 0.5\nsamples = 2\nvalue = [0, 1, 1]"] ;
399 -> 401 ;
402 [label="gini = 0.0\nsamples = 1\nvalue = [0, 0, 1]"] ;
401 -> 402 ;
403 [label="gini = 0.0\nsamples = 1\nvalue = [0, 1, 0]"] ;
401 -> 403 ;
404 [label="gini = 0.0\nsamples = 7\nvalue = [0, 0, 7]"] ;
398 -> 404 ;
405 [label="gini = 0.0\nsamples = 1\nvalue = [0, 1, 0]"] ;
397 -> 405 ;
406 [label="X[26] <= 0.5\ngini = 0.122\nsamples = 46\nvalue = [0, 43, 3]"] ;
316 -> 406 ;
407 [label="X[15] <= 1.5\ngini = 0.087\nsamples = 44\nvalue = [0, 42, 2]"] ;
406 -> 407 ;
408 [label="X[32] <= 0.5\ngini = 0.046\nsamples = 42\nvalue = [0, 41, 1]"] ;
407 -> 408 ;
409 [label="gini = 0.0\nsamples = 40\nvalue = [0, 40, 0]"] ;
408 -> 409 ;
410 [label="X[31] <= 1.5\ngini = 0.5\nsamples = 2\nvalue = [0, 1, 1]"] ;
408 -> 410 ;
411 [label="gini = 0.0\nsamples = 1\nvalue = [0, 1, 0]"] ;
410 -> 411 ;
412 [label="gini = 0.0\nsamples = 1\nvalue = [0, 0, 1]"] ;
410 -> 412 ;
413 [label="X[14] <= 1.5\ngini = 0.5\nsamples = 2\nvalue = [0, 1, 1]"] ;
407 -> 413 ;
414 [label="gini = 0.0\nsamples = 1\nvalue = [0, 1, 0]"] ;
413 -> 414 ;
415 [label="gini = 0.0\nsamples = 1\nvalue = [0, 0, 1]"] ;
413 -> 415 ;
416 [label="X[25] <= 1.5\ngini = 0.5\nsamples = 2\nvalue = [0, 1, 1]"] ;
406 -> 416 ;
417 [label="gini = 0.0\nsamples = 1\nvalue = [0, 1, 0]"] ;
416 -> 417 ;
418 [label="gini = 0.0\nsamples = 1\nvalue = [0, 0, 1]"] ;
416 -> 418 ;
419 [label="X[22] <= 1.5\ngini = 0.598\nsamples = 60\nvalue = [18, 10, 32]"] ;
315 -> 419 ;
420 [label="X[22] <= 0.5\ngini = 0.63\nsamples = 52\nvalue = [18, 10, 24]"] ;
419 -> 420 ;
421 [label="X[24] <= 1.5\ngini = 0.508\nsamples = 32\nvalue = [10, 2, 20]"] ;
420 -> 421 ;
422 [label="X[15] <= 0.5\ngini = 0.355\nsamples = 26\nvalue = [6, 0, 20]"] ;
421 -> 422 ;
423 [label="X[30] <= 1.5\ngini = 0.287\nsamples = 23\nvalue = [4, 0, 19]"] ;
422 -> 423 ;
424 [label="X[25] <= 0.5\ngini = 0.111\nsamples = 17\nvalue = [1, 0, 16]"] ;
423 -> 424 ;
425 [label="gini = 0.0\nsamples = 16\nvalue = [0, 0, 16]"] ;
424 -> 425 ;
426 [label="gini = 0.0\nsamples = 1\nvalue = [1, 0, 0]"] ;
424 -> 426 ;
427 [label="X[32] <= 0.5\ngini = 0.5\nsamples = 6\nvalue = [3, 0, 3]"] ;
423 -> 427 ;
428 [label="X[24] <= 0.5\ngini = 0.48\nsamples = 5\nvalue = [3, 0, 2]"] ;
427 -> 428 ;
429 [label="X[13] <= 0.5\ngini = 0.375\nsamples = 4\nvalue = [3, 0, 1]"] ;
428 -> 429 ;
430 [label="X[31] <= 0.5\ngini = 0.5\nsamples = 2\nvalue = [1, 0, 1]"] ;
429 -> 430 ;
431 [label="gini = 0.0\nsamples = 1\nvalue = [1, 0, 0]"] ;
430 -> 431 ;
432 [label="gini = 0.0\nsamples = 1\nvalue = [0, 0, 1]"] ;
430 -> 432 ;
433 [label="gini = 0.0\nsamples = 2\nvalue = [2, 0, 0]"] ;
429 -> 433 ;
434 [label="gini = 0.0\nsamples = 1\nvalue = [0, 0, 1]"] ;
428 -> 434 ;
435 [label="gini = 0.0\nsamples = 1\nvalue = [0, 0, 1]"] ;
427 -> 435 ;
436 [label="X[13] <= 1.5\ngini = 0.444\nsamples = 3\nvalue = [2, 0, 1]"] ;
422 -> 436 ;
437 [label="gini = 0.0\nsamples = 1\nvalue = [0, 0, 1]"] ;
436 -> 437 ;
438 [label="gini = 0.0\nsamples = 2\nvalue = [2, 0, 0]"] ;
436 -> 438 ;
439 [label="X[30] <= 0.5\ngini = 0.444\nsamples = 6\nvalue = [4, 2, 0]"] ;
421 -> 439 ;
440 [label="gini = 0.0\nsamples = 3\nvalue = [3, 0, 0]"] ;
439 -> 440 ;
441 [label="X[13] <= 0.5\ngini = 0.444\nsamples = 3\nvalue = [1, 2, 0]"] ;
439 -> 441 ;
442 [label="gini = 0.0\nsamples = 2\nvalue = [0, 2, 0]"] ;
441 -> 442 ;
443 [label="gini = 0.0\nsamples = 1\nvalue = [1, 0, 0]"] ;
441 -> 443 ;
444 [label="X[24] <= 0.5\ngini = 0.64\nsamples = 20\nvalue = [8, 8, 4]"] ;
420 -> 444 ;
445 [label="X[31] <= 1.5\ngini = 0.592\nsamples = 13\nvalue = [4, 7, 2]"] ;
444 -> 445 ;
446 [label="X[23] <= 1.5\ngini = 0.542\nsamples = 12\nvalue = [4, 7, 1]"] ;
445 -> 446 ;
447 [label="X[30] <= 1.5\ngini = 0.494\nsamples = 9\nvalue = [2, 6, 1]"] ;
446 -> 447 ;
448 [label="X[14] <= 0.5\ngini = 0.278\nsamples = 6\nvalue = [1, 5, 0]"] ;
447 -> 448 ;
449 [label="gini = 0.0\nsamples = 4\nvalue = [0, 4, 0]"] ;
448 -> 449 ;
450 [label="X[14] <= 1.5\ngini = 0.5\nsamples = 2\nvalue = [1, 1, 0]"] ;
448 -> 450 ;
451 [label="gini = 0.0\nsamples = 1\nvalue = [1, 0, 0]"] ;
450 -> 451 ;
452 [label="gini = 0.0\nsamples = 1\nvalue = [0, 1, 0]"] ;
450 -> 452 ;
453 [label="X[31] <= 0.5\ngini = 0.667\nsamples = 3\nvalue = [1, 1, 1]"] ;
447 -> 453 ;
454 [label="X[13] <= 0.5\ngini = 0.5\nsamples = 2\nvalue = [1, 0, 1]"] ;
453 -> 454 ;
455 [label="gini = 0.0\nsamples = 1\nvalue = [1, 0, 0]"] ;
454 -> 455 ;
456 [label="gini = 0.0\nsamples = 1\nvalue = [0, 0, 1]"] ;
454 -> 456 ;
457 [label="gini = 0.0\nsamples = 1\nvalue = [0, 1, 0]"] ;
453 -> 457 ;
458 [label="X[30] <= 0.5\ngini = 0.444\nsamples = 3\nvalue = [2, 1, 0]"] ;
446 -> 458 ;
459 [label="gini = 0.0\nsamples = 2\nvalue = [2, 0, 0]"] ;
458 -> 459 ;
460 [label="gini = 0.0\nsamples = 1\nvalue = [0, 1, 0]"] ;
458 -> 460 ;
461 [label="gini = 0.0\nsamples = 1\nvalue = [0, 0, 1]"] ;
445 -> 461 ;
462 [label="X[30] <= 0.5\ngini = 0.571\nsamples = 7\nvalue = [4, 1, 2]"] ;
444 -> 462 ;
463 [label="X[24] <= 1.5\ngini = 0.444\nsamples = 6\nvalue = [4, 0, 2]"] ;
462 -> 463 ;
464 [label="gini = 0.0\nsamples = 2\nvalue = [2, 0, 0]"] ;
463 -> 464 ;
465 [label="X[36] <= 0.5\ngini = 0.5\nsamples = 4\nvalue = [2, 0, 2]"] ;
463 -> 465 ;
466 [label="X[25] <= 0.5\ngini = 0.444\nsamples = 3\nvalue = [1, 0, 2]"] ;
465 -> 466 ;
467 [label="gini = 0.0\nsamples = 2\nvalue = [0, 0, 2]"] ;
466 -> 467 ;
468 [label="gini = 0.0\nsamples = 1\nvalue = [1, 0, 0]"] ;
466 -> 468 ;
469 [label="gini = 0.0\nsamples = 1\nvalue = [1, 0, 0]"] ;
465 -> 469 ;
470 [label="gini = 0.0\nsamples = 1\nvalue = [0, 1, 0]"] ;
462 -> 470 ;
471 [label="gini = 0.0\nsamples = 8\nvalue = [0, 0, 8]"] ;
419 -> 471 ;
472 [label="X[33] <= 0.5\ngini = 0.169\nsamples = 175\nvalue = [4, 12, 159]"] ;
314 -> 472 ;
473 [label="X[23] <= 1.5\ngini = 0.16\nsamples = 174\nvalue = [3, 12, 159]"] ;
472 -> 473 ;
474 [label="X[32] <= 1.5\ngini = 0.134\nsamples = 167\nvalue = [1, 11, 155]"] ;
473 -> 474 ;
475 [label="X[24] <= 1.5\ngini = 0.125\nsamples = 165\nvalue = [1, 10, 154]"] ;
474 -> 475 ;
476 [label="X[37] <= 1.5\ngini = 0.082\nsamples = 117\nvalue = [1, 4, 112]"] ;
475 -> 476 ;
477 [label="X[14] <= 0.5\ngini = 0.038\nsamples = 104\nvalue = [0, 2, 102]"] ;
476 -> 477 ;
478 [label="gini = 0.0\nsamples = 62\nvalue = [0, 0, 62]"] ;
477 -> 478 ;
479 [label="X[21] <= 1.5\ngini = 0.091\nsamples = 42\nvalue = [0, 2, 40]"] ;
477 -> 479 ;
480 [label="X[30] <= 1.5\ngini = 0.057\nsamples = 34\nvalue = [0, 1, 33]"] ;
479 -> 480 ;
481 [label="gini = 0.0\nsamples = 25\nvalue = [0, 0, 25]"] ;
480 -> 481 ;
482 [label="X[15] <= 0.5\ngini = 0.198\nsamples = 9\nvalue = [0, 1, 8]"] ;
480 -> 482 ;
483 [label="gini = 0.0\nsamples = 7\nvalue = [0, 0, 7]"] ;
482 -> 483 ;
484 [label="X[14] <= 1.5\ngini = 0.5\nsamples = 2\nvalue = [0, 1, 1]"] ;
482 -> 484 ;
485 [label="gini = 0.0\nsamples = 1\nvalue = [0, 1, 0]"] ;
484 -> 485 ;
486 [label="gini = 0.0\nsamples = 1\nvalue = [0, 0, 1]"] ;
484 -> 486 ;
487 [label="X[36] <= 0.5\ngini = 0.219\nsamples = 8\nvalue = [0, 1, 7]"] ;
479 -> 487 ;
488 [label="gini = 0.0\nsamples = 6\nvalue = [0, 0, 6]"] ;
487 -> 488 ;
489 [label="X[14] <= 1.5\ngini = 0.5\nsamples = 2\nvalue = [0, 1, 1]"] ;
487 -> 489 ;
490 [label="gini = 0.0\nsamples = 1\nvalue = [0, 0, 1]"] ;
489 -> 490 ;
491 [label="gini = 0.0\nsamples = 1\nvalue = [0, 1, 0]"] ;
489 -> 491 ;
492 [label="X[31] <= 0.5\ngini = 0.379\nsamples = 13\nvalue = [1, 2, 10]"] ;
476 -> 492 ;
493 [label="X[13] <= 0.5\ngini = 0.278\nsamples = 12\nvalue = [0, 2, 10]"] ;
492 -> 493 ;
494 [label="gini = 0.0\nsamples = 6\nvalue = [0, 0, 6]"] ;
493 -> 494 ;
495 [label="X[13] <= 1.5\ngini = 0.444\nsamples = 6\nvalue = [0, 2, 4]"] ;
493 -> 495 ;
496 [label="gini = 0.0\nsamples = 2\nvalue = [0, 2, 0]"] ;
495 -> 496 ;
497 [label="gini = 0.0\nsamples = 4\nvalue = [0, 0, 4]"] ;
495 -> 497 ;
498 [label="gini = 0.0\nsamples = 1\nvalue = [1, 0, 0]"] ;
492 -> 498 ;
499 [label="X[30] <= 1.5\ngini = 0.219\nsamples = 48\nvalue = [0, 6, 42]"] ;
475 -> 499 ;
500 [label="X[13] <= 0.5\ngini = 0.162\nsamples = 45\nvalue = [0, 4, 41]"] ;
499 -> 500 ;
501 [label="gini = 0.0\nsamples = 25\nvalue = [0, 0, 25]"] ;
500 -> 501 ;
502 [label="X[22] <= 1.5\ngini = 0.32\nsamples = 20\nvalue = [0, 4, 16]"] ;
500 -> 502 ;
503 [label="X[30] <= 0.5\ngini = 0.266\nsamples = 19\nvalue = [0, 3, 16]"] ;
502 -> 503 ;
504 [label="X[36] <= 0.5\ngini = 0.397\nsamples = 11\nvalue = [0, 3, 8]"] ;
503 -> 504 ;
505 [label="X[25] <= 0.5\ngini = 0.49\nsamples = 7\nvalue = [0, 3, 4]"] ;
504 -> 505 ;
506 [label="X[13] <= 1.5\ngini = 0.375\nsamples = 4\nvalue = [0, 1, 3]"] ;
505 -> 506 ;
507 [label="gini = 0.0\nsamples = 3\nvalue = [0, 0, 3]"] ;
506 -> 507 ;
508 [label="gini = 0.0\nsamples = 1\nvalue = [0, 1, 0]"] ;
506 -> 508 ;
509 [label="X[13] <= 1.5\ngini = 0.444\nsamples = 3\nvalue = [0, 2, 1]"] ;
505 -> 509 ;
510 [label="gini = 0.0\nsamples = 2\nvalue = [0, 2, 0]"] ;
509 -> 510 ;
511 [label="gini = 0.0\nsamples = 1\nvalue = [0, 0, 1]"] ;
509 -> 511 ;
512 [label="gini = 0.0\nsamples = 4\nvalue = [0, 0, 4]"] ;
504 -> 512 ;
513 [label="gini = 0.0\nsamples = 8\nvalue = [0, 0, 8]"] ;
503 -> 513 ;
514 [label="gini = 0.0\nsamples = 1\nvalue = [0, 1, 0]"] ;
502 -> 514 ;
515 [label="X[37] <= 0.5\ngini = 0.444\nsamples = 3\nvalue = [0, 2, 1]"] ;
499 -> 515 ;
516 [label="gini = 0.0\nsamples = 2\nvalue = [0, 2, 0]"] ;
515 -> 516 ;
517 [label="gini = 0.0\nsamples = 1\nvalue = [0, 0, 1]"] ;
515 -> 517 ;
518 [label="X[21] <= 0.5\ngini = 0.5\nsamples = 2\nvalue = [0, 1, 1]"] ;
474 -> 518 ;
519 [label="gini = 0.0\nsamples = 1\nvalue = [0, 1, 0]"] ;
518 -> 519 ;
520 [label="gini = 0.0\nsamples = 1\nvalue = [0, 0, 1]"] ;
518 -> 520 ;
521 [label="X[36] <= 0.5\ngini = 0.571\nsamples = 7\nvalue = [2, 1, 4]"] ;
473 -> 521 ;
522 [label="X[13] <= 0.5\ngini = 0.32\nsamples = 5\nvalue = [0, 1, 4]"] ;
521 -> 522 ;
523 [label="gini = 0.0\nsamples = 4\nvalue = [0, 0, 4]"] ;
522 -> 523 ;
524 [label="gini = 0.0\nsamples = 1\nvalue = [0, 1, 0]"] ;
522 -> 524 ;
525 [label="gini = 0.0\nsamples = 2\nvalue = [2, 0, 0]"] ;
521 -> 525 ;
526 [label="gini = 0.0\nsamples = 1\nvalue = [1, 0, 0]"] ;
472 -> 526 ;
527 [label="X[23] <= 1.5\ngini = 0.129\nsamples = 1517\nvalue = [58, 45, 1414]"] ;
5 -> 527 ;
528 [label="X[20] <= 0.5\ngini = 0.123\nsamples = 1506\nvalue = [55, 42, 1409]"] ;
527 -> 528 ;
529 [label="X[17] <= 1.5\ngini = 0.083\nsamples = 1043\nvalue = [34, 11, 998]"] ;
528 -> 529 ;
530 [label="X[37] <= 1.5\ngini = 0.082\nsamples = 1042\nvalue = [33, 11, 998]"] ;
529 -> 530 ;
531 [label="X[34] <= 1.5\ngini = 0.055\nsamples = 859\nvalue = [18, 6, 835]"] ;
530 -> 531 ;
532 [label="X[11] <= 1.5\ngini = 0.053\nsamples = 856\nvalue = [17, 6, 833]"] ;
531 -> 532 ;
533 [label="X[28] <= 1.5\ngini = 0.051\nsamples = 852\nvalue = [16, 6, 830]"] ;
532 -> 533 ;
534 [label="X[19] <= 1.5\ngini = 0.049\nsamples = 848\nvalue = [15, 6, 827]"] ;
533 -> 534 ;
535 [label="X[19] <= 0.5\ngini = 0.067\nsamples = 578\nvalue = [14, 6, 558]"] ;
534 -> 535 ;
536 [label="X[14] <= 0.5\ngini = 0.053\nsamples = 517\nvalue = [12, 2, 503]"] ;
535 -> 536 ;
537 [label="X[24] <= 0.5\ngini = 0.041\nsamples = 385\nvalue = [6, 2, 377]"] ;
536 -> 537 ;
538 [label="gini = 0.0\nsamples = 164\nvalue = [0, 0, 164]"] ;
537 -> 538 ;
539 [label="X[30] <= 1.5\ngini = 0.07\nsamples = 221\nvalue = [6, 2, 213]"] ;
537 -> 539 ;
540 [label="X[10] <= 1.5\ngini = 0.032\nsamples = 184\nvalue = [1, 2, 181]"] ;
539 -> 540 ;
541 [label="X[26] <= 0.5\ngini = 0.024\nsamples = 167\nvalue = [1, 1, 165]"] ;
540 -> 541 ;
542 [label="gini = 0.0\nsamples = 105\nvalue = [0, 0, 105]"] ;
541 -> 542 ;
543 [label="X[13] <= 1.5\ngini = 0.063\nsamples = 62\nvalue = [1, 1, 60]"] ;
541 -> 543 ;
544 [label="X[36] <= 0.5\ngini = 0.037\nsamples = 53\nvalue = [1, 0, 52]"] ;
543 -> 544 ;
545 [label="gini = 0.0\nsamples = 35\nvalue = [0, 0, 35]"] ;
544 -> 545 ;
546 [label="X[25] <= 1.5\ngini = 0.105\nsamples = 18\nvalue = [1, 0, 17]"] ;
544 -> 546 ;
547 [label="X[27] <= 0.5\ngini = 0.198\nsamples = 9\nvalue = [1, 0, 8]"] ;
546 -> 547 ;
548 [label="gini = 0.0\nsamples = 5\nvalue = [0, 0, 5]"] ;
547 -> 548 ;
549 [label="X[7] <= 1.5\ngini = 0.375\nsamples = 4\nvalue = [1, 0, 3]"] ;
547 -> 549 ;
550 [label="gini = 0.0\nsamples = 3\nvalue = [0, 0, 3]"] ;
549 -> 550 ;
551 [label="gini = 0.0\nsamples = 1\nvalue = [1, 0, 0]"] ;
549 -> 551 ;
552 [label="gini = 0.0\nsamples = 9\nvalue = [0, 0, 9]"] ;
546 -> 552 ;
553 [label="X[7] <= 1.5\ngini = 0.198\nsamples = 9\nvalue = [0, 1, 8]"] ;
543 -> 553 ;
554 [label="gini = 0.0\nsamples = 8\nvalue = [0, 0, 8]"] ;
553 -> 554 ;
555 [label="gini = 0.0\nsamples = 1\nvalue = [0, 1, 0]"] ;
553 -> 555 ;
556 [label="X[30] <= 0.5\ngini = 0.111\nsamples = 17\nvalue = [0, 1, 16]"] ;
540 -> 556 ;
557 [label="gini = 0.0\nsamples = 13\nvalue = [0, 0, 13]"] ;
556 -> 557 ;
558 [label="X[7] <= 1.5\ngini = 0.375\nsamples = 4\nvalue = [0, 1, 3]"] ;
556 -> 558 ;
559 [label="gini = 0.0\nsamples = 1\nvalue = [0, 1, 0]"] ;
558 -> 559 ;
560 [label="gini = 0.0\nsamples = 3\nvalue = [0, 0, 3]"] ;
558 -> 560 ;
561 [label="X[10] <= 0.5\ngini = 0.234\nsamples = 37\nvalue = [5, 0, 32]"] ;
539 -> 561 ;
562 [label="X[26] <= 0.5\ngini = 0.165\nsamples = 33\nvalue = [3, 0, 30]"] ;
561 -> 562 ;
563 [label="X[32] <= 1.5\ngini = 0.121\nsamples = 31\nvalue = [2, 0, 29]"] ;
562 -> 563 ;
564 [label="X[25] <= 0.5\ngini = 0.069\nsamples = 28\nvalue = [1, 0, 27]"] ;
563 -> 564 ;
565 [label="gini = 0.0\nsamples = 20\nvalue = [0, 0, 20]"] ;
564 -> 565 ;
566 [label="X[7] <= 1.5\ngini = 0.219\nsamples = 8\nvalue = [1, 0, 7]"] ;
564 -> 566 ;
567 [label="gini = 0.0\nsamples = 6\nvalue = [0, 0, 6]"] ;
566 -> 567 ;
568 [label="X[24] <= 1.5\ngini = 0.5\nsamples = 2\nvalue = [1, 0, 1]"] ;
566 -> 568 ;
569 [label="gini = 0.0\nsamples = 1\nvalue = [0, 0, 1]"] ;
568 -> 569 ;
570 [label="gini = 0.0\nsamples = 1\nvalue = [1, 0, 0]"] ;
568 -> 570 ;
571 [label="X[24] <= 1.5\ngini = 0.444\nsamples = 3\nvalue = [1, 0, 2]"] ;
563 -> 571 ;
572 [label="gini = 0.0\nsamples = 2\nvalue = [0, 0, 2]"] ;
571 -> 572 ;
573 [label="gini = 0.0\nsamples = 1\nvalue = [1, 0, 0]"] ;
571 -> 573 ;
574 [label="X[25] <= 1.5\ngini = 0.5\nsamples = 2\nvalue = [1, 0, 1]"] ;
562 -> 574 ;
575 [label="gini = 0.0\nsamples = 1\nvalue = [0, 0, 1]"] ;
574 -> 575 ;
576 [label="gini = 0.0\nsamples = 1\nvalue = [1, 0, 0]"] ;
574 -> 576 ;
577 [label="X[7] <= 1.5\ngini = 0.5\nsamples = 4\nvalue = [2, 0, 2]"] ;
561 -> 577 ;
578 [label="gini = 0.0\nsamples = 2\nvalue = [2, 0, 0]"] ;
577 -> 578 ;
579 [label="gini = 0.0\nsamples = 2\nvalue = [0, 0, 2]"] ;
577 -> 579 ;
580 [label="X[14] <= 1.5\ngini = 0.087\nsamples = 132\nvalue = [6, 0, 126]"] ;
536 -> 580 ;
581 [label="X[15] <= 1.5\ngini = 0.231\nsamples = 45\nvalue = [6, 0, 39]"] ;
580 -> 581 ;
582 [label="X[16] <= 1.0\ngini = 0.355\nsamples = 26\nvalue = [6, 0, 20]"] ;
581 -> 582 ;
583 [label="X[36] <= 0.5\ngini = 0.32\nsamples = 25\nvalue = [5, 0, 20]"] ;
582 -> 583 ;
584 [label="X[30] <= 1.5\ngini = 0.255\nsamples = 20\nvalue = [3, 0, 17]"] ;
583 -> 584 ;
585 [label="X[24] <= 0.5\ngini = 0.397\nsamples = 11\nvalue = [3, 0, 8]"] ;
584 -> 585 ;
586 [label="X[31] <= 1.0\ngini = 0.5\nsamples = 4\nvalue = [2, 0, 2]"] ;
585 -> 586 ;
587 [label="X[9] <= 0.5\ngini = 0.444\nsamples = 3\nvalue = [2, 0, 1]"] ;
586 -> 587 ;
588 [label="gini = 0.0\nsamples = 2\nvalue = [2, 0, 0]"] ;
587 -> 588 ;
589 [label="gini = 0.0\nsamples = 1\nvalue = [0, 0, 1]"] ;
587 -> 589 ;
590 [label="gini = 0.0\nsamples = 1\nvalue = [0, 0, 1]"] ;
586 -> 590 ;
591 [label="X[25] <= 0.5\ngini = 0.245\nsamples = 7\nvalue = [1, 0, 6]"] ;
585 -> 591 ;
592 [label="gini = 0.0\nsamples = 5\nvalue = [0, 0, 5]"] ;
591 -> 592 ;
593 [label="X[7] <= 1.0\ngini = 0.5\nsamples = 2\nvalue = [1, 0, 1]"] ;
591 -> 593 ;
594 [label="gini = 0.0\nsamples = 1\nvalue = [0, 0, 1]"] ;
593 -> 594 ;
595 [label="gini = 0.0\nsamples = 1\nvalue = [1, 0, 0]"] ;
593 -> 595 ;
596 [label="gini = 0.0\nsamples = 9\nvalue = [0, 0, 9]"] ;
584 -> 596 ;
597 [label="X[30] <= 1.0\ngini = 0.48\nsamples = 5\nvalue = [2, 0, 3]"] ;
583 -> 597 ;
598 [label="gini = 0.0\nsamples = 3\nvalue = [0, 0, 3]"] ;
597 -> 598 ;
599 [label="gini = 0.0\nsamples = 2\nvalue = [2, 0, 0]"] ;
597 -> 599 ;
600 [label="gini = 0.0\nsamples = 1\nvalue = [1, 0, 0]"] ;
582 -> 600 ;
601 [label="gini = 0.0\nsamples = 19\nvalue = [0, 0, 19]"] ;
581 -> 601 ;
602 [label="gini = 0.0\nsamples = 87\nvalue = [0, 0, 87]"] ;
580 -> 602 ;
603 [label="X[32] <= 1.5\ngini = 0.182\nsamples = 61\nvalue = [2, 4, 55]"] ;
535 -> 603 ;
604 [label="X[9] <= 1.5\ngini = 0.159\nsamples = 59\nvalue = [2, 3, 54]"] ;
603 -> 604 ;
605 [label="X[14] <= 0.5\ngini = 0.051\nsamples = 38\nvalue = [1, 0, 37]"] ;
604 -> 605 ;
606 [label="gini = 0.0\nsamples = 27\nvalue = [0, 0, 27]"] ;
605 -> 606 ;
607 [label="X[8] <= 1.5\ngini = 0.165\nsamples = 11\nvalue = [1, 0, 10]"] ;
605 -> 607 ;
608 [label="gini = 0.0\nsamples = 9\nvalue = [0, 0, 9]"] ;
607 -> 608 ;
609 [label="X[7] <= 1.5\ngini = 0.5\nsamples = 2\nvalue = [1, 0, 1]"] ;
607 -> 609 ;
610 [label="gini = 0.0\nsamples = 1\nvalue = [0, 0, 1]"] ;
609 -> 610 ;
611 [label="gini = 0.0\nsamples = 1\nvalue = [1, 0, 0]"] ;
609 -> 611 ;
612 [label="X[30] <= 0.5\ngini = 0.322\nsamples = 21\nvalue = [1, 3, 17]"] ;
604 -> 612 ;
613 [label="X[12] <= 0.5\ngini = 0.165\nsamples = 11\nvalue = [1, 0, 10]"] ;
612 -> 613 ;
614 [label="gini = 0.0\nsamples = 8\nvalue = [0, 0, 8]"] ;
613 -> 614 ;
615 [label="X[24] <= 1.0\ngini = 0.444\nsamples = 3\nvalue = [1, 0, 2]"] ;
613 -> 615 ;
616 [label="gini = 0.0\nsamples = 2\nvalue = [0, 0, 2]"] ;
615 -> 616 ;
617 [label="gini = 0.0\nsamples = 1\nvalue = [1, 0, 0]"] ;
615 -> 617 ;
618 [label="X[24] <= 0.5\ngini = 0.42\nsamples = 10\nvalue = [0, 3, 7]"] ;
612 -> 618 ;
619 [label="X[10] <= 1.5\ngini = 0.219\nsamples = 8\nvalue = [0, 1, 7]"] ;
618 -> 619 ;
620 [label="gini = 0.0\nsamples = 7\nvalue = [0, 0, 7]"] ;
619 -> 620 ;
621 [label="gini = 0.0\nsamples = 1\nvalue = [0, 1, 0]"] ;
619 -> 621 ;
622 [label="gini = 0.0\nsamples = 2\nvalue = [0, 2, 0]"] ;
618 -> 622 ;
623 [label="X[7] <= 1.5\ngini = 0.5\nsamples = 2\nvalue = [0, 1, 1]"] ;
603 -> 623 ;
624 [label="gini = 0.0\nsamples = 1\nvalue = [0, 0, 1]"] ;
623 -> 624 ;
625 [label="gini = 0.0\nsamples = 1\nvalue = [0, 1, 0]"] ;
623 -> 625 ;
626 [label="X[14] <= 0.5\ngini = 0.007\nsamples = 270\nvalue = [1, 0, 269]"] ;
534 -> 626 ;
627 [label="gini = 0.0\nsamples = 222\nvalue = [0, 0, 222]"] ;
626 -> 627 ;
628 [label="X[25] <= 0.5\ngini = 0.041\nsamples = 48\nvalue = [1, 0, 47]"] ;
626 -> 628 ;
629 [label="gini = 0.0\nsamples = 45\nvalue = [0, 0, 45]"] ;
628 -> 629 ;
630 [label="X[13] <= 1.5\ngini = 0.444\nsamples = 3\nvalue = [1, 0, 2]"] ;
628 -> 630 ;
631 [label="gini = 0.0\nsamples = 2\nvalue = [0, 0, 2]"] ;
630 -> 631 ;
632 [label="gini = 0.0\nsamples = 1\nvalue = [1, 0, 0]"] ;
630 -> 632 ;
633 [label="X[36] <= 0.5\ngini = 0.375\nsamples = 4\nvalue = [1, 0, 3]"] ;
533 -> 633 ;
634 [label="gini = 0.0\nsamples = 3\nvalue = [0, 0, 3]"] ;
633 -> 634 ;
635 [label="gini = 0.0\nsamples = 1\nvalue = [1, 0, 0]"] ;
633 -> 635 ;
636 [label="X[19] <= 0.5\ngini = 0.375\nsamples = 4\nvalue = [1, 0, 3]"] ;
532 -> 636 ;
637 [label="gini = 0.0\nsamples = 3\nvalue = [0, 0, 3]"] ;
636 -> 637 ;
638 [label="gini = 0.0\nsamples = 1\nvalue = [1, 0, 0]"] ;
636 -> 638 ;
639 [label="X[12] <= 0.5\ngini = 0.444\nsamples = 3\nvalue = [1, 0, 2]"] ;
531 -> 639 ;
640 [label="gini = 0.0\nsamples = 2\nvalue = [0, 0, 2]"] ;
639 -> 640 ;
641 [label="gini = 0.0\nsamples = 1\nvalue = [1, 0, 0]"] ;
639 -> 641 ;
642 [label="X[25] <= 0.5\ngini = 0.199\nsamples = 183\nvalue = [15, 5, 163]"] ;
530 -> 642 ;
643 [label="X[14] <= 0.5\ngini = 0.121\nsamples = 154\nvalue = [10, 0, 144]"] ;
642 -> 643 ;
644 [label="X[19] <= 1.5\ngini = 0.092\nsamples = 144\nvalue = [7, 0, 137]"] ;
643 -> 644 ;
645 [label="X[19] <= 0.5\ngini = 0.127\nsamples = 103\nvalue = [7, 0, 96]"] ;
644 -> 645 ;
646 [label="X[30] <= 1.5\ngini = 0.062\nsamples = 93\nvalue = [3, 0, 90]"] ;
645 -> 646 ;
647 [label="gini = 0.0\nsamples = 55\nvalue = [0, 0, 55]"] ;
646 -> 647 ;
648 [label="X[24] <= 1.5\ngini = 0.145\nsamples = 38\nvalue = [3, 0, 35]"] ;
646 -> 648 ;
649 [label="X[38] <= 1.5\ngini = 0.105\nsamples = 36\nvalue = [2, 0, 34]"] ;
648 -> 649 ;
650 [label="X[7] <= 1.5\ngini = 0.064\nsamples = 30\nvalue = [1, 0, 29]"] ;
649 -> 650 ;
651 [label="gini = 0.0\nsamples = 22\nvalue = [0, 0, 22]"] ;
650 -> 651 ;
652 [label="X[31] <= 0.5\ngini = 0.219\nsamples = 8\nvalue = [1, 0, 7]"] ;
650 -> 652 ;
653 [label="gini = 0.0\nsamples = 4\nvalue = [0, 0, 4]"] ;
652 -> 653 ;
654 [label="X[12] <= 0.5\ngini = 0.375\nsamples = 4\nvalue = [1, 0, 3]"] ;
652 -> 654 ;
655 [label="gini = 0.0\nsamples = 3\nvalue = [0, 0, 3]"] ;
654 -> 655 ;
656 [label="gini = 0.0\nsamples = 1\nvalue = [1, 0, 0]"] ;
654 -> 656 ;
657 [label="X[32] <= 0.5\ngini = 0.278\nsamples = 6\nvalue = [1, 0, 5]"] ;
649 -> 657 ;
658 [label="gini = 0.0\nsamples = 5\nvalue = [0, 0, 5]"] ;
657 -> 658 ;
659 [label="gini = 0.0\nsamples = 1\nvalue = [1, 0, 0]"] ;
657 -> 659 ;
660 [label="X[13] <= 0.5\ngini = 0.5\nsamples = 2\nvalue = [1, 0, 1]"] ;
648 -> 660 ;
661 [label="gini = 0.0\nsamples = 1\nvalue = [0, 0, 1]"] ;
660 -> 661 ;
662 [label="gini = 0.0\nsamples = 1\nvalue = [1, 0, 0]"] ;
660 -> 662 ;
663 [label="X[8] <= 0.5\ngini = 0.48\nsamples = 10\nvalue = [4, 0, 6]"] ;
645 -> 663 ;
664 [label="gini = 0.0\nsamples = 4\nvalue = [0, 0, 4]"] ;
663 -> 664 ;
665 [label="X[8] <= 1.5\ngini = 0.444\nsamples = 6\nvalue = [4, 0, 2]"] ;
663 -> 665 ;
666 [label="gini = 0.0\nsamples = 2\nvalue = [2, 0, 0]"] ;
665 -> 666 ;
667 [label="X[7] <= 1.5\ngini = 0.5\nsamples = 4\nvalue = [2, 0, 2]"] ;
665 -> 667 ;
668 [label="gini = 0.0\nsamples = 2\nvalue = [2, 0, 0]"] ;
667 -> 668 ;
669 [label="gini = 0.0\nsamples = 2\nvalue = [0, 0, 2]"] ;
667 -> 669 ;
670 [label="gini = 0.0\nsamples = 41\nvalue = [0, 0, 41]"] ;
644 -> 670 ;
671 [label="X[14] <= 1.5\ngini = 0.42\nsamples = 10\nvalue = [3, 0, 7]"] ;
643 -> 671 ;
672 [label="X[7] <= 1.0\ngini = 0.5\nsamples = 6\nvalue = [3, 0, 3]"] ;
671 -> 672 ;
673 [label="X[38] <= 1.0\ngini = 0.48\nsamples = 5\nvalue = [2, 0, 3]"] ;
672 -> 673 ;
674 [label="X[30] <= 1.0\ngini = 0.375\nsamples = 4\nvalue = [1, 0, 3]"] ;
673 -> 674 ;
675 [label="gini = 0.0\nsamples = 3\nvalue = [0, 0, 3]"] ;
674 -> 675 ;
676 [label="gini = 0.0\nsamples = 1\nvalue = [1, 0, 0]"] ;
674 -> 676 ;
677 [label="gini = 0.0\nsamples = 1\nvalue = [1, 0, 0]"] ;
673 -> 677 ;
678 [label="gini = 0.0\nsamples = 1\nvalue = [1, 0, 0]"] ;
672 -> 678 ;
679 [label="gini = 0.0\nsamples = 4\nvalue = [0, 0, 4]"] ;
671 -> 679 ;
680 [label="X[7] <= 1.5\ngini = 0.511\nsamples = 29\nvalue = [5, 5, 19]"] ;
642 -> 680 ;
681 [label="X[38] <= 1.5\ngini = 0.381\nsamples = 25\nvalue = [1, 5, 19]"] ;
680 -> 681 ;
682 [label="X[30] <= 1.5\ngini = 0.245\nsamples = 21\nvalue = [0, 3, 18]"] ;
681 -> 682 ;
683 [label="X[39] <= 1.5\ngini = 0.18\nsamples = 20\nvalue = [0, 2, 18]"] ;
682 -> 683 ;
684 [label="X[27] <= 0.5\ngini = 0.1\nsamples = 19\nvalue = [0, 1, 18]"] ;
683 -> 684 ;
685 [label="gini = 0.0\nsamples = 17\nvalue = [0, 0, 17]"] ;
684 -> 685 ;
686 [label="X[26] <= 1.5\ngini = 0.5\nsamples = 2\nvalue = [0, 1, 1]"] ;
684 -> 686 ;
687 [label="gini = 0.0\nsamples = 1\nvalue = [0, 0, 1]"] ;
686 -> 687 ;
688 [label="gini = 0.0\nsamples = 1\nvalue = [0, 1, 0]"] ;
686 -> 688 ;
689 [label="gini = 0.0\nsamples = 1\nvalue = [0, 1, 0]"] ;
683 -> 689 ;
690 [label="gini = 0.0\nsamples = 1\nvalue = [0, 1, 0]"] ;
682 -> 690 ;
691 [label="X[12] <= 0.5\ngini = 0.625\nsamples = 4\nvalue = [1, 2, 1]"] ;
681 -> 691 ;
692 [label="X[39] <= 0.5\ngini = 0.444\nsamples = 3\nvalue = [0, 2, 1]"] ;
691 -> 692 ;
693 [label="gini = 0.0\nsamples = 2\nvalue = [0, 2, 0]"] ;
692 -> 693 ;
694 [label="gini = 0.0\nsamples = 1\nvalue = [0, 0, 1]"] ;
692 -> 694 ;
695 [label="gini = 0.0\nsamples = 1\nvalue = [1, 0, 0]"] ;
691 -> 695 ;
696 [label="gini = 0.0\nsamples = 4\nvalue = [4, 0, 0]"] ;
680 -> 696 ;
697 [label="gini = 0.0\nsamples = 1\nvalue = [1, 0, 0]"] ;
529 -> 697 ;
698 [label="X[20] <= 1.5\ngini = 0.205\nsamples = 463\nvalue = [21, 31, 411]"] ;
528 -> 698 ;
699 [label="X[21] <= 1.5\ngini = 0.357\nsamples = 230\nvalue = [20, 29, 181]"] ;
698 -> 699 ;
700 [label="X[21] <= 0.5\ngini = 0.436\nsamples = 163\nvalue = [18, 27, 118]"] ;
699 -> 700 ;
701 [label="X[12] <= 0.5\ngini = 0.378\nsamples = 122\nvalue = [18, 10, 94]"] ;
700 -> 701 ;
702 [label="X[10] <= 1.5\ngini = 0.2\nsamples = 64\nvalue = [5, 2, 57]"] ;
701 -> 702 ;
703 [label="X[37] <= 1.5\ngini = 0.124\nsamples = 60\nvalue = [4, 0, 56]"] ;
702 -> 703 ;
704 [label="gini = 0.0\nsamples = 49\nvalue = [0, 0, 49]"] ;
703 -> 704 ;
705 [label="X[30] <= 0.5\ngini = 0.463\nsamples = 11\nvalue = [4, 0, 7]"] ;
703 -> 705 ;
706 [label="X[38] <= 0.5\ngini = 0.5\nsamples = 8\nvalue = [4, 0, 4]"] ;
705 -> 706 ;
707 [label="gini = 0.0\nsamples = 2\nvalue = [2, 0, 0]"] ;
706 -> 707 ;
708 [label="X[38] <= 1.5\ngini = 0.444\nsamples = 6\nvalue = [2, 0, 4]"] ;
706 -> 708 ;
709 [label="gini = 0.0\nsamples = 3\nvalue = [0, 0, 3]"] ;
708 -> 709 ;
710 [label="X[7] <= 0.5\ngini = 0.444\nsamples = 3\nvalue = [2, 0, 1]"] ;
708 -> 710 ;
711 [label="gini = 0.0\nsamples = 1\nvalue = [1, 0, 0]"] ;
710 -> 711 ;
712 [label="X[19] <= 1.5\ngini = 0.5\nsamples = 2\nvalue = [1, 0, 1]"] ;
710 -> 712 ;
713 [label="gini = 0.0\nsamples = 1\nvalue = [1, 0, 0]"] ;
712 -> 713 ;
714 [label="gini = 0.0\nsamples = 1\nvalue = [0, 0, 1]"] ;
712 -> 714 ;
715 [label="gini = 0.0\nsamples = 3\nvalue = [0, 0, 3]"] ;
705 -> 715 ;
716 [label="X[19] <= 1.5\ngini = 0.625\nsamples = 4\nvalue = [1, 2, 1]"] ;
702 -> 716 ;
717 [label="gini = 0.0\nsamples = 2\nvalue = [0, 2, 0]"] ;
716 -> 717 ;
718 [label="X[7] <= 1.5\ngini = 0.5\nsamples = 2\nvalue = [1, 0, 1]"] ;
716 -> 718 ;
719 [label="gini = 0.0\nsamples = 1\nvalue = [1, 0, 0]"] ;
718 -> 719 ;
720 [label="gini = 0.0\nsamples = 1\nvalue = [0, 0, 1]"] ;
718 -> 720 ;
721 [label="X[8] <= 0.5\ngini = 0.524\nsamples = 58\nvalue = [13, 8, 37]"] ;
701 -> 721 ;
722 [label="X[30] <= 0.5\ngini = 0.584\nsamples = 45\nvalue = [13, 7, 25]"] ;
721 -> 722 ;
723 [label="X[13] <= 1.5\ngini = 0.658\nsamples = 23\nvalue = [8, 6, 9]"] ;
722 -> 723 ;
724 [label="X[25] <= 0.5\ngini = 0.595\nsamples = 11\nvalue = [2, 6, 3]"] ;
723 -> 724 ;
725 [label="X[24] <= 1.0\ngini = 0.408\nsamples = 7\nvalue = [2, 5, 0]"] ;
724 -> 725 ;
726 [label="gini = 0.0\nsamples = 3\nvalue = [0, 3, 0]"] ;
725 -> 726 ;
727 [label="X[37] <= 1.0\ngini = 0.5\nsamples = 4\nvalue = [2, 2, 0]"] ;
725 -> 727 ;
728 [label="X[13] <= 0.5\ngini = 0.444\nsamples = 3\nvalue = [2, 1, 0]"] ;
727 -> 728 ;
729 [label="gini = 0.0\nsamples = 1\nvalue = [1, 0, 0]"] ;
728 -> 729 ;
730 [label="X[7] <= 1.0\ngini = 0.5\nsamples = 2\nvalue = [1, 1, 0]"] ;
728 -> 730 ;
731 [label="gini = 0.0\nsamples = 1\nvalue = [1, 0, 0]"] ;
730 -> 731 ;
732 [label="gini = 0.0\nsamples = 1\nvalue = [0, 1, 0]"] ;
730 -> 732 ;
733 [label="gini = 0.0\nsamples = 1\nvalue = [0, 1, 0]"] ;
727 -> 733 ;
734 [label="X[13] <= 0.5\ngini = 0.375\nsamples = 4\nvalue = [0, 1, 3]"] ;
724 -> 734 ;
735 [label="gini = 0.0\nsamples = 3\nvalue = [0, 0, 3]"] ;
734 -> 735 ;
736 [label="gini = 0.0\nsamples = 1\nvalue = [0, 1, 0]"] ;
734 -> 736 ;
737 [label="X[14] <= 1.5\ngini = 0.5\nsamples = 12\nvalue = [6, 0, 6]"] ;
723 -> 737 ;
738 [label="X[7] <= 0.5\ngini = 0.469\nsamples = 8\nvalue = [5, 0, 3]"] ;
737 -> 738 ;
739 [label="X[14] <= 0.5\ngini = 0.32\nsamples = 5\nvalue = [4, 0, 1]"] ;
738 -> 739 ;
740 [label="gini = 0.0\nsamples = 3\nvalue = [3, 0, 0]"] ;
739 -> 740 ;
741 [label="X[24] <= 1.0\ngini = 0.5\nsamples = 2\nvalue = [1, 0, 1]"] ;
739 -> 741 ;
742 [label="gini = 0.0\nsamples = 1\nvalue = [1, 0, 0]"] ;
741 -> 742 ;
743 [label="gini = 0.0\nsamples = 1\nvalue = [0, 0, 1]"] ;
741 -> 743 ;
744 [label="X[14] <= 0.5\ngini = 0.444\nsamples = 3\nvalue = [1, 0, 2]"] ;
738 -> 744 ;
745 [label="gini = 0.0\nsamples = 2\nvalue = [0, 0, 2]"] ;
744 -> 745 ;
746 [label="gini = 0.0\nsamples = 1\nvalue = [1, 0, 0]"] ;
744 -> 746 ;
747 [label="X[7] <= 0.5\ngini = 0.375\nsamples = 4\nvalue = [1, 0, 3]"] ;
737 -> 747 ;
748 [label="gini = 0.0\nsamples = 3\nvalue = [0, 0, 3]"] ;
747 -> 748 ;
749 [label="gini = 0.0\nsamples = 1\nvalue = [1, 0, 0]"] ;
747 -> 749 ;
750 [label="X[24] <= 1.5\ngini = 0.417\nsamples = 22\nvalue = [5, 1, 16]"] ;
722 -> 750 ;
751 [label="X[32] <= 1.5\ngini = 0.304\nsamples = 17\nvalue = [2, 1, 14]"] ;
750 -> 751 ;
752 [label="X[7] <= 1.5\ngini = 0.24\nsamples = 15\nvalue = [1, 1, 13]"] ;
751 -> 752 ;
753 [label="gini = 0.0\nsamples = 10\nvalue = [0, 0, 10]"] ;
752 -> 753 ;
754 [label="X[36] <= 0.5\ngini = 0.56\nsamples = 5\nvalue = [1, 1, 3]"] ;
752 -> 754 ;
755 [label="X[31] <= 0.5\ngini = 0.375\nsamples = 4\nvalue = [0, 1, 3]"] ;
754 -> 755 ;
756 [label="X[30] <= 1.5\ngini = 0.5\nsamples = 2\nvalue = [0, 1, 1]"] ;
755 -> 756 ;
757 [label="gini = 0.0\nsamples = 1\nvalue = [0, 0, 1]"] ;
756 -> 757 ;
758 [label="gini = 0.0\nsamples = 1\nvalue = [0, 1, 0]"] ;
756 -> 758 ;
759 [label="gini = 0.0\nsamples = 2\nvalue = [0, 0, 2]"] ;
755 -> 759 ;
760 [label="gini = 0.0\nsamples = 1\nvalue = [1, 0, 0]"] ;
754 -> 760 ;
761 [label="X[31] <= 1.5\ngini = 0.5\nsamples = 2\nvalue = [1, 0, 1]"] ;
751 -> 761 ;
762 [label="gini = 0.0\nsamples = 1\nvalue = [1, 0, 0]"] ;
761 -> 762 ;
763 [label="gini = 0.0\nsamples = 1\nvalue = [0, 0, 1]"] ;
761 -> 763 ;
764 [label="X[13] <= 1.0\ngini = 0.48\nsamples = 5\nvalue = [3, 0, 2]"] ;
750 -> 764 ;
765 [label="X[25] <= 1.0\ngini = 0.375\nsamples = 4\nvalue = [3, 0, 1]"] ;
764 -> 765 ;
766 [label="gini = 0.0\nsamples = 3\nvalue = [3, 0, 0]"] ;
765 -> 766 ;
767 [label="gini = 0.0\nsamples = 1\nvalue = [0, 0, 1]"] ;
765 -> 767 ;
768 [label="gini = 0.0\nsamples = 1\nvalue = [0, 0, 1]"] ;
764 -> 768 ;
769 [label="X[9] <= 0.5\ngini = 0.142\nsamples = 13\nvalue = [0, 1, 12]"] ;
721 -> 769 ;
770 [label="gini = 0.0\nsamples = 10\nvalue = [0, 0, 10]"] ;
769 -> 770 ;
771 [label="X[9] <= 1.5\ngini = 0.444\nsamples = 3\nvalue = [0, 1, 2]"] ;
769 -> 771 ;
772 [label="gini = 0.0\nsamples = 1\nvalue = [0, 1, 0]"] ;
771 -> 772 ;
773 [label="gini = 0.0\nsamples = 2\nvalue = [0, 0, 2]"] ;
771 -> 773 ;
774 [label="X[8] <= 0.5\ngini = 0.485\nsamples = 41\nvalue = [0, 17, 24]"] ;
700 -> 774 ;
775 [label="X[7] <= 1.5\ngini = 0.499\nsamples = 31\nvalue = [0, 16, 15]"] ;
774 -> 775 ;
776 [label="X[13] <= 1.0\ngini = 0.444\nsamples = 21\nvalue = [0, 7, 14]"] ;
775 -> 776 ;
777 [label="X[36] <= 0.5\ngini = 0.388\nsamples = 19\nvalue = [0, 5, 14]"] ;
776 -> 777 ;
778 [label="X[12] <= 0.5\ngini = 0.231\nsamples = 15\nvalue = [0, 2, 13]"] ;
777 -> 778 ;
779 [label="gini = 0.0\nsamples = 11\nvalue = [0, 0, 11]"] ;
778 -> 779 ;
780 [label="X[22] <= 1.0\ngini = 0.5\nsamples = 4\nvalue = [0, 2, 2]"] ;
778 -> 780 ;
781 [label="gini = 0.0\nsamples = 2\nvalue = [0, 0, 2]"] ;
780 -> 781 ;
782 [label="gini = 0.0\nsamples = 2\nvalue = [0, 2, 0]"] ;
780 -> 782 ;
783 [label="X[31] <= 1.0\ngini = 0.375\nsamples = 4\nvalue = [0, 3, 1]"] ;
777 -> 783 ;
784 [label="gini = 0.0\nsamples = 3\nvalue = [0, 3, 0]"] ;
783 -> 784 ;
785 [label="gini = 0.0\nsamples = 1\nvalue = [0, 0, 1]"] ;
783 -> 785 ;
786 [label="gini = 0.0\nsamples = 2\nvalue = [0, 2, 0]"] ;
776 -> 786 ;
787 [label="X[31] <= 0.5\ngini = 0.18\nsamples = 10\nvalue = [0, 9, 1]"] ;
775 -> 787 ;
788 [label="gini = 0.0\nsamples = 8\nvalue = [0, 8, 0]"] ;
787 -> 788 ;
789 [label="X[30] <= 1.5\ngini = 0.5\nsamples = 2\nvalue = [0, 1, 1]"] ;
787 -> 789 ;
790 [label="gini = 0.0\nsamples = 1\nvalue = [0, 1, 0]"] ;
789 -> 790 ;
791 [label="gini = 0.0\nsamples = 1\nvalue = [0, 0, 1]"] ;
789 -> 791 ;
792 [label="X[9] <= 0.5\ngini = 0.18\nsamples = 10\nvalue = [0, 1, 9]"] ;
774 -> 792 ;
793 [label="gini = 0.0\nsamples = 7\nvalue = [0, 0, 7]"] ;
792 -> 793 ;
794 [label="X[9] <= 1.5\ngini = 0.444\nsamples = 3\nvalue = [0, 1, 2]"] ;
792 -> 794 ;
795 [label="gini = 0.0\nsamples = 1\nvalue = [0, 1, 0]"] ;
794 -> 795 ;
796 [label="gini = 0.0\nsamples = 2\nvalue = [0, 0, 2]"] ;
794 -> 796 ;
797 [label="X[9] <= 0.5\ngini = 0.114\nsamples = 67\nvalue = [2, 2, 63]"] ;
699 -> 797 ;
798 [label="X[37] <= 1.5\ngini = 0.089\nsamples = 65\nvalue = [2, 1, 62]"] ;
797 -> 798 ;
799 [label="X[12] <= 0.5\ngini = 0.064\nsamples = 61\nvalue = [1, 1, 59]"] ;
798 -> 799 ;
800 [label="gini = 0.0\nsamples = 33\nvalue = [0, 0, 33]"] ;
799 -> 800 ;
801 [label="X[24] <= 1.5\ngini = 0.135\nsamples = 28\nvalue = [1, 1, 26]"] ;
799 -> 801 ;
802 [label="X[7] <= 1.5\ngini = 0.083\nsamples = 23\nvalue = [0, 1, 22]"] ;
801 -> 802 ;
803 [label="gini = 0.0\nsamples = 17\nvalue = [0, 0, 17]"] ;
802 -> 803 ;
804 [label="X[13] <= 0.5\ngini = 0.278\nsamples = 6\nvalue = [0, 1, 5]"] ;
802 -> 804 ;
805 [label="gini = 0.0\nsamples = 5\nvalue = [0, 0, 5]"] ;
804 -> 805 ;
806 [label="gini = 0.0\nsamples = 1\nvalue = [0, 1, 0]"] ;
804 -> 806 ;
807 [label="X[30] <= 0.5\ngini = 0.32\nsamples = 5\nvalue = [1, 0, 4]"] ;
801 -> 807 ;
808 [label="gini = 0.0\nsamples = 4\nvalue = [0, 0, 4]"] ;
807 -> 808 ;
809 [label="gini = 0.0\nsamples = 1\nvalue = [1, 0, 0]"] ;
807 -> 809 ;
810 [label="X[22] <= 0.5\ngini = 0.375\nsamples = 4\nvalue = [1, 0, 3]"] ;
798 -> 810 ;
811 [label="gini = 0.0\nsamples = 3\nvalue = [0, 0, 3]"] ;
810 -> 811 ;
812 [label="gini = 0.0\nsamples = 1\nvalue = [1, 0, 0]"] ;
810 -> 812 ;
813 [label="X[7] <= 1.5\ngini = 0.5\nsamples = 2\nvalue = [0, 1, 1]"] ;
797 -> 813 ;
814 [label="gini = 0.0\nsamples = 1\nvalue = [0, 0, 1]"] ;
813 -> 814 ;
815 [label="gini = 0.0\nsamples = 1\nvalue = [0, 1, 0]"] ;
813 -> 815 ;
816 [label="X[8] <= 1.5\ngini = 0.025\nsamples = 233\nvalue = [1, 2, 230]"] ;
698 -> 816 ;
817 [label="X[14] <= 0.5\ngini = 0.01\nsamples = 199\nvalue = [1, 0, 198]"] ;
816 -> 817 ;
818 [label="gini = 0.0\nsamples = 183\nvalue = [0, 0, 183]"] ;
817 -> 818 ;
819 [label="X[7] <= 1.5\ngini = 0.117\nsamples = 16\nvalue = [1, 0, 15]"] ;
817 -> 819 ;
820 [label="gini = 0.0\nsamples = 15\nvalue = [0, 0, 15]"] ;
819 -> 820 ;
821 [label="gini = 0.0\nsamples = 1\nvalue = [1, 0, 0]"] ;
819 -> 821 ;
822 [label="X[22] <= 0.5\ngini = 0.111\nsamples = 34\nvalue = [0, 2, 32]"] ;
816 -> 822 ;
823 [label="X[30] <= 1.5\ngini = 0.061\nsamples = 32\nvalue = [0, 1, 31]"] ;
822 -> 823 ;
824 [label="gini = 0.0\nsamples = 28\nvalue = [0, 0, 28]"] ;
823 -> 824 ;
825 [label="X[24] <= 0.5\ngini = 0.375\nsamples = 4\nvalue = [0, 1, 3]"] ;
823 -> 825 ;
826 [label="gini = 0.0\nsamples = 3\nvalue = [0, 0, 3]"] ;
825 -> 826 ;
827 [label="gini = 0.0\nsamples = 1\nvalue = [0, 1, 0]"] ;
825 -> 827 ;
828 [label="X[21] <= 1.5\ngini = 0.5\nsamples = 2\nvalue = [0, 1, 1]"] ;
822 -> 828 ;
829 [label="gini = 0.0\nsamples = 1\nvalue = [0, 0, 1]"] ;
828 -> 829 ;
830 [label="gini = 0.0\nsamples = 1\nvalue = [0, 1, 0]"] ;
828 -> 830 ;
831 [label="X[20] <= 1.5\ngini = 0.645\nsamples = 11\nvalue = [3, 3, 5]"] ;
527 -> 831 ;
832 [label="X[30] <= 0.5\ngini = 0.375\nsamples = 4\nvalue = [3, 1, 0]"] ;
831 -> 832 ;
833 [label="gini = 0.0\nsamples = 3\nvalue = [3, 0, 0]"] ;
832 -> 833 ;
834 [label="gini = 0.0\nsamples = 1\nvalue = [0, 1, 0]"] ;
832 -> 834 ;
835 [label="X[21] <= 1.5\ngini = 0.408\nsamples = 7\nvalue = [0, 2, 5]"] ;
831 -> 835 ;
836 [label="X[12] <= 0.5\ngini = 0.444\nsamples = 3\nvalue = [0, 2, 1]"] ;
835 -> 836 ;
837 [label="gini = 0.0\nsamples = 2\nvalue = [0, 2, 0]"] ;
836 -> 837 ;
838 [label="gini = 0.0\nsamples = 1\nvalue = [0, 0, 1]"] ;
836 -> 838 ;
839 [label="gini = 0.0\nsamples = 4\nvalue = [0, 0, 4]"] ;
835 -> 839 ;
840 [label="X[36] <= 0.5\ngini = 0.417\nsamples = 5248\nvalue = [465, 908, 3875]"] ;
4 -> 840 ;
841 [label="X[24] <= 1.5\ngini = 0.48\nsamples = 3002\nvalue = [290, 676, 2036]"] ;
840 -> 841 ;
842 [label="X[18] <= 1.5\ngini = 0.449\nsamples = 2425\nvalue = [218, 488, 1719]"] ;
841 -> 842 ;
843 [label="X[17] <= 1.5\ngini = 0.416\nsamples = 1911\nvalue = [170, 328, 1413]"] ;
842 -> 843 ;
844 [label="X[30] <= 1.5\ngini = 0.406\nsamples = 1880\nvalue = [165, 309, 1406]"] ;
843 -> 844 ;
845 [label="X[14] <= 0.5\ngini = 0.33\nsamples = 1006\nvalue = [86, 108, 812]"] ;
844 -> 845 ;
846 [label="X[23] <= 1.5\ngini = 0.232\nsamples = 515\nvalue = [33, 33, 449]"] ;
845 -> 846 ;
847 [label="X[20] <= 1.5\ngini = 0.221\nsamples = 511\nvalue = [30, 32, 449]"] ;
846 -> 847 ;
848 [label="X[20] <= 0.5\ngini = 0.261\nsamples = 416\nvalue = [29, 32, 355]"] ;
847 -> 848 ;
849 [label="X[34] <= 0.5\ngini = 0.192\nsamples = 364\nvalue = [18, 20, 326]"] ;
848 -> 849 ;
850 [label="X[11] <= 1.5\ngini = 0.16\nsamples = 327\nvalue = [13, 15, 299]"] ;
849 -> 850 ;
851 [label="X[13] <= 1.5\ngini = 0.151\nsamples = 323\nvalue = [11, 15, 297]"] ;
850 -> 851 ;
852 [label="X[18] <= 0.5\ngini = 0.211\nsamples = 190\nvalue = [9, 13, 168]"] ;
851 -> 852 ;
853 [label="X[10] <= 0.5\ngini = 0.279\nsamples = 126\nvalue = [8, 12, 106]"] ;
852 -> 853 ;
854 [label="X[29] <= 1.5\ngini = 0.224\nsamples = 105\nvalue = [5, 8, 92]"] ;
853 -> 854 ;
855 [label="X[26] <= 0.5\ngini = 0.212\nsamples = 103\nvalue = [5, 7, 91]"] ;
854 -> 855 ;
856 [label="X[8] <= 1.5\ngini = 0.095\nsamples = 40\nvalue = [0, 2, 38]"] ;
855 -> 856 ;
857 [label="gini = 0.0\nsamples = 24\nvalue = [0, 0, 24]"] ;
856 -> 857 ;
858 [label="X[32] <= 1.5\ngini = 0.219\nsamples = 16\nvalue = [0, 2, 14]"] ;
856 -> 858 ;
859 [label="gini = 0.0\nsamples = 10\nvalue = [0, 0, 10]"] ;
858 -> 859 ;
860 [label="X[33] <= 0.5\ngini = 0.444\nsamples = 6\nvalue = [0, 2, 4]"] ;
858 -> 860 ;
861 [label="X[7] <= 1.5\ngini = 0.5\nsamples = 4\nvalue = [0, 2, 2]"] ;
860 -> 861 ;
862 [label="X[13] <= 0.5\ngini = 0.5\nsamples = 2\nvalue = [0, 1, 1]"] ;
861 -> 862 ;
863 [label="gini = 0.0\nsamples = 1\nvalue = [0, 0, 1]"] ;
862 -> 863 ;
864 [label="gini = 0.0\nsamples = 1\nvalue = [0, 1, 0]"] ;
862 -> 864 ;
865 [label="X[13] <= 0.5\ngini = 0.5\nsamples = 2\nvalue = [0, 1, 1]"] ;
861 -> 865 ;
866 [label="gini = 0.0\nsamples = 1\nvalue = [0, 1, 0]"] ;
865 -> 866 ;
867 [label="gini = 0.0\nsamples = 1\nvalue = [0, 0, 1]"] ;
865 -> 867 ;
868 [label="gini = 0.0\nsamples = 2\nvalue = [0, 0, 2]"] ;
860 -> 868 ;
869 [label="X[26] <= 1.5\ngini = 0.28\nsamples = 63\nvalue = [5, 5, 53]"] ;
855 -> 869 ;
870 [label="X[13] <= 0.5\ngini = 0.416\nsamples = 23\nvalue = [2, 4, 17]"] ;
869 -> 870 ;
871 [label="X[7] <= 0.5\ngini = 0.32\nsamples = 16\nvalue = [2, 1, 13]"] ;
870 -> 871 ;
872 [label="gini = 0.0\nsamples = 8\nvalue = [0, 0, 8]"] ;
871 -> 872 ;
873 [label="X[31] <= 1.0\ngini = 0.531\nsamples = 8\nvalue = [2, 1, 5]"] ;
871 -> 873 ;
874 [label="X[7] <= 1.5\ngini = 0.449\nsamples = 7\nvalue = [1, 1, 5]"] ;
873 -> 874 ;
875 [label="gini = 0.0\nsamples = 1\nvalue = [1, 0, 0]"] ;
874 -> 875 ;
876 [label="X[27] <= 0.5\ngini = 0.278\nsamples = 6\nvalue = [0, 1, 5]"] ;
874 -> 876 ;
877 [label="gini = 0.0\nsamples = 3\nvalue = [0, 0, 3]"] ;
876 -> 877 ;
878 [label="X[27] <= 1.5\ngini = 0.444\nsamples = 3\nvalue = [0, 1, 2]"] ;
876 -> 878 ;
879 [label="gini = 0.0\nsamples = 1\nvalue = [0, 1, 0]"] ;
878 -> 879 ;
880 [label="gini = 0.0\nsamples = 2\nvalue = [0, 0, 2]"] ;
878 -> 880 ;
881 [label="gini = 0.0\nsamples = 1\nvalue = [1, 0, 0]"] ;
873 -> 881 ;
882 [label="X[30] <= 0.5\ngini = 0.49\nsamples = 7\nvalue = [0, 3, 4]"] ;
870 -> 882 ;
883 [label="gini = 0.0\nsamples = 4\nvalue = [0, 0, 4]"] ;
882 -> 883 ;
884 [label="gini = 0.0\nsamples = 3\nvalue = [0, 3, 0]"] ;
882 -> 884 ;
885 [label="X[9] <= 0.5\ngini = 0.184\nsamples = 40\nvalue = [3, 1, 36]"] ;
869 -> 885 ;
886 [label="X[25] <= 1.5\ngini = 0.102\nsamples = 37\nvalue = [2, 0, 35]"] ;
885 -> 886 ;
887 [label="X[27] <= 0.5\ngini = 0.375\nsamples = 4\nvalue = [1, 0, 3]"] ;
886 -> 887 ;
888 [label="gini = 0.0\nsamples = 3\nvalue = [0, 0, 3]"] ;
887 -> 888 ;
889 [label="gini = 0.0\nsamples = 1\nvalue = [1, 0, 0]"] ;
887 -> 889 ;
890 [label="X[31] <= 1.5\ngini = 0.059\nsamples = 33\nvalue = [1, 0, 32]"] ;
886 -> 890 ;
891 [label="gini = 0.0\nsamples = 26\nvalue = [0, 0, 26]"] ;
890 -> 891 ;
892 [label="X[32] <= 0.5\ngini = 0.245\nsamples = 7\nvalue = [1, 0, 6]"] ;
890 -> 892 ;
893 [label="gini = 0.0\nsamples = 4\nvalue = [0, 0, 4]"] ;
892 -> 893 ;
894 [label="X[27] <= 0.5\ngini = 0.444\nsamples = 3\nvalue = [1, 0, 2]"] ;
892 -> 894 ;
895 [label="gini = 0.0\nsamples = 2\nvalue = [0, 0, 2]"] ;
894 -> 895 ;
896 [label="gini = 0.0\nsamples = 1\nvalue = [1, 0, 0]"] ;
894 -> 896 ;
897 [label="X[8] <= 1.5\ngini = 0.667\nsamples = 3\nvalue = [1, 1, 1]"] ;
885 -> 897 ;
898 [label="gini = 0.0\nsamples = 1\nvalue = [0, 1, 0]"] ;
897 -> 898 ;
899 [label="X[7] <= 1.5\ngini = 0.5\nsamples = 2\nvalue = [1, 0, 1]"] ;
897 -> 899 ;
900 [label="gini = 0.0\nsamples = 1\nvalue = [1, 0, 0]"] ;
899 -> 900 ;
901 [label="gini = 0.0\nsamples = 1\nvalue = [0, 0, 1]"] ;
899 -> 901 ;
902 [label="X[13] <= 0.5\ngini = 0.5\nsamples = 2\nvalue = [0, 1, 1]"] ;
854 -> 902 ;
903 [label="gini = 0.0\nsamples = 1\nvalue = [0, 0, 1]"] ;
902 -> 903 ;
904 [label="gini = 0.0\nsamples = 1\nvalue = [0, 1, 0]"] ;
902 -> 904 ;
905 [label="X[25] <= 0.5\ngini = 0.499\nsamples = 21\nvalue = [3, 4, 14]"] ;
853 -> 905 ;
906 [label="X[31] <= 0.5\ngini = 0.388\nsamples = 17\nvalue = [2, 2, 13]"] ;
905 -> 906 ;
907 [label="X[30] <= 0.5\ngini = 0.26\nsamples = 13\nvalue = [2, 0, 11]"] ;
906 -> 907 ;
908 [label="gini = 0.0\nsamples = 6\nvalue = [0, 0, 6]"] ;
907 -> 908 ;
909 [label="X[10] <= 1.5\ngini = 0.408\nsamples = 7\nvalue = [2, 0, 5]"] ;
907 -> 909 ;
910 [label="gini = 0.0\nsamples = 2\nvalue = [0, 0, 2]"] ;
909 -> 910 ;
911 [label="X[11] <= 0.5\ngini = 0.48\nsamples = 5\nvalue = [2, 0, 3]"] ;
909 -> 911 ;
912 [label="X[9] <= 1.5\ngini = 0.444\nsamples = 3\nvalue = [2, 0, 1]"] ;
911 -> 912 ;
913 [label="X[24] <= 0.5\ngini = 0.5\nsamples = 2\nvalue = [1, 0, 1]"] ;
912 -> 913 ;
914 [label="gini = 0.0\nsamples = 1\nvalue = [0, 0, 1]"] ;
913 -> 914 ;
915 [label="gini = 0.0\nsamples = 1\nvalue = [1, 0, 0]"] ;
913 -> 915 ;
916 [label="gini = 0.0\nsamples = 1\nvalue = [1, 0, 0]"] ;
912 -> 916 ;
917 [label="gini = 0.0\nsamples = 2\nvalue = [0, 0, 2]"] ;
911 -> 917 ;
918 [label="X[31] <= 1.5\ngini = 0.5\nsamples = 4\nvalue = [0, 2, 2]"] ;
906 -> 918 ;
919 [label="gini = 0.0\nsamples = 2\nvalue = [0, 2, 0]"] ;
918 -> 919 ;
920 [label="gini = 0.0\nsamples = 2\nvalue = [0, 0, 2]"] ;
918 -> 920 ;
921 [label="X[10] <= 1.5\ngini = 0.625\nsamples = 4\nvalue = [1, 2, 1]"] ;
905 -> 921 ;
922 [label="X[25] <= 1.5\ngini = 0.5\nsamples = 2\nvalue = [1, 0, 1]"] ;
921 -> 922 ;
923 [label="gini = 0.0\nsamples = 1\nvalue = [1, 0, 0]"] ;
922 -> 923 ;
924 [label="gini = 0.0\nsamples = 1\nvalue = [0, 0, 1]"] ;
922 -> 924 ;
925 [label="gini = 0.0\nsamples = 2\nvalue = [0, 2, 0]"] ;
921 -> 925 ;
926 [label="X[13] <= 0.5\ngini = 0.061\nsamples = 64\nvalue = [1, 1, 62]"] ;
852 -> 926 ;
927 [label="gini = 0.0\nsamples = 46\nvalue = [0, 0, 46]"] ;
926 -> 927 ;
928 [label="X[10] <= 1.5\ngini = 0.204\nsamples = 18\nvalue = [1, 1, 16]"] ;
926 -> 928 ;
929 [label="X[27] <= 1.5\ngini = 0.117\nsamples = 16\nvalue = [1, 0, 15]"] ;
928 -> 929 ;
930 [label="gini = 0.0\nsamples = 13\nvalue = [0, 0, 13]"] ;
929 -> 930 ;
931 [label="X[28] <= 0.5\ngini = 0.444\nsamples = 3\nvalue = [1, 0, 2]"] ;
929 -> 931 ;
932 [label="gini = 0.0\nsamples = 1\nvalue = [1, 0, 0]"] ;
931 -> 932 ;
933 [label="gini = 0.0\nsamples = 2\nvalue = [0, 0, 2]"] ;
931 -> 933 ;
934 [label="X[8] <= 1.5\ngini = 0.5\nsamples = 2\nvalue = [0, 1, 1]"] ;
928 -> 934 ;
935 [label="gini = 0.0\nsamples = 1\nvalue = [0, 1, 0]"] ;
934 -> 935 ;
936 [label="gini = 0.0\nsamples = 1\nvalue = [0, 0, 1]"] ;
934 -> 936 ;
937 [label="X[28] <= 1.5\ngini = 0.059\nsamples = 133\nvalue = [2, 2, 129]"] ;
851 -> 937 ;
938 [label="X[7] <= 1.5\ngini = 0.031\nsamples = 126\nvalue = [0, 2, 124]"] ;
937 -> 938 ;
939 [label="gini = 0.0\nsamples = 82\nvalue = [0, 0, 82]"] ;
938 -> 939 ;
940 [label="X[32] <= 0.5\ngini = 0.087\nsamples = 44\nvalue = [0, 2, 42]"] ;
938 -> 940 ;
941 [label="X[19] <= 0.5\ngini = 0.051\nsamples = 38\nvalue = [0, 1, 37]"] ;
940 -> 941 ;
942 [label="gini = 0.0\nsamples = 30\nvalue = [0, 0, 30]"] ;
941 -> 942 ;
943 [label="X[9] <= 1.5\ngini = 0.219\nsamples = 8\nvalue = [0, 1, 7]"] ;
941 -> 943 ;
944 [label="gini = 0.0\nsamples = 7\nvalue = [0, 0, 7]"] ;
943 -> 944 ;
945 [label="gini = 0.0\nsamples = 1\nvalue = [0, 1, 0]"] ;
943 -> 945 ;
946 [label="X[8] <= 0.5\ngini = 0.278\nsamples = 6\nvalue = [0, 1, 5]"] ;
940 -> 946 ;
947 [label="gini = 0.0\nsamples = 4\nvalue = [0, 0, 4]"] ;
946 -> 947 ;
948 [label="X[32] <= 1.5\ngini = 0.5\nsamples = 2\nvalue = [0, 1, 1]"] ;
946 -> 948 ;
949 [label="gini = 0.0\nsamples = 1\nvalue = [0, 1, 0]"] ;
948 -> 949 ;
950 [label="gini = 0.0\nsamples = 1\nvalue = [0, 0, 1]"] ;
948 -> 950 ;
951 [label="X[18] <= 0.5\ngini = 0.408\nsamples = 7\nvalue = [2, 0, 5]"] ;
937 -> 951 ;
952 [label="X[6] <= 0.5\ngini = 0.278\nsamples = 6\nvalue = [1, 0, 5]"] ;
951 -> 952 ;
953 [label="gini = 0.0\nsamples = 4\nvalue = [0, 0, 4]"] ;
952 -> 953 ;
954 [label="X[25] <= 1.5\ngini = 0.5\nsamples = 2\nvalue = [1, 0, 1]"] ;
952 -> 954 ;
955 [label="gini = 0.0\nsamples = 1\nvalue = [0, 0, 1]"] ;
954 -> 955 ;
956 [label="gini = 0.0\nsamples = 1\nvalue = [1, 0, 0]"] ;
954 -> 956 ;
957 [label="gini = 0.0\nsamples = 1\nvalue = [1, 0, 0]"] ;
951 -> 957 ;
958 [label="X[30] <= 0.5\ngini = 0.5\nsamples = 4\nvalue = [2, 0, 2]"] ;
850 -> 958 ;
959 [label="X[13] <= 0.5\ngini = 0.444\nsamples = 3\nvalue = [1, 0, 2]"] ;
958 -> 959 ;
960 [label="gini = 0.0\nsamples = 2\nvalue = [0, 0, 2]"] ;
959 -> 960 ;
961 [label="gini = 0.0\nsamples = 1\nvalue = [1, 0, 0]"] ;
959 -> 961 ;
962 [label="gini = 0.0\nsamples = 1\nvalue = [1, 0, 0]"] ;
958 -> 962 ;
963 [label="X[25] <= 1.5\ngini = 0.431\nsamples = 37\nvalue = [5, 5, 27]"] ;
849 -> 963 ;
964 [label="X[7] <= 0.5\ngini = 0.406\nsamples = 36\nvalue = [4, 5, 27]"] ;
963 -> 964 ;
965 [label="X[13] <= 0.5\ngini = 0.365\nsamples = 32\nvalue = [4, 3, 25]"] ;
964 -> 965 ;
966 [label="X[35] <= 1.5\ngini = 0.124\nsamples = 15\nvalue = [1, 0, 14]"] ;
965 -> 966 ;
967 [label="gini = 0.0\nsamples = 13\nvalue = [0, 0, 13]"] ;
966 -> 967 ;
968 [label="X[18] <= 0.5\ngini = 0.5\nsamples = 2\nvalue = [1, 0, 1]"] ;
966 -> 968 ;
969 [label="gini = 0.0\nsamples = 1\nvalue = [1, 0, 0]"] ;
968 -> 969 ;
970 [label="gini = 0.0\nsamples = 1\nvalue = [0, 0, 1]"] ;
968 -> 970 ;
971 [label="X[34] <= 1.5\ngini = 0.519\nsamples = 17\nvalue = [3, 3, 11]"] ;
965 -> 971 ;
972 [label="X[13] <= 1.5\ngini = 0.198\nsamples = 9\nvalue = [1, 0, 8]"] ;
971 -> 972 ;
973 [label="X[24] <= 0.5\ngini = 0.444\nsamples = 3\nvalue = [1, 0, 2]"] ;
972 -> 973 ;
974 [label="gini = 0.0\nsamples = 2\nvalue = [0, 0, 2]"] ;
973 -> 974 ;
975 [label="gini = 0.0\nsamples = 1\nvalue = [1, 0, 0]"] ;
973 -> 975 ;
976 [label="gini = 0.0\nsamples = 6\nvalue = [0, 0, 6]"] ;
972 -> 976 ;
977 [label="X[31] <= 1.5\ngini = 0.656\nsamples = 8\nvalue = [2, 3, 3]"] ;
971 -> 977 ;
978 [label="gini = 0.0\nsamples = 2\nvalue = [0, 0, 2]"] ;
977 -> 978 ;
979 [label="X[24] <= 0.5\ngini = 0.611\nsamples = 6\nvalue = [2, 3, 1]"] ;
977 -> 979 ;
980 [label="X[33] <= 1.5\ngini = 0.375\nsamples = 4\nvalue = [0, 3, 1]"] ;
979 -> 980 ;
981 [label="gini = 0.0\nsamples = 2\nvalue = [0, 2, 0]"] ;
980 -> 981 ;
982 [label="X[18] <= 0.5\ngini = 0.5\nsamples = 2\nvalue = [0, 1, 1]"] ;
980 -> 982 ;
983 [label="gini = 0.0\nsamples = 1\nvalue = [0, 0, 1]"] ;
982 -> 983 ;
984 [label="gini = 0.0\nsamples = 1\nvalue = [0, 1, 0]"] ;
982 -> 984 ;
985 [label="gini = 0.0\nsamples = 2\nvalue = [2, 0, 0]"] ;
979 -> 985 ;
986 [label="X[32] <= 1.5\ngini = 0.5\nsamples = 4\nvalue = [0, 2, 2]"] ;
964 -> 986 ;
987 [label="gini = 0.0\nsamples = 2\nvalue = [0, 0, 2]"] ;
986 -> 987 ;
988 [label="gini = 0.0\nsamples = 2\nvalue = [0, 2, 0]"] ;
986 -> 988 ;
989 [label="gini = 0.0\nsamples = 1\nvalue = [1, 0, 0]"] ;
963 -> 989 ;
990 [label="X[25] <= 1.5\ngini = 0.591\nsamples = 52\nvalue = [11, 12, 29]"] ;
848 -> 990 ;
991 [label="X[13] <= 1.5\ngini = 0.501\nsamples = 44\nvalue = [5, 10, 29]"] ;
990 -> 991 ;
992 [label="X[9] <= 0.5\ngini = 0.255\nsamples = 28\nvalue = [2, 2, 24]"] ;
991 -> 992 ;
993 [label="X[13] <= 0.5\ngini = 0.203\nsamples = 27\nvalue = [2, 1, 24]"] ;
992 -> 993 ;
994 [label="X[21] <= 1.0\ngini = 0.095\nsamples = 20\nvalue = [1, 0, 19]"] ;
993 -> 994 ;
995 [label="X[31] <= 1.0\ngini = 0.32\nsamples = 5\nvalue = [1, 0, 4]"] ;
994 -> 995 ;
996 [label="gini = 0.0\nsamples = 2\nvalue = [0, 0, 2]"] ;
995 -> 996 ;
997 [label="X[7] <= 1.0\ngini = 0.444\nsamples = 3\nvalue = [1, 0, 2]"] ;
995 -> 997 ;
998 [label="gini = 0.0\nsamples = 2\nvalue = [0, 0, 2]"] ;
997 -> 998 ;
999 [label="gini = 0.0\nsamples = 1\nvalue = [1, 0, 0]"] ;
997 -> 999 ;
1000 [label="gini = 0.0\nsamples = 15\nvalue = [0, 0, 15]"] ;
994 -> 1000 ;
1001 [label="X[7] <= 1.0\ngini = 0.449\nsamples = 7\nvalue = [1, 1, 5]"] ;
993 -> 1001 ;
1002 [label="X[30] <= 0.5\ngini = 0.32\nsamples = 5\nvalue = [1, 0, 4]"] ;
1001 -> 1002 ;
1003 [label="gini = 0.0\nsamples = 2\nvalue = [0, 0, 2]"] ;
1002 -> 1003 ;
1004 [label="X[22] <= 1.0\ngini = 0.444\nsamples = 3\nvalue = [1, 0, 2]"] ;
1002 -> 1004 ;
1005 [label="gini = 0.0\nsamples = 2\nvalue = [0, 0, 2]"] ;
1004 -> 1005 ;
1006 [label="gini = 0.0\nsamples = 1\nvalue = [1, 0, 0]"] ;
1004 -> 1006 ;
1007 [label="X[21] <= 1.0\ngini = 0.5\nsamples = 2\nvalue = [0, 1, 1]"] ;
1001 -> 1007 ;
1008 [label="gini = 0.0\nsamples = 1\nvalue = [0, 0, 1]"] ;
1007 -> 1008 ;
1009 [label="gini = 0.0\nsamples = 1\nvalue = [0, 1, 0]"] ;
1007 -> 1009 ;
1010 [label="gini = 0.0\nsamples = 1\nvalue = [0, 1, 0]"] ;
992 -> 1010 ;
1011 [label="X[7] <= 0.5\ngini = 0.617\nsamples = 16\nvalue = [3, 8, 5]"] ;
991 -> 1011 ;
1012 [label="X[32] <= 1.0\ngini = 0.569\nsamples = 12\nvalue = [3, 7, 2]"] ;
1011 -> 1012 ;
1013 [label="X[24] <= 0.5\ngini = 0.512\nsamples = 11\nvalue = [3, 7, 1]"] ;
1012 -> 1013 ;
1014 [label="X[21] <= 0.5\ngini = 0.406\nsamples = 8\nvalue = [1, 6, 1]"] ;
1013 -> 1014 ;
1015 [label="gini = 0.0\nsamples = 1\nvalue = [1, 0, 0]"] ;
1014 -> 1015 ;
1016 [label="X[6] <= 0.5\ngini = 0.245\nsamples = 7\nvalue = [0, 6, 1]"] ;
1014 -> 1016 ;
1017 [label="gini = 0.0\nsamples = 5\nvalue = [0, 5, 0]"] ;
1016 -> 1017 ;
1018 [label="X[21] <= 1.5\ngini = 0.5\nsamples = 2\nvalue = [0, 1, 1]"] ;
1016 -> 1018 ;
1019 [label="gini = 0.0\nsamples = 1\nvalue = [0, 1, 0]"] ;
1018 -> 1019 ;
1020 [label="gini = 0.0\nsamples = 1\nvalue = [0, 0, 1]"] ;
1018 -> 1020 ;
1021 [label="X[21] <= 1.0\ngini = 0.444\nsamples = 3\nvalue = [2, 1, 0]"] ;
1013 -> 1021 ;
1022 [label="gini = 0.0\nsamples = 1\nvalue = [0, 1, 0]"] ;
1021 -> 1022 ;
1023 [label="gini = 0.0\nsamples = 2\nvalue = [2, 0, 0]"] ;
1021 -> 1023 ;
1024 [label="gini = 0.0\nsamples = 1\nvalue = [0, 0, 1]"] ;
1012 -> 1024 ;
1025 [label="X[21] <= 0.5\ngini = 0.375\nsamples = 4\nvalue = [0, 1, 3]"] ;
1011 -> 1025 ;
1026 [label="gini = 0.0\nsamples = 2\nvalue = [0, 0, 2]"] ;
1025 -> 1026 ;
1027 [label="X[21] <= 1.5\ngini = 0.5\nsamples = 2\nvalue = [0, 1, 1]"] ;
1025 -> 1027 ;
1028 [label="gini = 0.0\nsamples = 1\nvalue = [0, 1, 0]"] ;
1027 -> 1028 ;
1029 [label="gini = 0.0\nsamples = 1\nvalue = [0, 0, 1]"] ;
1027 -> 1029 ;
1030 [label="X[13] <= 1.5\ngini = 0.375\nsamples = 8\nvalue = [6, 2, 0]"] ;
990 -> 1030 ;
1031 [label="X[26] <= 1.5\ngini = 0.245\nsamples = 7\nvalue = [6, 1, 0]"] ;
1030 -> 1031 ;
1032 [label="gini = 0.0\nsamples = 4\nvalue = [4, 0, 0]"] ;
1031 -> 1032 ;
1033 [label="X[21] <= 0.5\ngini = 0.444\nsamples = 3\nvalue = [2, 1, 0]"] ;
1031 -> 1033 ;
1034 [label="gini = 0.0\nsamples = 2\nvalue = [2, 0, 0]"] ;
1033 -> 1034 ;
1035 [label="gini = 0.0\nsamples = 1\nvalue = [0, 1, 0]"] ;
1033 -> 1035 ;
1036 [label="gini = 0.0\nsamples = 1\nvalue = [0, 1, 0]"] ;
1030 -> 1036 ;
1037 [label="X[26] <= 0.5\ngini = 0.021\nsamples = 95\nvalue = [1, 0, 94]"] ;
847 -> 1037 ;
1038 [label="gini = 0.0\nsamples = 83\nvalue = [0, 0, 83]"] ;
1037 -> 1038 ;
1039 [label="X[21] <= 0.5\ngini = 0.153\nsamples = 12\nvalue = [1, 0, 11]"] ;
1037 -> 1039 ;
1040 [label="gini = 0.0\nsamples = 9\nvalue = [0, 0, 9]"] ;
1039 -> 1040 ;
1041 [label="X[26] <= 1.5\ngini = 0.444\nsamples = 3\nvalue = [1, 0, 2]"] ;
1039 -> 1041 ;
1042 [label="gini = 0.0\nsamples = 1\nvalue = [1, 0, 0]"] ;
1041 -> 1042 ;
1043 [label="gini = 0.0\nsamples = 2\nvalue = [0, 0, 2]"] ;
1041 -> 1043 ;
1044 [label="X[30] <= 0.5\ngini = 0.375\nsamples = 4\nvalue = [3, 1, 0]"] ;
846 -> 1044 ;
1045 [label="gini = 0.0\nsamples = 3\nvalue = [3, 0, 0]"] ;
1044 -> 1045 ;
1046 [label="gini = 0.0\nsamples = 1\nvalue = [0, 1, 0]"] ;
1044 -> 1046 ;
1047 [label="X[14] <= 1.5\ngini = 0.418\nsamples = 491\nvalue = [53, 75, 363]"] ;
845 -> 1047 ;
1048 [label="X[24] <= 0.5\ngini = 0.558\nsamples = 239\nvalue = [38, 58, 143]"] ;
1047 -> 1048 ;
1049 [label="X[7] <= 1.5\ngini = 0.642\nsamples = 136\nvalue = [31, 44, 61]"] ;
1048 -> 1049 ;
1050 [label="X[8] <= 1.0\ngini = 0.576\nsamples = 95\nvalue = [19, 21, 55]"] ;
1049 -> 1050 ;
1051 [label="X[34] <= 1.5\ngini = 0.537\nsamples = 84\nvalue = [11, 21, 52]"] ;
1050 -> 1051 ;
1052 [label="X[17] <= 0.5\ngini = 0.52\nsamples = 81\nvalue = [11, 18, 52]"] ;
1051 -> 1052 ;
1053 [label="X[16] <= 1.5\ngini = 0.557\nsamples = 72\nvalue = [11, 18, 43]"] ;
1052 -> 1053 ;
1054 [label="X[30] <= 0.5\ngini = 0.51\nsamples = 61\nvalue = [9, 12, 40]"] ;
1053 -> 1054 ;
1055 [label="X[19] <= 1.5\ngini = 0.623\nsamples = 18\nvalue = [3, 7, 8]"] ;
1054 -> 1055 ;
1056 [label="X[21] <= 1.5\ngini = 0.278\nsamples = 6\nvalue = [0, 5, 1]"] ;
1055 -> 1056 ;
1057 [label="gini = 0.0\nsamples = 4\nvalue = [0, 4, 0]"] ;
1056 -> 1057 ;
1058 [label="X[15] <= 0.5\ngini = 0.5\nsamples = 2\nvalue = [0, 1, 1]"] ;
1056 -> 1058 ;
1059 [label="gini = 0.0\nsamples = 1\nvalue = [0, 1, 0]"] ;
1058 -> 1059 ;
1060 [label="gini = 0.0\nsamples = 1\nvalue = [0, 0, 1]"] ;
1058 -> 1060 ;
1061 [label="X[20] <= 1.5\ngini = 0.569\nsamples = 12\nvalue = [3, 2, 7]"] ;
1055 -> 1061 ;
1062 [label="X[20] <= 0.5\ngini = 0.653\nsamples = 7\nvalue = [3, 2, 2]"] ;
1061 -> 1062 ;
1063 [label="gini = 0.0\nsamples = 2\nvalue = [0, 0, 2]"] ;
1062 -> 1063 ;
1064 [label="X[21] <= 1.5\ngini = 0.48\nsamples = 5\nvalue = [3, 2, 0]"] ;
1062 -> 1064 ;
1065 [label="X[6] <= 0.5\ngini = 0.444\nsamples = 3\nvalue = [1, 2, 0]"] ;
1064 -> 1065 ;
1066 [label="gini = 0.0\nsamples = 2\nvalue = [0, 2, 0]"] ;
1065 -> 1066 ;
1067 [label="gini = 0.0\nsamples = 1\nvalue = [1, 0, 0]"] ;
1065 -> 1067 ;
1068 [label="gini = 0.0\nsamples = 2\nvalue = [2, 0, 0]"] ;
1064 -> 1068 ;
1069 [label="gini = 0.0\nsamples = 5\nvalue = [0, 0, 5]"] ;
1061 -> 1069 ;
1070 [label="X[18] <= 0.5\ngini = 0.413\nsamples = 43\nvalue = [6, 5, 32]"] ;
1054 -> 1070 ;
1071 [label="X[15] <= 1.5\ngini = 0.567\nsamples = 17\nvalue = [3, 4, 10]"] ;
1070 -> 1071 ;
1072 [label="X[13] <= 1.5\ngini = 0.278\nsamples = 6\nvalue = [0, 1, 5]"] ;
1071 -> 1072 ;
1073 [label="gini = 0.0\nsamples = 1\nvalue = [0, 1, 0]"] ;
1072 -> 1073 ;
1074 [label="gini = 0.0\nsamples = 5\nvalue = [0, 0, 5]"] ;
1072 -> 1074 ;
1075 [label="X[32] <= 0.5\ngini = 0.645\nsamples = 11\nvalue = [3, 3, 5]"] ;
1071 -> 1075 ;
1076 [label="gini = 0.0\nsamples = 2\nvalue = [0, 0, 2]"] ;
1075 -> 1076 ;
1077 [label="X[16] <= 0.5\ngini = 0.667\nsamples = 9\nvalue = [3, 3, 3]"] ;
1075 -> 1077 ;
1078 [label="X[13] <= 1.5\ngini = 0.611\nsamples = 6\nvalue = [2, 3, 1]"] ;
1077 -> 1078 ;
1079 [label="X[6] <= 0.5\ngini = 0.5\nsamples = 2\nvalue = [1, 0, 1]"] ;
1078 -> 1079 ;
1080 [label="gini = 0.0\nsamples = 1\nvalue = [0, 0, 1]"] ;
1079 -> 1080 ;
1081 [label="gini = 0.0\nsamples = 1\nvalue = [1, 0, 0]"] ;
1079 -> 1081 ;
1082 [label="X[31] <= 1.5\ngini = 0.375\nsamples = 4\nvalue = [1, 3, 0]"] ;
1078 -> 1082 ;
1083 [label="X[6] <= 0.5\ngini = 0.5\nsamples = 2\nvalue = [1, 1, 0]"] ;
1082 -> 1083 ;
1084 [label="gini = 0.0\nsamples = 1\nvalue = [1, 0, 0]"] ;
1083 -> 1084 ;
1085 [label="gini = 0.0\nsamples = 1\nvalue = [0, 1, 0]"] ;
1083 -> 1085 ;
1086 [label="gini = 0.0\nsamples = 2\nvalue = [0, 2, 0]"] ;
1082 -> 1086 ;
1087 [label="X[32] <= 1.5\ngini = 0.444\nsamples = 3\nvalue = [1, 0, 2]"] ;
1077 -> 1087 ;
1088 [label="gini = 0.0\nsamples = 1\nvalue = [1, 0, 0]"] ;
1087 -> 1088 ;
1089 [label="gini = 0.0\nsamples = 2\nvalue = [0, 0, 2]"] ;
1087 -> 1089 ;
1090 [label="X[21] <= 1.5\ngini = 0.269\nsamples = 26\nvalue = [3, 1, 22]"] ;
1070 -> 1090 ;
1091 [label="X[20] <= 1.5\ngini = 0.226\nsamples = 24\nvalue = [2, 1, 21]"] ;
1090 -> 1091 ;
1092 [label="X[20] <= 0.5\ngini = 0.304\nsamples = 17\nvalue = [2, 1, 14]"] ;
1091 -> 1092 ;
1093 [label="X[32] <= 1.5\ngini = 0.124\nsamples = 15\nvalue = [1, 0, 14]"] ;
1092 -> 1093 ;
1094 [label="gini = 0.0\nsamples = 10\nvalue = [0, 0, 10]"] ;
1093 -> 1094 ;
1095 [label="X[15] <= 0.5\ngini = 0.32\nsamples = 5\nvalue = [1, 0, 4]"] ;
1093 -> 1095 ;
1096 [label="gini = 0.0\nsamples = 3\nvalue = [0, 0, 3]"] ;
1095 -> 1096 ;
1097 [label="X[15] <= 1.5\ngini = 0.5\nsamples = 2\nvalue = [1, 0, 1]"] ;
1095 -> 1097 ;
1098 [label="gini = 0.0\nsamples = 1\nvalue = [1, 0, 0]"] ;
1097 -> 1098 ;
1099 [label="gini = 0.0\nsamples = 1\nvalue = [0, 0, 1]"] ;
1097 -> 1099 ;
1100 [label="X[15] <= 1.0\ngini = 0.5\nsamples = 2\nvalue = [1, 1, 0]"] ;
1092 -> 1100 ;
1101 [label="gini = 0.0\nsamples = 1\nvalue = [0, 1, 0]"] ;
1100 -> 1101 ;
1102 [label="gini = 0.0\nsamples = 1\nvalue = [1, 0, 0]"] ;
1100 -> 1102 ;
1103 [label="gini = 0.0\nsamples = 7\nvalue = [0, 0, 7]"] ;
1091 -> 1103 ;
1104 [label="X[20] <= 1.5\ngini = 0.5\nsamples = 2\nvalue = [1, 0, 1]"] ;
1090 -> 1104 ;
1105 [label="gini = 0.0\nsamples = 1\nvalue = [1, 0, 0]"] ;
1104 -> 1105 ;
1106 [label="gini = 0.0\nsamples = 1\nvalue = [0, 0, 1]"] ;
1104 -> 1106 ;
1107 [label="X[31] <= 1.5\ngini = 0.595\nsamples = 11\nvalue = [2, 6, 3]"] ;
1053 -> 1107 ;
1108 [label="X[7] <= 0.5\ngini = 0.656\nsamples = 8\nvalue = [2, 3, 3]"] ;
1107 -> 1108 ;
1109 [label="X[31] <= 0.5\ngini = 0.612\nsamples = 7\nvalue = [1, 3, 3]"] ;
1108 -> 1109 ;
1110 [label="X[30] <= 0.5\ngini = 0.48\nsamples = 5\nvalue = [0, 2, 3]"] ;
1109 -> 1110 ;
1111 [label="X[6] <= 0.5\ngini = 0.444\nsamples = 3\nvalue = [0, 2, 1]"] ;
1110 -> 1111 ;
1112 [label="gini = 0.0\nsamples = 1\nvalue = [0, 1, 0]"] ;
1111 -> 1112 ;
1113 [label="X[19] <= 1.5\ngini = 0.5\nsamples = 2\nvalue = [0, 1, 1]"] ;
1111 -> 1113 ;
1114 [label="gini = 0.0\nsamples = 1\nvalue = [0, 1, 0]"] ;
1113 -> 1114 ;
1115 [label="gini = 0.0\nsamples = 1\nvalue = [0, 0, 1]"] ;
1113 -> 1115 ;
1116 [label="gini = 0.0\nsamples = 2\nvalue = [0, 0, 2]"] ;
1110 -> 1116 ;
1117 [label="X[18] <= 0.5\ngini = 0.5\nsamples = 2\nvalue = [1, 1, 0]"] ;
1109 -> 1117 ;
1118 [label="gini = 0.0\nsamples = 1\nvalue = [0, 1, 0]"] ;
1117 -> 1118 ;
1119 [label="gini = 0.0\nsamples = 1\nvalue = [1, 0, 0]"] ;
1117 -> 1119 ;
1120 [label="gini = 0.0\nsamples = 1\nvalue = [1, 0, 0]"] ;
1108 -> 1120 ;
1121 [label="gini = 0.0\nsamples = 3\nvalue = [0, 3, 0]"] ;
1107 -> 1121 ;
1122 [label="gini = 0.0\nsamples = 9\nvalue = [0, 0, 9]"] ;
1052 -> 1122 ;
1123 [label="gini = 0.0\nsamples = 3\nvalue = [0, 3, 0]"] ;
1051 -> 1123 ;
1124 [label="X[30] <= 0.5\ngini = 0.397\nsamples = 11\nvalue = [8, 0, 3]"] ;
1050 -> 1124 ;
1125 [label="X[18] <= 0.5\ngini = 0.219\nsamples = 8\nvalue = [7, 0, 1]"] ;
1124 -> 1125 ;
1126 [label="gini = 0.0\nsamples = 5\nvalue = [5, 0, 0]"] ;
1125 -> 1126 ;
1127 [label="X[9] <= 1.0\ngini = 0.444\nsamples = 3\nvalue = [2, 0, 1]"] ;
1125 -> 1127 ;
1128 [label="gini = 0.0\nsamples = 2\nvalue = [2, 0, 0]"] ;
1127 -> 1128 ;
1129 [label="gini = 0.0\nsamples = 1\nvalue = [0, 0, 1]"] ;
1127 -> 1129 ;
1130 [label="X[9] <= 1.0\ngini = 0.444\nsamples = 3\nvalue = [1, 0, 2]"] ;
1124 -> 1130 ;
1131 [label="gini = 0.0\nsamples = 2\nvalue = [0, 0, 2]"] ;
1130 -> 1131 ;
1132 [label="gini = 0.0\nsamples = 1\nvalue = [1, 0, 0]"] ;
1130 -> 1132 ;
1133 [label="X[9] <= 1.5\ngini = 0.578\nsamples = 41\nvalue = [12, 23, 6]"] ;
1049 -> 1133 ;
1134 [label="X[19] <= 1.5\ngini = 0.549\nsamples = 36\nvalue = [8, 22, 6]"] ;
1133 -> 1134 ;
1135 [label="X[13] <= 1.5\ngini = 0.508\nsamples = 31\nvalue = [8, 20, 3]"] ;
1134 -> 1135 ;
1136 [label="X[30] <= 0.5\ngini = 0.444\nsamples = 6\nvalue = [4, 2, 0]"] ;
1135 -> 1136 ;
1137 [label="X[16] <= 0.5\ngini = 0.444\nsamples = 3\nvalue = [1, 2, 0]"] ;
1136 -> 1137 ;
1138 [label="gini = 0.0\nsamples = 2\nvalue = [0, 2, 0]"] ;
1137 -> 1138 ;
1139 [label="gini = 0.0\nsamples = 1\nvalue = [1, 0, 0]"] ;
1137 -> 1139 ;
1140 [label="gini = 0.0\nsamples = 3\nvalue = [3, 0, 0]"] ;
1136 -> 1140 ;
1141 [label="X[18] <= 0.5\ngini = 0.442\nsamples = 25\nvalue = [4, 18, 3]"] ;
1135 -> 1141 ;
1142 [label="X[17] <= 0.5\ngini = 0.32\nsamples = 16\nvalue = [2, 13, 1]"] ;
1141 -> 1142 ;
1143 [label="X[8] <= 0.5\ngini = 0.245\nsamples = 14\nvalue = [2, 12, 0]"] ;
1142 -> 1143 ;
1144 [label="gini = 0.0\nsamples = 6\nvalue = [0, 6, 0]"] ;
1143 -> 1144 ;
1145 [label="X[31] <= 1.5\ngini = 0.375\nsamples = 8\nvalue = [2, 6, 0]"] ;
1143 -> 1145 ;
1146 [label="X[15] <= 1.5\ngini = 0.245\nsamples = 7\nvalue = [1, 6, 0]"] ;
1145 -> 1146 ;
1147 [label="gini = 0.0\nsamples = 5\nvalue = [0, 5, 0]"] ;
1146 -> 1147 ;
1148 [label="X[30] <= 0.5\ngini = 0.5\nsamples = 2\nvalue = [1, 1, 0]"] ;
1146 -> 1148 ;
1149 [label="gini = 0.0\nsamples = 1\nvalue = [0, 1, 0]"] ;
1148 -> 1149 ;
1150 [label="gini = 0.0\nsamples = 1\nvalue = [1, 0, 0]"] ;
1148 -> 1150 ;
1151 [label="gini = 0.0\nsamples = 1\nvalue = [1, 0, 0]"] ;
1145 -> 1151 ;
1152 [label="X[15] <= 1.5\ngini = 0.5\nsamples = 2\nvalue = [0, 1, 1]"] ;
1142 -> 1152 ;
1153 [label="gini = 0.0\nsamples = 1\nvalue = [0, 0, 1]"] ;
1152 -> 1153 ;
1154 [label="gini = 0.0\nsamples = 1\nvalue = [0, 1, 0]"] ;
1152 -> 1154 ;
1155 [label="X[19] <= 0.5\ngini = 0.593\nsamples = 9\nvalue = [2, 5, 2]"] ;
1141 -> 1155 ;
1156 [label="X[31] <= 1.0\ngini = 0.667\nsamples = 6\nvalue = [2, 2, 2]"] ;
1155 -> 1156 ;
1157 [label="X[15] <= 1.5\ngini = 0.64\nsamples = 5\nvalue = [2, 2, 1]"] ;
1156 -> 1157 ;
1158 [label="X[15] <= 0.5\ngini = 0.444\nsamples = 3\nvalue = [1, 2, 0]"] ;
1157 -> 1158 ;
1159 [label="gini = 0.0\nsamples = 1\nvalue = [1, 0, 0]"] ;
1158 -> 1159 ;
1160 [label="gini = 0.0\nsamples = 2\nvalue = [0, 2, 0]"] ;
1158 -> 1160 ;
1161 [label="X[16] <= 0.5\ngini = 0.5\nsamples = 2\nvalue = [1, 0, 1]"] ;
1157 -> 1161 ;
1162 [label="gini = 0.0\nsamples = 1\nvalue = [0, 0, 1]"] ;
1161 -> 1162 ;
1163 [label="gini = 0.0\nsamples = 1\nvalue = [1, 0, 0]"] ;
1161 -> 1163 ;
1164 [label="gini = 0.0\nsamples = 1\nvalue = [0, 0, 1]"] ;
1156 -> 1164 ;
1165 [label="gini = 0.0\nsamples = 3\nvalue = [0, 3, 0]"] ;
1155 -> 1165 ;
1166 [label="X[8] <= 1.5\ngini = 0.48\nsamples = 5\nvalue = [0, 2, 3]"] ;
1134 -> 1166 ;
1167 [label="X[20] <= 0.5\ngini = 0.375\nsamples = 4\nvalue = [0, 1, 3]"] ;
1166 -> 1167 ;
1168 [label="gini = 0.0\nsamples = 3\nvalue = [0, 0, 3]"] ;
1167 -> 1168 ;
1169 [label="gini = 0.0\nsamples = 1\nvalue = [0, 1, 0]"] ;
1167 -> 1169 ;
1170 [label="gini = 0.0\nsamples = 1\nvalue = [0, 1, 0]"] ;
1166 -> 1170 ;
1171 [label="X[8] <= 1.5\ngini = 0.32\nsamples = 5\nvalue = [4, 1, 0]"] ;
1133 -> 1171 ;
1172 [label="gini = 0.0\nsamples = 4\nvalue = [4, 0, 0]"] ;
1171 -> 1172 ;
1173 [label="gini = 0.0\nsamples = 1\nvalue = [0, 1, 0]"] ;
1171 -> 1173 ;
1174 [label="X[28] <= 1.5\ngini = 0.343\nsamples = 103\nvalue = [7, 14, 82]"] ;
1048 -> 1174 ;
1175 [label="X[15] <= 1.5\ngini = 0.325\nsamples = 100\nvalue = [7, 12, 81]"] ;
1174 -> 1175 ;
1176 [label="X[9] <= 0.5\ngini = 0.213\nsamples = 60\nvalue = [4, 3, 53]"] ;
1175 -> 1176 ;
1177 [label="X[25] <= 1.5\ngini = 0.19\nsamples = 58\nvalue = [4, 2, 52]"] ;
1176 -> 1177 ;
1178 [label="X[8] <= 1.0\ngini = 0.077\nsamples = 25\nvalue = [0, 1, 24]"] ;
1177 -> 1178 ;
1179 [label="gini = 0.0\nsamples = 21\nvalue = [0, 0, 21]"] ;
1178 -> 1179 ;
1180 [label="X[25] <= 0.5\ngini = 0.375\nsamples = 4\nvalue = [0, 1, 3]"] ;
1178 -> 1180 ;
1181 [label="gini = 0.0\nsamples = 3\nvalue = [0, 0, 3]"] ;
1180 -> 1181 ;
1182 [label="gini = 0.0\nsamples = 1\nvalue = [0, 1, 0]"] ;
1180 -> 1182 ;
1183 [label="X[32] <= 0.5\ngini = 0.264\nsamples = 33\nvalue = [4, 1, 28]"] ;
1177 -> 1183 ;
1184 [label="X[27] <= 0.5\ngini = 0.225\nsamples = 31\nvalue = [4, 0, 27]"] ;
1183 -> 1184 ;
1185 [label="X[18] <= 0.5\ngini = 0.147\nsamples = 25\nvalue = [2, 0, 23]"] ;
1184 -> 1185 ;
1186 [label="gini = 0.0\nsamples = 15\nvalue = [0, 0, 15]"] ;
1185 -> 1186 ;
1187 [label="X[16] <= 1.0\ngini = 0.32\nsamples = 10\nvalue = [2, 0, 8]"] ;
1185 -> 1187 ;
1188 [label="X[20] <= 0.5\ngini = 0.198\nsamples = 9\nvalue = [1, 0, 8]"] ;
1187 -> 1188 ;
1189 [label="gini = 0.0\nsamples = 6\nvalue = [0, 0, 6]"] ;
1188 -> 1189 ;
1190 [label="X[20] <= 1.5\ngini = 0.444\nsamples = 3\nvalue = [1, 0, 2]"] ;
1188 -> 1190 ;
1191 [label="gini = 0.0\nsamples = 1\nvalue = [1, 0, 0]"] ;
1190 -> 1191 ;
1192 [label="gini = 0.0\nsamples = 2\nvalue = [0, 0, 2]"] ;
1190 -> 1192 ;
1193 [label="gini = 0.0\nsamples = 1\nvalue = [1, 0, 0]"] ;
1187 -> 1193 ;
1194 [label="X[27] <= 1.5\ngini = 0.444\nsamples = 6\nvalue = [2, 0, 4]"] ;
1184 -> 1194 ;
1195 [label="gini = 0.0\nsamples = 2\nvalue = [2, 0, 0]"] ;
1194 -> 1195 ;
1196 [label="gini = 0.0\nsamples = 4\nvalue = [0, 0, 4]"] ;
1194 -> 1196 ;
1197 [label="X[31] <= 1.5\ngini = 0.5\nsamples = 2\nvalue = [0, 1, 1]"] ;
1183 -> 1197 ;
1198 [label="gini = 0.0\nsamples = 1\nvalue = [0, 0, 1]"] ;
1197 -> 1198 ;
1199 [label="gini = 0.0\nsamples = 1\nvalue = [0, 1, 0]"] ;
1197 -> 1199 ;
1200 [label="X[9] <= 1.5\ngini = 0.5\nsamples = 2\nvalue = [0, 1, 1]"] ;
1176 -> 1200 ;
1201 [label="gini = 0.0\nsamples = 1\nvalue = [0, 1, 0]"] ;
1200 -> 1201 ;
1202 [label="gini = 0.0\nsamples = 1\nvalue = [0, 0, 1]"] ;
1200 -> 1202 ;
1203 [label="X[32] <= 0.5\ngini = 0.454\nsamples = 40\nvalue = [3, 9, 28]"] ;
1175 -> 1203 ;
1204 [label="X[25] <= 1.5\ngini = 0.417\nsamples = 38\nvalue = [3, 7, 28]"] ;
1203 -> 1204 ;
1205 [label="X[27] <= 0.5\ngini = 0.494\nsamples = 26\nvalue = [2, 7, 17]"] ;
1204 -> 1205 ;
1206 [label="X[7] <= 0.5\ngini = 0.474\nsamples = 25\nvalue = [2, 6, 17]"] ;
1205 -> 1206 ;
1207 [label="X[16] <= 1.5\ngini = 0.364\nsamples = 18\nvalue = [1, 3, 14]"] ;
1206 -> 1207 ;
1208 [label="X[20] <= 0.5\ngini = 0.198\nsamples = 9\nvalue = [1, 0, 8]"] ;
1207 -> 1208 ;
1209 [label="gini = 0.0\nsamples = 6\nvalue = [0, 0, 6]"] ;
1208 -> 1209 ;
1210 [label="X[20] <= 1.5\ngini = 0.444\nsamples = 3\nvalue = [1, 0, 2]"] ;
1208 -> 1210 ;
1211 [label="gini = 0.0\nsamples = 1\nvalue = [1, 0, 0]"] ;
1210 -> 1211 ;
1212 [label="gini = 0.0\nsamples = 2\nvalue = [0, 0, 2]"] ;
1210 -> 1212 ;
1213 [label="X[17] <= 0.5\ngini = 0.444\nsamples = 9\nvalue = [0, 3, 6]"] ;
1207 -> 1213 ;
1214 [label="X[19] <= 0.5\ngini = 0.48\nsamples = 5\nvalue = [0, 3, 2]"] ;
1213 -> 1214 ;
1215 [label="X[18] <= 0.5\ngini = 0.5\nsamples = 4\nvalue = [0, 2, 2]"] ;
1214 -> 1215 ;
1216 [label="X[6] <= 0.5\ngini = 0.5\nsamples = 2\nvalue = [0, 1, 1]"] ;
1215 -> 1216 ;
1217 [label="gini = 0.0\nsamples = 1\nvalue = [0, 0, 1]"] ;
1216 -> 1217 ;
1218 [label="gini = 0.0\nsamples = 1\nvalue = [0, 1, 0]"] ;
1216 -> 1218 ;
1219 [label="X[25] <= 0.5\ngini = 0.5\nsamples = 2\nvalue = [0, 1, 1]"] ;
1215 -> 1219 ;
1220 [label="gini = 0.0\nsamples = 1\nvalue = [0, 0, 1]"] ;
1219 -> 1220 ;
1221 [label="gini = 0.0\nsamples = 1\nvalue = [0, 1, 0]"] ;
1219 -> 1221 ;
1222 [label="gini = 0.0\nsamples = 1\nvalue = [0, 1, 0]"] ;
1214 -> 1222 ;
1223 [label="gini = 0.0\nsamples = 4\nvalue = [0, 0, 4]"] ;
1213 -> 1223 ;
1224 [label="X[16] <= 1.0\ngini = 0.612\nsamples = 7\nvalue = [1, 3, 3]"] ;
1206 -> 1224 ;
1225 [label="X[25] <= 0.5\ngini = 0.5\nsamples = 6\nvalue = [0, 3, 3]"] ;
1224 -> 1225 ;
1226 [label="X[30] <= 0.5\ngini = 0.48\nsamples = 5\nvalue = [0, 2, 3]"] ;
1225 -> 1226 ;
1227 [label="X[7] <= 1.5\ngini = 0.375\nsamples = 4\nvalue = [0, 1, 3]"] ;
1226 -> 1227 ;
1228 [label="gini = 0.0\nsamples = 1\nvalue = [0, 1, 0]"] ;
1227 -> 1228 ;
1229 [label="gini = 0.0\nsamples = 3\nvalue = [0, 0, 3]"] ;
1227 -> 1229 ;
1230 [label="gini = 0.0\nsamples = 1\nvalue = [0, 1, 0]"] ;
1226 -> 1230 ;
1231 [label="gini = 0.0\nsamples = 1\nvalue = [0, 1, 0]"] ;
1225 -> 1231 ;
1232 [label="gini = 0.0\nsamples = 1\nvalue = [1, 0, 0]"] ;
1224 -> 1232 ;
1233 [label="gini = 0.0\nsamples = 1\nvalue = [0, 1, 0]"] ;
1205 -> 1233 ;
1234 [label="X[31] <= 0.5\ngini = 0.153\nsamples = 12\nvalue = [1, 0, 11]"] ;
