digraph Tree {
node [shape=box, fontname="helvetica"] ;
edge [fontname="helvetica"] ;
0 [label="X[0] <= 1.5\ngini = 0.499\nsamples = 27022\nvalue = [2638, 6647, 17737]"] ;
1 [label="X[36] <= 1.5\ngini = 0.445\nsamples = 18082\nvalue = [1628, 3565, 12889]"] ;
0 -> 1 [labeldistance=2.5, labelangle=45, headlabel="True"] ;
2 [label="X[6] <= 1.5\ngini = 0.39\nsamples = 12494\nvalue = [1067, 1923, 9504]"] ;
1 -> 2 ;
3 [label="X[0] <= 0.5\ngini = 0.31\nsamples = 7039\nvalue = [515, 748, 5776]"] ;
2 -> 3 ;
4 [label="X[12] <= 1.5\ngini = 0.375\nsamples = 3850\nvalue = [320, 553, 2977]"] ;
3 -> 4 ;
5 [label="X[6] <= 0.5\ngini = 0.268\nsamples = 1246\nvalue = [94, 94, 1058]"] ;
4 -> 5 ;
6 [label="X[20] <= 0.5\ngini = 0.406\nsamples = 497\nvalue = [62, 62, 373]"] ;
5 -> 6 ;
7 [label="X[19] <= 1.5\ngini = 0.326\nsamples = 330\nvalue = [39, 24, 267]"] ;
6 -> 7 ;
8 [label="X[37] <= 1.5\ngini = 0.424\nsamples = 233\nvalue = [39, 23, 171]"] ;
7 -> 8 ;
9 [label="X[30] <= 1.5\ngini = 0.326\nsamples = 183\nvalue = [23, 12, 148]"] ;
8 -> 9 ;
10 [label="X[17] <= 1.5\ngini = 0.199\nsamples = 119\nvalue = [10, 3, 106]"] ;
9 -> 10 ;
11 [label="X[16] <= 1.5\ngini = 0.162\nsamples = 115\nvalue = [7, 3, 105]"] ;
10 -> 11 ;
12 [label="X[32] <= 1.5\ngini = 0.114\nsamples = 99\nvalue = [6, 0, 93]"] ;
11 -> 12 ;
13 [label="X[15] <= 1.5\ngini = 0.067\nsamples = 87\nvalue = [3, 0, 84]"] ;
12 -> 13 ;
14 [label="X[27] <= 0.5\ngini = 0.029\nsamples = 67\nvalue = [1, 0, 66]"] ;
13 -> 14 ;
15 [label="gini = 0.0\nsamples = 53\nvalue = [0, 0, 53]"] ;
14 -> 15 ;
16 [label="X[13] <= 1.5\ngini = 0.133\nsamples = 14\nvalue = [1, 0, 13]"] ;
14 -> 16 ;
17 [label="gini = 0.0\nsamples = 9\nvalue = [0, 0, 9]"] ;
16 -> 17 ;
18 [label="X[25] <= 1.5\ngini = 0.32\nsamples = 5\nvalue = [1, 0, 4]"] ;
16 -> 18 ;
19 [label="gini = 0.0\nsamples = 4\nvalue = [0, 0, 4]"] ;
18 -> 19 ;
20 [label="gini = 0.0\nsamples = 1\nvalue = [1, 0, 0]"] ;
18 -> 20 ;
21 [label="X[26] <= 0.5\ngini = 0.18\nsamples = 20\nvalue = [2, 0, 18]"] ;
13 -> 21 ;
22 [label="X[31] <= 0.5\ngini = 0.105\nsamples = 18\nvalue = [1, 0, 17]"] ;
21 -> 22 ;
23 [label="gini = 0.0\nsamples = 14\nvalue = [0, 0, 14]"] ;
22 -> 23 ;
24 [label="X[16] <= 0.5\ngini = 0.375\nsamples = 4\nvalue = [1, 0, 3]"] ;
22 -> 24 ;
25 [label="gini = 0.0\nsamples = 3\nvalue = [0, 0, 3]"] ;
24 -> 25 ;
26 [label="gini = 0.0\nsamples = 1\nvalue = [1, 0, 0]"] ;
24 -> 26 ;
27 [label="X[24] <= 1.5\ngini = 0.5\nsamples = 2\nvalue = [1, 0, 1]"] ;
21 -> 27 ;
28 [label="gini = 0.0\nsamples = 1\nvalue = [0, 0, 1]"] ;
27 -> 28 ;
29 [label="gini = 0.0\nsamples = 1\nvalue = [1, 0, 0]"] ;
27 -> 29 ;
30 [label="X[31] <= 1.5\ngini = 0.375\nsamples = 12\nvalue = [3, 0, 9]"] ;
12 -> 30 ;
31 [label="X[36] <= 0.5\ngini = 0.5\nsamples = 6\nvalue = [3, 0, 3]"] ;
30 -> 31 ;
32 [label="X[15] <= 0.5\ngini = 0.48\nsamples = 5\nvalue = [3, 0, 2]"] ;
31 -> 32 ;
33 [label="X[25] <= 1.0\ngini = 0.375\nsamples = 4\nvalue = [3, 0, 1]"] ;
32 -> 33 ;
34 [label="gini = 0.0\nsamples = 2\nvalue = [2, 0, 0]"] ;
33 -> 34 ;
35 [label="X[33] <= 0.5\ngini = 0.5\nsamples = 2\nvalue = [1, 0, 1]"] ;
33 -> 35 ;
36 [label="gini = 0.0\nsamples = 1\nvalue = [1, 0, 0]"] ;
35 -> 36 ;
37 [label="gini = 0.0\nsamples = 1\nvalue = [0, 0, 1]"] ;
35 -> 37 ;
38 [label="gini = 0.0\nsamples = 1\nvalue = [0, 0, 1]"] ;
32 -> 38 ;
39 [label="gini = 0.0\nsamples = 1\nvalue = [0, 0, 1]"] ;
31 -> 39 ;
40 [label="gini = 0.0\nsamples = 6\nvalue = [0, 0, 6]"] ;
30 -> 40 ;
41 [label="X[13] <= 1.5\ngini = 0.398\nsamples = 16\nvalue = [1, 3, 12]"] ;
11 -> 41 ;
42 [label="gini = 0.0\nsamples = 1\nvalue = [1, 0, 0]"] ;
41 -> 42 ;
43 [label="X[19] <= 0.5\ngini = 0.32\nsamples = 15\nvalue = [0, 3, 12]"] ;
41 -> 43 ;
44 [label="gini = 0.0\nsamples = 9\nvalue = [0, 0, 9]"] ;
43 -> 44 ;
45 [label="X[17] <= 0.5\ngini = 0.5\nsamples = 6\nvalue = [0, 3, 3]"] ;
43 -> 45 ;
46 [label="X[14] <= 1.5\ngini = 0.375\nsamples = 4\nvalue = [0, 3, 1]"] ;
45 -> 46 ;
47 [label="gini = 0.0\nsamples = 3\nvalue = [0, 3, 0]"] ;
46 -> 47 ;
48 [label="gini = 0.0\nsamples = 1\nvalue = [0, 0, 1]"] ;
46 -> 48 ;
49 [label="gini = 0.0\nsamples = 2\nvalue = [0, 0, 2]"] ;
45 -> 49 ;
50 [label="X[24] <= 0.5\ngini = 0.375\nsamples = 4\nvalue = [3, 0, 1]"] ;
10 -> 50 ;
51 [label="gini = 0.0\nsamples = 3\nvalue = [3, 0, 0]"] ;
50 -> 51 ;
52 [label="gini = 0.0\nsamples = 1\nvalue = [0, 0, 1]"] ;
50 -> 52 ;
53 [label="X[24] <= 1.5\ngini = 0.508\nsamples = 64\nvalue = [13, 9, 42]"] ;
9 -> 53 ;
54 [label="X[19] <= 0.5\ngini = 0.39\nsamples = 50\nvalue = [8, 4, 38]"] ;
53 -> 54 ;
55 [label="X[15] <= 0.5\ngini = 0.328\nsamples = 45\nvalue = [8, 1, 36]"] ;
54 -> 55 ;
56 [label="X[33] <= 0.5\ngini = 0.156\nsamples = 24\nvalue = [1, 1, 22]"] ;
55 -> 56 ;
57 [label="X[24] <= 0.5\ngini = 0.105\nsamples = 18\nvalue = [0, 1, 17]"] ;
56 -> 57 ;
58 [label="X[37] <= 0.5\ngini = 0.245\nsamples = 7\nvalue = [0, 1, 6]"] ;
57 -> 58 ;
59 [label="X[13] <= 1.5\ngini = 0.5\nsamples = 2\nvalue = [0, 1, 1]"] ;
58 -> 59 ;
60 [label="gini = 0.0\nsamples = 1\nvalue = [0, 0, 1]"] ;
59 -> 60 ;
61 [label="gini = 0.0\nsamples = 1\nvalue = [0, 1, 0]"] ;
59 -> 61 ;
62 [label="gini = 0.0\nsamples = 5\nvalue = [0, 0, 5]"] ;
58 -> 62 ;
63 [label="gini = 0.0\nsamples = 11\nvalue = [0, 0, 11]"] ;
57 -> 63 ;
64 [label="X[24] <= 0.5\ngini = 0.278\nsamples = 6\nvalue = [1, 0, 5]"] ;
56 -> 64 ;
65 [label="gini = 0.0\nsamples = 5\nvalue = [0, 0, 5]"] ;
64 -> 65 ;
66 [label="gini = 0.0\nsamples = 1\nvalue = [1, 0, 0]"] ;
64 -> 66 ;
67 [label="X[31] <= 0.5\ngini = 0.444\nsamples = 21\nvalue = [7, 0, 14]"] ;
55 -> 67 ;
68 [label="gini = 0.0\nsamples = 11\nvalue = [0, 0, 11]"] ;
67 -> 68 ;
69 [label="X[24] <= 0.5\ngini = 0.42\nsamples = 10\nvalue = [7, 0, 3]"] ;
67 -> 69 ;
70 [label="X[13] <= 1.5\ngini = 0.346\nsamples = 9\nvalue = [7, 0, 2]"] ;
69 -> 70 ;
71 [label="X[16] <= 1.0\ngini = 0.5\nsamples = 4\nvalue = [2, 0, 2]"] ;
70 -> 71 ;
72 [label="X[36] <= 0.5\ngini = 0.444\nsamples = 3\nvalue = [1, 0, 2]"] ;
71 -> 72 ;
73 [label="gini = 0.0\nsamples = 1\nvalue = [0, 0, 1]"] ;
72 -> 73 ;
74 [label="X[31] <= 1.5\ngini = 0.5\nsamples = 2\nvalue = [1, 0, 1]"] ;
72 -> 74 ;
75 [label="gini = 0.0\nsamples = 1\nvalue = [1, 0, 0]"] ;
74 -> 75 ;
76 [label="gini = 0.0\nsamples = 1\nvalue = [0, 0, 1]"] ;
74 -> 76 ;
77 [label="gini = 0.0\nsamples = 1\nvalue = [1, 0, 0]"] ;
71 -> 77 ;
78 [label="gini = 0.0\nsamples = 5\nvalue = [5, 0, 0]"] ;
70 -> 78 ;
79 [label="gini = 0.0\nsamples = 1\nvalue = [0, 0, 1]"] ;
69 -> 79 ;
80 [label="X[13] <= 1.5\ngini = 0.48\nsamples = 5\nvalue = [0, 3, 2]"] ;
54 -> 80 ;
81 [label="gini = 0.0\nsamples = 3\nvalue = [0, 3, 0]"] ;
80 -> 81 ;
82 [label="gini = 0.0\nsamples = 2\nvalue = [0, 0, 2]"] ;
80 -> 82 ;
83 [label="X[14] <= 1.5\ngini = 0.663\nsamples = 14\nvalue = [5, 5, 4]"] ;
53 -> 83 ;
84 [label="X[37] <= 0.5\ngini = 0.653\nsamples = 12\nvalue = [3, 5, 4]"] ;
83 -> 84 ;
85 [label="X[26] <= 0.5\ngini = 0.593\nsamples = 9\nvalue = [1, 4, 4]"] ;
84 -> 85 ;
86 [label="X[13] <= 1.5\ngini = 0.571\nsamples = 7\nvalue = [1, 2, 4]"] ;
85 -> 86 ;
87 [label="gini = 0.0\nsamples = 3\nvalue = [0, 0, 3]"] ;
86 -> 87 ;
88 [label="X[31] <= 0.5\ngini = 0.625\nsamples = 4\nvalue = [1, 2, 1]"] ;
86 -> 88 ;
89 [label="gini = 0.0\nsamples = 1\nvalue = [0, 1, 0]"] ;
88 -> 89 ;
90 [label="X[25] <= 0.5\ngini = 0.667\nsamples = 3\nvalue = [1, 1, 1]"] ;
88 -> 90 ;
91 [label="X[14] <= 0.5\ngini = 0.5\nsamples = 2\nvalue = [0, 1, 1]"] ;
90 -> 91 ;
92 [label="gini = 0.0\nsamples = 1\nvalue = [0, 1, 0]"] ;
91 -> 92 ;
93 [label="gini = 0.0\nsamples = 1\nvalue = [0, 0, 1]"] ;
91 -> 93 ;
94 [label="gini = 0.0\nsamples = 1\nvalue = [1, 0, 0]"] ;
90 -> 94 ;
95 [label="gini = 0.0\nsamples = 2\nvalue = [0, 2, 0]"] ;
85 -> 95 ;
96 [label="X[31] <= 1.5\ngini = 0.444\nsamples = 3\nvalue = [2, 1, 0]"] ;
84 -> 96 ;
97 [label="gini = 0.0\nsamples = 2\nvalue = [2, 0, 0]"] ;
96 -> 97 ;
98 [label="gini = 0.0\nsamples = 1\nvalue = [0, 1, 0]"] ;
96 -> 98 ;
99 [label="gini = 0.0\nsamples = 2\nvalue = [2, 0, 0]"] ;
83 -> 99 ;
100 [label="X[31] <= 1.5\ngini = 0.638\nsamples = 50\nvalue = [16, 11, 23]"] ;
8 -> 100 ;
101 [label="X[13] <= 1.5\ngini = 0.651\nsamples = 46\nvalue = [16, 11, 19]"] ;
100 -> 101 ;
102 [label="X[13] <= 0.5\ngini = 0.647\nsamples = 23\nvalue = [9, 9, 5]"] ;
101 -> 102 ;
103 [label="X[32] <= 0.5\ngini = 0.529\nsamples = 11\nvalue = [7, 2, 2]"] ;
102 -> 103 ;
104 [label="X[40] <= 0.5\ngini = 0.346\nsamples = 9\nvalue = [7, 0, 2]"] ;
103 -> 104 ;
105 [label="X[25] <= 1.5\ngini = 0.219\nsamples = 8\nvalue = [7, 0, 1]"] ;
104 -> 105 ;
106 [label="gini = 0.0\nsamples = 6\nvalue = [6, 0, 0]"] ;
105 -> 106 ;
107 [label="X[38] <= 0.5\ngini = 0.5\nsamples = 2\nvalue = [1, 0, 1]"] ;
105 -> 107 ;
108 [label="gini = 0.0\nsamples = 1\nvalue = [1, 0, 0]"] ;
107 -> 108 ;
109 [label="gini = 0.0\nsamples = 1\nvalue = [0, 0, 1]"] ;
107 -> 109 ;
110 [label="gini = 0.0\nsamples = 1\nvalue = [0, 0, 1]"] ;
104 -> 110 ;
111 [label="gini = 0.0\nsamples = 2\nvalue = [0, 2, 0]"] ;
103 -> 111 ;
112 [label="X[15] <= 0.5\ngini = 0.569\nsamples = 12\nvalue = [2, 7, 3]"] ;
102 -> 112 ;
113 [label="X[30] <= 1.0\ngini = 0.46\nsamples = 10\nvalue = [1, 7, 2]"] ;
112 -> 113 ;
114 [label="gini = 0.0\nsamples = 3\nvalue = [0, 3, 0]"] ;
113 -> 114 ;
115 [label="X[24] <= 0.5\ngini = 0.571\nsamples = 7\nvalue = [1, 4, 2]"] ;
113 -> 115 ;
116 [label="X[14] <= 1.0\ngini = 0.375\nsamples = 4\nvalue = [1, 3, 0]"] ;
115 -> 116 ;
117 [label="gini = 0.0\nsamples = 2\nvalue = [0, 2, 0]"] ;
116 -> 117 ;
118 [label="X[31] <= 0.5\ngini = 0.5\nsamples = 2\nvalue = [1, 1, 0]"] ;
116 -> 118 ;
119 [label="gini = 0.0\nsamples = 1\nvalue = [0, 1, 0]"] ;
118 -> 119 ;
120 [label="gini = 0.0\nsamples = 1\nvalue = [1, 0, 0]"] ;
118 -> 120 ;
121 [label="X[31] <= 0.5\ngini = 0.444\nsamples = 3\nvalue = [0, 1, 2]"] ;
115 -> 121 ;
122 [label="gini = 0.0\nsamples = 2\nvalue = [0, 0, 2]"] ;
121 -> 122 ;
123 [label="gini = 0.0\nsamples = 1\nvalue = [0, 1, 0]"] ;
121 -> 123 ;
124 [label="X[30] <= 1.0\ngini = 0.5\nsamples = 2\nvalue = [1, 0, 1]"] ;
112 -> 124 ;
125 [label="gini = 0.0\nsamples = 1\nvalue = [1, 0, 0]"] ;
124 -> 125 ;
126 [label="gini = 0.0\nsamples = 1\nvalue = [0, 0, 1]"] ;
124 -> 126 ;
127 [label="X[24] <= 0.5\ngini = 0.529\nsamples = 23\nvalue = [7, 2, 14]"] ;
101 -> 127 ;
128 [label="X[14] <= 1.5\ngini = 0.562\nsamples = 11\nvalue = [6, 1, 4]"] ;
127 -> 128 ;
129 [label="X[14] <= 0.5\ngini = 0.494\nsamples = 9\nvalue = [6, 1, 2]"] ;
128 -> 129 ;
130 [label="X[19] <= 0.5\ngini = 0.444\nsamples = 3\nvalue = [1, 0, 2]"] ;
129 -> 130 ;
131 [label="gini = 0.0\nsamples = 1\nvalue = [0, 0, 1]"] ;
130 -> 131 ;
132 [label="X[38] <= 1.5\ngini = 0.5\nsamples = 2\nvalue = [1, 0, 1]"] ;
130 -> 132 ;
133 [label="gini = 0.0\nsamples = 1\nvalue = [1, 0, 0]"] ;
132 -> 133 ;
134 [label="gini = 0.0\nsamples = 1\nvalue = [0, 0, 1]"] ;
132 -> 134 ;
135 [label="X[30] <= 1.5\ngini = 0.278\nsamples = 6\nvalue = [5, 1, 0]"] ;
129 -> 135 ;
136 [label="gini = 0.0\nsamples = 4\nvalue = [4, 0, 0]"] ;
135 -> 136 ;
137 [label="X[38] <= 0.5\ngini = 0.5\nsamples = 2\nvalue = [1, 1, 0]"] ;
135 -> 137 ;
138 [label="gini = 0.0\nsamples = 1\nvalue = [1, 0, 0]"] ;
137 -> 138 ;
139 [label="gini = 0.0\nsamples = 1\nvalue = [0, 1, 0]"] ;
137 -> 139 ;
140 [label="gini = 0.0\nsamples = 2\nvalue = [0, 0, 2]"] ;
128 -> 140 ;
141 [label="X[24] <= 1.5\ngini = 0.292\nsamples = 12\nvalue = [1, 1, 10]"] ;
127 -> 141 ;
142 [label="gini = 0.0\nsamples = 8\nvalue = [0, 0, 8]"] ;
141 -> 142 ;
143 [label="X[30] <= 0.5\ngini = 0.625\nsamples = 4\nvalue = [1, 1, 2]"] ;
141 -> 143 ;
144 [label="X[15] <= 0.5\ngini = 0.5\nsamples = 2\nvalue = [1, 1, 0]"] ;
143 -> 144 ;
145 [label="gini = 0.0\nsamples = 1\nvalue = [1, 0, 0]"] ;
144 -> 145 ;
146 [label="gini = 0.0\nsamples = 1\nvalue = [0, 1, 0]"] ;
144 -> 146 ;
147 [label="gini = 0.0\nsamples = 2\nvalue = [0, 0, 2]"] ;
143 -> 147 ;
148 [label="gini = 0.0\nsamples = 4\nvalue = [0, 0, 4]"] ;
100 -> 148 ;
149 [label="X[25] <= 1.5\ngini = 0.02\nsamples = 97\nvalue = [0, 1, 96]"] ;
7 -> 149 ;
150 [label="gini = 0.0\nsamples = 87\nvalue = [0, 0, 87]"] ;
149 -> 150 ;
151 [label="X[36] <= 0.5\ngini = 0.18\nsamples = 10\nvalue = [0, 1, 9]"] ;
149 -> 151 ;
152 [label="X[24] <= 1.5\ngini = 0.32\nsamples = 5\nvalue = [0, 1, 4]"] ;
151 -> 152 ;
153 [label="gini = 0.0\nsamples = 3\nvalue = [0, 0, 3]"] ;
152 -> 153 ;
154 [label="X[27] <= 0.5\ngini = 0.5\nsamples = 2\nvalue = [0, 1, 1]"] ;
152 -> 154 ;
155 [label="gini = 0.0\nsamples = 1\nvalue = [0, 1, 0]"] ;
154 -> 155 ;
156 [label="gini = 0.0\nsamples = 1\nvalue = [0, 0, 1]"] ;
154 -> 156 ;
157 [label="gini = 0.0\nsamples = 5\nvalue = [0, 0, 5]"] ;
151 -> 157 ;
158 [label="X[20] <= 1.5\ngini = 0.526\nsamples = 167\nvalue = [23, 38, 106]"] ;
6 -> 158 ;
159 [label="X[21] <= 1.5\ngini = 0.659\nsamples = 82\nvalue = [23, 33, 26]"] ;
158 -> 159 ;
160 [label="X[21] <= 0.5\ngini = 0.618\nsamples = 58\nvalue = [18, 29, 11]"] ;
159 -> 160 ;
161 [label="X[31] <= 0.5\ngini = 0.635\nsamples = 41\nvalue = [18, 15, 8]"] ;
160 -> 161 ;
162 [label="X[26] <= 1.5\ngini = 0.494\nsamples = 26\nvalue = [17, 7, 2]"] ;
161 -> 162 ;
163 [label="X[13] <= 1.5\ngini = 0.434\nsamples = 24\nvalue = [17, 6, 1]"] ;
162 -> 163 ;
164 [label="X[30] <= 0.5\ngini = 0.292\nsamples = 12\nvalue = [10, 1, 1]"] ;
163 -> 164 ;
165 [label="X[37] <= 1.0\ngini = 0.18\nsamples = 10\nvalue = [9, 1, 0]"] ;
164 -> 165 ;
166 [label="gini = 0.0\nsamples = 7\nvalue = [7, 0, 0]"] ;
165 -> 166 ;
167 [label="X[24] <= 1.0\ngini = 0.444\nsamples = 3\nvalue = [2, 1, 0]"] ;
165 -> 167 ;
168 [label="gini = 0.0\nsamples = 2\nvalue = [2, 0, 0]"] ;
167 -> 168 ;
169 [label="gini = 0.0\nsamples = 1\nvalue = [0, 1, 0]"] ;
167 -> 169 ;
170 [label="X[38] <= 1.0\ngini = 0.5\nsamples = 2\nvalue = [1, 0, 1]"] ;
164 -> 170 ;
171 [label="gini = 0.0\nsamples = 1\nvalue = [0, 0, 1]"] ;
170 -> 171 ;
172 [label="gini = 0.0\nsamples = 1\nvalue = [1, 0, 0]"] ;
170 -> 172 ;
173 [label="X[30] <= 1.5\ngini = 0.486\nsamples = 12\nvalue = [7, 5, 0]"] ;
163 -> 173 ;
174 [label="X[30] <= 0.5\ngini = 0.5\nsamples = 10\nvalue = [5, 5, 0]"] ;
173 -> 174 ;
175 [label="X[38] <= 0.5\ngini = 0.469\nsamples = 8\nvalue = [5, 3, 0]"] ;
174 -> 175 ;
176 [label="X[25] <= 0.5\ngini = 0.408\nsamples = 7\nvalue = [5, 2, 0]"] ;
175 -> 176 ;
177 [label="X[24] <= 0.5\ngini = 0.278\nsamples = 6\nvalue = [5, 1, 0]"] ;
176 -> 177 ;
178 [label="X[15] <= 0.5\ngini = 0.5\nsamples = 2\nvalue = [1, 1, 0]"] ;
177 -> 178 ;
179 [label="gini = 0.0\nsamples = 1\nvalue = [1, 0, 0]"] ;
178 -> 179 ;
180 [label="gini = 0.0\nsamples = 1\nvalue = [0, 1, 0]"] ;
178 -> 180 ;
181 [label="gini = 0.0\nsamples = 4\nvalue = [4, 0, 0]"] ;
177 -> 181 ;
182 [label="gini = 0.0\nsamples = 1\nvalue = [0, 1, 0]"] ;
176 -> 182 ;
183 [label="gini = 0.0\nsamples = 1\nvalue = [0, 1, 0]"] ;
175 -> 183 ;
184 [label="gini = 0.0\nsamples = 2\nvalue = [0, 2, 0]"] ;
174 -> 184 ;
185 [label="gini = 0.0\nsamples = 2\nvalue = [2, 0, 0]"] ;
173 -> 185 ;
186 [label="X[30] <= 0.5\ngini = 0.5\nsamples = 2\nvalue = [0, 1, 1]"] ;
162 -> 186 ;
187 [label="gini = 0.0\nsamples = 1\nvalue = [0, 0, 1]"] ;
186 -> 187 ;
188 [label="gini = 0.0\nsamples = 1\nvalue = [0, 1, 0]"] ;
186 -> 188 ;
189 [label="X[32] <= 0.5\ngini = 0.551\nsamples = 15\nvalue = [1, 8, 6]"] ;
161 -> 189 ;
190 [label="X[14] <= 1.5\ngini = 0.406\nsamples = 8\nvalue = [1, 6, 1]"] ;
189 -> 190 ;
191 [label="X[36] <= 0.5\ngini = 0.245\nsamples = 7\nvalue = [0, 6, 1]"] ;
190 -> 191 ;
192 [label="gini = 0.0\nsamples = 4\nvalue = [0, 4, 0]"] ;
191 -> 192 ;
193 [label="X[30] <= 1.5\ngini = 0.444\nsamples = 3\nvalue = [0, 2, 1]"] ;
191 -> 193 ;
194 [label="gini = 0.0\nsamples = 1\nvalue = [0, 0, 1]"] ;
193 -> 194 ;
195 [label="gini = 0.0\nsamples = 2\nvalue = [0, 2, 0]"] ;
193 -> 195 ;
196 [label="gini = 0.0\nsamples = 1\nvalue = [1, 0, 0]"] ;
190 -> 196 ;
197 [label="X[30] <= 1.5\ngini = 0.408\nsamples = 7\nvalue = [0, 2, 5]"] ;
189 -> 197 ;
198 [label="gini = 0.0\nsamples = 4\nvalue = [0, 0, 4]"] ;
197 -> 198 ;
199 [label="X[36] <= 0.5\ngini = 0.444\nsamples = 3\nvalue = [0, 2, 1]"] ;
197 -> 199 ;
200 [label="gini = 0.0\nsamples = 2\nvalue = [0, 2, 0]"] ;
199 -> 200 ;
201 [label="gini = 0.0\nsamples = 1\nvalue = [0, 0, 1]"] ;
199 -> 201 ;
202 [label="X[25] <= 1.0\ngini = 0.291\nsamples = 17\nvalue = [0, 14, 3]"] ;
160 -> 202 ;
203 [label="X[32] <= 1.0\ngini = 0.219\nsamples = 16\nvalue = [0, 14, 2]"] ;
202 -> 203 ;
204 [label="X[15] <= 1.5\ngini = 0.124\nsamples = 15\nvalue = [0, 14, 1]"] ;
203 -> 204 ;
205 [label="gini = 0.0\nsamples = 13\nvalue = [0, 13, 0]"] ;
204 -> 205 ;
206 [label="X[13] <= 1.5\ngini = 0.5\nsamples = 2\nvalue = [0, 1, 1]"] ;
204 -> 206 ;
207 [label="gini = 0.0\nsamples = 1\nvalue = [0, 0, 1]"] ;
206 -> 207 ;
208 [label="gini = 0.0\nsamples = 1\nvalue = [0, 1, 0]"] ;
206 -> 208 ;
209 [label="gini = 0.0\nsamples = 1\nvalue = [0, 0, 1]"] ;
203 -> 209 ;
210 [label="gini = 0.0\nsamples = 1\nvalue = [0, 0, 1]"] ;
202 -> 210 ;
211 [label="X[23] <= 1.5\ngini = 0.538\nsamples = 24\nvalue = [5, 4, 15]"] ;
159 -> 211 ;
212 [label="X[13] <= 1.5\ngini = 0.449\nsamples = 21\nvalue = [3, 3, 15]"] ;
211 -> 212 ;
213 [label="X[30] <= 1.5\ngini = 0.32\nsamples = 15\nvalue = [3, 0, 12]"] ;
212 -> 213 ;
214 [label="X[14] <= 1.0\ngini = 0.165\nsamples = 11\nvalue = [1, 0, 10]"] ;
213 -> 214 ;
215 [label="gini = 0.0\nsamples = 9\nvalue = [0, 0, 9]"] ;
214 -> 215 ;
216 [label="X[22] <= 0.5\ngini = 0.5\nsamples = 2\nvalue = [1, 0, 1]"] ;
214 -> 216 ;
217 [label="gini = 0.0\nsamples = 1\nvalue = [0, 0, 1]"] ;
216 -> 217 ;
218 [label="gini = 0.0\nsamples = 1\nvalue = [1, 0, 0]"] ;
216 -> 218 ;
219 [label="X[31] <= 0.5\ngini = 0.5\nsamples = 4\nvalue = [2, 0, 2]"] ;
213 -> 219 ;
220 [label="X[13] <= 0.5\ngini = 0.444\nsamples = 3\nvalue = [2, 0, 1]"] ;
219 -> 220 ;
221 [label="gini = 0.0\nsamples = 2\nvalue = [2, 0, 0]"] ;
220 -> 221 ;
222 [label="gini = 0.0\nsamples = 1\nvalue = [0, 0, 1]"] ;
220 -> 222 ;
223 [label="gini = 0.0\nsamples = 1\nvalue = [0, 0, 1]"] ;
219 -> 223 ;
224 [label="X[22] <= 0.5\ngini = 0.5\nsamples = 6\nvalue = [0, 3, 3]"] ;
212 -> 224 ;
225 [label="gini = 0.0\nsamples = 3\nvalue = [0, 0, 3]"] ;
224 -> 225 ;
226 [label="gini = 0.0\nsamples = 3\nvalue = [0, 3, 0]"] ;
224 -> 226 ;
227 [label="X[30] <= 0.5\ngini = 0.444\nsamples = 3\nvalue = [2, 1, 0]"] ;
211 -> 227 ;
228 [label="gini = 0.0\nsamples = 2\nvalue = [2, 0, 0]"] ;
227 -> 228 ;
229 [label="gini = 0.0\nsamples = 1\nvalue = [0, 1, 0]"] ;
227 -> 229 ;
230 [label="X[30] <= 1.5\ngini = 0.111\nsamples = 85\nvalue = [0, 5, 80]"] ;
158 -> 230 ;
231 [label="X[22] <= 1.5\ngini = 0.059\nsamples = 66\nvalue = [0, 2, 64]"] ;
230 -> 231 ;
232 [label="X[21] <= 1.5\ngini = 0.034\nsamples = 58\nvalue = [0, 1, 57]"] ;
231 -> 232 ;
233 [label="gini = 0.0\nsamples = 48\nvalue = [0, 0, 48]"] ;
232 -> 233 ;
234 [label="X[14] <= 1.5\ngini = 0.18\nsamples = 10\nvalue = [0, 1, 9]"] ;
232 -> 234 ;
235 [label="gini = 0.0\nsamples = 7\nvalue = [0, 0, 7]"] ;
234 -> 235 ;
236 [label="X[36] <= 0.5\ngini = 0.444\nsamples = 3\nvalue = [0, 1, 2]"] ;
234 -> 236 ;
237 [label="gini = 0.0\nsamples = 2\nvalue = [0, 0, 2]"] ;
236 -> 237 ;
238 [label="gini = 0.0\nsamples = 1\nvalue = [0, 1, 0]"] ;
236 -> 238 ;
239 [label="X[24] <= 1.5\ngini = 0.219\nsamples = 8\nvalue = [0, 1, 7]"] ;
231 -> 239 ;
240 [label="gini = 0.0\nsamples = 7\nvalue = [0, 0, 7]"] ;
239 -> 240 ;
241 [label="gini = 0.0\nsamples = 1\nvalue = [0, 1, 0]"] ;
239 -> 241 ;
242 [label="X[24] <= 1.5\ngini = 0.266\nsamples = 19\nvalue = [0, 3, 16]"] ;
230 -> 242 ;
243 [label="X[37] <= 1.5\ngini = 0.198\nsamples = 18\nvalue = [0, 2, 16]"] ;
242 -> 243 ;
244 [label="X[15] <= 0.5\ngini = 0.111\nsamples = 17\nvalue = [0, 1, 16]"] ;
243 -> 244 ;
245 [label="gini = 0.0\nsamples = 15\nvalue = [0, 0, 15]"] ;
244 -> 245 ;
246 [label="X[14] <= 1.5\ngini = 0.5\nsamples = 2\nvalue = [0, 1, 1]"] ;
244 -> 246 ;
247 [label="gini = 0.0\nsamples = 1\nvalue = [0, 1, 0]"] ;
246 -> 247 ;
248 [label="gini = 0.0\nsamples = 1\nvalue = [0, 0, 1]"] ;
246 -> 248 ;
249 [label="gini = 0.0\nsamples = 1\nvalue = [0, 1, 0]"] ;
243 -> 249 ;
250 [label="gini = 0.0\nsamples = 1\nvalue = [0, 1, 0]"] ;
242 -> 250 ;
251 [label="X[37] <= 1.5\ngini = 0.16\nsamples = 749\nvalue = [32, 32, 685]"] ;
5 -> 251 ;
252 [label="X[22] <= 1.5\ngini = 0.118\nsamples = 630\nvalue = [17, 22, 591]"] ;
251 -> 252 ;
253 [label="X[17] <= 1.5\ngini = 0.099\nsamples = 602\nvalue = [17, 14, 571]"] ;
252 -> 253 ;
254 [label="X[20] <= 0.5\ngini = 0.096\nsamples = 601\nvalue = [16, 14, 571]"] ;
253 -> 254 ;
255 [label="X[9] <= 1.5\ngini = 0.063\nsamples = 430\nvalue = [11, 3, 416]"] ;
254 -> 255 ;
256 [label="X[14] <= 0.5\ngini = 0.043\nsamples = 366\nvalue = [7, 1, 358]"] ;
255 -> 256 ;
257 [label="X[10] <= 1.5\ngini = 0.022\nsamples = 266\nvalue = [2, 1, 263]"] ;
256 -> 257 ;
258 [label="X[30] <= 1.5\ngini = 0.016\nsamples = 244\nvalue = [2, 0, 242]"] ;
257 -> 258 ;
259 [label="gini = 0.0\nsamples = 152\nvalue = [0, 0, 152]"] ;
258 -> 259 ;
260 [label="X[24] <= 1.5\ngini = 0.043\nsamples = 92\nvalue = [2, 0, 90]"] ;
258 -> 260 ;
261 [label="gini = 0.0\nsamples = 80\nvalue = [0, 0, 80]"] ;
260 -> 261 ;
262 [label="X[32] <= 1.0\ngini = 0.278\nsamples = 12\nvalue = [2, 0, 10]"] ;
260 -> 262 ;
263 [label="X[7] <= 1.5\ngini = 0.165\nsamples = 11\nvalue = [1, 0, 10]"] ;
262 -> 263 ;
264 [label="gini = 0.0\nsamples = 8\nvalue = [0, 0, 8]"] ;
263 -> 264 ;
265 [label="X[31] <= 0.5\ngini = 0.444\nsamples = 3\nvalue = [1, 0, 2]"] ;
263 -> 265 ;
266 [label="gini = 0.0\nsamples = 2\nvalue = [0, 0, 2]"] ;
265 -> 266 ;
267 [label="gini = 0.0\nsamples = 1\nvalue = [1, 0, 0]"] ;
265 -> 267 ;
268 [label="gini = 0.0\nsamples = 1\nvalue = [1, 0, 0]"] ;
262 -> 268 ;
269 [label="X[24] <= 1.5\ngini = 0.087\nsamples = 22\nvalue = [0, 1, 21]"] ;
257 -> 269 ;
270 [label="gini = 0.0\nsamples = 14\nvalue = [0, 0, 14]"] ;
269 -> 270 ;
271 [label="X[30] <= 0.5\ngini = 0.219\nsamples = 8\nvalue = [0, 1, 7]"] ;
269 -> 271 ;
272 [label="gini = 0.0\nsamples = 7\nvalue = [0, 0, 7]"] ;
271 -> 272 ;
273 [label="gini = 0.0\nsamples = 1\nvalue = [0, 1, 0]"] ;
271 -> 273 ;
274 [label="X[14] <= 1.5\ngini = 0.095\nsamples = 100\nvalue = [5, 0, 95]"] ;
256 -> 274 ;
275 [label="X[19] <= 1.5\ngini = 0.21\nsamples = 42\nvalue = [5, 0, 37]"] ;
274 -> 275 ;
276 [label="X[19] <= 0.5\ngini = 0.285\nsamples = 29\nvalue = [5, 0, 24]"] ;
275 -> 276 ;
277 [label="X[36] <= 0.5\ngini = 0.198\nsamples = 27\nvalue = [3, 0, 24]"] ;
276 -> 277 ;
278 [label="X[16] <= 1.5\ngini = 0.091\nsamples = 21\nvalue = [1, 0, 20]"] ;
277 -> 278 ;
279 [label="gini = 0.0\nsamples = 17\nvalue = [0, 0, 17]"] ;
278 -> 279 ;
280 [label="X[24] <= 1.0\ngini = 0.375\nsamples = 4\nvalue = [1, 0, 3]"] ;
278 -> 280 ;
281 [label="gini = 0.0\nsamples = 3\nvalue = [0, 0, 3]"] ;
280 -> 281 ;
282 [label="gini = 0.0\nsamples = 1\nvalue = [1, 0, 0]"] ;
280 -> 282 ;
283 [label="X[30] <= 1.0\ngini = 0.444\nsamples = 6\nvalue = [2, 0, 4]"] ;
277 -> 283 ;
284 [label="gini = 0.0\nsamples = 3\nvalue = [0, 0, 3]"] ;
283 -> 284 ;
285 [label="X[15] <= 1.0\ngini = 0.444\nsamples = 3\nvalue = [2, 0, 1]"] ;
283 -> 285 ;
286 [label="gini = 0.0\nsamples = 2\nvalue = [2, 0, 0]"] ;
285 -> 286 ;
287 [label="gini = 0.0\nsamples = 1\nvalue = [0, 0, 1]"] ;
285 -> 287 ;
288 [label="gini = 0.0\nsamples = 2\nvalue = [2, 0, 0]"] ;
276 -> 288 ;
289 [label="gini = 0.0\nsamples = 13\nvalue = [0, 0, 13]"] ;
275 -> 289 ;
290 [label="gini = 0.0\nsamples = 58\nvalue = [0, 0, 58]"] ;
274 -> 290 ;
291 [label="X[24] <= 0.5\ngini = 0.174\nsamples = 64\nvalue = [4, 2, 58]"] ;
255 -> 291 ;
292 [label="X[11] <= 1.5\ngini = 0.046\nsamples = 42\nvalue = [1, 0, 41]"] ;
291 -> 292 ;
293 [label="gini = 0.0\nsamples = 38\nvalue = [0, 0, 38]"] ;
292 -> 293 ;
294 [label="X[19] <= 0.5\ngini = 0.375\nsamples = 4\nvalue = [1, 0, 3]"] ;
292 -> 294 ;
295 [label="gini = 0.0\nsamples = 3\nvalue = [0, 0, 3]"] ;
294 -> 295 ;
296 [label="gini = 0.0\nsamples = 1\nvalue = [1, 0, 0]"] ;
294 -> 296 ;
297 [label="X[19] <= 0.5\ngini = 0.376\nsamples = 22\nvalue = [3, 2, 17]"] ;
291 -> 297 ;
298 [label="X[24] <= 1.5\ngini = 0.133\nsamples = 14\nvalue = [1, 0, 13]"] ;
297 -> 298 ;
299 [label="X[10] <= 0.5\ngini = 0.5\nsamples = 2\nvalue = [1, 0, 1]"] ;
298 -> 299 ;
300 [label="gini = 0.0\nsamples = 1\nvalue = [0, 0, 1]"] ;
299 -> 300 ;
301 [label="gini = 0.0\nsamples = 1\nvalue = [1, 0, 0]"] ;
299 -> 301 ;
302 [label="gini = 0.0\nsamples = 12\nvalue = [0, 0, 12]"] ;
298 -> 302 ;
303 [label="X[19] <= 1.5\ngini = 0.625\nsamples = 8\nvalue = [2, 2, 4]"] ;
297 -> 303 ;
304 [label="X[30] <= 0.5\ngini = 0.5\nsamples = 4\nvalue = [2, 2, 0]"] ;
303 -> 304 ;
305 [label="gini = 0.0\nsamples = 2\nvalue = [2, 0, 0]"] ;
304 -> 305 ;
306 [label="gini = 0.0\nsamples = 2\nvalue = [0, 2, 0]"] ;
304 -> 306 ;
307 [label="gini = 0.0\nsamples = 4\nvalue = [0, 0, 4]"] ;
303 -> 307 ;
308 [label="X[20] <= 1.5\ngini = 0.173\nsamples = 171\nvalue = [5, 11, 155]"] ;
254 -> 308 ;
309 [label="X[23] <= 1.5\ngini = 0.331\nsamples = 77\nvalue = [5, 10, 62]"] ;
308 -> 309 ;
310 [label="X[12] <= 0.5\ngini = 0.316\nsamples = 76\nvalue = [5, 9, 62]"] ;
309 -> 310 ;
311 [label="X[19] <= 1.5\ngini = 0.19\nsamples = 48\nvalue = [1, 4, 43]"] ;
310 -> 311 ;
312 [label="X[10] <= 1.5\ngini = 0.5\nsamples = 4\nvalue = [0, 2, 2]"] ;
311 -> 312 ;
313 [label="X[10] <= 0.5\ngini = 0.444\nsamples = 3\nvalue = [0, 1, 2]"] ;
312 -> 313 ;
314 [label="X[9] <= 0.5\ngini = 0.5\nsamples = 2\nvalue = [0, 1, 1]"] ;
313 -> 314 ;
315 [label="gini = 0.0\nsamples = 1\nvalue = [0, 0, 1]"] ;
314 -> 315 ;
316 [label="gini = 0.0\nsamples = 1\nvalue = [0, 1, 0]"] ;
314 -> 316 ;
317 [label="gini = 0.0\nsamples = 1\nvalue = [0, 0, 1]"] ;
313 -> 317 ;
318 [label="gini = 0.0\nsamples = 1\nvalue = [0, 1, 0]"] ;
312 -> 318 ;
319 [label="X[31] <= 1.5\ngini = 0.129\nsamples = 44\nvalue = [1, 2, 41]"] ;
311 -> 319 ;
320 [label="X[30] <= 1.5\ngini = 0.05\nsamples = 39\nvalue = [0, 1, 38]"] ;
319 -> 320 ;
321 [label="gini = 0.0\nsamples = 29\nvalue = [0, 0, 29]"] ;
320 -> 321 ;
322 [label="X[7] <= 1.5\ngini = 0.18\nsamples = 10\nvalue = [0, 1, 9]"] ;
320 -> 322 ;
323 [label="gini = 0.0\nsamples = 8\nvalue = [0, 0, 8]"] ;
322 -> 323 ;
324 [label="X[21] <= 0.5\ngini = 0.5\nsamples = 2\nvalue = [0, 1, 1]"] ;
322 -> 324 ;
325 [label="gini = 0.0\nsamples = 1\nvalue = [0, 0, 1]"] ;
324 -> 325 ;
326 [label="gini = 0.0\nsamples = 1\nvalue = [0, 1, 0]"] ;
324 -> 326 ;
327 [label="X[37] <= 0.5\ngini = 0.56\nsamples = 5\nvalue = [1, 1, 3]"] ;
319 -> 327 ;
328 [label="X[21] <= 0.5\ngini = 0.375\nsamples = 4\nvalue = [0, 1, 3]"] ;
327 -> 328 ;
329 [label="gini = 0.0\nsamples = 2\nvalue = [0, 0, 2]"] ;
328 -> 329 ;
330 [label="X[7] <= 1.5\ngini = 0.5\nsamples = 2\nvalue = [0, 1, 1]"] ;
328 -> 330 ;
331 [label="gini = 0.0\nsamples = 1\nvalue = [0, 0, 1]"] ;
330 -> 331 ;
332 [label="gini = 0.0\nsamples = 1\nvalue = [0, 1, 0]"] ;
330 -> 332 ;
333 [label="gini = 0.0\nsamples = 1\nvalue = [1, 0, 0]"] ;
327 -> 333 ;
334 [label="X[21] <= 1.5\ngini = 0.487\nsamples = 28\nvalue = [4, 5, 19]"] ;
310 -> 334 ;
335 [label="X[21] <= 0.5\ngini = 0.566\nsamples = 22\nvalue = [4, 5, 13]"] ;
334 -> 335 ;
336 [label="X[31] <= 0.5\ngini = 0.476\nsamples = 19\nvalue = [4, 2, 13]"] ;
335 -> 336 ;
337 [label="X[8] <= 1.0\ngini = 0.551\nsamples = 15\nvalue = [4, 2, 9]"] ;
336 -> 337 ;
338 [label="X[13] <= 0.5\ngini = 0.611\nsamples = 12\nvalue = [4, 2, 6]"] ;
337 -> 338 ;
339 [label="X[36] <= 0.5\ngini = 0.444\nsamples = 3\nvalue = [2, 0, 1]"] ;
338 -> 339 ;
340 [label="gini = 0.0\nsamples = 1\nvalue = [0, 0, 1]"] ;
339 -> 340 ;
341 [label="gini = 0.0\nsamples = 2\nvalue = [2, 0, 0]"] ;
339 -> 341 ;
342 [label="X[13] <= 1.5\ngini = 0.593\nsamples = 9\nvalue = [2, 2, 5]"] ;
338 -> 342 ;
343 [label="X[14] <= 1.0\ngini = 0.444\nsamples = 3\nvalue = [0, 2, 1]"] ;
342 -> 343 ;
344 [label="gini = 0.0\nsamples = 2\nvalue = [0, 2, 0]"] ;
343 -> 344 ;
345 [label="gini = 0.0\nsamples = 1\nvalue = [0, 0, 1]"] ;
343 -> 345 ;
346 [label="X[14] <= 0.5\ngini = 0.444\nsamples = 6\nvalue = [2, 0, 4]"] ;
342 -> 346 ;
347 [label="gini = 0.0\nsamples = 3\nvalue = [0, 0, 3]"] ;
346 -> 347 ;
348 [label="X[24] <= 0.5\ngini = 0.444\nsamples = 3\nvalue = [2, 0, 1]"] ;
346 -> 348 ;
349 [label="gini = 0.0\nsamples = 2\nvalue = [2, 0, 0]"] ;
348 -> 349 ;
350 [label="gini = 0.0\nsamples = 1\nvalue = [0, 0, 1]"] ;
348 -> 350 ;
351 [label="gini = 0.0\nsamples = 3\nvalue = [0, 0, 3]"] ;
337 -> 351 ;
352 [label="gini = 0.0\nsamples = 4\nvalue = [0, 0, 4]"] ;
336 -> 352 ;
353 [label="gini = 0.0\nsamples = 3\nvalue = [0, 3, 0]"] ;
335 -> 353 ;
354 [label="gini = 0.0\nsamples = 6\nvalue = [0, 0, 6]"] ;
334 -> 354 ;
355 [label="gini = 0.0\nsamples = 1\nvalue = [0, 1, 0]"] ;
309 -> 355 ;
356 [label="X[8] <= 1.5\ngini = 0.021\nsamples = 94\nvalue = [0, 1, 93]"] ;
308 -> 356 ;
357 [label="gini = 0.0\nsamples = 77\nvalue = [0, 0, 77]"] ;
356 -> 357 ;
358 [label="X[30] <= 0.5\ngini = 0.111\nsamples = 17\nvalue = [0, 1, 16]"] ;
356 -> 358 ;
359 [label="gini = 0.0\nsamples = 14\nvalue = [0, 0, 14]"] ;
358 -> 359 ;
360 [label="X[24] <= 1.0\ngini = 0.444\nsamples = 3\nvalue = [0, 1, 2]"] ;
358 -> 360 ;
361 [label="gini = 0.0\nsamples = 2\nvalue = [0, 0, 2]"] ;
360 -> 361 ;
362 [label="gini = 0.0\nsamples = 1\nvalue = [0, 1, 0]"] ;
360 -> 362 ;
363 [label="gini = 0.0\nsamples = 1\nvalue = [1, 0, 0]"] ;
253 -> 363 ;
364 [label="X[20] <= 1.5\ngini = 0.408\nsamples = 28\nvalue = [0, 8, 20]"] ;
252 -> 364 ;
365 [label="X[7] <= 1.5\ngini = 0.496\nsamples = 11\nvalue = [0, 6, 5]"] ;
364 -> 365 ;
366 [label="X[36] <= 0.5\ngini = 0.408\nsamples = 7\nvalue = [0, 2, 5]"] ;
365 -> 366 ;
367 [label="gini = 0.0\nsamples = 4\nvalue = [0, 0, 4]"] ;
366 -> 367 ;
368 [label="X[21] <= 1.5\ngini = 0.444\nsamples = 3\nvalue = [0, 2, 1]"] ;
366 -> 368 ;
369 [label="gini = 0.0\nsamples = 2\nvalue = [0, 2, 0]"] ;
368 -> 369 ;
370 [label="gini = 0.0\nsamples = 1\nvalue = [0, 0, 1]"] ;
368 -> 370 ;
371 [label="gini = 0.0\nsamples = 4\nvalue = [0, 4, 0]"] ;
365 -> 371 ;
372 [label="X[23] <= 1.5\ngini = 0.208\nsamples = 17\nvalue = [0, 2, 15]"] ;
364 -> 372 ;
373 [label="gini = 0.0\nsamples = 14\nvalue = [0, 0, 14]"] ;
372 -> 373 ;
374 [label="X[12] <= 0.5\ngini = 0.444\nsamples = 3\nvalue = [0, 2, 1]"] ;
372 -> 374 ;
375 [label="gini = 0.0\nsamples = 2\nvalue = [0, 2, 0]"] ;
374 -> 375 ;
376 [label="gini = 0.0\nsamples = 1\nvalue = [0, 0, 1]"] ;
374 -> 376 ;
377 [label="X[20] <= 0.5\ngini = 0.353\nsamples = 119\nvalue = [15, 10, 94]"] ;
251 -> 377 ;
378 [label="X[25] <= 0.5\ngini = 0.267\nsamples = 92\nvalue = [10, 4, 78]"] ;
377 -> 378 ;
379 [label="X[14] <= 0.5\ngini = 0.171\nsamples = 74\nvalue = [7, 0, 67]"] ;
378 -> 379 ;
380 [label="X[9] <= 1.5\ngini = 0.112\nsamples = 67\nvalue = [4, 0, 63]"] ;
379 -> 380 ;
381 [label="X[30] <= 1.5\ngini = 0.089\nsamples = 64\nvalue = [3, 0, 61]"] ;
380 -> 381 ;
382 [label="gini = 0.0\nsamples = 38\nvalue = [0, 0, 38]"] ;
381 -> 382 ;
383 [label="X[24] <= 1.5\ngini = 0.204\nsamples = 26\nvalue = [3, 0, 23]"] ;
381 -> 383 ;
384 [label="X[7] <= 1.5\ngini = 0.087\nsamples = 22\nvalue = [1, 0, 21]"] ;
383 -> 384 ;
385 [label="gini = 0.0\nsamples = 16\nvalue = [0, 0, 16]"] ;
384 -> 385 ;
386 [label="X[12] <= 0.5\ngini = 0.278\nsamples = 6\nvalue = [1, 0, 5]"] ;
384 -> 386 ;
387 [label="gini = 0.0\nsamples = 4\nvalue = [0, 0, 4]"] ;
386 -> 387 ;
388 [label="X[8] <= 0.5\ngini = 0.5\nsamples = 2\nvalue = [1, 0, 1]"] ;
386 -> 388 ;
389 [label="gini = 0.0\nsamples = 1\nvalue = [1, 0, 0]"] ;
388 -> 389 ;
390 [label="gini = 0.0\nsamples = 1\nvalue = [0, 0, 1]"] ;
388 -> 390 ;
391 [label="X[13] <= 0.5\ngini = 0.5\nsamples = 4\nvalue = [2, 0, 2]"] ;
383 -> 391 ;
392 [label="X[7] <= 0.5\ngini = 0.444\nsamples = 3\nvalue = [1, 0, 2]"] ;
391 -> 392 ;
393 [label="gini = 0.0\nsamples = 2\nvalue = [0, 0, 2]"] ;
392 -> 393 ;
394 [label="gini = 0.0\nsamples = 1\nvalue = [1, 0, 0]"] ;
392 -> 394 ;
395 [label="gini = 0.0\nsamples = 1\nvalue = [1, 0, 0]"] ;
391 -> 395 ;
396 [label="X[19] <= 0.5\ngini = 0.444\nsamples = 3\nvalue = [1, 0, 2]"] ;
380 -> 396 ;
397 [label="gini = 0.0\nsamples = 2\nvalue = [0, 0, 2]"] ;
396 -> 397 ;
398 [label="gini = 0.0\nsamples = 1\nvalue = [1, 0, 0]"] ;
396 -> 398 ;
399 [label="X[14] <= 1.5\ngini = 0.49\nsamples = 7\nvalue = [3, 0, 4]"] ;
379 -> 399 ;
400 [label="X[24] <= 1.0\ngini = 0.375\nsamples = 4\nvalue = [3, 0, 1]"] ;
399 -> 400 ;
401 [label="gini = 0.0\nsamples = 3\nvalue = [3, 0, 0]"] ;
400 -> 401 ;
402 [label="gini = 0.0\nsamples = 1\nvalue = [0, 0, 1]"] ;
400 -> 402 ;
403 [label="gini = 0.0\nsamples = 3\nvalue = [0, 0, 3]"] ;
399 -> 403 ;
404 [label="X[25] <= 1.5\ngini = 0.549\nsamples = 18\nvalue = [3, 4, 11]"] ;
378 -> 404 ;
405 [label="X[26] <= 1.5\ngini = 0.653\nsamples = 12\nvalue = [3, 4, 5]"] ;
404 -> 405 ;
406 [label="X[19] <= 1.0\ngini = 0.66\nsamples = 10\nvalue = [3, 4, 3]"] ;
405 -> 406 ;
407 [label="X[7] <= 1.5\ngini = 0.594\nsamples = 8\nvalue = [3, 4, 1]"] ;
406 -> 407 ;
408 [label="X[12] <= 0.5\ngini = 0.32\nsamples = 5\nvalue = [1, 4, 0]"] ;
407 -> 408 ;
409 [label="gini = 0.0\nsamples = 3\nvalue = [0, 3, 0]"] ;
408 -> 409 ;
410 [label="X[30] <= 1.0\ngini = 0.5\nsamples = 2\nvalue = [1, 1, 0]"] ;
408 -> 410 ;
411 [label="gini = 0.0\nsamples = 1\nvalue = [1, 0, 0]"] ;
410 -> 411 ;
412 [label="gini = 0.0\nsamples = 1\nvalue = [0, 1, 0]"] ;
410 -> 412 ;
413 [label="X[24] <= 1.5\ngini = 0.444\nsamples = 3\nvalue = [2, 0, 1]"] ;
407 -> 413 ;
414 [label="gini = 0.0\nsamples = 1\nvalue = [0, 0, 1]"] ;
413 -> 414 ;
415 [label="gini = 0.0\nsamples = 2\nvalue = [2, 0, 0]"] ;
413 -> 415 ;
416 [label="gini = 0.0\nsamples = 2\nvalue = [0, 0, 2]"] ;
406 -> 416 ;
417 [label="gini = 0.0\nsamples = 2\nvalue = [0, 0, 2]"] ;
405 -> 417 ;
418 [label="gini = 0.0\nsamples = 6\nvalue = [0, 0, 6]"] ;
404 -> 418 ;
419 [label="X[20] <= 1.5\ngini = 0.565\nsamples = 27\nvalue = [5, 6, 16]"] ;
377 -> 419 ;
420 [label="X[19] <= 1.5\ngini = 0.658\nsamples = 15\nvalue = [5, 6, 4]"] ;
419 -> 420 ;
421 [label="gini = 0.0\nsamples = 2\nvalue = [2, 0, 0]"] ;
420 -> 421 ;
422 [label="X[21] <= 1.5\ngini = 0.639\nsamples = 13\nvalue = [3, 6, 4]"] ;
420 -> 422 ;
423 [label="X[21] <= 0.5\ngini = 0.56\nsamples = 10\nvalue = [2, 6, 2]"] ;
422 -> 423 ;
424 [label="X[38] <= 0.5\ngini = 0.667\nsamples = 6\nvalue = [2, 2, 2]"] ;
423 -> 424 ;
425 [label="X[25] <= 0.5\ngini = 0.444\nsamples = 3\nvalue = [2, 1, 0]"] ;
424 -> 425 ;
426 [label="X[13] <= 1.0\ngini = 0.5\nsamples = 2\nvalue = [1, 1, 0]"] ;
425 -> 426 ;
427 [label="gini = 0.0\nsamples = 1\nvalue = [0, 1, 0]"] ;
426 -> 427 ;
428 [label="gini = 0.0\nsamples = 1\nvalue = [1, 0, 0]"] ;
426 -> 428 ;
429 [label="gini = 0.0\nsamples = 1\nvalue = [1, 0, 0]"] ;
425 -> 429 ;
430 [label="X[38] <= 1.5\ngini = 0.444\nsamples = 3\nvalue = [0, 1, 2]"] ;
424 -> 430 ;
431 [label="gini = 0.0\nsamples = 2\nvalue = [0, 0, 2]"] ;
430 -> 431 ;
432 [label="gini = 0.0\nsamples = 1\nvalue = [0, 1, 0]"] ;
430 -> 432 ;
433 [label="gini = 0.0\nsamples = 4\nvalue = [0, 4, 0]"] ;
423 -> 433 ;
434 [label="X[22] <= 0.5\ngini = 0.444\nsamples = 3\nvalue = [1, 0, 2]"] ;
422 -> 434 ;
435 [label="gini = 0.0\nsamples = 2\nvalue = [0, 0, 2]"] ;
434 -> 435 ;
436 [label="gini = 0.0\nsamples = 1\nvalue = [1, 0, 0]"] ;
434 -> 436 ;
437 [label="gini = 0.0\nsamples = 12\nvalue = [0, 0, 12]"] ;
419 -> 437 ;
438 [label="X[36] <= 0.5\ngini = 0.418\nsamples = 2604\nvalue = [226, 459, 1919]"] ;
4 -> 438 ;
439 [label="X[18] <= 1.5\ngini = 0.482\nsamples = 1471\nvalue = [137, 342, 992]"] ;
438 -> 439 ;
440 [label="X[24] <= 1.5\ngini = 0.448\nsamples = 1173\nvalue = [105, 236, 832]"] ;
439 -> 440 ;
441 [label="X[6] <= 0.5\ngini = 0.401\nsamples = 916\nvalue = [69, 160, 687]"] ;
440 -> 441 ;
442 [label="X[30] <= 1.5\ngini = 0.483\nsamples = 403\nvalue = [36, 96, 271]"] ;
441 -> 442 ;
443 [label="X[17] <= 1.5\ngini = 0.37\nsamples = 206\nvalue = [17, 29, 160]"] ;
442 -> 443 ;
444 [label="X[20] <= 0.5\ngini = 0.351\nsamples = 201\nvalue = [15, 27, 159]"] ;
443 -> 444 ;
445 [label="X[31] <= 1.5\ngini = 0.309\nsamples = 140\nvalue = [12, 13, 115]"] ;
444 -> 445 ;
446 [label="X[14] <= 0.5\ngini = 0.187\nsamples = 89\nvalue = [5, 4, 80]"] ;
445 -> 446 ;
447 [label="gini = 0.0\nsamples = 22\nvalue = [0, 0, 22]"] ;
446 -> 447 ;
448 [label="X[28] <= 1.5\ngini = 0.241\nsamples = 67\nvalue = [5, 4, 58]"] ;
446 -> 448 ;
449 [label="X[14] <= 1.5\ngini = 0.22\nsamples = 66\nvalue = [5, 3, 58]"] ;
448 -> 449 ;
450 [label="X[15] <= 1.5\ngini = 0.314\nsamples = 33\nvalue = [3, 3, 27]"] ;
449 -> 450 ;
451 [label="X[27] <= 0.5\ngini = 0.188\nsamples = 19\nvalue = [2, 0, 17]"] ;
450 -> 451 ;
452 [label="gini = 0.0\nsamples = 11\nvalue = [0, 0, 11]"] ;
451 -> 452 ;
453 [label="X[27] <= 1.5\ngini = 0.375\nsamples = 8\nvalue = [2, 0, 6]"] ;
451 -> 453 ;
454 [label="X[30] <= 0.5\ngini = 0.444\nsamples = 3\nvalue = [2, 0, 1]"] ;
453 -> 454 ;
455 [label="gini = 0.0\nsamples = 2\nvalue = [2, 0, 0]"] ;
454 -> 455 ;
456 [label="gini = 0.0\nsamples = 1\nvalue = [0, 0, 1]"] ;
454 -> 456 ;
457 [label="gini = 0.0\nsamples = 5\nvalue = [0, 0, 5]"] ;
453 -> 457 ;
458 [label="X[33] <= 0.5\ngini = 0.439\nsamples = 14\nvalue = [1, 3, 10]"] ;
450 -> 458 ;
459 [label="X[16] <= 1.5\ngini = 0.355\nsamples = 13\nvalue = [0, 3, 10]"] ;
458 -> 459 ;
460 [label="X[27] <= 0.5\ngini = 0.18\nsamples = 10\nvalue = [0, 1, 9]"] ;
459 -> 460 ;
461 [label="gini = 0.0\nsamples = 8\nvalue = [0, 0, 8]"] ;
460 -> 461 ;
462 [label="X[25] <= 1.5\ngini = 0.5\nsamples = 2\nvalue = [0, 1, 1]"] ;
460 -> 462 ;
463 [label="gini = 0.0\nsamples = 1\nvalue = [0, 1, 0]"] ;
462 -> 463 ;
464 [label="gini = 0.0\nsamples = 1\nvalue = [0, 0, 1]"] ;
462 -> 464 ;
465 [label="X[24] <= 0.5\ngini = 0.444\nsamples = 3\nvalue = [0, 2, 1]"] ;
459 -> 465 ;
466 [label="gini = 0.0\nsamples = 1\nvalue = [0, 0, 1]"] ;
465 -> 466 ;
467 [label="gini = 0.0\nsamples = 2\nvalue = [0, 2, 0]"] ;
465 -> 467 ;
468 [label="gini = 0.0\nsamples = 1\nvalue = [1, 0, 0]"] ;
458 -> 468 ;
469 [label="X[18] <= 0.5\ngini = 0.114\nsamples = 33\nvalue = [2, 0, 31]"] ;
449 -> 469 ;
470 [label="gini = 0.0\nsamples = 19\nvalue = [0, 0, 19]"] ;
469 -> 470 ;
471 [label="X[15] <= 1.5\ngini = 0.245\nsamples = 14\nvalue = [2, 0, 12]"] ;
469 -> 471 ;
472 [label="X[13] <= 1.5\ngini = 0.346\nsamples = 9\nvalue = [2, 0, 7]"] ;
471 -> 472 ;
473 [label="gini = 0.0\nsamples = 1\nvalue = [1, 0, 0]"] ;
472 -> 473 ;
474 [label="X[30] <= 0.5\ngini = 0.219\nsamples = 8\nvalue = [1, 0, 7]"] ;
472 -> 474 ;
475 [label="gini = 0.0\nsamples = 6\nvalue = [0, 0, 6]"] ;
474 -> 475 ;
476 [label="X[32] <= 1.0\ngini = 0.5\nsamples = 2\nvalue = [1, 0, 1]"] ;
474 -> 476 ;
477 [label="gini = 0.0\nsamples = 1\nvalue = [1, 0, 0]"] ;
476 -> 477 ;
478 [label="gini = 0.0\nsamples = 1\nvalue = [0, 0, 1]"] ;
476 -> 478 ;
479 [label="gini = 0.0\nsamples = 5\nvalue = [0, 0, 5]"] ;
471 -> 479 ;
480 [label="gini = 0.0\nsamples = 1\nvalue = [0, 1, 0]"] ;
448 -> 480 ;
481 [label="X[17] <= 0.5\ngini = 0.479\nsamples = 51\nvalue = [7, 9, 35]"] ;
445 -> 481 ;
482 [label="X[26] <= 1.5\ngini = 0.463\nsamples = 50\nvalue = [6, 9, 35]"] ;
481 -> 482 ;
483 [label="X[19] <= 0.5\ngini = 0.505\nsamples = 44\nvalue = [6, 9, 29]"] ;
482 -> 483 ;
484 [label="X[33] <= 0.5\ngini = 0.553\nsamples = 38\nvalue = [6, 9, 23]"] ;
483 -> 484 ;
485 [label="X[32] <= 1.5\ngini = 0.571\nsamples = 14\nvalue = [4, 2, 8]"] ;
484 -> 485 ;
486 [label="X[15] <= 0.5\ngini = 0.529\nsamples = 11\nvalue = [2, 2, 7]"] ;
485 -> 486 ;
487 [label="X[28] <= 0.5\ngini = 0.625\nsamples = 4\nvalue = [1, 2, 1]"] ;
486 -> 487 ;
488 [label="X[14] <= 1.5\ngini = 0.444\nsamples = 3\nvalue = [1, 2, 0]"] ;
487 -> 488 ;
489 [label="gini = 0.0\nsamples = 2\nvalue = [0, 2, 0]"] ;
488 -> 489 ;
490 [label="gini = 0.0\nsamples = 1\nvalue = [1, 0, 0]"] ;
488 -> 490 ;
491 [label="gini = 0.0\nsamples = 1\nvalue = [0, 0, 1]"] ;
487 -> 491 ;
492 [label="X[14] <= 1.5\ngini = 0.245\nsamples = 7\nvalue = [1, 0, 6]"] ;
486 -> 492 ;
493 [label="X[24] <= 0.5\ngini = 0.444\nsamples = 3\nvalue = [1, 0, 2]"] ;
492 -> 493 ;
494 [label="gini = 0.0\nsamples = 1\nvalue = [1, 0, 0]"] ;
493 -> 494 ;
495 [label="gini = 0.0\nsamples = 2\nvalue = [0, 0, 2]"] ;
493 -> 495 ;
496 [label="gini = 0.0\nsamples = 4\nvalue = [0, 0, 4]"] ;
492 -> 496 ;
497 [label="X[25] <= 1.0\ngini = 0.444\nsamples = 3\nvalue = [2, 0, 1]"] ;
485 -> 497 ;
498 [label="gini = 0.0\nsamples = 2\nvalue = [2, 0, 0]"] ;
497 -> 498 ;
499 [label="gini = 0.0\nsamples = 1\nvalue = [0, 0, 1]"] ;
497 -> 499 ;
500 [label="X[15] <= 0.5\ngini = 0.517\nsamples = 24\nvalue = [2, 7, 15]"] ;
484 -> 500 ;
501 [label="X[34] <= 0.5\ngini = 0.476\nsamples = 19\nvalue = [2, 4, 13]"] ;
500 -> 501 ;
502 [label="gini = 0.0\nsamples = 7\nvalue = [0, 0, 7]"] ;
501 -> 502 ;
503 [label="X[25] <= 1.5\ngini = 0.611\nsamples = 12\nvalue = [2, 4, 6]"] ;
501 -> 503 ;
504 [label="X[14] <= 0.5\ngini = 0.562\nsamples = 11\nvalue = [1, 4, 6]"] ;
503 -> 504 ;
505 [label="X[32] <= 1.5\ngini = 0.54\nsamples = 10\nvalue = [1, 3, 6]"] ;
504 -> 505 ;
506 [label="X[35] <= 0.5\ngini = 0.5\nsamples = 6\nvalue = [0, 3, 3]"] ;
505 -> 506 ;
507 [label="gini = 0.0\nsamples = 1\nvalue = [0, 1, 0]"] ;
506 -> 507 ;
508 [label="X[33] <= 1.5\ngini = 0.48\nsamples = 5\nvalue = [0, 2, 3]"] ;
506 -> 508 ;
509 [label="gini = 0.0\nsamples = 1\nvalue = [0, 1, 0]"] ;
508 -> 509 ;
510 [label="X[24] <= 0.5\ngini = 0.375\nsamples = 4\nvalue = [0, 1, 3]"] ;
508 -> 510 ;
511 [label="gini = 0.0\nsamples = 3\nvalue = [0, 0, 3]"] ;
510 -> 511 ;
512 [label="gini = 0.0\nsamples = 1\nvalue = [0, 1, 0]"] ;
510 -> 512 ;
513 [label="X[24] <= 0.5\ngini = 0.375\nsamples = 4\nvalue = [1, 0, 3]"] ;
505 -> 513 ;
514 [label="X[13] <= 1.5\ngini = 0.5\nsamples = 2\nvalue = [1, 0, 1]"] ;
513 -> 514 ;
515 [label="gini = 0.0\nsamples = 1\nvalue = [1, 0, 0]"] ;
514 -> 515 ;
516 [label="gini = 0.0\nsamples = 1\nvalue = [0, 0, 1]"] ;
514 -> 516 ;
517 [label="gini = 0.0\nsamples = 2\nvalue = [0, 0, 2]"] ;
513 -> 517 ;
518 [label="gini = 0.0\nsamples = 1\nvalue = [0, 1, 0]"] ;
504 -> 518 ;
519 [label="gini = 0.0\nsamples = 1\nvalue = [1, 0, 0]"] ;
503 -> 519 ;
520 [label="X[33] <= 1.5\ngini = 0.48\nsamples = 5\nvalue = [0, 3, 2]"] ;
500 -> 520 ;
521 [label="X[13] <= 1.5\ngini = 0.375\nsamples = 4\nvalue = [0, 3, 1]"] ;
520 -> 521 ;
522 [label="gini = 0.0\nsamples = 1\nvalue = [0, 0, 1]"] ;
521 -> 522 ;
523 [label="gini = 0.0\nsamples = 3\nvalue = [0, 3, 0]"] ;
521 -> 523 ;
524 [label="gini = 0.0\nsamples = 1\nvalue = [0, 0, 1]"] ;
520 -> 524 ;
525 [label="gini = 0.0\nsamples = 6\nvalue = [0, 0, 6]"] ;
483 -> 525 ;
526 [label="gini = 0.0\nsamples = 6\nvalue = [0, 0, 6]"] ;
482 -> 526 ;
527 [label="gini = 0.0\nsamples = 1\nvalue = [1, 0, 0]"] ;
481 -> 527 ;
528 [label="X[20] <= 1.5\ngini = 0.425\nsamples = 61\nvalue = [3, 14, 44]"] ;
444 -> 528 ;
529 [label="X[13] <= 1.5\ngini = 0.599\nsamples = 22\nvalue = [3, 11, 8]"] ;
528 -> 529 ;
530 [label="X[26] <= 0.5\ngini = 0.46\nsamples = 10\nvalue = [1, 2, 7]"] ;
529 -> 530 ;
531 [label="X[16] <= 0.5\ngini = 0.219\nsamples = 8\nvalue = [0, 1, 7]"] ;
530 -> 531 ;
532 [label="gini = 0.0\nsamples = 7\nvalue = [0, 0, 7]"] ;
531 -> 532 ;
533 [label="gini = 0.0\nsamples = 1\nvalue = [0, 1, 0]"] ;
531 -> 533 ;
534 [label="X[26] <= 1.5\ngini = 0.5\nsamples = 2\nvalue = [1, 1, 0]"] ;
530 -> 534 ;
535 [label="gini = 0.0\nsamples = 1\nvalue = [1, 0, 0]"] ;
534 -> 535 ;
536 [label="gini = 0.0\nsamples = 1\nvalue = [0, 1, 0]"] ;
534 -> 536 ;
537 [label="X[32] <= 0.5\ngini = 0.403\nsamples = 12\nvalue = [2, 9, 1]"] ;
529 -> 537 ;
538 [label="X[25] <= 0.5\ngini = 0.298\nsamples = 11\nvalue = [2, 9, 0]"] ;
537 -> 538 ;
539 [label="gini = 0.0\nsamples = 7\nvalue = [0, 7, 0]"] ;
538 -> 539 ;
540 [label="X[21] <= 1.5\ngini = 0.5\nsamples = 4\nvalue = [2, 2, 0]"] ;
538 -> 540 ;
541 [label="X[26] <= 0.5\ngini = 0.444\nsamples = 3\nvalue = [1, 2, 0]"] ;
540 -> 541 ;
542 [label="gini = 0.0\nsamples = 1\nvalue = [0, 1, 0]"] ;
541 -> 542 ;
543 [label="X[25] <= 1.5\ngini = 0.5\nsamples = 2\nvalue = [1, 1, 0]"] ;
541 -> 543 ;
544 [label="gini = 0.0\nsamples = 1\nvalue = [0, 1, 0]"] ;
543 -> 544 ;
545 [label="gini = 0.0\nsamples = 1\nvalue = [1, 0, 0]"] ;
543 -> 545 ;
546 [label="gini = 0.0\nsamples = 1\nvalue = [1, 0, 0]"] ;
540 -> 546 ;
547 [label="gini = 0.0\nsamples = 1\nvalue = [0, 0, 1]"] ;
537 -> 547 ;
548 [label="X[16] <= 0.5\ngini = 0.142\nsamples = 39\nvalue = [0, 3, 36]"] ;
528 -> 548 ;
549 [label="X[21] <= 1.5\ngini = 0.057\nsamples = 34\nvalue = [0, 1, 33]"] ;
548 -> 549 ;
550 [label="gini = 0.0\nsamples = 26\nvalue = [0, 0, 26]"] ;
549 -> 550 ;
551 [label="X[14] <= 0.5\ngini = 0.219\nsamples = 8\nvalue = [0, 1, 7]"] ;
549 -> 551 ;
552 [label="gini = 0.0\nsamples = 6\nvalue = [0, 0, 6]"] ;
551 -> 552 ;
553 [label="X[22] <= 0.5\ngini = 0.5\nsamples = 2\nvalue = [0, 1, 1]"] ;
551 -> 553 ;
554 [label="gini = 0.0\nsamples = 1\nvalue = [0, 0, 1]"] ;
553 -> 554 ;
555 [label="gini = 0.0\nsamples = 1\nvalue = [0, 1, 0]"] ;
553 -> 555 ;
556 [label="X[15] <= 1.5\ngini = 0.48\nsamples = 5\nvalue = [0, 2, 3]"] ;
548 -> 556 ;
557 [label="gini = 0.0\nsamples = 2\nvalue = [0, 0, 2]"] ;
556 -> 557 ;
558 [label="X[19] <= 1.5\ngini = 0.444\nsamples = 3\nvalue = [0, 2, 1]"] ;
556 -> 558 ;
559 [label="gini = 0.0\nsamples = 2\nvalue = [0, 2, 0]"] ;
558 -> 559 ;
560 [label="gini = 0.0\nsamples = 1\nvalue = [0, 0, 1]"] ;
558 -> 560 ;
561 [label="X[30] <= 0.5\ngini = 0.64\nsamples = 5\nvalue = [2, 2, 1]"] ;
443 -> 561 ;
562 [label="gini = 0.0\nsamples = 2\nvalue = [0, 2, 0]"] ;
561 -> 562 ;
563 [label="X[24] <= 0.5\ngini = 0.444\nsamples = 3\nvalue = [2, 0, 1]"] ;
561 -> 563 ;
564 [label="gini = 0.0\nsamples = 2\nvalue = [2, 0, 0]"] ;
563 -> 564 ;
565 [label="gini = 0.0\nsamples = 1\nvalue = [0, 0, 1]"] ;
563 -> 565 ;
566 [label="X[18] <= 0.5\ngini = 0.558\nsamples = 197\nvalue = [19, 67, 111]"] ;
442 -> 566 ;
567 [label="X[25] <= 1.5\ngini = 0.571\nsamples = 71\nvalue = [6, 35, 30]"] ;
566 -> 567 ;
568 [label="X[27] <= 1.5\ngini = 0.555\nsamples = 55\nvalue = [5, 31, 19]"] ;
567 -> 568 ;
569 [label="X[25] <= 0.5\ngini = 0.519\nsamples = 50\nvalue = [4, 31, 15]"] ;
568 -> 569 ;
570 [label="X[15] <= 1.5\ngini = 0.622\nsamples = 24\nvalue = [4, 11, 9]"] ;
569 -> 570 ;
571 [label="X[14] <= 1.5\ngini = 0.567\nsamples = 17\nvalue = [4, 10, 3]"] ;
570 -> 571 ;
572 [label="X[35] <= 0.5\ngini = 0.219\nsamples = 8\nvalue = [1, 7, 0]"] ;
571 -> 572 ;
573 [label="gini = 0.0\nsamples = 7\nvalue = [0, 7, 0]"] ;
572 -> 573 ;
574 [label="gini = 0.0\nsamples = 1\nvalue = [1, 0, 0]"] ;
572 -> 574 ;
575 [label="X[16] <= 1.5\ngini = 0.667\nsamples = 9\nvalue = [3, 3, 3]"] ;
571 -> 575 ;
576 [label="X[15] <= 0.5\ngini = 0.612\nsamples = 7\nvalue = [1, 3, 3]"] ;
575 -> 576 ;
577 [label="X[31] <= 1.5\ngini = 0.5\nsamples = 2\nvalue = [1, 0, 1]"] ;
576 -> 577 ;
578 [label="gini = 0.0\nsamples = 1\nvalue = [0, 0, 1]"] ;
577 -> 578 ;
579 [label="gini = 0.0\nsamples = 1\nvalue = [1, 0, 0]"] ;
577 -> 579 ;
580 [label="X[16] <= 0.5\ngini = 0.48\nsamples = 5\nvalue = [0, 3, 2]"] ;
576 -> 580 ;
581 [label="gini = 0.0\nsamples = 2\nvalue = [0, 2, 0]"] ;
580 -> 581 ;
582 [label="X[17] <= 1.0\ngini = 0.444\nsamples = 3\nvalue = [0, 1, 2]"] ;
580 -> 582 ;
583 [label="gini = 0.0\nsamples = 2\nvalue = [0, 0, 2]"] ;
582 -> 583 ;
584 [label="gini = 0.0\nsamples = 1\nvalue = [0, 1, 0]"] ;
582 -> 584 ;
585 [label="gini = 0.0\nsamples = 2\nvalue = [2, 0, 0]"] ;
575 -> 585 ;
586 [label="X[24] <= 0.5\ngini = 0.245\nsamples = 7\nvalue = [0, 1, 6]"] ;
570 -> 586 ;
587 [label="X[16] <= 1.5\ngini = 0.444\nsamples = 3\nvalue = [0, 1, 2]"] ;
586 -> 587 ;
588 [label="gini = 0.0\nsamples = 1\nvalue = [0, 0, 1]"] ;
587 -> 588 ;
589 [label="X[32] <= 0.5\ngini = 0.5\nsamples = 2\nvalue = [0, 1, 1]"] ;
587 -> 589 ;
590 [label="gini = 0.0\nsamples = 1\nvalue = [0, 0, 1]"] ;
589 -> 590 ;
591 [label="gini = 0.0\nsamples = 1\nvalue = [0, 1, 0]"] ;
589 -> 591 ;
592 [label="gini = 0.0\nsamples = 4\nvalue = [0, 0, 4]"] ;
586 -> 592 ;
593 [label="X[13] <= 1.5\ngini = 0.355\nsamples = 26\nvalue = [0, 20, 6]"] ;
569 -> 593 ;
594 [label="X[31] <= 1.5\ngini = 0.208\nsamples = 17\nvalue = [0, 15, 2]"] ;
593 -> 594 ;
595 [label="gini = 0.0\nsamples = 12\nvalue = [0, 12, 0]"] ;
594 -> 595 ;
596 [label="X[32] <= 1.5\ngini = 0.48\nsamples = 5\nvalue = [0, 3, 2]"] ;
594 -> 596 ;
597 [label="X[14] <= 1.5\ngini = 0.375\nsamples = 4\nvalue = [0, 3, 1]"] ;
596 -> 597 ;
598 [label="gini = 0.0\nsamples = 3\nvalue = [0, 3, 0]"] ;
597 -> 598 ;
599 [label="gini = 0.0\nsamples = 1\nvalue = [0, 0, 1]"] ;
597 -> 599 ;
600 [label="gini = 0.0\nsamples = 1\nvalue = [0, 0, 1]"] ;
596 -> 600 ;
601 [label="X[14] <= 0.5\ngini = 0.494\nsamples = 9\nvalue = [0, 5, 4]"] ;
593 -> 601 ;
602 [label="gini = 0.0\nsamples = 3\nvalue = [0, 0, 3]"] ;
601 -> 602 ;
603 [label="X[14] <= 1.5\ngini = 0.278\nsamples = 6\nvalue = [0, 5, 1]"] ;
601 -> 603 ;
604 [label="gini = 0.0\nsamples = 5\nvalue = [0, 5, 0]"] ;
603 -> 604 ;
605 [label="gini = 0.0\nsamples = 1\nvalue = [0, 0, 1]"] ;
603 -> 605 ;
606 [label="X[32] <= 0.5\ngini = 0.32\nsamples = 5\nvalue = [1, 0, 4]"] ;
568 -> 606 ;
607 [label="gini = 0.0\nsamples = 3\nvalue = [0, 0, 3]"] ;
606 -> 607 ;
608 [label="X[26] <= 1.5\ngini = 0.5\nsamples = 2\nvalue = [1, 0, 1]"] ;
606 -> 608 ;
609 [label="gini = 0.0\nsamples = 1\nvalue = [1, 0, 0]"] ;
608 -> 609 ;
610 [label="gini = 0.0\nsamples = 1\nvalue = [0, 0, 1]"] ;
608 -> 610 ;
611 [label="X[14] <= 0.5\ngini = 0.461\nsamples = 16\nvalue = [1, 4, 11]"] ;
567 -> 611 ;
612 [label="X[26] <= 1.5\ngini = 0.611\nsamples = 6\nvalue = [1, 3, 2]"] ;
611 -> 612 ;
613 [label="X[29] <= 0.5\ngini = 0.375\nsamples = 4\nvalue = [1, 3, 0]"] ;
612 -> 613 ;
614 [label="gini = 0.0\nsamples = 3\nvalue = [0, 3, 0]"] ;
613 -> 614 ;
615 [label="gini = 0.0\nsamples = 1\nvalue = [1, 0, 0]"] ;
613 -> 615 ;
616 [label="gini = 0.0\nsamples = 2\nvalue = [0, 0, 2]"] ;
612 -> 616 ;
617 [label="X[14] <= 1.5\ngini = 0.18\nsamples = 10\nvalue = [0, 1, 9]"] ;
611 -> 617 ;
618 [label="gini = 0.0\nsamples = 7\nvalue = [0, 0, 7]"] ;
617 -> 618 ;
619 [label="X[26] <= 0.5\ngini = 0.444\nsamples = 3\nvalue = [0, 1, 2]"] ;
617 -> 619 ;
620 [label="gini = 0.0\nsamples = 2\nvalue = [0, 0, 2]"] ;
619 -> 620 ;
621 [label="gini = 0.0\nsamples = 1\nvalue = [0, 1, 0]"] ;
619 -> 621 ;
622 [label="X[24] <= 0.5\ngini = 0.512\nsamples = 126\nvalue = [13, 32, 81]"] ;
566 -> 622 ;
623 [label="X[19] <= 1.5\ngini = 0.624\nsamples = 60\nvalue = [10, 26, 24]"] ;
622 -> 623 ;
624 [label="X[31] <= 1.5\ngini = 0.598\nsamples = 38\nvalue = [6, 20, 12]"] ;
623 -> 624 ;
625 [label="X[35] <= 0.5\ngini = 0.531\nsamples = 31\nvalue = [3, 19, 9]"] ;
624 -> 625 ;
626 [label="X[16] <= 0.5\ngini = 0.504\nsamples = 30\nvalue = [2, 19, 9]"] ;
625 -> 626 ;
627 [label="X[34] <= 0.5\ngini = 0.532\nsamples = 27\nvalue = [2, 16, 9]"] ;
626 -> 627 ;
628 [label="X[32] <= 1.5\ngini = 0.517\nsamples = 24\nvalue = [2, 15, 7]"] ;
627 -> 628 ;
629 [label="X[14] <= 1.5\ngini = 0.551\nsamples = 15\nvalue = [1, 8, 6]"] ;
628 -> 629 ;
630 [label="X[21] <= 1.5\ngini = 0.512\nsamples = 11\nvalue = [1, 7, 3]"] ;
629 -> 630 ;
631 [label="X[31] <= 0.5\ngini = 0.278\nsamples = 6\nvalue = [0, 5, 1]"] ;
630 -> 631 ;
632 [label="gini = 0.0\nsamples = 3\nvalue = [0, 3, 0]"] ;
631 -> 632 ;
633 [label="X[21] <= 0.5\ngini = 0.444\nsamples = 3\nvalue = [0, 2, 1]"] ;
631 -> 633 ;
634 [label="gini = 0.0\nsamples = 1\nvalue = [0, 1, 0]"] ;
633 -> 634 ;
635 [label="X[13] <= 1.0\ngini = 0.5\nsamples = 2\nvalue = [0, 1, 1]"] ;
633 -> 635 ;
636 [label="gini = 0.0\nsamples = 1\nvalue = [0, 1, 0]"] ;
635 -> 636 ;
637 [label="gini = 0.0\nsamples = 1\nvalue = [0, 0, 1]"] ;
635 -> 637 ;
638 [label="X[20] <= 1.5\ngini = 0.64\nsamples = 5\nvalue = [1, 2, 2]"] ;
630 -> 638 ;
639 [label="X[31] <= 0.5\ngini = 0.5\nsamples = 2\nvalue = [1, 1, 0]"] ;
638 -> 639 ;
640 [label="gini = 0.0\nsamples = 1\nvalue = [1, 0, 0]"] ;
639 -> 640 ;
641 [label="gini = 0.0\nsamples = 1\nvalue = [0, 1, 0]"] ;
639 -> 641 ;
642 [label="X[32] <= 0.5\ngini = 0.444\nsamples = 3\nvalue = [0, 1, 2]"] ;
638 -> 642 ;
643 [label="X[22] <= 0.5\ngini = 0.5\nsamples = 2\nvalue = [0, 1, 1]"] ;
642 -> 643 ;
644 [label="gini = 0.0\nsamples = 1\nvalue = [0, 1, 0]"] ;
643 -> 644 ;
645 [label="gini = 0.0\nsamples = 1\nvalue = [0, 0, 1]"] ;
643 -> 645 ;
646 [label="gini = 0.0\nsamples = 1\nvalue = [0, 0, 1]"] ;
642 -> 646 ;
647 [label="X[21] <= 0.5\ngini = 0.375\nsamples = 4\nvalue = [0, 1, 3]"] ;
629 -> 647 ;
648 [label="gini = 0.0\nsamples = 3\nvalue = [0, 0, 3]"] ;
647 -> 648 ;
649 [label="gini = 0.0\nsamples = 1\nvalue = [0, 1, 0]"] ;
647 -> 649 ;
650 [label="X[33] <= 0.5\ngini = 0.37\nsamples = 9\nvalue = [1, 7, 1]"] ;
628 -> 650 ;
651 [label="gini = 0.0\nsamples = 5\nvalue = [0, 5, 0]"] ;
650 -> 651 ;
652 [label="X[13] <= 1.5\ngini = 0.625\nsamples = 4\nvalue = [1, 2, 1]"] ;
650 -> 652 ;
653 [label="X[14] <= 0.5\ngini = 0.444\nsamples = 3\nvalue = [1, 2, 0]"] ;
652 -> 653 ;
654 [label="gini = 0.0\nsamples = 1\nvalue = [0, 1, 0]"] ;
653 -> 654 ;
655 [label="X[14] <= 1.5\ngini = 0.5\nsamples = 2\nvalue = [1, 1, 0]"] ;
653 -> 655 ;
656 [label="gini = 0.0\nsamples = 1\nvalue = [1, 0, 0]"] ;
655 -> 656 ;
657 [label="gini = 0.0\nsamples = 1\nvalue = [0, 1, 0]"] ;
655 -> 657 ;
658 [label="gini = 0.0\nsamples = 1\nvalue = [0, 0, 1]"] ;
652 -> 658 ;
659 [label="X[13] <= 0.5\ngini = 0.444\nsamples = 3\nvalue = [0, 1, 2]"] ;
627 -> 659 ;
660 [label="gini = 0.0\nsamples = 1\nvalue = [0, 1, 0]"] ;
659 -> 660 ;
661 [label="gini = 0.0\nsamples = 2\nvalue = [0, 0, 2]"] ;
659 -> 661 ;
662 [label="gini = 0.0\nsamples = 3\nvalue = [0, 3, 0]"] ;
626 -> 662 ;
663 [label="gini = 0.0\nsamples = 1\nvalue = [1, 0, 0]"] ;
625 -> 663 ;
664 [label="X[14] <= 1.5\ngini = 0.612\nsamples = 7\nvalue = [3, 1, 3]"] ;
624 -> 664 ;
665 [label="X[32] <= 1.5\ngini = 0.56\nsamples = 5\nvalue = [1, 1, 3]"] ;
664 -> 665 ;
666 [label="X[33] <= 1.0\ngini = 0.375\nsamples = 4\nvalue = [0, 1, 3]"] ;
665 -> 666 ;
667 [label="gini = 0.0\nsamples = 2\nvalue = [0, 0, 2]"] ;
666 -> 667 ;
668 [label="X[19] <= 0.5\ngini = 0.5\nsamples = 2\nvalue = [0, 1, 1]"] ;
666 -> 668 ;
669 [label="gini = 0.0\nsamples = 1\nvalue = [0, 0, 1]"] ;
668 -> 669 ;
670 [label="gini = 0.0\nsamples = 1\nvalue = [0, 1, 0]"] ;
668 -> 670 ;
671 [label="gini = 0.0\nsamples = 1\nvalue = [1, 0, 0]"] ;
665 -> 671 ;
672 [label="gini = 0.0\nsamples = 2\nvalue = [2, 0, 0]"] ;
664 -> 672 ;
673 [label="X[20] <= 0.5\ngini = 0.595\nsamples = 22\nvalue = [4, 6, 12]"] ;
623 -> 673 ;
674 [label="X[32] <= 1.5\ngini = 0.18\nsamples = 10\nvalue = [1, 0, 9]"] ;
673 -> 674 ;
675 [label="gini = 0.0\nsamples = 7\nvalue = [0, 0, 7]"] ;
674 -> 675 ;
676 [label="X[33] <= 0.5\ngini = 0.444\nsamples = 3\nvalue = [1, 0, 2]"] ;
674 -> 676 ;
677 [label="gini = 0.0\nsamples = 1\nvalue = [1, 0, 0]"] ;
676 -> 677 ;
678 [label="gini = 0.0\nsamples = 2\nvalue = [0, 0, 2]"] ;
676 -> 678 ;
679 [label="X[20] <= 1.5\ngini = 0.625\nsamples = 12\nvalue = [3, 6, 3]"] ;
673 -> 679 ;
680 [label="X[23] <= 0.5\ngini = 0.595\nsamples = 11\nvalue = [3, 6, 2]"] ;
679 -> 680 ;
681 [label="X[13] <= 1.5\ngini = 0.54\nsamples = 10\nvalue = [3, 6, 1]"] ;
680 -> 681 ;
682 [label="X[21] <= 1.5\ngini = 0.375\nsamples = 8\nvalue = [2, 6, 0]"] ;
681 -> 682 ;
683 [label="X[15] <= 0.5\ngini = 0.245\nsamples = 7\nvalue = [1, 6, 0]"] ;
682 -> 683 ;
684 [label="gini = 0.0\nsamples = 5\nvalue = [0, 5, 0]"] ;
683 -> 684 ;
685 [label="X[14] <= 1.5\ngini = 0.5\nsamples = 2\nvalue = [1, 1, 0]"] ;
683 -> 685 ;
686 [label="gini = 0.0\nsamples = 1\nvalue = [0, 1, 0]"] ;
685 -> 686 ;
687 [label="gini = 0.0\nsamples = 1\nvalue = [1, 0, 0]"] ;
685 -> 687 ;
688 [label="gini = 0.0\nsamples = 1\nvalue = [1, 0, 0]"] ;
682 -> 688 ;
689 [label="X[32] <= 0.5\ngini = 0.5\nsamples = 2\nvalue = [1, 0, 1]"] ;
681 -> 689 ;
690 [label="gini = 0.0\nsamples = 1\nvalue = [1, 0, 0]"] ;
689 -> 690 ;
691 [label="gini = 0.0\nsamples = 1\nvalue = [0, 0, 1]"] ;
689 -> 691 ;
692 [label="gini = 0.0\nsamples = 1\nvalue = [0, 0, 1]"] ;
680 -> 692 ;
693 [label="gini = 0.0\nsamples = 1\nvalue = [0, 0, 1]"] ;
679 -> 693 ;
694 [label="X[25] <= 1.5\ngini = 0.244\nsamples = 66\nvalue = [3, 6, 57]"] ;
622 -> 694 ;
695 [label="X[16] <= 1.5\ngini = 0.119\nsamples = 48\nvalue = [2, 1, 45]"] ;
694 -> 695 ;
696 [label="X[20] <= 0.5\ngini = 0.086\nsamples = 45\nvalue = [1, 1, 43]"] ;
695 -> 696 ;
697 [label="gini = 0.0\nsamples = 31\nvalue = [0, 0, 31]"] ;
696 -> 697 ;
698 [label="X[31] <= 1.5\ngini = 0.255\nsamples = 14\nvalue = [1, 1, 12]"] ;
696 -> 698 ;
699 [label="gini = 0.0\nsamples = 10\nvalue = [0, 0, 10]"] ;
698 -> 699 ;
700 [label="X[25] <= 0.5\ngini = 0.625\nsamples = 4\nvalue = [1, 1, 2]"] ;
698 -> 700 ;
701 [label="X[32] <= 0.5\ngini = 0.444\nsamples = 3\nvalue = [0, 1, 2]"] ;
700 -> 701 ;
702 [label="X[19] <= 1.5\ngini = 0.5\nsamples = 2\nvalue = [0, 1, 1]"] ;
701 -> 702 ;
703 [label="gini = 0.0\nsamples = 1\nvalue = [0, 0, 1]"] ;
702 -> 703 ;
704 [label="gini = 0.0\nsamples = 1\nvalue = [0, 1, 0]"] ;
702 -> 704 ;
705 [label="gini = 0.0\nsamples = 1\nvalue = [0, 0, 1]"] ;
701 -> 705 ;
706 [label="gini = 0.0\nsamples = 1\nvalue = [1, 0, 0]"] ;
700 -> 706 ;
707 [label="X[14] <= 1.5\ngini = 0.444\nsamples = 3\nvalue = [1, 0, 2]"] ;
695 -> 707 ;
708 [label="gini = 0.0\nsamples = 2\nvalue = [0, 0, 2]"] ;
707 -> 708 ;
709 [label="gini = 0.0\nsamples = 1\nvalue = [1, 0, 0]"] ;
707 -> 709 ;
710 [label="X[14] <= 0.5\ngini = 0.475\nsamples = 18\nvalue = [1, 5, 12]"] ;
694 -> 710 ;
711 [label="X[26] <= 1.5\ngini = 0.579\nsamples = 11\nvalue = [1, 5, 5]"] ;
710 -> 711 ;
712 [label="X[27] <= 1.5\ngini = 0.531\nsamples = 8\nvalue = [1, 5, 2]"] ;
711 -> 712 ;
713 [label="X[32] <= 0.5\ngini = 0.449\nsamples = 7\nvalue = [1, 5, 1]"] ;
712 -> 713 ;
714 [label="X[27] <= 0.5\ngini = 0.278\nsamples = 6\nvalue = [1, 5, 0]"] ;
713 -> 714 ;
715 [label="X[20] <= 0.5\ngini = 0.444\nsamples = 3\nvalue = [1, 2, 0]"] ;
714 -> 715 ;
716 [label="gini = 0.0\nsamples = 1\nvalue = [1, 0, 0]"] ;
715 -> 716 ;
717 [label="gini = 0.0\nsamples = 2\nvalue = [0, 2, 0]"] ;
715 -> 717 ;
718 [label="gini = 0.0\nsamples = 3\nvalue = [0, 3, 0]"] ;
714 -> 718 ;
719 [label="gini = 0.0\nsamples = 1\nvalue = [0, 0, 1]"] ;
713 -> 719 ;
720 [label="gini = 0.0\nsamples = 1\nvalue = [0, 0, 1]"] ;
712 -> 720 ;
721 [label="gini = 0.0\nsamples = 3\nvalue = [0, 0, 3]"] ;
711 -> 721 ;
722 [label="gini = 0.0\nsamples = 7\nvalue = [0, 0, 7]"] ;
710 -> 722 ;
723 [label="X[14] <= 0.5\ngini = 0.323\nsamples = 513\nvalue = [33, 64, 416]"] ;
441 -> 723 ;
724 [label="X[21] <= 0.5\ngini = 0.219\nsamples = 330\nvalue = [13, 27, 290]"] ;
723 -> 724 ;
725 [label="X[28] <= 1.5\ngini = 0.192\nsamples = 298\nvalue = [12, 19, 267]"] ;
724 -> 725 ;
726 [label="X[11] <= 1.5\ngini = 0.178\nsamples = 291\nvalue = [9, 19, 263]"] ;
725 -> 726 ;
727 [label="X[10] <= 1.5\ngini = 0.172\nsamples = 290\nvalue = [8, 19, 263]"] ;
726 -> 727 ;
728 [label="X[34] <= 1.5\ngini = 0.152\nsamples = 272\nvalue = [7, 15, 250]"] ;
727 -> 728 ;
729 [label="X[26] <= 0.5\ngini = 0.142\nsamples = 266\nvalue = [7, 13, 246]"] ;
728 -> 729 ;
730 [label="X[8] <= 1.5\ngini = 0.102\nsamples = 207\nvalue = [4, 7, 196]"] ;
729 -> 730 ;
731 [label="X[31] <= 0.5\ngini = 0.067\nsamples = 146\nvalue = [2, 3, 141]"] ;
730 -> 731 ;
732 [label="X[7] <= 1.5\ngini = 0.13\nsamples = 43\nvalue = [0, 3, 40]"] ;
731 -> 732 ;
733 [label="gini = 0.0\nsamples = 14\nvalue = [0, 0, 14]"] ;
732 -> 733 ;
734 [label="X[20] <= 1.5\ngini = 0.185\nsamples = 29\nvalue = [0, 3, 26]"] ;
732 -> 734 ;
735 [label="X[20] <= 0.5\ngini = 0.236\nsamples = 22\nvalue = [0, 3, 19]"] ;
734 -> 735 ;
736 [label="X[9] <= 0.5\ngini = 0.18\nsamples = 20\nvalue = [0, 2, 18]"] ;
735 -> 736 ;
737 [label="gini = 0.0\nsamples = 7\nvalue = [0, 0, 7]"] ;
736 -> 737 ;
738 [label="X[9] <= 1.5\ngini = 0.26\nsamples = 13\nvalue = [0, 2, 11]"] ;
736 -> 738 ;
739 [label="gini = 0.0\nsamples = 1\nvalue = [0, 1, 0]"] ;
738 -> 739 ;
740 [label="X[19] <= 0.5\ngini = 0.153\nsamples = 12\nvalue = [0, 1, 11]"] ;
738 -> 740 ;
741 [label="gini = 0.0\nsamples = 10\nvalue = [0, 0, 10]"] ;
740 -> 741 ;
742 [label="X[10] <= 0.5\ngini = 0.5\nsamples = 2\nvalue = [0, 1, 1]"] ;
740 -> 742 ;
743 [label="gini = 0.0\nsamples = 1\nvalue = [0, 1, 0]"] ;
742 -> 743 ;
744 [label="gini = 0.0\nsamples = 1\nvalue = [0, 0, 1]"] ;
742 -> 744 ;
745 [label="X[13] <= 0.5\ngini = 0.5\nsamples = 2\nvalue = [0, 1, 1]"] ;
735 -> 745 ;
746 [label="gini = 0.0\nsamples = 1\nvalue = [0, 0, 1]"] ;
745 -> 746 ;
747 [label="gini = 0.0\nsamples = 1\nvalue = [0, 1, 0]"] ;
745 -> 747 ;
748 [label="gini = 0.0\nsamples = 7\nvalue = [0, 0, 7]"] ;
734 -> 748 ;
749 [label="X[20] <= 0.5\ngini = 0.038\nsamples = 103\nvalue = [2, 0, 101]"] ;
731 -> 749 ;
750 [label="X[33] <= 0.5\ngini = 0.021\nsamples = 95\nvalue = [1, 0, 94]"] ;
749 -> 750 ;
751 [label="gini = 0.0\nsamples = 56\nvalue = [0, 0, 56]"] ;
750 -> 751 ;
752 [label="X[7] <= 1.5\ngini = 0.05\nsamples = 39\nvalue = [1, 0, 38]"] ;
750 -> 752 ;
753 [label="gini = 0.0\nsamples = 27\nvalue = [0, 0, 27]"] ;
752 -> 753 ;
754 [label="X[18] <= 0.5\ngini = 0.153\nsamples = 12\nvalue = [1, 0, 11]"] ;
752 -> 754 ;
755 [label="gini = 0.0\nsamples = 10\nvalue = [0, 0, 10]"] ;
754 -> 755 ;
756 [label="X[30] <= 1.5\ngini = 0.5\nsamples = 2\nvalue = [1, 0, 1]"] ;
754 -> 756 ;
757 [label="gini = 0.0\nsamples = 1\nvalue = [0, 0, 1]"] ;
756 -> 757 ;
758 [label="gini = 0.0\nsamples = 1\nvalue = [1, 0, 0]"] ;
756 -> 758 ;
759 [label="X[13] <= 1.5\ngini = 0.219\nsamples = 8\nvalue = [1, 0, 7]"] ;
749 -> 759 ;
760 [label="gini = 0.0\nsamples = 7\nvalue = [0, 0, 7]"] ;
759 -> 760 ;
761 [label="gini = 0.0\nsamples = 1\nvalue = [1, 0, 0]"] ;
759 -> 761 ;
762 [label="X[31] <= 0.5\ngini = 0.182\nsamples = 61\nvalue = [2, 4, 55]"] ;
730 -> 762 ;
763 [label="gini = 0.0\nsamples = 36\nvalue = [0, 0, 36]"] ;
762 -> 763 ;
764 [label="X[25] <= 0.5\ngini = 0.39\nsamples = 25\nvalue = [2, 4, 19]"] ;
762 -> 764 ;
765 [label="X[9] <= 0.5\ngini = 0.351\nsamples = 24\nvalue = [2, 3, 19]"] ;
764 -> 765 ;
766 [label="X[33] <= 0.5\ngini = 0.215\nsamples = 17\nvalue = [1, 1, 15]"] ;
765 -> 766 ;
767 [label="X[19] <= 0.5\ngini = 0.124\nsamples = 15\nvalue = [0, 1, 14]"] ;
766 -> 767 ;
768 [label="gini = 0.0\nsamples = 13\nvalue = [0, 0, 13]"] ;
767 -> 768 ;
769 [label="X[7] <= 1.5\ngini = 0.5\nsamples = 2\nvalue = [0, 1, 1]"] ;
767 -> 769 ;
770 [label="gini = 0.0\nsamples = 1\nvalue = [0, 0, 1]"] ;
769 -> 770 ;
771 [label="gini = 0.0\nsamples = 1\nvalue = [0, 1, 0]"] ;
769 -> 771 ;
772 [label="X[30] <= 1.5\ngini = 0.5\nsamples = 2\nvalue = [1, 0, 1]"] ;
766 -> 772 ;
773 [label="gini = 0.0\nsamples = 1\nvalue = [0, 0, 1]"] ;
772 -> 773 ;
774 [label="gini = 0.0\nsamples = 1\nvalue = [1, 0, 0]"] ;
772 -> 774 ;
775 [label="X[7] <= 1.5\ngini = 0.571\nsamples = 7\nvalue = [1, 2, 4]"] ;
765 -> 775 ;
776 [label="X[24] <= 0.5\ngini = 0.32\nsamples = 5\nvalue = [0, 1, 4]"] ;
775 -> 776 ;
777 [label="gini = 0.0\nsamples = 4\nvalue = [0, 0, 4]"] ;
776 -> 777 ;
778 [label="gini = 0.0\nsamples = 1\nvalue = [0, 1, 0]"] ;
776 -> 778 ;
779 [label="X[13] <= 0.5\ngini = 0.5\nsamples = 2\nvalue = [1, 1, 0]"] ;
775 -> 779 ;
780 [label="gini = 0.0\nsamples = 1\nvalue = [0, 1, 0]"] ;
779 -> 780 ;
781 [label="gini = 0.0\nsamples = 1\nvalue = [1, 0, 0]"] ;
779 -> 781 ;
782 [label="gini = 0.0\nsamples = 1\nvalue = [0, 1, 0]"] ;
764 -> 782 ;
783 [label="X[26] <= 1.5\ngini = 0.269\nsamples = 59\nvalue = [3, 6, 50]"] ;
729 -> 783 ;
784 [label="X[30] <= 1.5\ngini = 0.474\nsamples = 25\nvalue = [2, 6, 17]"] ;
783 -> 784 ;
785 [label="X[27] <= 0.5\ngini = 0.165\nsamples = 11\nvalue = [0, 1, 10]"] ;
784 -> 785 ;
786 [label="gini = 0.0\nsamples = 8\nvalue = [0, 0, 8]"] ;
785 -> 786 ;
787 [label="X[8] <= 1.5\ngini = 0.444\nsamples = 3\nvalue = [0, 1, 2]"] ;
785 -> 787 ;
788 [label="gini = 0.0\nsamples = 2\nvalue = [0, 0, 2]"] ;
787 -> 788 ;
789 [label="gini = 0.0\nsamples = 1\nvalue = [0, 1, 0]"] ;
787 -> 789 ;
790 [label="X[7] <= 1.5\ngini = 0.602\nsamples = 14\nvalue = [2, 5, 7]"] ;
784 -> 790 ;
791 [label="X[31] <= 1.5\ngini = 0.56\nsamples = 10\nvalue = [2, 2, 6]"] ;
790 -> 791 ;
792 [label="X[7] <= 0.5\ngini = 0.278\nsamples = 6\nvalue = [1, 0, 5]"] ;
791 -> 792 ;
793 [label="gini = 0.0\nsamples = 5\nvalue = [0, 0, 5]"] ;
792 -> 793 ;
794 [label="gini = 0.0\nsamples = 1\nvalue = [1, 0, 0]"] ;
792 -> 794 ;
795 [label="X[32] <= 0.5\ngini = 0.625\nsamples = 4\nvalue = [1, 2, 1]"] ;
791 -> 795 ;
796 [label="X[18] <= 0.5\ngini = 0.444\nsamples = 3\nvalue = [0, 2, 1]"] ;
795 -> 796 ;
797 [label="gini = 0.0\nsamples = 2\nvalue = [0, 2, 0]"] ;
796 -> 797 ;
798 [label="gini = 0.0\nsamples = 1\nvalue = [0, 0, 1]"] ;
796 -> 798 ;
799 [label="gini = 0.0\nsamples = 1\nvalue = [1, 0, 0]"] ;
795 -> 799 ;
800 [label="X[18] <= 0.5\ngini = 0.375\nsamples = 4\nvalue = [0, 3, 1]"] ;
790 -> 800 ;
801 [label="gini = 0.0\nsamples = 3\nvalue = [0, 3, 0]"] ;
800 -> 801 ;
802 [label="gini = 0.0\nsamples = 1\nvalue = [0, 0, 1]"] ;
800 -> 802 ;
803 [label="X[20] <= 0.5\ngini = 0.057\nsamples = 34\nvalue = [1, 0, 33]"] ;
783 -> 803 ;
804 [label="gini = 0.0\nsamples = 33\nvalue = [0, 0, 33]"] ;
803 -> 804 ;
805 [label="gini = 0.0\nsamples = 1\nvalue = [1, 0, 0]"] ;
803 -> 805 ;
806 [label="X[13] <= 0.5\ngini = 0.444\nsamples = 6\nvalue = [0, 2, 4]"] ;
728 -> 806 ;
807 [label="gini = 0.0\nsamples = 3\nvalue = [0, 0, 3]"] ;
806 -> 807 ;
808 [label="X[13] <= 1.5\ngini = 0.444\nsamples = 3\nvalue = [0, 2, 1]"] ;
806 -> 808 ;
809 [label="gini = 0.0\nsamples = 2\nvalue = [0, 2, 0]"] ;
808 -> 809 ;
810 [label="gini = 0.0\nsamples = 1\nvalue = [0, 0, 1]"] ;
808 -> 810 ;
811 [label="X[30] <= 1.5\ngini = 0.426\nsamples = 18\nvalue = [1, 4, 13]"] ;
727 -> 811 ;
812 [label="X[25] <= 0.5\ngini = 0.245\nsamples = 14\nvalue = [0, 2, 12]"] ;
811 -> 812 ;
813 [label="X[13] <= 0.5\ngini = 0.142\nsamples = 13\nvalue = [0, 1, 12]"] ;
812 -> 813 ;
814 [label="gini = 0.0\nsamples = 9\nvalue = [0, 0, 9]"] ;
813 -> 814 ;
815 [label="X[9] <= 1.5\ngini = 0.375\nsamples = 4\nvalue = [0, 1, 3]"] ;
813 -> 815 ;
816 [label="gini = 0.0\nsamples = 2\nvalue = [0, 0, 2]"] ;
815 -> 816 ;
817 [label="X[24] <= 0.5\ngini = 0.5\nsamples = 2\nvalue = [0, 1, 1]"] ;
815 -> 817 ;
818 [label="gini = 0.0\nsamples = 1\nvalue = [0, 1, 0]"] ;
817 -> 818 ;
819 [label="gini = 0.0\nsamples = 1\nvalue = [0, 0, 1]"] ;
817 -> 819 ;
820 [label="gini = 0.0\nsamples = 1\nvalue = [0, 1, 0]"] ;
812 -> 820 ;
821 [label="X[13] <= 0.5\ngini = 0.625\nsamples = 4\nvalue = [1, 2, 1]"] ;
811 -> 821 ;
822 [label="X[31] <= 0.5\ngini = 0.444\nsamples = 3\nvalue = [0, 2, 1]"] ;
821 -> 822 ;
823 [label="gini = 0.0\nsamples = 2\nvalue = [0, 2, 0]"] ;
822 -> 823 ;
824 [label="gini = 0.0\nsamples = 1\nvalue = [0, 0, 1]"] ;
822 -> 824 ;
825 [label="gini = 0.0\nsamples = 1\nvalue = [1, 0, 0]"] ;
821 -> 825 ;
826 [label="gini = 0.0\nsamples = 1\nvalue = [1, 0, 0]"] ;
726 -> 826 ;
827 [label="X[26] <= 1.5\ngini = 0.49\nsamples = 7\nvalue = [3, 0, 4]"] ;
725 -> 827 ;
828 [label="X[13] <= 0.5\ngini = 0.375\nsamples = 4\nvalue = [3, 0, 1]"] ;
827 -> 828 ;
829 [label="gini = 0.0\nsamples = 2\nvalue = [2, 0, 0]"] ;
828 -> 829 ;
830 [label="X[27] <= 1.5\ngini = 0.5\nsamples = 2\nvalue = [1, 0, 1]"] ;
828 -> 830 ;
831 [label="gini = 0.0\nsamples = 1\nvalue = [1, 0, 0]"] ;
830 -> 831 ;
832 [label="gini = 0.0\nsamples = 1\nvalue = [0, 0, 1]"] ;
830 -> 832 ;
833 [label="gini = 0.0\nsamples = 3\nvalue = [0, 0, 3]"] ;
827 -> 833 ;
834 [label="X[20] <= 1.5\ngini = 0.42\nsamples = 32\nvalue = [1, 8, 23]"] ;
724 -> 834 ;
835 [label="X[21] <= 1.5\ngini = 0.551\nsamples = 15\nvalue = [1, 8, 6]"] ;
834 -> 835 ;
836 [label="gini = 0.0\nsamples = 6\nvalue = [0, 6, 0]"] ;
835 -> 836 ;
837 [label="X[23] <= 1.0\ngini = 0.494\nsamples = 9\nvalue = [1, 2, 6]"] ;
835 -> 837 ;
838 [label="X[19] <= 1.5\ngini = 0.375\nsamples = 8\nvalue = [0, 2, 6]"] ;
837 -> 838 ;
839 [label="gini = 0.0\nsamples = 1\nvalue = [0, 1, 0]"] ;
838 -> 839 ;
840 [label="X[7] <= 1.5\ngini = 0.245\nsamples = 7\nvalue = [0, 1, 6]"] ;
838 -> 840 ;
841 [label="gini = 0.0\nsamples = 5\nvalue = [0, 0, 5]"] ;
840 -> 841 ;
842 [label="X[13] <= 0.5\ngini = 0.5\nsamples = 2\nvalue = [0, 1, 1]"] ;
840 -> 842 ;
843 [label="gini = 0.0\nsamples = 1\nvalue = [0, 0, 1]"] ;
842 -> 843 ;
844 [label="gini = 0.0\nsamples = 1\nvalue = [0, 1, 0]"] ;
842 -> 844 ;
845 [label="gini = 0.0\nsamples = 1\nvalue = [1, 0, 0]"] ;
837 -> 845 ;
846 [label="gini = 0.0\nsamples = 17\nvalue = [0, 0, 17]"] ;
834 -> 846 ;
847 [label="X[14] <= 1.5\ngini = 0.473\nsamples = 183\nvalue = [20, 37, 126]"] ;
723 -> 847 ;
848 [label="X[25] <= 1.5\ngini = 0.622\nsamples = 91\nvalue = [16, 32, 43]"] ;
847 -> 848 ;
849 [label="X[19] <= 1.5\ngini = 0.643\nsamples = 76\nvalue = [16, 32, 28]"] ;
848 -> 849 ;
850 [label="X[7] <= 0.5\ngini = 0.635\nsamples = 68\nvalue = [15, 32, 21]"] ;
849 -> 850 ;
851 [label="X[15] <= 0.5\ngini = 0.584\nsamples = 28\nvalue = [3, 11, 14]"] ;
850 -> 851 ;
852 [label="X[25] <= 0.5\ngini = 0.198\nsamples = 9\nvalue = [0, 1, 8]"] ;
851 -> 852 ;
853 [label="gini = 0.0\nsamples = 7\nvalue = [0, 0, 7]"] ;
852 -> 853 ;
854 [label="X[26] <= 1.0\ngini = 0.5\nsamples = 2\nvalue = [0, 1, 1]"] ;
852 -> 854 ;
855 [label="gini = 0.0\nsamples = 1\nvalue = [0, 1, 0]"] ;
854 -> 855 ;
856 [label="gini = 0.0\nsamples = 1\nvalue = [0, 0, 1]"] ;
854 -> 856 ;
857 [label="X[17] <= 0.5\ngini = 0.598\nsamples = 19\nvalue = [3, 10, 6]"] ;
851 -> 857 ;
858 [label="X[24] <= 0.5\ngini = 0.531\nsamples = 16\nvalue = [2, 10, 4]"] ;
857 -> 858 ;
859 [label="X[16] <= 1.5\ngini = 0.346\nsamples = 9\nvalue = [2, 7, 0]"] ;
858 -> 859 ;
860 [label="X[16] <= 0.5\ngini = 0.444\nsamples = 6\nvalue = [2, 4, 0]"] ;
859 -> 860 ;
861 [label="X[15] <= 1.5\ngini = 0.32\nsamples = 5\nvalue = [1, 4, 0]"] ;
860 -> 861 ;
862 [label="X[31] <= 1.5\ngini = 0.5\nsamples = 2\nvalue = [1, 1, 0]"] ;
861 -> 862 ;
863 [label="gini = 0.0\nsamples = 1\nvalue = [0, 1, 0]"] ;
862 -> 863 ;
864 [label="gini = 0.0\nsamples = 1\nvalue = [1, 0, 0]"] ;
862 -> 864 ;
865 [label="gini = 0.0\nsamples = 3\nvalue = [0, 3, 0]"] ;
861 -> 865 ;
866 [label="gini = 0.0\nsamples = 1\nvalue = [1, 0, 0]"] ;
860 -> 866 ;
867 [label="gini = 0.0\nsamples = 3\nvalue = [0, 3, 0]"] ;
859 -> 867 ;
868 [label="X[18] <= 0.5\ngini = 0.49\nsamples = 7\nvalue = [0, 3, 4]"] ;
858 -> 868 ;
869 [label="X[16] <= 1.5\ngini = 0.48\nsamples = 5\nvalue = [0, 3, 2]"] ;
868 -> 869 ;
870 [label="X[25] <= 0.5\ngini = 0.5\nsamples = 4\nvalue = [0, 2, 2]"] ;
869 -> 870 ;
871 [label="X[15] <= 1.5\ngini = 0.444\nsamples = 3\nvalue = [0, 1, 2]"] ;
870 -> 871 ;
872 [label="gini = 0.0\nsamples = 1\nvalue = [0, 1, 0]"] ;
871 -> 872 ;
873 [label="gini = 0.0\nsamples = 2\nvalue = [0, 0, 2]"] ;
871 -> 873 ;
874 [label="gini = 0.0\nsamples = 1\nvalue = [0, 1, 0]"] ;
870 -> 874 ;
875 [label="gini = 0.0\nsamples = 1\nvalue = [0, 1, 0]"] ;
869 -> 875 ;
876 [label="gini = 0.0\nsamples = 2\nvalue = [0, 0, 2]"] ;
868 -> 876 ;
877 [label="X[24] <= 0.5\ngini = 0.444\nsamples = 3\nvalue = [1, 0, 2]"] ;
857 -> 877 ;
878 [label="gini = 0.0\nsamples = 2\nvalue = [0, 0, 2]"] ;
877 -> 878 ;
879 [label="gini = 0.0\nsamples = 1\nvalue = [1, 0, 0]"] ;
877 -> 879 ;
880 [label="X[15] <= 1.5\ngini = 0.604\nsamples = 40\nvalue = [12, 21, 7]"] ;
850 -> 880 ;
881 [label="X[9] <= 1.5\ngini = 0.506\nsamples = 26\nvalue = [6, 17, 3]"] ;
880 -> 881 ;
882 [label="X[31] <= 0.5\ngini = 0.395\nsamples = 20\nvalue = [4, 15, 1]"] ;
881 -> 882 ;
883 [label="X[24] <= 0.5\ngini = 0.255\nsamples = 14\nvalue = [1, 12, 1]"] ;
882 -> 883 ;
884 [label="X[7] <= 1.5\ngini = 0.165\nsamples = 11\nvalue = [1, 10, 0]"] ;
883 -> 884 ;
885 [label="X[15] <= 0.5\ngini = 0.444\nsamples = 3\nvalue = [1, 2, 0]"] ;
884 -> 885 ;
886 [label="gini = 0.0\nsamples = 1\nvalue = [1, 0, 0]"] ;
885 -> 886 ;
887 [label="gini = 0.0\nsamples = 2\nvalue = [0, 2, 0]"] ;
885 -> 887 ;
888 [label="gini = 0.0\nsamples = 8\nvalue = [0, 8, 0]"] ;
884 -> 888 ;
889 [label="X[15] <= 0.5\ngini = 0.444\nsamples = 3\nvalue = [0, 2, 1]"] ;
883 -> 889 ;
890 [label="gini = 0.0\nsamples = 2\nvalue = [0, 2, 0]"] ;
889 -> 890 ;
891 [label="gini = 0.0\nsamples = 1\nvalue = [0, 0, 1]"] ;
889 -> 891 ;
892 [label="X[32] <= 1.5\ngini = 0.5\nsamples = 6\nvalue = [3, 3, 0]"] ;
882 -> 892 ;
893 [label="X[8] <= 1.0\ngini = 0.48\nsamples = 5\nvalue = [2, 3, 0]"] ;
892 -> 893 ;
894 [label="gini = 0.0\nsamples = 2\nvalue = [0, 2, 0]"] ;
893 -> 894 ;
895 [label="X[30] <= 1.5\ngini = 0.444\nsamples = 3\nvalue = [2, 1, 0]"] ;
893 -> 895 ;
896 [label="gini = 0.0\nsamples = 1\nvalue = [1, 0, 0]"] ;
895 -> 896 ;
897 [label="X[31] <= 1.5\ngini = 0.5\nsamples = 2\nvalue = [1, 1, 0]"] ;
895 -> 897 ;
898 [label="gini = 0.0\nsamples = 1\nvalue = [1, 0, 0]"] ;
897 -> 898 ;
899 [label="gini = 0.0\nsamples = 1\nvalue = [0, 1, 0]"] ;
897 -> 899 ;
900 [label="gini = 0.0\nsamples = 1\nvalue = [1, 0, 0]"] ;
892 -> 900 ;
901 [label="X[10] <= 0.5\ngini = 0.667\nsamples = 6\nvalue = [2, 2, 2]"] ;
881 -> 901 ;
902 [label="X[30] <= 1.0\ngini = 0.64\nsamples = 5\nvalue = [2, 1, 2]"] ;
901 -> 902 ;
903 [label="X[7] <= 1.5\ngini = 0.444\nsamples = 3\nvalue = [1, 0, 2]"] ;
902 -> 903 ;
904 [label="gini = 0.0\nsamples = 1\nvalue = [0, 0, 1]"] ;
903 -> 904 ;
905 [label="X[18] <= 0.5\ngini = 0.5\nsamples = 2\nvalue = [1, 0, 1]"] ;
903 -> 905 ;
906 [label="gini = 0.0\nsamples = 1\nvalue = [0, 0, 1]"] ;
905 -> 906 ;
907 [label="gini = 0.0\nsamples = 1\nvalue = [1, 0, 0]"] ;
905 -> 907 ;
908 [label="X[13] <= 1.5\ngini = 0.5\nsamples = 2\nvalue = [1, 1, 0]"] ;
902 -> 908 ;
909 [label="gini = 0.0\nsamples = 1\nvalue = [1, 0, 0]"] ;
908 -> 909 ;
910 [label="gini = 0.0\nsamples = 1\nvalue = [0, 1, 0]"] ;
908 -> 910 ;
911 [label="gini = 0.0\nsamples = 1\nvalue = [0, 1, 0]"] ;
901 -> 911 ;
912 [label="X[30] <= 1.5\ngini = 0.653\nsamples = 14\nvalue = [6, 4, 4]"] ;
880 -> 912 ;
913 [label="X[7] <= 1.5\ngini = 0.494\nsamples = 9\nvalue = [6, 2, 1]"] ;
912 -> 913 ;
914 [label="gini = 0.0\nsamples = 5\nvalue = [5, 0, 0]"] ;
913 -> 914 ;
915 [label="X[8] <= 0.5\ngini = 0.625\nsamples = 4\nvalue = [1, 2, 1]"] ;
913 -> 915 ;
916 [label="gini = 0.0\nsamples = 2\nvalue = [0, 2, 0]"] ;
915 -> 916 ;
917 [label="X[8] <= 1.5\ngini = 0.5\nsamples = 2\nvalue = [1, 0, 1]"] ;
915 -> 917 ;
918 [label="gini = 0.0\nsamples = 1\nvalue = [1, 0, 0]"] ;
917 -> 918 ;
919 [label="gini = 0.0\nsamples = 1\nvalue = [0, 0, 1]"] ;
917 -> 919 ;
920 [label="X[16] <= 0.5\ngini = 0.48\nsamples = 5\nvalue = [0, 2, 3]"] ;
912 -> 920 ;
921 [label="X[31] <= 0.5\ngini = 0.444\nsamples = 3\nvalue = [0, 2, 1]"] ;
920 -> 921 ;
922 [label="gini = 0.0\nsamples = 2\nvalue = [0, 2, 0]"] ;
921 -> 922 ;
923 [label="gini = 0.0\nsamples = 1\nvalue = [0, 0, 1]"] ;
921 -> 923 ;
924 [label="gini = 0.0\nsamples = 2\nvalue = [0, 0, 2]"] ;
920 -> 924 ;
925 [label="X[30] <= 1.5\ngini = 0.219\nsamples = 8\nvalue = [1, 0, 7]"] ;
849 -> 925 ;
926 [label="gini = 0.0\nsamples = 6\nvalue = [0, 0, 6]"] ;
925 -> 926 ;
927 [label="X[15] <= 1.0\ngini = 0.5\nsamples = 2\nvalue = [1, 0, 1]"] ;
925 -> 927 ;
928 [label="gini = 0.0\nsamples = 1\nvalue = [1, 0, 0]"] ;
927 -> 928 ;
929 [label="gini = 0.0\nsamples = 1\nvalue = [0, 0, 1]"] ;
927 -> 929 ;
930 [label="gini = 0.0\nsamples = 15\nvalue = [0, 0, 15]"] ;
848 -> 930 ;
931 [label="X[17] <= 1.5\ngini = 0.181\nsamples = 92\nvalue = [4, 5, 83]"] ;
847 -> 931 ;
932 [label="X[21] <= 1.5\ngini = 0.146\nsamples = 90\nvalue = [3, 4, 83]"] ;
931 -> 932 ;
933 [label="X[16] <= 1.5\ngini = 0.128\nsamples = 89\nvalue = [2, 4, 83]"] ;
932 -> 933 ;
934 [label="X[30] <= 0.5\ngini = 0.1\nsamples = 76\nvalue = [0, 4, 72]"] ;
933 -> 934 ;
935 [label="gini = 0.0\nsamples = 31\nvalue = [0, 0, 31]"] ;
934 -> 935 ;
936 [label="X[26] <= 1.5\ngini = 0.162\nsamples = 45\nvalue = [0, 4, 41]"] ;
934 -> 936 ;
937 [label="X[8] <= 1.5\ngini = 0.127\nsamples = 44\nvalue = [0, 3, 41]"] ;
936 -> 937 ;
938 [label="X[32] <= 1.5\ngini = 0.095\nsamples = 40\nvalue = [0, 2, 38]"] ;
937 -> 938 ;
939 [label="X[18] <= 0.5\ngini = 0.059\nsamples = 33\nvalue = [0, 1, 32]"] ;
938 -> 939 ;
940 [label="gini = 0.0\nsamples = 23\nvalue = [0, 0, 23]"] ;
939 -> 940 ;
941 [label="X[31] <= 0.5\ngini = 0.18\nsamples = 10\nvalue = [0, 1, 9]"] ;
939 -> 941 ;
942 [label="gini = 0.0\nsamples = 5\nvalue = [0, 0, 5]"] ;
941 -> 942 ;
943 [label="X[31] <= 1.5\ngini = 0.32\nsamples = 5\nvalue = [0, 1, 4]"] ;
941 -> 943 ;
944 [label="X[19] <= 1.0\ngini = 0.5\nsamples = 2\nvalue = [0, 1, 1]"] ;
943 -> 944 ;
945 [label="gini = 0.0\nsamples = 1\nvalue = [0, 1, 0]"] ;
944 -> 945 ;
946 [label="gini = 0.0\nsamples = 1\nvalue = [0, 0, 1]"] ;
944 -> 946 ;
947 [label="gini = 0.0\nsamples = 3\nvalue = [0, 0, 3]"] ;
943 -> 947 ;
948 [label="X[7] <= 0.5\ngini = 0.245\nsamples = 7\nvalue = [0, 1, 6]"] ;
938 -> 948 ;
949 [label="gini = 0.0\nsamples = 5\nvalue = [0, 0, 5]"] ;
948 -> 949 ;
950 [label="X[31] <= 1.5\ngini = 0.5\nsamples = 2\nvalue = [0, 1, 1]"] ;
948 -> 950 ;
951 [label="gini = 0.0\nsamples = 1\nvalue = [0, 0, 1]"] ;
950 -> 951 ;
952 [label="gini = 0.0\nsamples = 1\nvalue = [0, 1, 0]"] ;
950 -> 952 ;
953 [label="X[15] <= 1.5\ngini = 0.375\nsamples = 4\nvalue = [0, 1, 3]"] ;
937 -> 953 ;
954 [label="gini = 0.0\nsamples = 3\nvalue = [0, 0, 3]"] ;
953 -> 954 ;
955 [label="gini = 0.0\nsamples = 1\nvalue = [0, 1, 0]"] ;
953 -> 955 ;
956 [label="gini = 0.0\nsamples = 1\nvalue = [0, 1, 0]"] ;
936 -> 956 ;
957 [label="X[8] <= 0.5\ngini = 0.26\nsamples = 13\nvalue = [2, 0, 11]"] ;
933 -> 957 ;
958 [label="X[30] <= 1.5\ngini = 0.153\nsamples = 12\nvalue = [1, 0, 11]"] ;
957 -> 958 ;
959 [label="gini = 0.0\nsamples = 10\nvalue = [0, 0, 10]"] ;
958 -> 959 ;
960 [label="X[24] <= 0.5\ngini = 0.5\nsamples = 2\nvalue = [1, 0, 1]"] ;
958 -> 960 ;
961 [label="gini = 0.0\nsamples = 1\nvalue = [0, 0, 1]"] ;
960 -> 961 ;
962 [label="gini = 0.0\nsamples = 1\nvalue = [1, 0, 0]"] ;
960 -> 962 ;
963 [label="gini = 0.0\nsamples = 1\nvalue = [1, 0, 0]"] ;
957 -> 963 ;
964 [label="gini = 0.0\nsamples = 1\nvalue = [1, 0, 0]"] ;
932 -> 964 ;
965 [label="X[7] <= 0.5\ngini = 0.5\nsamples = 2\nvalue = [1, 1, 0]"] ;
931 -> 965 ;
966 [label="gini = 0.0\nsamples = 1\nvalue = [1, 0, 0]"] ;
965 -> 966 ;
967 [label="gini = 0.0\nsamples = 1\nvalue = [0, 1, 0]"] ;
965 -> 967 ;
968 [label="X[33] <= 0.5\ngini = 0.575\nsamples = 257\nvalue = [36, 76, 145]"] ;
440 -> 968 ;
969 [label="X[14] <= 0.5\ngini = 0.563\nsamples = 250\nvalue = [31, 75, 144]"] ;
968 -> 969 ;
970 [label="X[22] <= 0.5\ngini = 0.475\nsamples = 110\nvalue = [10, 25, 75]"] ;
969 -> 970 ;
971 [label="X[10] <= 1.5\ngini = 0.431\nsamples = 102\nvalue = [9, 19, 74]"] ;
970 -> 971 ;
972 [label="X[21] <= 1.5\ngini = 0.407\nsamples = 99\nvalue = [9, 16, 74]"] ;
971 -> 972 ;
973 [label="X[32] <= 1.5\ngini = 0.382\nsamples = 94\nvalue = [7, 15, 72]"] ;
972 -> 973 ;
974 [label="X[30] <= 1.5\ngini = 0.356\nsamples = 89\nvalue = [6, 13, 70]"] ;
973 -> 974 ;
975 [label="X[30] <= 0.5\ngini = 0.332\nsamples = 72\nvalue = [6, 8, 58]"] ;
974 -> 975 ;
976 [label="X[10] <= 0.5\ngini = 0.44\nsamples = 36\nvalue = [5, 5, 26]"] ;
975 -> 976 ;
977 [label="X[9] <= 1.5\ngini = 0.489\nsamples = 31\nvalue = [5, 5, 21]"] ;
976 -> 977 ;
978 [label="X[13] <= 0.5\ngini = 0.458\nsamples = 27\nvalue = [5, 3, 19]"] ;
977 -> 978 ;
979 [label="X[19] <= 0.5\ngini = 0.568\nsamples = 9\nvalue = [3, 1, 5]"] ;
978 -> 979 ;
980 [label="gini = 0.0\nsamples = 2\nvalue = [2, 0, 0]"] ;
979 -> 980 ;
981 [label="X[21] <= 0.5\ngini = 0.449\nsamples = 7\nvalue = [1, 1, 5]"] ;
979 -> 981 ;
982 [label="X[8] <= 1.0\ngini = 0.278\nsamples = 6\nvalue = [0, 1, 5]"] ;
981 -> 982 ;
983 [label="X[20] <= 1.5\ngini = 0.5\nsamples = 2\nvalue = [0, 1, 1]"] ;
982 -> 983 ;
984 [label="gini = 0.0\nsamples = 1\nvalue = [0, 1, 0]"] ;
983 -> 984 ;
985 [label="gini = 0.0\nsamples = 1\nvalue = [0, 0, 1]"] ;
983 -> 985 ;
986 [label="gini = 0.0\nsamples = 4\nvalue = [0, 0, 4]"] ;
982 -> 986 ;
987 [label="gini = 0.0\nsamples = 1\nvalue = [1, 0, 0]"] ;
981 -> 987 ;
988 [label="X[25] <= 0.5\ngini = 0.37\nsamples = 18\nvalue = [2, 2, 14]"] ;
978 -> 988 ;
989 [label="X[19] <= 0.5\ngini = 0.5\nsamples = 2\nvalue = [0, 1, 1]"] ;
988 -> 989 ;
990 [label="gini = 0.0\nsamples = 1\nvalue = [0, 0, 1]"] ;
989 -> 990 ;
991 [label="gini = 0.0\nsamples = 1\nvalue = [0, 1, 0]"] ;
989 -> 991 ;
992 [label="X[9] <= 0.5\ngini = 0.32\nsamples = 16\nvalue = [2, 1, 13]"] ;
988 -> 992 ;
993 [label="X[7] <= 1.5\ngini = 0.26\nsamples = 13\nvalue = [2, 0, 11]"] ;
992 -> 993 ;
994 [label="X[27] <= 0.5\ngini = 0.346\nsamples = 9\nvalue = [2, 0, 7]"] ;
993 -> 994 ;
995 [label="X[18] <= 0.5\ngini = 0.444\nsamples = 6\nvalue = [2, 0, 4]"] ;
994 -> 995 ;
996 [label="gini = 0.0\nsamples = 1\nvalue = [1, 0, 0]"] ;
995 -> 996 ;
997 [label="X[13] <= 1.5\ngini = 0.32\nsamples = 5\nvalue = [1, 0, 4]"] ;
995 -> 997 ;
998 [label="gini = 0.0\nsamples = 2\nvalue = [0, 0, 2]"] ;
997 -> 998 ;
999 [label="X[19] <= 1.5\ngini = 0.444\nsamples = 3\nvalue = [1, 0, 2]"] ;
997 -> 999 ;
1000 [label="gini = 0.0\nsamples = 2\nvalue = [0, 0, 2]"] ;
999 -> 1000 ;
1001 [label="gini = 0.0\nsamples = 1\nvalue = [1, 0, 0]"] ;
999 -> 1001 ;
1002 [label="gini = 0.0\nsamples = 3\nvalue = [0, 0, 3]"] ;
994 -> 1002 ;
1003 [label="gini = 0.0\nsamples = 4\nvalue = [0, 0, 4]"] ;
993 -> 1003 ;
1004 [label="X[8] <= 1.5\ngini = 0.444\nsamples = 3\nvalue = [0, 1, 2]"] ;
992 -> 1004 ;
1005 [label="gini = 0.0\nsamples = 1\nvalue = [0, 1, 0]"] ;
1004 -> 1005 ;
1006 [label="gini = 0.0\nsamples = 2\nvalue = [0, 0, 2]"] ;
1004 -> 1006 ;
1007 [label="X[8] <= 1.5\ngini = 0.5\nsamples = 4\nvalue = [0, 2, 2]"] ;
977 -> 1007 ;
1008 [label="gini = 0.0\nsamples = 2\nvalue = [0, 0, 2]"] ;
1007 -> 1008 ;
1009 [label="gini = 0.0\nsamples = 2\nvalue = [0, 2, 0]"] ;
1007 -> 1009 ;
1010 [label="gini = 0.0\nsamples = 5\nvalue = [0, 0, 5]"] ;
976 -> 1010 ;
1011 [label="X[26] <= 0.5\ngini = 0.202\nsamples = 36\nvalue = [1, 3, 32]"] ;
975 -> 1011 ;
1012 [label="X[10] <= 0.5\ngini = 0.127\nsamples = 30\nvalue = [1, 1, 28]"] ;
1011 -> 1012 ;
1013 [label="X[9] <= 0.5\ngini = 0.069\nsamples = 28\nvalue = [1, 0, 27]"] ;
1012 -> 1013 ;
1014 [label="gini = 0.0\nsamples = 22\nvalue = [0, 0, 22]"] ;
1013 -> 1014 ;
1015 [label="X[31] <= 1.0\ngini = 0.278\nsamples = 6\nvalue = [1, 0, 5]"] ;
1013 -> 1015 ;
1016 [label="gini = 0.0\nsamples = 4\nvalue = [0, 0, 4]"] ;
1015 -> 1016 ;
1017 [label="X[8] <= 1.5\ngini = 0.5\nsamples = 2\nvalue = [1, 0, 1]"] ;
1015 -> 1017 ;
1018 [label="gini = 0.0\nsamples = 1\nvalue = [1, 0, 0]"] ;
1017 -> 1018 ;
1019 [label="gini = 0.0\nsamples = 1\nvalue = [0, 0, 1]"] ;
1017 -> 1019 ;
1020 [label="X[7] <= 1.5\ngini = 0.5\nsamples = 2\nvalue = [0, 1, 1]"] ;
1012 -> 1020 ;
1021 [label="gini = 0.0\nsamples = 1\nvalue = [0, 1, 0]"] ;
1020 -> 1021 ;
1022 [label="gini = 0.0\nsamples = 1\nvalue = [0, 0, 1]"] ;
1020 -> 1022 ;
1023 [label="X[26] <= 1.5\ngini = 0.444\nsamples = 6\nvalue = [0, 2, 4]"] ;
1011 -> 1023 ;
1024 [label="gini = 0.0\nsamples = 2\nvalue = [0, 2, 0]"] ;
1023 -> 1024 ;
1025 [label="gini = 0.0\nsamples = 4\nvalue = [0, 0, 4]"] ;
1023 -> 1025 ;
1026 [label="X[13] <= 0.5\ngini = 0.415\nsamples = 17\nvalue = [0, 5, 12]"] ;
974 -> 1026 ;
1027 [label="gini = 0.0\nsamples = 6\nvalue = [0, 0, 6]"] ;
1026 -> 1027 ;
1028 [label="X[7] <= 0.5\ngini = 0.496\nsamples = 11\nvalue = [0, 5, 6]"] ;
1026 -> 1028 ;
1029 [label="X[26] <= 0.5\ngini = 0.408\nsamples = 7\nvalue = [0, 2, 5]"] ;
1028 -> 1029 ;
1030 [label="X[19] <= 1.5\ngini = 0.278\nsamples = 6\nvalue = [0, 1, 5]"] ;
1029 -> 1030 ;
1031 [label="gini = 0.0\nsamples = 4\nvalue = [0, 0, 4]"] ;
1030 -> 1031 ;
1032 [label="X[31] <= 0.5\ngini = 0.5\nsamples = 2\nvalue = [0, 1, 1]"] ;
1030 -> 1032 ;
1033 [label="gini = 0.0\nsamples = 1\nvalue = [0, 1, 0]"] ;
1032 -> 1033 ;
1034 [label="gini = 0.0\nsamples = 1\nvalue = [0, 0, 1]"] ;
1032 -> 1034 ;
1035 [label="gini = 0.0\nsamples = 1\nvalue = [0, 1, 0]"] ;
1029 -> 1035 ;
1036 [label="X[13] <= 1.5\ngini = 0.375\nsamples = 4\nvalue = [0, 3, 1]"] ;
1028 -> 1036 ;
1037 [label="gini = 0.0\nsamples = 3\nvalue = [0, 3, 0]"] ;
1036 -> 1037 ;
1038 [label="gini = 0.0\nsamples = 1\nvalue = [0, 0, 1]"] ;
1036 -> 1038 ;
1039 [label="X[18] <= 0.5\ngini = 0.64\nsamples = 5\nvalue = [1, 2, 2]"] ;
973 -> 1039 ;
1040 [label="gini = 0.0\nsamples = 2\nvalue = [0, 2, 0]"] ;
1039 -> 1040 ;
1041 [label="X[13] <= 0.5\ngini = 0.444\nsamples = 3\nvalue = [1, 0, 2]"] ;
1039 -> 1041 ;
1042 [label="gini = 0.0\nsamples = 1\nvalue = [0, 0, 1]"] ;
1041 -> 1042 ;
1043 [label="X[13] <= 1.5\ngini = 0.5\nsamples = 2\nvalue = [1, 0, 1]"] ;
1041 -> 1043 ;
1044 [label="gini = 0.0\nsamples = 1\nvalue = [1, 0, 0]"] ;
1043 -> 1044 ;
1045 [label="gini = 0.0\nsamples = 1\nvalue = [0, 0, 1]"] ;
1043 -> 1045 ;
1046 [label="X[19] <= 1.5\ngini = 0.64\nsamples = 5\nvalue = [2, 1, 2]"] ;
972 -> 1046 ;
1047 [label="X[25] <= 0.5\ngini = 0.444\nsamples = 3\nvalue = [0, 1, 2]"] ;
1046 -> 1047 ;
1048 [label="gini = 0.0\nsamples = 2\nvalue = [0, 0, 2]"] ;
1047 -> 1048 ;
1049 [label="gini = 0.0\nsamples = 1\nvalue = [0, 1, 0]"] ;
1047 -> 1049 ;
1050 [label="gini = 0.0\nsamples = 2\nvalue = [2, 0, 0]"] ;
1046 -> 1050 ;
1051 [label="gini = 0.0\nsamples = 3\nvalue = [0, 3, 0]"] ;
971 -> 1051 ;
1052 [label="X[20] <= 1.5\ngini = 0.406\nsamples = 8\nvalue = [1, 6, 1]"] ;
970 -> 1052 ;
1053 [label="gini = 0.0\nsamples = 4\nvalue = [0, 4, 0]"] ;
1052 -> 1053 ;
1054 [label="X[23] <= 0.5\ngini = 0.625\nsamples = 4\nvalue = [1, 2, 1]"] ;
1052 -> 1054 ;
1055 [label="X[21] <= 1.5\ngini = 0.444\nsamples = 3\nvalue = [0, 2, 1]"] ;
1054 -> 1055 ;
1056 [label="gini = 0.0\nsamples = 1\nvalue = [0, 1, 0]"] ;
1055 -> 1056 ;
1057 [label="X[13] <= 0.5\ngini = 0.5\nsamples = 2\nvalue = [0, 1, 1]"] ;
1055 -> 1057 ;
1058 [label="gini = 0.0\nsamples = 1\nvalue = [0, 0, 1]"] ;
1057 -> 1058 ;
1059 [label="gini = 0.0\nsamples = 1\nvalue = [0, 1, 0]"] ;
1057 -> 1059 ;
1060 [label="gini = 0.0\nsamples = 1\nvalue = [1, 0, 0]"] ;
1054 -> 1060 ;
1061 [label="X[30] <= 1.5\ngini = 0.607\nsamples = 140\nvalue = [21, 50, 69]"] ;
969 -> 1061 ;
1062 [label="X[20] <= 0.5\ngini = 0.599\nsamples = 128\nvalue = [20, 41, 67]"] ;
1061 -> 1062 ;
1063 [label="X[14] <= 1.5\ngini = 0.59\nsamples = 116\nvalue = [20, 32, 64]"] ;
1062 -> 1063 ;
1064 [label="X[8] <= 0.5\ngini = 0.639\nsamples = 69\nvalue = [14, 25, 30]"] ;
1063 -> 1064 ;
1065 [label="X[17] <= 0.5\ngini = 0.613\nsamples = 61\nvalue = [10, 21, 30]"] ;
1064 -> 1065 ;
1066 [label="X[31] <= 0.5\ngini = 0.628\nsamples = 56\nvalue = [10, 21, 25]"] ;
1065 -> 1066 ;
1067 [label="X[16] <= 1.5\ngini = 0.603\nsamples = 45\nvalue = [7, 15, 23]"] ;
1066 -> 1067 ;
1068 [label="X[26] <= 1.5\ngini = 0.591\nsamples = 36\nvalue = [7, 9, 20]"] ;
1067 -> 1068 ;
1069 [label="X[7] <= 0.5\ngini = 0.58\nsamples = 32\nvalue = [5, 9, 18]"] ;
1068 -> 1069 ;
1070 [label="X[25] <= 0.5\ngini = 0.536\nsamples = 26\nvalue = [3, 7, 16]"] ;
1069 -> 1070 ;
1071 [label="X[19] <= 1.5\ngini = 0.245\nsamples = 7\nvalue = [0, 1, 6]"] ;
1070 -> 1071 ;
1072 [label="X[19] <= 0.5\ngini = 0.5\nsamples = 2\nvalue = [0, 1, 1]"] ;
1071 -> 1072 ;
1073 [label="gini = 0.0\nsamples = 1\nvalue = [0, 0, 1]"] ;
1072 -> 1073 ;
1074 [label="gini = 0.0\nsamples = 1\nvalue = [0, 1, 0]"] ;
1072 -> 1074 ;
1075 [label="gini = 0.0\nsamples = 5\nvalue = [0, 0, 5]"] ;
1071 -> 1075 ;
1076 [label="X[16] <= 0.5\ngini = 0.598\nsamples = 19\nvalue = [3, 6, 10]"] ;
1070 -> 1076 ;
1077 [label="X[19] <= 0.5\ngini = 0.623\nsamples = 17\nvalue = [3, 6, 8]"] ;
1076 -> 1077 ;
1078 [label="X[6] <= 0.5\ngini = 0.592\nsamples = 13\nvalue = [2, 4, 7]"] ;
1077 -> 1078 ;
1079 [label="X[13] <= 1.5\ngini = 0.611\nsamples = 6\nvalue = [1, 3, 2]"] ;
1078 -> 1079 ;
1080 [label="gini = 0.0\nsamples = 2\nvalue = [0, 2, 0]"] ;
1079 -> 1080 ;
1081 [label="X[30] <= 0.5\ngini = 0.625\nsamples = 4\nvalue = [1, 1, 2]"] ;
1079 -> 1081 ;
1082 [label="X[15] <= 1.5\ngini = 0.5\nsamples = 2\nvalue = [1, 1, 0]"] ;
1081 -> 1082 ;
1083 [label="gini = 0.0\nsamples = 1\nvalue = [1, 0, 0]"] ;
1082 -> 1083 ;
1084 [label="gini = 0.0\nsamples = 1\nvalue = [0, 1, 0]"] ;
1082 -> 1084 ;
1085 [label="gini = 0.0\nsamples = 2\nvalue = [0, 0, 2]"] ;
1081 -> 1085 ;
1086 [label="X[13] <= 1.5\ngini = 0.449\nsamples = 7\nvalue = [1, 1, 5]"] ;
1078 -> 1086 ;
1087 [label="gini = 0.0\nsamples = 3\nvalue = [0, 0, 3]"] ;
1086 -> 1087 ;
1088 [label="X[15] <= 0.5\ngini = 0.625\nsamples = 4\nvalue = [1, 1, 2]"] ;
1086 -> 1088 ;
1089 [label="X[18] <= 0.5\ngini = 0.444\nsamples = 3\nvalue = [1, 0, 2]"] ;
1088 -> 1089 ;
1090 [label="gini = 0.0\nsamples = 1\nvalue = [1, 0, 0]"] ;
1089 -> 1090 ;
1091 [label="gini = 0.0\nsamples = 2\nvalue = [0, 0, 2]"] ;
1089 -> 1091 ;
1092 [label="gini = 0.0\nsamples = 1\nvalue = [0, 1, 0]"] ;
1088 -> 1092 ;
1093 [label="X[6] <= 0.5\ngini = 0.625\nsamples = 4\nvalue = [1, 2, 1]"] ;
1077 -> 1093 ;
1094 [label="X[15] <= 1.0\ngini = 0.5\nsamples = 2\nvalue = [1, 0, 1]"] ;
1093 -> 1094 ;
1095 [label="gini = 0.0\nsamples = 1\nvalue = [0, 0, 1]"] ;
1094 -> 1095 ;
1096 [label="gini = 0.0\nsamples = 1\nvalue = [1, 0, 0]"] ;
1094 -> 1096 ;
1097 [label="gini = 0.0\nsamples = 2\nvalue = [0, 2, 0]"] ;
1093 -> 1097 ;
1098 [label="gini = 0.0\nsamples = 2\nvalue = [0, 0, 2]"] ;
1076 -> 1098 ;
1099 [label="X[7] <= 1.5\ngini = 0.667\nsamples = 6\nvalue = [2, 2, 2]"] ;
1069 -> 1099 ;
1100 [label="gini = 0.0\nsamples = 2\nvalue = [2, 0, 0]"] ;
1099 -> 1100 ;
1101 [label="X[25] <= 1.0\ngini = 0.5\nsamples = 4\nvalue = [0, 2, 2]"] ;
1099 -> 1101 ;
1102 [label="X[13] <= 1.5\ngini = 0.444\nsamples = 3\nvalue = [0, 2, 1]"] ;
1101 -> 1102 ;
1103 [label="gini = 0.0\nsamples = 2\nvalue = [0, 2, 0]"] ;
1102 -> 1103 ;
1104 [label="gini = 0.0\nsamples = 1\nvalue = [0, 0, 1]"] ;
1102 -> 1104 ;
1105 [label="gini = 0.0\nsamples = 1\nvalue = [0, 0, 1]"] ;
1101 -> 1105 ;
1106 [label="X[27] <= 0.5\ngini = 0.5\nsamples = 4\nvalue = [2, 0, 2]"] ;
1068 -> 1106 ;
1107 [label="gini = 0.0\nsamples = 2\nvalue = [2, 0, 0]"] ;
1106 -> 1107 ;
1108 [label="gini = 0.0\nsamples = 2\nvalue = [0, 0, 2]"] ;
1106 -> 1108 ;
1109 [label="X[26] <= 0.5\ngini = 0.444\nsamples = 9\nvalue = [0, 6, 3]"] ;
1067 -> 1109 ;
1110 [label="X[7] <= 0.5\ngini = 0.245\nsamples = 7\nvalue = [0, 6, 1]"] ;
1109 -> 1110 ;
1111 [label="gini = 0.0\nsamples = 6\nvalue = [0, 6, 0]"] ;
1110 -> 1111 ;
1112 [label="gini = 0.0\nsamples = 1\nvalue = [0, 0, 1]"] ;
1110 -> 1112 ;
1113 [label="gini = 0.0\nsamples = 2\nvalue = [0, 0, 2]"] ;
1109 -> 1113 ;
1114 [label="X[13] <= 1.5\ngini = 0.595\nsamples = 11\nvalue = [3, 6, 2]"] ;
1066 -> 1114 ;
1115 [label="gini = 0.0\nsamples = 5\nvalue = [0, 5, 0]"] ;
1114 -> 1115 ;
1116 [label="X[7] <= 1.0\ngini = 0.611\nsamples = 6\nvalue = [3, 1, 2]"] ;
1114 -> 1116 ;
1117 [label="X[32] <= 0.5\ngini = 0.48\nsamples = 5\nvalue = [3, 0, 2]"] ;
1116 -> 1117 ;
1118 [label="X[18] <= 0.5\ngini = 0.375\nsamples = 4\nvalue = [3, 0, 1]"] ;
1117 -> 1118 ;
1119 [label="gini = 0.0\nsamples = 2\nvalue = [2, 0, 0]"] ;
1118 -> 1119 ;
1120 [label="X[19] <= 0.5\ngini = 0.5\nsamples = 2\nvalue = [1, 0, 1]"] ;
1118 -> 1120 ;
1121 [label="gini = 0.0\nsamples = 1\nvalue = [0, 0, 1]"] ;
1120 -> 1121 ;
1122 [label="gini = 0.0\nsamples = 1\nvalue = [1, 0, 0]"] ;
1120 -> 1122 ;
1123 [label="gini = 0.0\nsamples = 1\nvalue = [0, 0, 1]"] ;
1117 -> 1123 ;
1124 [label="gini = 0.0\nsamples = 1\nvalue = [0, 1, 0]"] ;
1116 -> 1124 ;
1125 [label="gini = 0.0\nsamples = 5\nvalue = [0, 0, 5]"] ;
1065 -> 1125 ;
1126 [label="X[7] <= 1.5\ngini = 0.5\nsamples = 8\nvalue = [4, 4, 0]"] ;
1064 -> 1126 ;
1127 [label="X[8] <= 1.5\ngini = 0.375\nsamples = 4\nvalue = [3, 1, 0]"] ;
1126 -> 1127 ;
1128 [label="gini = 0.0\nsamples = 1\nvalue = [0, 1, 0]"] ;
1127 -> 1128 ;
1129 [label="gini = 0.0\nsamples = 3\nvalue = [3, 0, 0]"] ;
1127 -> 1129 ;
1130 [label="X[9] <= 1.5\ngini = 0.375\nsamples = 4\nvalue = [1, 3, 0]"] ;
1126 -> 1130 ;
1131 [label="gini = 0.0\nsamples = 3\nvalue = [0, 3, 0]"] ;
1130 -> 1131 ;
1132 [label="gini = 0.0\nsamples = 1\nvalue = [1, 0, 0]"] ;
1130 -> 1132 ;
1133 [label="X[26] <= 1.5\ngini = 0.438\nsamples = 47\nvalue = [6, 7, 34]"] ;
1063 -> 1133 ;
1134 [label="X[30] <= 0.5\ngini = 0.377\nsamples = 44\nvalue = [5, 5, 34]"] ;
1133 -> 1134 ;
1135 [label="X[16] <= 1.5\ngini = 0.087\nsamples = 22\nvalue = [0, 1, 21]"] ;
1134 -> 1135 ;
1136 [label="gini = 0.0\nsamples = 20\nvalue = [0, 0, 20]"] ;
1135 -> 1136 ;
1137 [label="X[19] <= 0.5\ngini = 0.5\nsamples = 2\nvalue = [0, 1, 1]"] ;
1135 -> 1137 ;
1138 [label="gini = 0.0\nsamples = 1\nvalue = [0, 0, 1]"] ;
1137 -> 1138 ;
1139 [label="gini = 0.0\nsamples = 1\nvalue = [0, 1, 0]"] ;
1137 -> 1139 ;
1140 [label="X[16] <= 1.5\ngini = 0.566\nsamples = 22\nvalue = [5, 4, 13]"] ;
1134 -> 1140 ;
1141 [label="X[32] <= 1.5\ngini = 0.515\nsamples = 20\nvalue = [4, 3, 13]"] ;
1140 -> 1141 ;
1142 [label="X[26] <= 0.5\ngini = 0.476\nsamples = 19\nvalue = [4, 2, 13]"] ;
1141 -> 1142 ;
1143 [label="X[8] <= 1.0\ngini = 0.438\nsamples = 18\nvalue = [3, 2, 13]"] ;
1142 -> 1143 ;
1144 [label="X[17] <= 1.0\ngini = 0.388\nsamples = 17\nvalue = [2, 2, 13]"] ;
1143 -> 1144 ;
1145 [label="X[19] <= 0.5\ngini = 0.32\nsamples = 16\nvalue = [1, 2, 13]"] ;
1144 -> 1145 ;
1146 [label="X[15] <= 1.5\ngini = 0.245\nsamples = 14\nvalue = [0, 2, 12]"] ;
1145 -> 1146 ;
1147 [label="gini = 0.0\nsamples = 8\nvalue = [0, 0, 8]"] ;
1146 -> 1147 ;
1148 [label="X[25] <= 0.5\ngini = 0.444\nsamples = 6\nvalue = [0, 2, 4]"] ;
1146 -> 1148 ;
1149 [label="gini = 0.0\nsamples = 4\nvalue = [0, 0, 4]"] ;
1148 -> 1149 ;
1150 [label="gini = 0.0\nsamples = 2\nvalue = [0, 2, 0]"] ;
1148 -> 1150 ;
1151 [label="X[6] <= 0.5\ngini = 0.5\nsamples = 2\nvalue = [1, 0, 1]"] ;
1145 -> 1151 ;
1152 [label="gini = 0.0\nsamples = 1\nvalue = [1, 0, 0]"] ;
1151 -> 1152 ;
1153 [label="gini = 0.0\nsamples = 1\nvalue = [0, 0, 1]"] ;
1151 -> 1153 ;
1154 [label="gini = 0.0\nsamples = 1\nvalue = [1, 0, 0]"] ;
1144 -> 1154 ;
1155 [label="gini = 0.0\nsamples = 1\nvalue = [1, 0, 0]"] ;
1143 -> 1155 ;
1156 [label="gini = 0.0\nsamples = 1\nvalue = [1, 0, 0]"] ;
1142 -> 1156 ;
1157 [label="gini = 0.0\nsamples = 1\nvalue = [0, 1, 0]"] ;
1141 -> 1157 ;
1158 [label="X[18] <= 0.5\ngini = 0.5\nsamples = 2\nvalue = [1, 1, 0]"] ;
1140 -> 1158 ;
1159 [label="gini = 0.0\nsamples = 1\nvalue = [1, 0, 0]"] ;
1158 -> 1159 ;
1160 [label="gini = 0.0\nsamples = 1\nvalue = [0, 1, 0]"] ;
1158 -> 1160 ;
1161 [label="X[15] <= 0.5\ngini = 0.444\nsamples = 3\nvalue = [1, 2, 0]"] ;
1133 -> 1161 ;
1162 [label="gini = 0.0\nsamples = 2\nvalue = [0, 2, 0]"] ;
1161 -> 1162 ;
1163 [label="gini = 0.0\nsamples = 1\nvalue = [1, 0, 0]"] ;
1161 -> 1163 ;
1164 [label="X[20] <= 1.5\ngini = 0.375\nsamples = 12\nvalue = [0, 9, 3]"] ;
1062 -> 1164 ;
1165 [label="gini = 0.0\nsamples = 5\nvalue = [0, 5, 0]"] ;
1164 -> 1165 ;
1166 [label="X[19] <= 1.5\ngini = 0.49\nsamples = 7\nvalue = [0, 4, 3]"] ;
1164 -> 1166 ;
1167 [label="gini = 0.0\nsamples = 4\nvalue = [0, 4, 0]"] ;
1166 -> 1167 ;
1168 [label="gini = 0.0\nsamples = 3\nvalue = [0, 0, 3]"] ;
1166 -> 1168 ;
1169 [label="X[25] <= 1.5\ngini = 0.403\nsamples = 12\nvalue = [1, 9, 2]"] ;
1061 -> 1169 ;
1170 [label="X[16] <= 0.5\ngini = 0.314\nsamples = 11\nvalue = [1, 9, 1]"] ;
1169 -> 1170 ;
1171 [label="X[15] <= 0.5\ngini = 0.18\nsamples = 10\nvalue = [1, 9, 0]"] ;
1170 -> 1171 ;
1172 [label="gini = 0.0\nsamples = 8\nvalue = [0, 8, 0]"] ;
1171 -> 1172 ;
1173 [label="X[15] <= 1.5\ngini = 0.5\nsamples = 2\nvalue = [1, 1, 0]"] ;
1171 -> 1173 ;
1174 [label="gini = 0.0\nsamples = 1\nvalue = [1, 0, 0]"] ;
1173 -> 1174 ;
1175 [label="gini = 0.0\nsamples = 1\nvalue = [0, 1, 0]"] ;
1173 -> 1175 ;
1176 [label="gini = 0.0\nsamples = 1\nvalue = [0, 0, 1]"] ;
1170 -> 1176 ;
1177 [label="gini = 0.0\nsamples = 1\nvalue = [0, 0, 1]"] ;
1169 -> 1177 ;
1178 [label="X[14] <= 0.5\ngini = 0.449\nsamples = 7\nvalue = [5, 1, 1]"] ;
968 -> 1178 ;
1179 [label="gini = 0.0\nsamples = 4\nvalue = [4, 0, 0]"] ;
1178 -> 1179 ;
1180 [label="X[31] <= 1.5\ngini = 0.667\nsamples = 3\nvalue = [1, 1, 1]"] ;
1178 -> 1180 ;
1181 [label="gini = 0.0\nsamples = 1\nvalue = [1, 0, 0]"] ;
1180 -> 1181 ;
1182 [label="X[14] <= 1.5\ngini = 0.5\nsamples = 2\nvalue = [0, 1, 1]"] ;
1180 -> 1182 ;
1183 [label="gini = 0.0\nsamples = 1\nvalue = [0, 1, 0]"] ;
1182 -> 1183 ;
1184 [label="gini = 0.0\nsamples = 1\nvalue = [0, 0, 1]"] ;
1182 -> 1184 ;
1185 [label="X[30] <= 1.5\ngini = 0.574\nsamples = 298\nvalue = [32, 106, 160]"] ;
439 -> 1185 ;
1186 [label="X[6] <= 0.5\ngini = 0.551\nsamples = 268\nvalue = [29, 82, 157]"] ;
1185 -> 1186 ;
1187 [label="X[24] <= 0.5\ngini = 0.331\nsamples = 77\nvalue = [5, 10, 62]"] ;
1186 -> 1187 ;
1188 [label="gini = 0.0\nsamples = 42\nvalue = [0, 0, 42]"] ;
1187 -> 1188 ;
1189 [label="X[16] <= 1.5\ngini = 0.571\nsamples = 35\nvalue = [5, 10, 20]"] ;
1187 -> 1189 ;
1190 [label="X[25] <= 1.5\ngini = 0.537\nsamples = 32\nvalue = [5, 7, 20]"] ;
1189 -> 1190 ;
1191 [label="X[23] <= 0.5\ngini = 0.375\nsamples = 20\nvalue = [0, 5, 15]"] ;
1190 -> 1191 ;
1192 [label="X[13] <= 1.5\ngini = 0.278\nsamples = 18\nvalue = [0, 3, 15]"] ;
1191 -> 1192 ;
1193 [label="gini = 0.0\nsamples = 7\nvalue = [0, 0, 7]"] ;
1192 -> 1193 ;
1194 [label="X[15] <= 1.5\ngini = 0.397\nsamples = 11\nvalue = [0, 3, 8]"] ;
1192 -> 1194 ;
1195 [label="X[14] <= 0.5\ngini = 0.32\nsamples = 10\nvalue = [0, 2, 8]"] ;
1194 -> 1195 ;
1196 [label="gini = 0.0\nsamples = 4\nvalue = [0, 0, 4]"] ;
1195 -> 1196 ;
1197 [label="X[30] <= 0.5\ngini = 0.444\nsamples = 6\nvalue = [0, 2, 4]"] ;
1195 -> 1197 ;
1198 [label="X[26] <= 1.0\ngini = 0.444\nsamples = 3\nvalue = [0, 2, 1]"] ;
1197 -> 1198 ;
1199 [label="X[25] <= 0.5\ngini = 0.5\nsamples = 2\nvalue = [0, 1, 1]"] ;
1198 -> 1199 ;
1200 [label="gini = 0.0\nsamples = 1\nvalue = [0, 1, 0]"] ;
1199 -> 1200 ;
1201 [label="gini = 0.0\nsamples = 1\nvalue = [0, 0, 1]"] ;
1199 -> 1201 ;
1202 [label="gini = 0.0\nsamples = 1\nvalue = [0, 1, 0]"] ;
1198 -> 1202 ;
1203 [label="gini = 0.0\nsamples = 3\nvalue = [0, 0, 3]"] ;
1197 -> 1203 ;
1204 [label="gini = 0.0\nsamples = 1\nvalue = [0, 1, 0]"] ;
1194 -> 1204 ;
1205 [label="gini = 0.0\nsamples = 2\nvalue = [0, 2, 0]"] ;
1191 -> 1205 ;
1206 [label="X[30] <= 0.5\ngini = 0.625\nsamples = 12\nvalue = [5, 2, 5]"] ;
1190 -> 1206 ;
1207 [label="X[14] <= 0.5\ngini = 0.531\nsamples = 8\nvalue = [5, 1, 2]"] ;
1206 -> 1207 ;
1208 [label="X[28] <= 0.5\ngini = 0.278\nsamples = 6\nvalue = [5, 0, 1]"] ;
1207 -> 1208 ;
1209 [label="gini = 0.0\nsamples = 5\nvalue = [5, 0, 0]"] ;
1208 -> 1209 ;
1210 [label="gini = 0.0\nsamples = 1\nvalue = [0, 0, 1]"] ;
1208 -> 1210 ;
1211 [label="X[19] <= 0.5\ngini = 0.5\nsamples = 2\nvalue = [0, 1, 1]"] ;
1207 -> 1211 ;
1212 [label="gini = 0.0\nsamples = 1\nvalue = [0, 0, 1]"] ;
1211 -> 1212 ;
1213 [label="gini = 0.0\nsamples = 1\nvalue = [0, 1, 0]"] ;
1211 -> 1213 ;
1214 [label="X[31] <= 1.0\ngini = 0.375\nsamples = 4\nvalue = [0, 1, 3]"] ;
1206 -> 1214 ;
1215 [label="gini = 0.0\nsamples = 3\nvalue = [0, 0, 3]"] ;
1214 -> 1215 ;
1216 [label="gini = 0.0\nsamples = 1\nvalue = [0, 1, 0]"] ;
1214 -> 1216 ;
1217 [label="gini = 0.0\nsamples = 3\nvalue = [0, 3, 0]"] ;
1189 -> 1217 ;
1218 [label="X[20] <= 1.5\ngini = 0.595\nsamples = 191\nvalue = [24, 72, 95]"] ;
1186 -> 1218 ;
1219 [label="X[20] <= 0.5\ngini = 0.607\nsamples = 163\nvalue = [22, 69, 72]"] ;
1218 -> 1219 ;
1220 [label="X[19] <= 1.5\ngini = 0.583\nsamples = 116\nvalue = [17, 35, 64]"] ;
1219 -> 1220 ;
1221 [label="X[24] <= 1.5\ngini = 0.61\nsamples = 101\nvalue = [16, 35, 50]"] ;
1220 -> 1221 ;
1222 [label="X[14] <= 0.5\ngini = 0.59\nsamples = 83\nvalue = [15, 22, 46]"] ;
1221 -> 1222 ;
1223 [label="X[13] <= 1.5\ngini = 0.437\nsamples = 43\nvalue = [4, 8, 31]"] ;
1222 -> 1223 ;
1224 [label="X[19] <= 0.5\ngini = 0.548\nsamples = 28\nvalue = [4, 7, 17]"] ;
1223 -> 1224 ;
1225 [label="X[25] <= 0.5\ngini = 0.381\nsamples = 17\nvalue = [1, 3, 13]"] ;
1224 -> 1225 ;
1226 [label="X[7] <= 1.5\ngini = 0.305\nsamples = 16\nvalue = [0, 3, 13]"] ;
1225 -> 1226 ;
1227 [label="X[13] <= 0.5\ngini = 0.444\nsamples = 6\nvalue = [0, 2, 4]"] ;
1226 -> 1227 ;
1228 [label="gini = 0.0\nsamples = 3\nvalue = [0, 0, 3]"] ;
1227 -> 1228 ;
1229 [label="X[9] <= 1.0\ngini = 0.444\nsamples = 3\nvalue = [0, 2, 1]"] ;
1227 -> 1229 ;
1230 [label="gini = 0.0\nsamples = 1\nvalue = [0, 0, 1]"] ;
1229 -> 1230 ;
1231 [label="gini = 0.0\nsamples = 2\nvalue = [0, 2, 0]"] ;
1229 -> 1231 ;
1232 [label="X[10] <= 1.5\ngini = 0.18\nsamples = 10\nvalue = [0, 1, 9]"] ;
1226 -> 1232 ;
1233 [label="gini = 0.0\nsamples = 8\nvalue = [0, 0, 8]"] ;
1232 -> 1233 ;
1234 [label="X[24] <= 0.5\ngini = 0.5\nsamples = 2\nvalue = [0, 1, 1]"] ;
1232 -> 1234 ;
