digraph Tree {
node [shape=box, fontname="helvetica"] ;
edge [fontname="helvetica"] ;
0 [label="X[0] <= 1.5\ngini = 0.498\nsamples = 54045\nvalue = [5231, 13281, 35533]"] ;
1 [label="X[36] <= 1.5\ngini = 0.445\nsamples = 36222\nvalue = [3248, 7152, 25822]"] ;
0 -> 1 [labeldistance=2.5, labelangle=45, headlabel="True"] ;
2 [label="X[6] <= 1.5\ngini = 0.389\nsamples = 25101\nvalue = [2100, 3887, 19114]"] ;
1 -> 2 ;
3 [label="X[0] <= 0.5\ngini = 0.308\nsamples = 14171\nvalue = [1033, 1487, 11651]"] ;
2 -> 3 ;
4 [label="X[6] <= 0.5\ngini = 0.377\nsamples = 7796\nvalue = [645, 1136, 6015]"] ;
3 -> 4 ;
5 [label="X[20] <= 0.5\ngini = 0.456\nsamples = 3412\nvalue = [340, 669, 2403]"] ;
4 -> 5 ;
6 [label="X[19] <= 1.5\ngini = 0.413\nsamples = 2495\nvalue = [228, 414, 1853]"] ;
5 -> 6 ;
7 [label="gini = 0.447\nsamples = 2149\nvalue = [214, 404, 1531]"] ;
6 -> 7 ;
8 [label="gini = 0.131\nsamples = 346\nvalue = [14, 10, 322]"] ;
6 -> 8 ;
9 [label="X[20] <= 1.5\ngini = 0.548\nsamples = 917\nvalue = [112, 255, 550]"] ;
5 -> 9 ;
10 [label="gini = 0.643\nsamples = 481\nvalue = [103, 207, 171]"] ;
9 -> 10 ;
11 [label="gini = 0.232\nsamples = 436\nvalue = [9, 48, 379]"] ;
9 -> 11 ;
12 [label="X[12] <= 1.5\ngini = 0.305\nsamples = 4384\nvalue = [305, 467, 3612]"] ;
4 -> 12 ;
13 [label="X[23] <= 1.5\ngini = 0.124\nsamples = 1524\nvalue = [55, 44, 1425]"] ;
12 -> 13 ;
14 [label="gini = 0.117\nsamples = 1514\nvalue = [52, 41, 1421]"] ;
13 -> 14 ;
15 [label="gini = 0.66\nsamples = 10\nvalue = [3, 3, 4]"] ;
13 -> 15 ;
16 [label="X[18] <= 1.5\ngini = 0.386\nsamples = 2860\nvalue = [250, 423, 2187]"] ;
12 -> 16 ;
17 [label="gini = 0.334\nsamples = 2243\nvalue = [189, 251, 1803]"] ;
16 -> 17 ;
18 [label="gini = 0.525\nsamples = 617\nvalue = [61, 172, 384]"] ;
16 -> 18 ;
19 [label="X[1] <= 1.5\ngini = 0.212\nsamples = 6375\nvalue = [388, 351, 5636]"] ;
3 -> 19 ;
20 [label="X[6] <= 0.5\ngini = 0.12\nsamples = 3932\nvalue = [150, 97, 3685]"] ;
19 -> 20 ;
21 [label="X[36] <= 0.5\ngini = 0.169\nsamples = 2286\nvalue = [122, 85, 2079]"] ;
20 -> 21 ;
22 [label="gini = 0.213\nsamples = 1475\nvalue = [96, 76, 1303]"] ;
21 -> 22 ;
23 [label="gini = 0.083\nsamples = 811\nvalue = [26, 9, 776]"] ;
21 -> 23 ;
24 [label="X[40] <= 1.0\ngini = 0.048\nsamples = 1646\nvalue = [28, 12, 1606]"] ;
20 -> 24 ;
25 [label="gini = 0.047\nsamples = 1645\nvalue = [27, 12, 1606]"] ;
24 -> 25 ;
26 [label="gini = 0.0\nsamples = 1\nvalue = [1, 0, 0]"] ;
24 -> 26 ;
27 [label="X[6] <= 0.5\ngini = 0.342\nsamples = 2443\nvalue = [238, 254, 1951]"] ;
19 -> 27 ;
28 [label="X[18] <= 1.5\ngini = 0.424\nsamples = 1463\nvalue = [178, 209, 1076]"] ;
27 -> 28 ;
29 [label="gini = 0.49\nsamples = 862\nvalue = [135, 144, 583]"] ;
28 -> 29 ;
30 [label="gini = 0.31\nsamples = 601\nvalue = [43, 65, 493]"] ;
28 -> 30 ;
31 [label="X[14] <= 0.5\ngini = 0.197\nsamples = 980\nvalue = [60, 45, 875]"] ;
27 -> 31 ;
32 [label="gini = 0.16\nsamples = 866\nvalue = [47, 27, 792]"] ;
31 -> 32 ;
33 [label="gini = 0.432\nsamples = 114\nvalue = [13, 18, 83]"] ;
31 -> 33 ;
34 [label="X[36] <= 0.5\ngini = 0.476\nsamples = 10930\nvalue = [1067, 2400, 7463]"] ;
2 -> 34 ;
35 [label="X[14] <= 1.5\ngini = 0.514\nsamples = 6733\nvalue = [641, 1806, 4286]"] ;
34 -> 35 ;
36 [label="X[14] <= 0.5\ngini = 0.53\nsamples = 6024\nvalue = [599, 1719, 3706]"] ;
35 -> 36 ;
37 [label="X[13] <= 1.5\ngini = 0.504\nsamples = 5255\nvalue = [488, 1357, 3410]"] ;
36 -> 37 ;
38 [label="gini = 0.53\nsamples = 4597\nvalue = [469, 1291, 2837]"] ;
37 -> 38 ;
39 [label="gini = 0.231\nsamples = 658\nvalue = [19, 66, 573]"] ;
37 -> 39 ;
40 [label="X[18] <= 0.5\ngini = 0.609\nsamples = 769\nvalue = [111, 362, 296]"] ;
36 -> 40 ;
41 [label="gini = 0.596\nsamples = 408\nvalue = [51, 157, 200]"] ;
40 -> 41 ;
42 [label="gini = 0.579\nsamples = 361\nvalue = [60, 205, 96]"] ;
40 -> 42 ;
43 [label="X[13] <= 1.5\ngini = 0.312\nsamples = 709\nvalue = [42, 87, 580]"] ;
35 -> 43 ;
44 [label="X[16] <= 1.5\ngini = 0.412\nsamples = 477\nvalue = [41, 82, 354]"] ;
43 -> 44 ;
45 [label="gini = 0.371\nsamples = 443\nvalue = [31, 69, 343]"] ;
44 -> 45 ;
46 [label="gini = 0.663\nsamples = 34\nvalue = [10, 13, 11]"] ;
44 -> 46 ;
47 [label="X[20] <= 0.5\ngini = 0.051\nsamples = 232\nvalue = [1, 5, 226]"] ;
43 -> 47 ;
48 [label="gini = 0.018\nsamples = 222\nvalue = [1, 1, 220]"] ;
47 -> 48 ;
49 [label="gini = 0.48\nsamples = 10\nvalue = [0, 4, 6]"] ;
47 -> 49 ;
50 [label="X[37] <= 1.5\ngini = 0.397\nsamples = 4197\nvalue = [426, 594, 3177]"] ;
34 -> 50 ;
51 [label="X[30] <= 1.5\ngini = 0.322\nsamples = 2842\nvalue = [226, 308, 2308]"] ;
50 -> 51 ;
52 [label="X[30] <= 0.5\ngini = 0.24\nsamples = 1886\nvalue = [120, 132, 1634]"] ;
51 -> 52 ;
53 [label="gini = 0.29\nsamples = 1444\nvalue = [109, 130, 1205]"] ;
52 -> 53 ;
54 [label="gini = 0.057\nsamples = 442\nvalue = [11, 2, 429]"] ;
52 -> 54 ;
55 [label="X[24] <= 1.5\ngini = 0.457\nsamples = 956\nvalue = [106, 176, 674]"] ;
51 -> 55 ;
56 [label="gini = 0.439\nsamples = 929\nvalue = [100, 159, 670]"] ;
55 -> 56 ;
57 [label="gini = 0.532\nsamples = 27\nvalue = [6, 17, 4]"] ;
55 -> 57 ;
58 [label="X[7] <= 1.5\ngini = 0.522\nsamples = 1355\nvalue = [200, 286, 869]"] ;
50 -> 58 ;
59 [label="X[30] <= 1.5\ngini = 0.57\nsamples = 1028\nvalue = [179, 248, 601]"] ;
58 -> 59 ;
60 [label="gini = 0.537\nsamples = 833\nvalue = [136, 175, 522]"] ;
59 -> 60 ;
61 [label="gini = 0.647\nsamples = 195\nvalue = [43, 73, 79]"] ;
59 -> 61 ;
62 [label="X[0] <= 0.5\ngini = 0.311\nsamples = 327\nvalue = [21, 38, 268]"] ;
58 -> 62 ;
63 [label="gini = 0.396\nsamples = 201\nvalue = [17, 32, 152]"] ;
62 -> 63 ;
64 [label="gini = 0.149\nsamples = 126\nvalue = [4, 6, 116]"] ;
62 -> 64 ;
65 [label="X[37] <= 1.5\ngini = 0.539\nsamples = 11121\nvalue = [1148, 3265, 6708]"] ;
1 -> 65 ;
66 [label="X[37] <= 0.5\ngini = 0.512\nsamples = 8948\nvalue = [887, 2324, 5737]"] ;
65 -> 66 ;
67 [label="X[0] <= 0.5\ngini = 0.545\nsamples = 5266\nvalue = [503, 1671, 3092]"] ;
66 -> 67 ;
68 [label="X[30] <= 1.5\ngini = 0.557\nsamples = 2719\nvalue = [196, 1103, 1420]"] ;
67 -> 68 ;
69 [label="X[30] <= 0.5\ngini = 0.547\nsamples = 2282\nvalue = [162, 852, 1268]"] ;
68 -> 69 ;
70 [label="gini = 0.565\nsamples = 1119\nvalue = [84, 491, 544]"] ;
69 -> 70 ;
71 [label="gini = 0.512\nsamples = 1163\nvalue = [78, 361, 724]"] ;
69 -> 71 ;
72 [label="X[7] <= 1.5\ngini = 0.543\nsamples = 437\nvalue = [34, 251, 152]"] ;
68 -> 72 ;
73 [label="gini = 0.561\nsamples = 384\nvalue = [33, 208, 143]"] ;
72 -> 73 ;
74 [label="gini = 0.313\nsamples = 53\nvalue = [1, 43, 9]"] ;
72 -> 74 ;
75 [label="X[1] <= 1.5\ngini = 0.505\nsamples = 2547\nvalue = [307, 568, 1672]"] ;
67 -> 75 ;
76 [label="X[6] <= 1.5\ngini = 0.446\nsamples = 1892\nvalue = [193, 349, 1350]"] ;
75 -> 76 ;
77 [label="gini = 0.365\nsamples = 1029\nvalue = [83, 143, 803]"] ;
76 -> 77 ;
78 [label="gini = 0.525\nsamples = 863\nvalue = [110, 206, 547]"] ;
76 -> 78 ;
79 [label="X[2] <= 1.5\ngini = 0.616\nsamples = 655\nvalue = [114, 219, 322]"] ;
75 -> 79 ;
80 [label="gini = 0.602\nsamples = 567\nvalue = [96, 173, 298]"] ;
79 -> 80 ;
81 [label="gini = 0.611\nsamples = 88\nvalue = [18, 46, 24]"] ;
79 -> 81 ;
82 [label="X[38] <= 1.5\ngini = 0.442\nsamples = 3682\nvalue = [384, 653, 2645]"] ;
66 -> 82 ;
83 [label="X[12] <= 1.5\ngini = 0.357\nsamples = 2688\nvalue = [228, 344, 2116]"] ;
82 -> 83 ;
84 [label="X[18] <= 1.5\ngini = 0.245\nsamples = 1163\nvalue = [70, 89, 1004]"] ;
83 -> 84 ;
85 [label="gini = 0.314\nsamples = 682\nvalue = [61, 63, 558]"] ;
84 -> 85 ;
86 [label="gini = 0.137\nsamples = 481\nvalue = [9, 26, 446]"] ;
84 -> 86 ;
87 [label="X[18] <= 0.5\ngini = 0.43\nsamples = 1525\nvalue = [158, 255, 1112]"] ;
83 -> 87 ;
88 [label="gini = 0.362\nsamples = 852\nvalue = [94, 90, 668]"] ;
87 -> 88 ;
89 [label="gini = 0.496\nsamples = 673\nvalue = [64, 165, 444]"] ;
87 -> 89 ;
90 [label="X[18] <= 1.5\ngini = 0.596\nsamples = 994\nvalue = [156, 309, 529]"] ;
82 -> 90 ;
91 [label="X[18] <= 0.5\ngini = 0.632\nsamples = 782\nvalue = [149, 283, 350]"] ;
90 -> 91 ;
92 [label="gini = 0.594\nsamples = 517\nvalue = [86, 151, 280]"] ;
91 -> 92 ;
93 [label="gini = 0.626\nsamples = 265\nvalue = [63, 132, 70]"] ;
91 -> 93 ;
94 [label="X[12] <= 1.5\ngini = 0.271\nsamples = 212\nvalue = [7, 26, 179]"] ;
90 -> 94 ;
95 [label="gini = 0.181\nsamples = 173\nvalue = [5, 12, 156]"] ;
94 -> 95 ;
96 [label="gini = 0.521\nsamples = 39\nvalue = [2, 14, 23]"] ;
94 -> 96 ;
97 [label="X[0] <= 0.5\ngini = 0.598\nsamples = 2173\nvalue = [261, 941, 971]"] ;
65 -> 97 ;
98 [label="X[18] <= 1.5\ngini = 0.555\nsamples = 1198\nvalue = [100, 662, 436]"] ;
97 -> 98 ;
99 [label="X[24] <= 0.5\ngini = 0.539\nsamples = 972\nvalue = [86, 577, 309]"] ;
98 -> 99 ;
100 [label="X[13] <= 1.5\ngini = 0.472\nsamples = 519\nvalue = [34, 351, 134]"] ;
99 -> 100 ;
101 [label="gini = 0.452\nsamples = 469\nvalue = [31, 328, 110]"] ;
100 -> 101 ;
102 [label="gini = 0.554\nsamples = 50\nvalue = [3, 23, 24]"] ;
100 -> 102 ;
103 [label="X[6] <= 1.5\ngini = 0.589\nsamples = 453\nvalue = [52, 226, 175]"] ;
99 -> 103 ;
104 [label="gini = 0.591\nsamples = 263\nvalue = [29, 110, 124]"] ;
103 -> 104 ;
105 [label="gini = 0.541\nsamples = 190\nvalue = [23, 116, 51]"] ;
103 -> 105 ;
106 [label="X[12] <= 1.5\ngini = 0.539\nsamples = 226\nvalue = [14, 85, 127]"] ;
98 -> 106 ;
107 [label="X[6] <= 1.5\ngini = 0.503\nsamples = 176\nvalue = [12, 52, 112]"] ;
106 -> 107 ;
108 [label="gini = 0.422\nsamples = 126\nvalue = [9, 25, 92]"] ;
107 -> 108 ;
109 [label="gini = 0.545\nsamples = 50\nvalue = [3, 27, 20]"] ;
107 -> 109 ;
110 [label="X[6] <= 0.5\ngini = 0.473\nsamples = 50\nvalue = [2, 33, 15]"] ;
106 -> 110 ;
111 [label="gini = 0.534\nsamples = 25\nvalue = [1, 11, 13]"] ;
110 -> 111 ;
112 [label="gini = 0.218\nsamples = 25\nvalue = [1, 22, 2]"] ;
110 -> 112 ;
113 [label="X[18] <= 1.5\ngini = 0.59\nsamples = 975\nvalue = [161, 279, 535]"] ;
97 -> 113 ;
114 [label="X[13] <= 1.5\ngini = 0.622\nsamples = 783\nvalue = [148, 254, 381]"] ;
113 -> 114 ;
115 [label="X[13] <= 0.5\ngini = 0.634\nsamples = 711\nvalue = [143, 243, 325]"] ;
114 -> 115 ;
116 [label="gini = 0.622\nsamples = 544\nvalue = [120, 150, 274]"] ;
115 -> 116 ;
117 [label="gini = 0.578\nsamples = 167\nvalue = [23, 93, 51]"] ;
115 -> 117 ;
118 [label="X[14] <= 0.5\ngini = 0.367\nsamples = 72\nvalue = [5, 11, 56]"] ;
114 -> 118 ;
119 [label="gini = 0.038\nsamples = 52\nvalue = [0, 1, 51]"] ;
118 -> 119 ;
120 [label="gini = 0.625\nsamples = 20\nvalue = [5, 10, 5]"] ;
118 -> 120 ;
121 [label="X[12] <= 1.5\ngini = 0.335\nsamples = 192\nvalue = [13, 25, 154]"] ;
113 -> 121 ;
122 [label="X[6] <= 1.5\ngini = 0.252\nsamples = 163\nvalue = [9, 14, 140]"] ;
121 -> 122 ;
123 [label="gini = 0.136\nsamples = 125\nvalue = [5, 4, 116]"] ;
122 -> 123 ;
124 [label="gini = 0.521\nsamples = 38\nvalue = [4, 10, 24]"] ;
122 -> 124 ;
125 [label="X[38] <= 0.5\ngini = 0.604\nsamples = 29\nvalue = [4, 11, 14]"] ;
121 -> 125 ;
126 [label="gini = 0.598\nsamples = 19\nvalue = [3, 10, 6]"] ;
125 -> 126 ;
127 [label="gini = 0.34\nsamples = 10\nvalue = [1, 1, 8]"] ;
125 -> 127 ;
128 [label="X[36] <= 1.5\ngini = 0.572\nsamples = 17823\nvalue = [1983, 6129, 9711]"] ;
0 -> 128 [labeldistance=2.5, labelangle=-45, headlabel="False"] ;
129 [label="X[36] <= 0.5\ngini = 0.552\nsamples = 13761\nvalue = [1479, 4235, 8047]"] ;
128 -> 129 ;
130 [label="X[1] <= 1.5\ngini = 0.57\nsamples = 8388\nvalue = [810, 3118, 4460]"] ;
129 -> 130 ;
131 [label="X[1] <= 0.5\ngini = 0.544\nsamples = 6131\nvalue = [566, 1963, 3602]"] ;
130 -> 131 ;
132 [label="X[6] <= 1.5\ngini = 0.568\nsamples = 3070\nvalue = [251, 1281, 1538]"] ;
131 -> 132 ;
133 [label="X[12] <= 1.5\ngini = 0.554\nsamples = 2079\nvalue = [186, 723, 1170]"] ;
132 -> 133 ;
134 [label="gini = 0.475\nsamples = 908\nvalue = [77, 213, 618]"] ;
133 -> 134 ;
135 [label="gini = 0.579\nsamples = 1171\nvalue = [109, 510, 552]"] ;
133 -> 135 ;
136 [label="X[18] <= 0.5\ngini = 0.541\nsamples = 991\nvalue = [65, 558, 368]"] ;
132 -> 136 ;
137 [label="gini = 0.553\nsamples = 351\nvalue = [23, 145, 183]"] ;
136 -> 137 ;
138 [label="gini = 0.496\nsamples = 640\nvalue = [42, 413, 185]"] ;
136 -> 138 ;
139 [label="X[2] <= 1.5\ngini = 0.485\nsamples = 3061\nvalue = [315, 682, 2064]"] ;
131 -> 139 ;
140 [label="X[6] <= 1.5\ngini = 0.409\nsamples = 2081\nvalue = [198, 331, 1552]"] ;
139 -> 140 ;
141 [label="gini = 0.352\nsamples = 1424\nvalue = [128, 170, 1126]"] ;
140 -> 141 ;
142 [label="gini = 0.508\nsamples = 657\nvalue = [70, 161, 426]"] ;
140 -> 142 ;
143 [label="X[18] <= 0.5\ngini = 0.585\nsamples = 980\nvalue = [117, 351, 512]"] ;
139 -> 143 ;
144 [label="gini = 0.547\nsamples = 499\nvalue = [63, 135, 301]"] ;
143 -> 144 ;
145 [label="gini = 0.593\nsamples = 481\nvalue = [54, 216, 211]"] ;
143 -> 145 ;
146 [label="X[19] <= 0.5\ngini = 0.582\nsamples = 2257\nvalue = [244, 1155, 858]"] ;
130 -> 146 ;
147 [label="X[18] <= 1.5\ngini = 0.601\nsamples = 1617\nvalue = [204, 751, 662]"] ;
146 -> 147 ;
148 [label="X[18] <= 0.5\ngini = 0.593\nsamples = 1398\nvalue = [173, 702, 523]"] ;
147 -> 148 ;
149 [label="gini = 0.6\nsamples = 1053\nvalue = [130, 476, 447]"] ;
148 -> 149 ;
150 [label="gini = 0.507\nsamples = 345\nvalue = [43, 226, 76]"] ;
148 -> 150 ;
151 [label="X[13] <= 0.5\ngini = 0.527\nsamples = 219\nvalue = [31, 49, 139]"] ;
147 -> 151 ;
152 [label="gini = 0.4\nsamples = 130\nvalue = [13, 19, 98]"] ;
151 -> 152 ;
153 [label="gini = 0.633\nsamples = 89\nvalue = [18, 30, 41]"] ;
151 -> 153 ;
154 [label="X[6] <= 1.5\ngini = 0.504\nsamples = 640\nvalue = [40, 404, 196]"] ;
146 -> 154 ;
155 [label="X[6] <= 0.5\ngini = 0.535\nsamples = 523\nvalue = [34, 301, 188]"] ;
154 -> 155 ;
156 [label="gini = 0.485\nsamples = 316\nvalue = [24, 210, 82]"] ;
155 -> 156 ;
157 [label="gini = 0.542\nsamples = 207\nvalue = [10, 91, 106]"] ;
155 -> 157 ;
158 [label="X[12] <= 0.5\ngini = 0.218\nsamples = 117\nvalue = [6, 103, 8]"] ;
154 -> 158 ;
159 [label="gini = 0.057\nsamples = 68\nvalue = [2, 66, 0]"] ;
158 -> 159 ;
160 [label="gini = 0.397\nsamples = 49\nvalue = [4, 37, 8]"] ;
158 -> 160 ;
161 [label="X[37] <= 1.5\ngini = 0.496\nsamples = 5373\nvalue = [669, 1117, 3587]"] ;
129 -> 161 ;
162 [label="X[18] <= 0.5\ngini = 0.425\nsamples = 3780\nvalue = [373, 639, 2768]"] ;
161 -> 162 ;
163 [label="X[37] <= 0.5\ngini = 0.348\nsamples = 1955\nvalue = [171, 232, 1552]"] ;
162 -> 163 ;
164 [label="X[1] <= 1.5\ngini = 0.404\nsamples = 1292\nvalue = [131, 191, 970]"] ;
163 -> 164 ;
165 [label="gini = 0.331\nsamples = 860\nvalue = [69, 98, 693]"] ;
164 -> 165 ;
166 [label="gini = 0.522\nsamples = 432\nvalue = [62, 93, 277]"] ;
164 -> 166 ;
167 [label="X[38] <= 1.5\ngini = 0.222\nsamples = 663\nvalue = [40, 41, 582]"] ;
163 -> 167 ;
168 [label="gini = 0.131\nsamples = 404\nvalue = [15, 13, 376]"] ;
167 -> 168 ;
169 [label="gini = 0.346\nsamples = 259\nvalue = [25, 28, 206]"] ;
167 -> 169 ;
170 [label="X[18] <= 1.5\ngini = 0.494\nsamples = 1825\nvalue = [202, 407, 1216]"] ;
162 -> 170 ;
171 [label="X[19] <= 1.5\ngini = 0.586\nsamples = 816\nvalue = [110, 268, 438]"] ;
170 -> 171 ;
172 [label="gini = 0.609\nsamples = 569\nvalue = [79, 233, 257]"] ;
171 -> 172 ;
173 [label="gini = 0.427\nsamples = 247\nvalue = [31, 35, 181]"] ;
171 -> 173 ;
174 [label="X[12] <= 0.5\ngini = 0.378\nsamples = 1009\nvalue = [92, 139, 778]"] ;
170 -> 174 ;
175 [label="gini = 0.183\nsamples = 313\nvalue = [12, 19, 282]"] ;
174 -> 175 ;
176 [label="gini = 0.449\nsamples = 696\nvalue = [80, 120, 496]"] ;
174 -> 176 ;
177 [label="X[18] <= 0.5\ngini = 0.611\nsamples = 1593\nvalue = [296, 478, 819]"] ;
161 -> 177 ;
178 [label="X[38] <= 0.5\ngini = 0.575\nsamples = 973\nvalue = [191, 218, 564]"] ;
177 -> 178 ;
179 [label="X[1] <= 1.5\ngini = 0.62\nsamples = 437\nvalue = [86, 133, 218]"] ;
178 -> 179 ;
180 [label="gini = 0.585\nsamples = 315\nvalue = [56, 82, 177]"] ;
179 -> 180 ;
181 [label="gini = 0.652\nsamples = 122\nvalue = [30, 51, 41]"] ;
179 -> 181 ;
182 [label="X[38] <= 1.5\ngini = 0.52\nsamples = 536\nvalue = [105, 85, 346]"] ;
178 -> 182 ;
183 [label="gini = 0.39\nsamples = 315\nvalue = [46, 29, 240]"] ;
182 -> 183 ;
184 [label="gini = 0.634\nsamples = 221\nvalue = [59, 56, 106]"] ;
182 -> 184 ;
185 [label="X[18] <= 1.5\ngini = 0.626\nsamples = 620\nvalue = [105, 260, 255]"] ;
177 -> 185 ;
186 [label="X[19] <= 1.5\ngini = 0.545\nsamples = 314\nvalue = [61, 194, 59]"] ;
185 -> 186 ;
187 [label="gini = 0.467\nsamples = 242\nvalue = [39, 169, 34]"] ;
186 -> 187 ;
188 [label="gini = 0.666\nsamples = 72\nvalue = [22, 25, 25]"] ;
186 -> 188 ;
189 [label="X[20] <= 0.5\ngini = 0.523\nsamples = 306\nvalue = [44, 66, 196]"] ;
185 -> 189 ;
190 [label="gini = 0.484\nsamples = 264\nvalue = [40, 44, 180]"] ;
189 -> 190 ;
191 [label="gini = 0.571\nsamples = 42\nvalue = [4, 22, 16]"] ;
189 -> 191 ;
192 [label="X[1] <= 1.5\ngini = 0.599\nsamples = 4062\nvalue = [504, 1894, 1664]"] ;
128 -> 192 ;
193 [label="X[1] <= 0.5\ngini = 0.596\nsamples = 3306\nvalue = [386, 1446, 1474]"] ;
192 -> 193 ;
194 [label="X[37] <= 1.5\ngini = 0.573\nsamples = 1775\nvalue = [178, 939, 658]"] ;
193 -> 194 ;
195 [label="X[37] <= 0.5\ngini = 0.58\nsamples = 1554\nvalue = [154, 775, 625]"] ;
194 -> 195 ;
196 [label="X[6] <= 1.5\ngini = 0.528\nsamples = 828\nvalue = [64, 499, 265]"] ;
195 -> 196 ;
197 [label="gini = 0.557\nsamples = 598\nvalue = [46, 321, 231]"] ;
196 -> 197 ;
198 [label="gini = 0.373\nsamples = 230\nvalue = [18, 178, 34]"] ;
196 -> 198 ;
199 [label="X[38] <= 1.5\ngini = 0.594\nsamples = 726\nvalue = [90, 276, 360]"] ;
195 -> 199 ;
200 [label="gini = 0.573\nsamples = 572\nvalue = [68, 188, 316]"] ;
199 -> 200 ;
201 [label="gini = 0.571\nsamples = 154\nvalue = [22, 88, 44]"] ;
199 -> 201 ;
202 [label="X[6] <= 1.5\ngini = 0.415\nsamples = 221\nvalue = [24, 164, 33]"] ;
194 -> 202 ;
203 [label="X[12] <= 1.5\ngini = 0.479\nsamples = 165\nvalue = [20, 113, 32]"] ;
202 -> 203 ;
204 [label="gini = 0.576\nsamples = 96\nvalue = [16, 55, 25]"] ;
203 -> 204 ;
205 [label="gini = 0.28\nsamples = 69\nvalue = [4, 58, 7]"] ;
203 -> 205 ;
206 [label="X[24] <= 0.5\ngini = 0.165\nsamples = 56\nvalue = [4, 51, 1]"] ;
202 -> 206 ;
207 [label="gini = 0.0\nsamples = 33\nvalue = [0, 33, 0]"] ;
206 -> 207 ;
208 [label="gini = 0.355\nsamples = 23\nvalue = [4, 18, 1]"] ;
206 -> 208 ;
209 [label="X[2] <= 1.5\ngini = 0.588\nsamples = 1531\nvalue = [208, 507, 816]"] ;
193 -> 209 ;
210 [label="X[12] <= 1.5\ngini = 0.558\nsamples = 1209\nvalue = [156, 344, 709]"] ;
209 -> 210 ;
211 [label="X[37] <= 1.5\ngini = 0.509\nsamples = 790\nvalue = [93, 183, 514]"] ;
210 -> 211 ;
212 [label="gini = 0.468\nsamples = 633\nvalue = [69, 125, 439]"] ;
211 -> 212 ;
213 [label="gini = 0.612\nsamples = 157\nvalue = [24, 58, 75]"] ;
211 -> 213 ;
214 [label="X[37] <= 1.5\ngini = 0.613\nsamples = 419\nvalue = [63, 161, 195]"] ;
210 -> 214 ;
215 [label="gini = 0.6\nsamples = 363\nvalue = [53, 125, 185]"] ;
214 -> 215 ;
216 [label="gini = 0.523\nsamples = 56\nvalue = [10, 36, 10]"] ;
214 -> 216 ;
217 [label="X[37] <= 0.5\ngini = 0.607\nsamples = 322\nvalue = [52, 163, 107]"] ;
209 -> 217 ;
218 [label="X[19] <= 0.5\ngini = 0.549\nsamples = 204\nvalue = [25, 122, 57]"] ;
217 -> 218 ;
219 [label="gini = 0.597\nsamples = 161\nvalue = [24, 84, 53]"] ;
218 -> 219 ;
220 [label="gini = 0.21\nsamples = 43\nvalue = [1, 38, 4]"] ;
218 -> 220 ;
221 [label="X[18] <= 1.5\ngini = 0.647\nsamples = 118\nvalue = [27, 41, 50]"] ;
217 -> 221 ;
222 [label="gini = 0.655\nsamples = 105\nvalue = [26, 41, 38]"] ;
221 -> 222 ;
223 [label="gini = 0.142\nsamples = 13\nvalue = [1, 0, 12]"] ;
221 -> 223 ;
224 [label="X[37] <= 0.5\ngini = 0.561\nsamples = 756\nvalue = [118, 448, 190]"] ;
192 -> 224 ;
225 [label="X[5] <= 0.5\ngini = 0.487\nsamples = 392\nvalue = [55, 266, 71]"] ;
224 -> 225 ;
226 [label="X[18] <= 1.5\ngini = 0.473\nsamples = 383\nvalue = [53, 265, 65]"] ;
225 -> 226 ;
227 [label="X[30] <= 0.5\ngini = 0.432\nsamples = 332\nvalue = [41, 242, 49]"] ;
226 -> 227 ;
228 [label="gini = 0.322\nsamples = 192\nvalue = [19, 156, 17]"] ;
227 -> 228 ;
229 [label="gini = 0.546\nsamples = 140\nvalue = [22, 86, 32]"] ;
227 -> 229 ;
230 [label="X[20] <= 0.5\ngini = 0.643\nsamples = 51\nvalue = [12, 23, 16]"] ;
226 -> 230 ;
231 [label="gini = 0.662\nsamples = 41\nvalue = [12, 13, 16]"] ;
230 -> 231 ;
232 [label="gini = 0.0\nsamples = 10\nvalue = [0, 10, 0]"] ;
230 -> 232 ;
233 [label="X[18] <= 0.5\ngini = 0.494\nsamples = 9\nvalue = [2, 1, 6]"] ;
225 -> 233 ;
234 [label="X[6] <= 0.5\ngini = 0.245\nsamples = 7\nvalue = [1, 0, 6]"] ;
233 -> 234 ;
235 [label="gini = 0.0\nsamples = 6\nvalue = [0, 0, 6]"] ;
234 -> 235 ;
236 [label="gini = 0.0\nsamples = 1\nvalue = [1, 0, 0]"] ;
234 -> 236 ;
237 [label="X[4] <= 1.5\ngini = 0.5\nsamples = 2\nvalue = [1, 1, 0]"] ;
233 -> 237 ;
238 [label="gini = 0.0\nsamples = 1\nvalue = [1, 0, 0]"] ;
237 -> 238 ;
239 [label="gini = 0.0\nsamples = 1\nvalue = [0, 1, 0]"] ;
237 -> 239 ;
240 [label="X[18] <= 0.5\ngini = 0.613\nsamples = 364\nvalue = [63, 182, 119]"] ;
224 -> 240 ;
241 [label="X[37] <= 1.5\ngini = 0.647\nsamples = 201\nvalue = [44, 80, 77]"] ;
240 -> 241 ;
242 [label="X[38] <= 0.5\ngini = 0.648\nsamples = 164\nvalue = [38, 56, 70]"] ;
241 -> 242 ;
243 [label="gini = 0.65\nsamples = 93\nvalue = [23, 40, 30]"] ;
242 -> 243 ;
244 [label="gini = 0.587\nsamples = 71\nvalue = [15, 16, 40]"] ;
242 -> 244 ;
245 [label="X[13] <= 0.5\ngini = 0.517\nsamples = 37\nvalue = [6, 24, 7]"] ;
241 -> 245 ;
246 [label="gini = 0.634\nsamples = 25\nvalue = [6, 12, 7]"] ;
245 -> 246 ;
247 [label="gini = 0.0\nsamples = 12\nvalue = [0, 12, 0]"] ;
245 -> 247 ;
248 [label="X[18] <= 1.5\ngini = 0.528\nsamples = 163\nvalue = [19, 102, 42]"] ;
240 -> 248 ;
249 [label="X[7] <= 1.5\ngini = 0.437\nsamples = 130\nvalue = [14, 94, 22]"] ;
248 -> 249 ;
250 [label="gini = 0.403\nsamples = 125\nvalue = [14, 94, 17]"] ;
249 -> 250 ;
251 [label="gini = 0.0\nsamples = 5\nvalue = [0, 0, 5]"] ;
249 -> 251 ;
252 [label="X[20] <= 0.5\ngini = 0.551\nsamples = 33\nvalue = [5, 8, 20]"] ;
248 -> 252 ;
253 [label="gini = 0.446\nsamples = 28\nvalue = [5, 3, 20]"] ;
252 -> 253 ;
254 [label="gini = 0.0\nsamples = 5\nvalue = [0, 5, 0]"] ;
252 -> 254 ;
}