digraph Tree {
node [shape=box, fontname="helvetica"] ;
edge [fontname="helvetica"] ;
0 [label="X[0] <= 1.5\ngini = 0.499\nsamples = 54044\nvalue = [5246, 13309, 35489]"] ;
1 [label="X[36] <= 1.5\ngini = 0.446\nsamples = 36217\nvalue = [3246, 7189, 25782]"] ;
0 -> 1 [labeldistance=2.5, labelangle=45, headlabel="True"] ;
2 [label="X[6] <= 1.5\ngini = 0.39\nsamples = 25128\nvalue = [2093, 3914, 19121]"] ;
1 -> 2 ;
3 [label="X[0] <= 0.5\ngini = 0.306\nsamples = 14196\nvalue = [1019, 1487, 11690]"] ;
2 -> 3 ;
4 [label="X[12] <= 1.5\ngini = 0.376\nsamples = 7820\nvalue = [646, 1134, 6040]"] ;
3 -> 4 ;
5 [label="X[6] <= 0.5\ngini = 0.27\nsamples = 2541\nvalue = [188, 200, 2153]"] ;
4 -> 5 ;
6 [label="X[20] <= 0.5\ngini = 0.438\nsamples = 1034\nvalue = [131, 155, 748]"] ;
5 -> 6 ;
7 [label="X[19] <= 1.5\ngini = 0.332\nsamples = 662\nvalue = [75, 54, 533]"] ;
6 -> 7 ;
8 [label="X[30] <= 1.5\ngini = 0.42\nsamples = 473\nvalue = [73, 51, 349]"] ;
7 -> 8 ;
9 [label="X[37] <= 1.5\ngini = 0.309\nsamples = 306\nvalue = [36, 19, 251]"] ;
8 -> 9 ;
10 [label="X[17] <= 1.5\ngini = 0.243\nsamples = 236\nvalue = [19, 13, 204]"] ;
9 -> 10 ;
11 [label="X[16] <= 1.5\ngini = 0.226\nsamples = 232\nvalue = [16, 13, 203]"] ;
10 -> 11 ;
12 [label="X[32] <= 1.5\ngini = 0.176\nsamples = 200\nvalue = [11, 8, 181]"] ;
11 -> 12 ;
13 [label="X[15] <= 1.5\ngini = 0.132\nsamples = 173\nvalue = [6, 6, 161]"] ;
12 -> 13 ;
14 [label="X[26] <= 0.5\ngini = 0.074\nsamples = 132\nvalue = [2, 3, 127]"] ;
13 -> 14 ;
15 [label="gini = 0.0\nsamples = 75\nvalue = [0, 0, 75]"] ;
14 -> 15 ;
16 [label="X[19] <= 0.5\ngini = 0.164\nsamples = 57\nvalue = [2, 3, 52]"] ;
14 -> 16 ;
17 [label="X[31] <= 1.5\ngini = 0.14\nsamples = 54\nvalue = [2, 2, 50]"] ;
16 -> 17 ;
18 [label="X[27] <= 0.5\ngini = 0.117\nsamples = 49\nvalue = [2, 1, 46]"] ;
17 -> 18 ;
19 [label="gini = 0.0\nsamples = 23\nvalue = [0, 0, 23]"] ;
18 -> 19 ;
20 [label="X[14] <= 0.5\ngini = 0.21\nsamples = 26\nvalue = [2, 1, 23]"] ;
18 -> 20 ;
21 [label="X[13] <= 1.5\ngini = 0.091\nsamples = 21\nvalue = [1, 0, 20]"] ;
20 -> 21 ;
22 [label="gini = 0.0\nsamples = 16\nvalue = [0, 0, 16]"] ;
21 -> 22 ;
23 [label="X[25] <= 1.5\ngini = 0.32\nsamples = 5\nvalue = [1, 0, 4]"] ;
21 -> 23 ;
24 [label="gini = 0.0\nsamples = 4\nvalue = [0, 0, 4]"] ;
23 -> 24 ;
25 [label="gini = 0.0\nsamples = 1\nvalue = [1, 0, 0]"] ;
23 -> 25 ;
26 [label="X[26] <= 1.5\ngini = 0.56\nsamples = 5\nvalue = [1, 1, 3]"] ;
20 -> 26 ;
27 [label="gini = 0.0\nsamples = 2\nvalue = [0, 0, 2]"] ;
26 -> 27 ;
28 [label="X[24] <= 1.5\ngini = 0.667\nsamples = 3\nvalue = [1, 1, 1]"] ;
26 -> 28 ;
29 [label="gini = 0.0\nsamples = 1\nvalue = [0, 0, 1]"] ;
28 -> 29 ;
30 [label="X[14] <= 1.5\ngini = 0.5\nsamples = 2\nvalue = [1, 1, 0]"] ;
28 -> 30 ;
31 [label="gini = 0.0\nsamples = 1\nvalue = [1, 0, 0]"] ;
30 -> 31 ;
32 [label="gini = 0.0\nsamples = 1\nvalue = [0, 1, 0]"] ;
30 -> 32 ;
33 [label="X[13] <= 0.5\ngini = 0.32\nsamples = 5\nvalue = [0, 1, 4]"] ;
17 -> 33 ;
34 [label="gini = 0.0\nsamples = 4\nvalue = [0, 0, 4]"] ;
33 -> 34 ;
35 [label="gini = 0.0\nsamples = 1\nvalue = [0, 1, 0]"] ;
33 -> 35 ;
36 [label="X[13] <= 1.5\ngini = 0.444\nsamples = 3\nvalue = [0, 1, 2]"] ;
16 -> 36 ;
37 [label="gini = 0.0\nsamples = 1\nvalue = [0, 1, 0]"] ;
36 -> 37 ;
38 [label="gini = 0.0\nsamples = 2\nvalue = [0, 0, 2]"] ;
36 -> 38 ;
39 [label="X[26] <= 0.5\ngini = 0.297\nsamples = 41\nvalue = [4, 3, 34]"] ;
13 -> 39 ;
40 [label="X[19] <= 0.5\ngini = 0.237\nsamples = 38\nvalue = [3, 2, 33]"] ;
39 -> 40 ;
41 [label="X[25] <= 0.5\ngini = 0.18\nsamples = 30\nvalue = [3, 0, 27]"] ;
40 -> 41 ;
42 [label="X[31] <= 0.5\ngini = 0.105\nsamples = 18\nvalue = [1, 0, 17]"] ;
41 -> 42 ;
43 [label="gini = 0.0\nsamples = 13\nvalue = [0, 0, 13]"] ;
42 -> 43 ;
44 [label="X[16] <= 0.5\ngini = 0.32\nsamples = 5\nvalue = [1, 0, 4]"] ;
42 -> 44 ;
45 [label="gini = 0.0\nsamples = 3\nvalue = [0, 0, 3]"] ;
44 -> 45 ;
46 [label="X[31] <= 1.5\ngini = 0.5\nsamples = 2\nvalue = [1, 0, 1]"] ;
44 -> 46 ;
47 [label="gini = 0.0\nsamples = 1\nvalue = [1, 0, 0]"] ;
46 -> 47 ;
48 [label="gini = 0.0\nsamples = 1\nvalue = [0, 0, 1]"] ;
46 -> 48 ;
49 [label="X[25] <= 1.5\ngini = 0.278\nsamples = 12\nvalue = [2, 0, 10]"] ;
41 -> 49 ;
50 [label="X[30] <= 0.5\ngini = 0.408\nsamples = 7\nvalue = [2, 0, 5]"] ;
49 -> 50 ;
51 [label="X[24] <= 1.5\ngini = 0.48\nsamples = 5\nvalue = [2, 0, 3]"] ;
50 -> 51 ;
52 [label="gini = 0.0\nsamples = 1\nvalue = [0, 0, 1]"] ;
51 -> 52 ;
53 [label="X[36] <= 0.5\ngini = 0.5\nsamples = 4\nvalue = [2, 0, 2]"] ;
51 -> 53 ;
54 [label="X[13] <= 1.5\ngini = 0.5\nsamples = 2\nvalue = [1, 0, 1]"] ;
53 -> 54 ;
55 [label="gini = 0.0\nsamples = 1\nvalue = [1, 0, 0]"] ;
54 -> 55 ;
56 [label="gini = 0.0\nsamples = 1\nvalue = [0, 0, 1]"] ;
54 -> 56 ;
57 [label="X[13] <= 1.5\ngini = 0.5\nsamples = 2\nvalue = [1, 0, 1]"] ;
53 -> 57 ;
58 [label="gini = 0.0\nsamples = 1\nvalue = [0, 0, 1]"] ;
57 -> 58 ;
59 [label="gini = 0.0\nsamples = 1\nvalue = [1, 0, 0]"] ;
57 -> 59 ;
60 [label="gini = 0.0\nsamples = 2\nvalue = [0, 0, 2]"] ;
50 -> 60 ;
61 [label="gini = 0.0\nsamples = 5\nvalue = [0, 0, 5]"] ;
49 -> 61 ;
62 [label="X[13] <= 1.5\ngini = 0.375\nsamples = 8\nvalue = [0, 2, 6]"] ;
40 -> 62 ;
63 [label="X[25] <= 1.5\ngini = 0.5\nsamples = 4\nvalue = [0, 2, 2]"] ;
62 -> 63 ;
64 [label="X[36] <= 0.5\ngini = 0.444\nsamples = 3\nvalue = [0, 2, 1]"] ;
63 -> 64 ;
65 [label="gini = 0.0\nsamples = 2\nvalue = [0, 2, 0]"] ;
64 -> 65 ;
66 [label="gini = 0.0\nsamples = 1\nvalue = [0, 0, 1]"] ;
64 -> 66 ;
67 [label="gini = 0.0\nsamples = 1\nvalue = [0, 0, 1]"] ;
63 -> 67 ;
68 [label="gini = 0.0\nsamples = 4\nvalue = [0, 0, 4]"] ;
62 -> 68 ;
69 [label="X[25] <= 1.5\ngini = 0.667\nsamples = 3\nvalue = [1, 1, 1]"] ;
39 -> 69 ;
70 [label="X[14] <= 1.5\ngini = 0.5\nsamples = 2\nvalue = [1, 1, 0]"] ;
69 -> 70 ;
71 [label="gini = 0.0\nsamples = 1\nvalue = [0, 1, 0]"] ;
70 -> 71 ;
72 [label="gini = 0.0\nsamples = 1\nvalue = [1, 0, 0]"] ;
70 -> 72 ;
73 [label="gini = 0.0\nsamples = 1\nvalue = [0, 0, 1]"] ;
69 -> 73 ;
74 [label="X[26] <= 0.5\ngini = 0.412\nsamples = 27\nvalue = [5, 2, 20]"] ;
12 -> 74 ;
75 [label="X[33] <= 0.5\ngini = 0.333\nsamples = 25\nvalue = [4, 1, 20]"] ;
74 -> 75 ;
76 [label="X[25] <= 0.5\ngini = 0.117\nsamples = 16\nvalue = [1, 0, 15]"] ;
75 -> 76 ;
77 [label="gini = 0.0\nsamples = 12\nvalue = [0, 0, 12]"] ;
76 -> 77 ;
78 [label="X[31] <= 1.5\ngini = 0.375\nsamples = 4\nvalue = [1, 0, 3]"] ;
76 -> 78 ;
79 [label="gini = 0.0\nsamples = 2\nvalue = [0, 0, 2]"] ;
78 -> 79 ;
80 [label="X[24] <= 1.5\ngini = 0.5\nsamples = 2\nvalue = [1, 0, 1]"] ;
78 -> 80 ;
81 [label="gini = 0.0\nsamples = 1\nvalue = [0, 0, 1]"] ;
80 -> 81 ;
82 [label="gini = 0.0\nsamples = 1\nvalue = [1, 0, 0]"] ;
80 -> 82 ;
83 [label="X[14] <= 0.5\ngini = 0.568\nsamples = 9\nvalue = [3, 1, 5]"] ;
75 -> 83 ;
84 [label="X[13] <= 0.5\ngini = 0.449\nsamples = 7\nvalue = [1, 1, 5]"] ;
83 -> 84 ;
85 [label="gini = 0.0\nsamples = 3\nvalue = [0, 0, 3]"] ;
84 -> 85 ;
86 [label="X[24] <= 1.5\ngini = 0.625\nsamples = 4\nvalue = [1, 1, 2]"] ;
84 -> 86 ;
87 [label="gini = 0.0\nsamples = 2\nvalue = [0, 0, 2]"] ;
86 -> 87 ;
88 [label="X[13] <= 1.5\ngini = 0.5\nsamples = 2\nvalue = [1, 1, 0]"] ;
86 -> 88 ;
89 [label="gini = 0.0\nsamples = 1\nvalue = [0, 1, 0]"] ;
88 -> 89 ;
90 [label="gini = 0.0\nsamples = 1\nvalue = [1, 0, 0]"] ;
88 -> 90 ;
91 [label="gini = 0.0\nsamples = 2\nvalue = [2, 0, 0]"] ;
83 -> 91 ;
92 [label="X[25] <= 1.5\ngini = 0.5\nsamples = 2\nvalue = [1, 1, 0]"] ;
74 -> 92 ;
93 [label="gini = 0.0\nsamples = 1\nvalue = [0, 1, 0]"] ;
92 -> 93 ;
94 [label="gini = 0.0\nsamples = 1\nvalue = [1, 0, 0]"] ;
92 -> 94 ;
95 [label="X[24] <= 1.5\ngini = 0.479\nsamples = 32\nvalue = [5, 5, 22]"] ;
11 -> 95 ;
96 [label="X[31] <= 0.5\ngini = 0.244\nsamples = 22\nvalue = [1, 2, 19]"] ;
95 -> 96 ;
97 [label="X[19] <= 0.5\ngini = 0.18\nsamples = 20\nvalue = [0, 2, 18]"] ;
96 -> 97 ;
98 [label="gini = 0.0\nsamples = 13\nvalue = [0, 0, 13]"] ;
97 -> 98 ;
99 [label="X[36] <= 0.5\ngini = 0.408\nsamples = 7\nvalue = [0, 2, 5]"] ;
97 -> 99 ;
100 [label="X[30] <= 0.5\ngini = 0.278\nsamples = 6\nvalue = [0, 1, 5]"] ;
99 -> 100 ;
101 [label="gini = 0.0\nsamples = 4\nvalue = [0, 0, 4]"] ;
100 -> 101 ;
102 [label="X[14] <= 1.5\ngini = 0.5\nsamples = 2\nvalue = [0, 1, 1]"] ;
100 -> 102 ;
103 [label="gini = 0.0\nsamples = 1\nvalue = [0, 1, 0]"] ;
102 -> 103 ;
104 [label="gini = 0.0\nsamples = 1\nvalue = [0, 0, 1]"] ;
102 -> 104 ;
105 [label="gini = 0.0\nsamples = 1\nvalue = [0, 1, 0]"] ;
99 -> 105 ;
106 [label="X[15] <= 1.5\ngini = 0.5\nsamples = 2\nvalue = [1, 0, 1]"] ;
96 -> 106 ;
107 [label="gini = 0.0\nsamples = 1\nvalue = [0, 0, 1]"] ;
106 -> 107 ;
108 [label="gini = 0.0\nsamples = 1\nvalue = [1, 0, 0]"] ;
106 -> 108 ;
109 [label="X[17] <= 0.5\ngini = 0.66\nsamples = 10\nvalue = [4, 3, 3]"] ;
95 -> 109 ;
110 [label="X[19] <= 0.5\ngini = 0.594\nsamples = 8\nvalue = [4, 3, 1]"] ;
109 -> 110 ;
111 [label="X[14] <= 1.5\ngini = 0.5\nsamples = 6\nvalue = [4, 1, 1]"] ;
110 -> 111 ;
112 [label="X[30] <= 0.5\ngini = 0.667\nsamples = 3\nvalue = [1, 1, 1]"] ;
111 -> 112 ;
113 [label="X[36] <= 0.5\ngini = 0.5\nsamples = 2\nvalue = [0, 1, 1]"] ;
112 -> 113 ;
114 [label="gini = 0.0\nsamples = 1\nvalue = [0, 0, 1]"] ;
113 -> 114 ;
115 [label="gini = 0.0\nsamples = 1\nvalue = [0, 1, 0]"] ;
113 -> 115 ;
116 [label="gini = 0.0\nsamples = 1\nvalue = [1, 0, 0]"] ;
112 -> 116 ;
117 [label="gini = 0.0\nsamples = 3\nvalue = [3, 0, 0]"] ;
111 -> 117 ;
118 [label="gini = 0.0\nsamples = 2\nvalue = [0, 2, 0]"] ;
110 -> 118 ;
119 [label="gini = 0.0\nsamples = 2\nvalue = [0, 0, 2]"] ;
109 -> 119 ;
120 [label="X[24] <= 0.5\ngini = 0.375\nsamples = 4\nvalue = [3, 0, 1]"] ;
10 -> 120 ;
121 [label="gini = 0.0\nsamples = 3\nvalue = [3, 0, 0]"] ;
120 -> 121 ;
122 [label="gini = 0.0\nsamples = 1\nvalue = [0, 0, 1]"] ;
120 -> 122 ;
123 [label="X[15] <= 1.5\ngini = 0.483\nsamples = 70\nvalue = [17, 6, 47]"] ;
9 -> 123 ;
124 [label="X[24] <= 1.5\ngini = 0.456\nsamples = 67\nvalue = [14, 6, 47]"] ;
123 -> 124 ;
125 [label="X[39] <= 1.5\ngini = 0.213\nsamples = 33\nvalue = [4, 0, 29]"] ;
124 -> 125 ;
126 [label="X[38] <= 1.5\ngini = 0.133\nsamples = 28\nvalue = [2, 0, 26]"] ;
125 -> 126 ;
127 [label="gini = 0.0\nsamples = 17\nvalue = [0, 0, 17]"] ;
126 -> 127 ;
128 [label="X[15] <= 0.5\ngini = 0.298\nsamples = 11\nvalue = [2, 0, 9]"] ;
126 -> 128 ;
129 [label="X[14] <= 0.5\ngini = 0.18\nsamples = 10\nvalue = [1, 0, 9]"] ;
128 -> 129 ;
130 [label="gini = 0.0\nsamples = 7\nvalue = [0, 0, 7]"] ;
129 -> 130 ;
131 [label="X[30] <= 0.5\ngini = 0.444\nsamples = 3\nvalue = [1, 0, 2]"] ;
129 -> 131 ;
132 [label="gini = 0.0\nsamples = 2\nvalue = [0, 0, 2]"] ;
131 -> 132 ;
133 [label="gini = 0.0\nsamples = 1\nvalue = [1, 0, 0]"] ;
131 -> 133 ;
134 [label="gini = 0.0\nsamples = 1\nvalue = [1, 0, 0]"] ;
128 -> 134 ;
135 [label="X[19] <= 0.5\ngini = 0.48\nsamples = 5\nvalue = [2, 0, 3]"] ;
125 -> 135 ;
136 [label="X[14] <= 0.5\ngini = 0.375\nsamples = 4\nvalue = [1, 0, 3]"] ;
135 -> 136 ;
137 [label="gini = 0.0\nsamples = 3\nvalue = [0, 0, 3]"] ;
136 -> 137 ;
138 [label="gini = 0.0\nsamples = 1\nvalue = [1, 0, 0]"] ;
136 -> 138 ;
139 [label="gini = 0.0\nsamples = 1\nvalue = [1, 0, 0]"] ;
135 -> 139 ;
140 [label="X[30] <= 0.5\ngini = 0.602\nsamples = 34\nvalue = [10, 6, 18]"] ;
124 -> 140 ;
141 [label="X[26] <= 0.5\ngini = 0.637\nsamples = 19\nvalue = [9, 5, 5]"] ;
140 -> 141 ;
142 [label="X[40] <= 0.5\ngini = 0.625\nsamples = 12\nvalue = [5, 5, 2]"] ;
141 -> 142 ;
143 [label="X[39] <= 1.5\ngini = 0.579\nsamples = 11\nvalue = [5, 5, 1]"] ;
142 -> 143 ;
144 [label="X[39] <= 0.5\ngini = 0.58\nsamples = 10\nvalue = [5, 4, 1]"] ;
143 -> 144 ;
145 [label="X[13] <= 1.5\ngini = 0.594\nsamples = 8\nvalue = [3, 4, 1]"] ;
144 -> 145 ;
146 [label="X[15] <= 0.5\ngini = 0.56\nsamples = 5\nvalue = [1, 3, 1]"] ;
145 -> 146 ;
147 [label="X[38] <= 0.5\ngini = 0.375\nsamples = 4\nvalue = [0, 3, 1]"] ;
146 -> 147 ;
148 [label="gini = 0.0\nsamples = 2\nvalue = [0, 2, 0]"] ;
147 -> 148 ;
149 [label="X[38] <= 1.5\ngini = 0.5\nsamples = 2\nvalue = [0, 1, 1]"] ;
147 -> 149 ;
150 [label="gini = 0.0\nsamples = 1\nvalue = [0, 0, 1]"] ;
149 -> 150 ;
151 [label="gini = 0.0\nsamples = 1\nvalue = [0, 1, 0]"] ;
149 -> 151 ;
152 [label="gini = 0.0\nsamples = 1\nvalue = [1, 0, 0]"] ;
146 -> 152 ;
153 [label="X[15] <= 0.5\ngini = 0.444\nsamples = 3\nvalue = [2, 1, 0]"] ;
145 -> 153 ;
154 [label="gini = 0.0\nsamples = 2\nvalue = [2, 0, 0]"] ;
153 -> 154 ;
155 [label="gini = 0.0\nsamples = 1\nvalue = [0, 1, 0]"] ;
153 -> 155 ;
156 [label="gini = 0.0\nsamples = 2\nvalue = [2, 0, 0]"] ;
144 -> 156 ;
157 [label="gini = 0.0\nsamples = 1\nvalue = [0, 1, 0]"] ;
143 -> 157 ;
158 [label="gini = 0.0\nsamples = 1\nvalue = [0, 0, 1]"] ;
142 -> 158 ;
159 [label="X[38] <= 0.5\ngini = 0.49\nsamples = 7\nvalue = [4, 0, 3]"] ;
141 -> 159 ;
160 [label="X[13] <= 1.5\ngini = 0.32\nsamples = 5\nvalue = [4, 0, 1]"] ;
159 -> 160 ;
161 [label="gini = 0.0\nsamples = 4\nvalue = [4, 0, 0]"] ;
160 -> 161 ;
162 [label="gini = 0.0\nsamples = 1\nvalue = [0, 0, 1]"] ;
160 -> 162 ;
163 [label="gini = 0.0\nsamples = 2\nvalue = [0, 0, 2]"] ;
159 -> 163 ;
164 [label="X[26] <= 0.5\ngini = 0.24\nsamples = 15\nvalue = [1, 1, 13]"] ;
140 -> 164 ;
165 [label="X[38] <= 1.5\ngini = 0.142\nsamples = 13\nvalue = [0, 1, 12]"] ;
164 -> 165 ;
166 [label="gini = 0.0\nsamples = 10\nvalue = [0, 0, 10]"] ;
165 -> 166 ;
167 [label="X[25] <= 0.5\ngini = 0.444\nsamples = 3\nvalue = [0, 1, 2]"] ;
165 -> 167 ;
168 [label="gini = 0.0\nsamples = 2\nvalue = [0, 0, 2]"] ;
167 -> 168 ;
169 [label="gini = 0.0\nsamples = 1\nvalue = [0, 1, 0]"] ;
167 -> 169 ;
170 [label="X[25] <= 1.5\ngini = 0.5\nsamples = 2\nvalue = [1, 0, 1]"] ;
164 -> 170 ;
171 [label="gini = 0.0\nsamples = 1\nvalue = [0, 0, 1]"] ;
170 -> 171 ;
172 [label="gini = 0.0\nsamples = 1\nvalue = [1, 0, 0]"] ;
170 -> 172 ;
173 [label="gini = 0.0\nsamples = 3\nvalue = [3, 0, 0]"] ;
123 -> 173 ;
174 [label="X[24] <= 1.5\ngini = 0.57\nsamples = 167\nvalue = [37, 32, 98]"] ;
8 -> 174 ;
175 [label="X[24] <= 0.5\ngini = 0.48\nsamples = 127\nvalue = [23, 17, 87]"] ;
174 -> 175 ;
176 [label="X[31] <= 1.5\ngini = 0.585\nsamples = 87\nvalue = [22, 16, 49]"] ;
175 -> 176 ;
177 [label="X[31] <= 0.5\ngini = 0.649\nsamples = 63\nvalue = [21, 15, 27]"] ;
176 -> 177 ;
178 [label="X[19] <= 0.5\ngini = 0.536\nsamples = 26\nvalue = [3, 7, 16]"] ;
177 -> 178 ;
179 [label="X[14] <= 1.5\ngini = 0.482\nsamples = 19\nvalue = [3, 3, 13]"] ;
178 -> 179 ;
180 [label="X[15] <= 0.5\ngini = 0.645\nsamples = 11\nvalue = [3, 3, 5]"] ;
179 -> 180 ;
181 [label="X[37] <= 1.5\ngini = 0.5\nsamples = 6\nvalue = [0, 3, 3]"] ;
180 -> 181 ;
182 [label="gini = 0.0\nsamples = 2\nvalue = [0, 0, 2]"] ;
181 -> 182 ;
183 [label="X[40] <= 0.5\ngini = 0.375\nsamples = 4\nvalue = [0, 3, 1]"] ;
181 -> 183 ;
184 [label="gini = 0.0\nsamples = 3\nvalue = [0, 3, 0]"] ;
183 -> 184 ;
185 [label="gini = 0.0\nsamples = 1\nvalue = [0, 0, 1]"] ;
183 -> 185 ;
186 [label="X[36] <= 0.5\ngini = 0.48\nsamples = 5\nvalue = [3, 0, 2]"] ;
180 -> 186 ;
187 [label="gini = 0.0\nsamples = 2\nvalue = [0, 0, 2]"] ;
186 -> 187 ;
188 [label="gini = 0.0\nsamples = 3\nvalue = [3, 0, 0]"] ;
186 -> 188 ;
189 [label="gini = 0.0\nsamples = 8\nvalue = [0, 0, 8]"] ;
179 -> 189 ;
190 [label="X[16] <= 1.5\ngini = 0.49\nsamples = 7\nvalue = [0, 4, 3]"] ;
178 -> 190 ;
191 [label="X[13] <= 1.5\ngini = 0.48\nsamples = 5\nvalue = [0, 2, 3]"] ;
190 -> 191 ;
192 [label="X[16] <= 0.5\ngini = 0.444\nsamples = 3\nvalue = [0, 2, 1]"] ;
191 -> 192 ;
193 [label="X[37] <= 1.0\ngini = 0.5\nsamples = 2\nvalue = [0, 1, 1]"] ;
192 -> 193 ;
194 [label="gini = 0.0\nsamples = 1\nvalue = [0, 0, 1]"] ;
193 -> 194 ;
195 [label="gini = 0.0\nsamples = 1\nvalue = [0, 1, 0]"] ;
193 -> 195 ;
196 [label="gini = 0.0\nsamples = 1\nvalue = [0, 1, 0]"] ;
192 -> 196 ;
197 [label="gini = 0.0\nsamples = 2\nvalue = [0, 0, 2]"] ;
191 -> 197 ;
198 [label="gini = 0.0\nsamples = 2\nvalue = [0, 2, 0]"] ;
190 -> 198 ;
199 [label="X[33] <= 1.5\ngini = 0.628\nsamples = 37\nvalue = [18, 8, 11]"] ;
177 -> 199 ;
200 [label="X[19] <= 0.5\ngini = 0.586\nsamples = 32\nvalue = [18, 8, 6]"] ;
199 -> 200 ;
201 [label="X[14] <= 1.5\ngini = 0.56\nsamples = 30\nvalue = [18, 6, 6]"] ;
200 -> 201 ;
202 [label="X[37] <= 1.5\ngini = 0.505\nsamples = 20\nvalue = [13, 5, 2]"] ;
201 -> 202 ;
203 [label="X[16] <= 1.0\ngini = 0.314\nsamples = 11\nvalue = [9, 1, 1]"] ;
202 -> 203 ;
204 [label="X[34] <= 0.5\ngini = 0.18\nsamples = 10\nvalue = [9, 0, 1]"] ;
203 -> 204 ;
205 [label="gini = 0.0\nsamples = 7\nvalue = [7, 0, 0]"] ;
204 -> 205 ;
206 [label="X[34] <= 1.5\ngini = 0.444\nsamples = 3\nvalue = [2, 0, 1]"] ;
204 -> 206 ;
207 [label="gini = 0.0\nsamples = 1\nvalue = [0, 0, 1]"] ;
206 -> 207 ;
208 [label="gini = 0.0\nsamples = 2\nvalue = [2, 0, 0]"] ;
206 -> 208 ;
209 [label="gini = 0.0\nsamples = 1\nvalue = [0, 1, 0]"] ;
203 -> 209 ;
210 [label="X[39] <= 0.5\ngini = 0.593\nsamples = 9\nvalue = [4, 4, 1]"] ;
202 -> 210 ;
211 [label="X[13] <= 1.5\ngini = 0.571\nsamples = 7\nvalue = [2, 4, 1]"] ;
210 -> 211 ;
212 [label="X[32] <= 1.5\ngini = 0.32\nsamples = 5\nvalue = [1, 4, 0]"] ;
211 -> 212 ;
213 [label="gini = 0.0\nsamples = 2\nvalue = [0, 2, 0]"] ;
212 -> 213 ;
214 [label="X[38] <= 0.5\ngini = 0.444\nsamples = 3\nvalue = [1, 2, 0]"] ;
212 -> 214 ;
215 [label="gini = 0.0\nsamples = 2\nvalue = [0, 2, 0]"] ;
214 -> 215 ;
216 [label="gini = 0.0\nsamples = 1\nvalue = [1, 0, 0]"] ;
214 -> 216 ;
217 [label="X[14] <= 0.5\ngini = 0.5\nsamples = 2\nvalue = [1, 0, 1]"] ;
211 -> 217 ;
218 [label="gini = 0.0\nsamples = 1\nvalue = [0, 0, 1]"] ;
217 -> 218 ;
219 [label="gini = 0.0\nsamples = 1\nvalue = [1, 0, 0]"] ;
217 -> 219 ;
220 [label="gini = 0.0\nsamples = 2\nvalue = [2, 0, 0]"] ;
210 -> 220 ;
221 [label="X[32] <= 0.5\ngini = 0.58\nsamples = 10\nvalue = [5, 1, 4]"] ;
201 -> 221 ;
222 [label="X[16] <= 1.5\ngini = 0.444\nsamples = 6\nvalue = [4, 0, 2]"] ;
221 -> 222 ;
223 [label="X[16] <= 0.5\ngini = 0.48\nsamples = 5\nvalue = [3, 0, 2]"] ;
222 -> 223 ;
224 [label="X[13] <= 1.5\ngini = 0.375\nsamples = 4\nvalue = [3, 0, 1]"] ;
223 -> 224 ;
225 [label="gini = 0.0\nsamples = 2\nvalue = [2, 0, 0]"] ;
224 -> 225 ;
226 [label="X[15] <= 0.5\ngini = 0.5\nsamples = 2\nvalue = [1, 0, 1]"] ;
224 -> 226 ;
227 [label="gini = 0.0\nsamples = 1\nvalue = [0, 0, 1]"] ;
226 -> 227 ;
228 [label="gini = 0.0\nsamples = 1\nvalue = [1, 0, 0]"] ;
226 -> 228 ;
229 [label="gini = 0.0\nsamples = 1\nvalue = [0, 0, 1]"] ;
223 -> 229 ;
230 [label="gini = 0.0\nsamples = 1\nvalue = [1, 0, 0]"] ;
222 -> 230 ;
231 [label="X[33] <= 0.5\ngini = 0.625\nsamples = 4\nvalue = [1, 1, 2]"] ;
221 -> 231 ;
232 [label="X[15] <= 0.5\ngini = 0.444\nsamples = 3\nvalue = [0, 1, 2]"] ;
231 -> 232 ;
233 [label="gini = 0.0\nsamples = 1\nvalue = [0, 0, 1]"] ;
232 -> 233 ;
234 [label="X[15] <= 1.5\ngini = 0.5\nsamples = 2\nvalue = [0, 1, 1]"] ;
232 -> 234 ;
235 [label="gini = 0.0\nsamples = 1\nvalue = [0, 1, 0]"] ;
234 -> 235 ;
236 [label="gini = 0.0\nsamples = 1\nvalue = [0, 0, 1]"] ;
234 -> 236 ;
237 [label="gini = 0.0\nsamples = 1\nvalue = [1, 0, 0]"] ;
231 -> 237 ;
238 [label="gini = 0.0\nsamples = 2\nvalue = [0, 2, 0]"] ;
200 -> 238 ;
239 [label="gini = 0.0\nsamples = 5\nvalue = [0, 0, 5]"] ;
199 -> 239 ;
240 [label="X[13] <= 1.5\ngini = 0.156\nsamples = 24\nvalue = [1, 1, 22]"] ;
176 -> 240 ;
241 [label="gini = 0.0\nsamples = 18\nvalue = [0, 0, 18]"] ;
240 -> 241 ;
242 [label="X[37] <= 0.5\ngini = 0.5\nsamples = 6\nvalue = [1, 1, 4]"] ;
240 -> 242 ;
243 [label="X[32] <= 0.5\ngini = 0.625\nsamples = 4\nvalue = [1, 1, 2]"] ;
242 -> 243 ;
244 [label="gini = 0.0\nsamples = 1\nvalue = [1, 0, 0]"] ;
243 -> 244 ;
245 [label="X[33] <= 0.5\ngini = 0.444\nsamples = 3\nvalue = [0, 1, 2]"] ;
243 -> 245 ;
246 [label="X[15] <= 0.5\ngini = 0.5\nsamples = 2\nvalue = [0, 1, 1]"] ;
245 -> 246 ;
247 [label="gini = 0.0\nsamples = 1\nvalue = [0, 1, 0]"] ;
246 -> 247 ;
248 [label="gini = 0.0\nsamples = 1\nvalue = [0, 0, 1]"] ;
246 -> 248 ;
249 [label="gini = 0.0\nsamples = 1\nvalue = [0, 0, 1]"] ;
245 -> 249 ;
250 [label="gini = 0.0\nsamples = 2\nvalue = [0, 0, 2]"] ;
242 -> 250 ;
251 [label="X[33] <= 0.5\ngini = 0.096\nsamples = 40\nvalue = [1, 1, 38]"] ;
175 -> 251 ;
252 [label="X[19] <= 0.5\ngini = 0.05\nsamples = 39\nvalue = [0, 1, 38]"] ;
251 -> 252 ;
253 [label="gini = 0.0\nsamples = 37\nvalue = [0, 0, 37]"] ;
252 -> 253 ;
254 [label="X[13] <= 1.5\ngini = 0.5\nsamples = 2\nvalue = [0, 1, 1]"] ;
252 -> 254 ;
255 [label="gini = 0.0\nsamples = 1\nvalue = [0, 1, 0]"] ;
254 -> 255 ;
256 [label="gini = 0.0\nsamples = 1\nvalue = [0, 0, 1]"] ;
254 -> 256 ;
257 [label="gini = 0.0\nsamples = 1\nvalue = [1, 0, 0]"] ;
251 -> 257 ;
258 [label="X[26] <= 0.5\ngini = 0.661\nsamples = 40\nvalue = [14, 15, 11]"] ;
174 -> 258 ;
259 [label="X[25] <= 1.5\ngini = 0.662\nsamples = 32\nvalue = [12, 9, 11]"] ;
258 -> 259 ;
260 [label="X[13] <= 0.5\ngini = 0.656\nsamples = 29\nvalue = [12, 9, 8]"] ;
259 -> 260 ;
261 [label="X[32] <= 0.5\ngini = 0.5\nsamples = 12\nvalue = [8, 2, 2]"] ;
260 -> 261 ;
262 [label="X[39] <= 0.5\ngini = 0.245\nsamples = 7\nvalue = [6, 0, 1]"] ;
261 -> 262 ;
263 [label="gini = 0.0\nsamples = 5\nvalue = [5, 0, 0]"] ;
262 -> 263 ;
264 [label="X[37] <= 1.5\ngini = 0.5\nsamples = 2\nvalue = [1, 0, 1]"] ;
262 -> 264 ;
265 [label="gini = 0.0\nsamples = 1\nvalue = [0, 0, 1]"] ;
264 -> 265 ;
266 [label="gini = 0.0\nsamples = 1\nvalue = [1, 0, 0]"] ;
264 -> 266 ;
267 [label="X[37] <= 0.5\ngini = 0.64\nsamples = 5\nvalue = [2, 2, 1]"] ;
261 -> 267 ;
268 [label="X[33] <= 0.5\ngini = 0.444\nsamples = 3\nvalue = [2, 1, 0]"] ;
267 -> 268 ;
269 [label="X[31] <= 1.5\ngini = 0.5\nsamples = 2\nvalue = [1, 1, 0]"] ;
268 -> 269 ;
270 [label="gini = 0.0\nsamples = 1\nvalue = [1, 0, 0]"] ;
269 -> 270 ;
271 [label="gini = 0.0\nsamples = 1\nvalue = [0, 1, 0]"] ;
269 -> 271 ;
272 [label="gini = 0.0\nsamples = 1\nvalue = [1, 0, 0]"] ;
268 -> 272 ;
273 [label="X[32] <= 1.5\ngini = 0.5\nsamples = 2\nvalue = [0, 1, 1]"] ;
267 -> 273 ;
274 [label="gini = 0.0\nsamples = 1\nvalue = [0, 1, 0]"] ;
273 -> 274 ;
275 [label="gini = 0.0\nsamples = 1\nvalue = [0, 0, 1]"] ;
273 -> 275 ;
276 [label="X[14] <= 1.5\ngini = 0.651\nsamples = 17\nvalue = [4, 7, 6]"] ;
260 -> 276 ;
277 [label="X[25] <= 0.5\ngini = 0.604\nsamples = 15\nvalue = [2, 7, 6]"] ;
276 -> 277 ;
278 [label="X[31] <= 0.5\ngini = 0.562\nsamples = 11\nvalue = [1, 4, 6]"] ;
277 -> 278 ;
279 [label="X[13] <= 1.5\ngini = 0.32\nsamples = 5\nvalue = [0, 1, 4]"] ;
278 -> 279 ;
280 [label="gini = 0.0\nsamples = 3\nvalue = [0, 0, 3]"] ;
279 -> 280 ;
281 [label="X[15] <= 0.5\ngini = 0.5\nsamples = 2\nvalue = [0, 1, 1]"] ;
279 -> 281 ;
282 [label="gini = 0.0\nsamples = 1\nvalue = [0, 0, 1]"] ;
281 -> 282 ;
283 [label="gini = 0.0\nsamples = 1\nvalue = [0, 1, 0]"] ;
281 -> 283 ;
284 [label="X[14] <= 0.5\ngini = 0.611\nsamples = 6\nvalue = [1, 3, 2]"] ;
278 -> 284 ;
285 [label="X[31] <= 1.5\ngini = 0.56\nsamples = 5\nvalue = [1, 3, 1]"] ;
284 -> 285 ;
286 [label="X[32] <= 0.5\ngini = 0.375\nsamples = 4\nvalue = [1, 3, 0]"] ;
285 -> 286 ;
287 [label="X[37] <= 1.5\ngini = 0.5\nsamples = 2\nvalue = [1, 1, 0]"] ;
286 -> 287 ;
288 [label="gini = 0.0\nsamples = 1\nvalue = [1, 0, 0]"] ;
287 -> 288 ;
289 [label="gini = 0.0\nsamples = 1\nvalue = [0, 1, 0]"] ;
287 -> 289 ;
290 [label="gini = 0.0\nsamples = 2\nvalue = [0, 2, 0]"] ;
286 -> 290 ;
291 [label="gini = 0.0\nsamples = 1\nvalue = [0, 0, 1]"] ;
285 -> 291 ;
292 [label="gini = 0.0\nsamples = 1\nvalue = [0, 0, 1]"] ;
284 -> 292 ;
293 [label="X[31] <= 0.5\ngini = 0.375\nsamples = 4\nvalue = [1, 3, 0]"] ;
277 -> 293 ;
294 [label="gini = 0.0\nsamples = 2\nvalue = [0, 2, 0]"] ;
293 -> 294 ;
295 [label="X[13] <= 1.5\ngini = 0.5\nsamples = 2\nvalue = [1, 1, 0]"] ;
293 -> 295 ;
296 [label="gini = 0.0\nsamples = 1\nvalue = [0, 1, 0]"] ;
295 -> 296 ;
297 [label="gini = 0.0\nsamples = 1\nvalue = [1, 0, 0]"] ;
295 -> 297 ;
298 [label="gini = 0.0\nsamples = 2\nvalue = [2, 0, 0]"] ;
276 -> 298 ;
299 [label="gini = 0.0\nsamples = 3\nvalue = [0, 0, 3]"] ;
259 -> 299 ;
300 [label="X[27] <= 1.5\ngini = 0.375\nsamples = 8\nvalue = [2, 6, 0]"] ;
258 -> 300 ;
301 [label="X[37] <= 0.5\ngini = 0.245\nsamples = 7\nvalue = [1, 6, 0]"] ;
300 -> 301 ;
302 [label="gini = 0.0\nsamples = 5\nvalue = [0, 5, 0]"] ;
301 -> 302 ;
303 [label="X[37] <= 1.5\ngini = 0.5\nsamples = 2\nvalue = [1, 1, 0]"] ;
301 -> 303 ;
304 [label="gini = 0.0\nsamples = 1\nvalue = [1, 0, 0]"] ;
303 -> 304 ;
305 [label="gini = 0.0\nsamples = 1\nvalue = [0, 1, 0]"] ;
303 -> 305 ;
306 [label="gini = 0.0\nsamples = 1\nvalue = [1, 0, 0]"] ;
300 -> 306 ;
307 [label="X[26] <= 0.5\ngini = 0.052\nsamples = 189\nvalue = [2, 3, 184]"] ;
7 -> 307 ;
308 [label="X[38] <= 0.5\ngini = 0.012\nsamples = 165\nvalue = [0, 1, 164]"] ;
307 -> 308 ;
309 [label="gini = 0.0\nsamples = 145\nvalue = [0, 0, 145]"] ;
308 -> 309 ;
310 [label="X[14] <= 0.5\ngini = 0.095\nsamples = 20\nvalue = [0, 1, 19]"] ;
308 -> 310 ;
311 [label="gini = 0.0\nsamples = 17\nvalue = [0, 0, 17]"] ;
310 -> 311 ;
312 [label="X[37] <= 1.5\ngini = 0.444\nsamples = 3\nvalue = [0, 1, 2]"] ;
310 -> 312 ;
313 [label="gini = 0.0\nsamples = 1\nvalue = [0, 0, 1]"] ;
312 -> 313 ;
314 [label="X[14] <= 1.5\ngini = 0.5\nsamples = 2\nvalue = [0, 1, 1]"] ;
312 -> 314 ;
315 [label="gini = 0.0\nsamples = 1\nvalue = [0, 1, 0]"] ;
314 -> 315 ;
316 [label="gini = 0.0\nsamples = 1\nvalue = [0, 0, 1]"] ;
314 -> 316 ;
317 [label="X[30] <= 1.5\ngini = 0.292\nsamples = 24\nvalue = [2, 2, 20]"] ;
307 -> 317 ;
318 [label="X[31] <= 0.5\ngini = 0.244\nsamples = 22\nvalue = [1, 2, 19]"] ;
317 -> 318 ;
319 [label="X[13] <= 1.5\ngini = 0.188\nsamples = 19\nvalue = [0, 2, 17]"] ;
318 -> 319 ;
320 [label="X[30] <= 0.5\ngini = 0.117\nsamples = 16\nvalue = [0, 1, 15]"] ;
319 -> 320 ;
321 [label="gini = 0.0\nsamples = 12\nvalue = [0, 0, 12]"] ;
320 -> 321 ;
322 [label="X[27] <= 0.5\ngini = 0.375\nsamples = 4\nvalue = [0, 1, 3]"] ;
320 -> 322 ;
323 [label="gini = 0.0\nsamples = 1\nvalue = [0, 1, 0]"] ;
322 -> 323 ;
324 [label="gini = 0.0\nsamples = 3\nvalue = [0, 0, 3]"] ;
322 -> 324 ;
325 [label="X[25] <= 1.5\ngini = 0.444\nsamples = 3\nvalue = [0, 1, 2]"] ;
319 -> 325 ;
326 [label="X[30] <= 0.5\ngini = 0.5\nsamples = 2\nvalue = [0, 1, 1]"] ;
325 -> 326 ;
327 [label="gini = 0.0\nsamples = 1\nvalue = [0, 1, 0]"] ;
326 -> 327 ;
328 [label="gini = 0.0\nsamples = 1\nvalue = [0, 0, 1]"] ;
326 -> 328 ;
329 [label="gini = 0.0\nsamples = 1\nvalue = [0, 0, 1]"] ;
325 -> 329 ;
330 [label="X[25] <= 1.5\ngini = 0.444\nsamples = 3\nvalue = [1, 0, 2]"] ;
318 -> 330 ;
331 [label="gini = 0.0\nsamples = 2\nvalue = [0, 0, 2]"] ;
330 -> 331 ;
332 [label="gini = 0.0\nsamples = 1\nvalue = [1, 0, 0]"] ;
330 -> 332 ;
333 [label="X[13] <= 0.5\ngini = 0.5\nsamples = 2\nvalue = [1, 0, 1]"] ;
317 -> 333 ;
334 [label="gini = 0.0\nsamples = 1\nvalue = [1, 0, 0]"] ;
333 -> 334 ;
335 [label="gini = 0.0\nsamples = 1\nvalue = [0, 0, 1]"] ;
333 -> 335 ;
336 [label="X[20] <= 1.5\ngini = 0.57\nsamples = 372\nvalue = [56, 101, 215]"] ;
6 -> 336 ;
337 [label="X[21] <= 1.5\ngini = 0.644\nsamples = 191\nvalue = [52, 87, 52]"] ;
336 -> 337 ;
338 [label="X[21] <= 0.5\ngini = 0.568\nsamples = 135\nvalue = [34, 79, 22]"] ;
337 -> 338 ;
339 [label="X[32] <= 0.5\ngini = 0.635\nsamples = 96\nvalue = [34, 43, 19]"] ;
338 -> 339 ;
340 [label="X[14] <= 0.5\ngini = 0.605\nsamples = 83\nvalue = [34, 38, 11]"] ;
339 -> 340 ;
341 [label="X[13] <= 0.5\ngini = 0.541\nsamples = 41\nvalue = [11, 25, 5]"] ;
340 -> 341 ;
342 [label="X[30] <= 0.5\ngini = 0.62\nsamples = 19\nvalue = [8, 8, 3]"] ;
341 -> 342 ;
343 [label="X[26] <= 1.5\ngini = 0.32\nsamples = 5\nvalue = [4, 0, 1]"] ;
342 -> 343 ;
344 [label="gini = 0.0\nsamples = 4\nvalue = [4, 0, 0]"] ;
343 -> 344 ;
345 [label="gini = 0.0\nsamples = 1\nvalue = [0, 0, 1]"] ;
343 -> 345 ;
346 [label="X[30] <= 1.5\ngini = 0.571\nsamples = 14\nvalue = [4, 8, 2]"] ;
342 -> 346 ;
347 [label="X[37] <= 1.0\ngini = 0.494\nsamples = 9\nvalue = [1, 6, 2]"] ;
346 -> 347 ;
348 [label="X[36] <= 0.5\ngini = 0.611\nsamples = 6\nvalue = [1, 3, 2]"] ;
347 -> 348 ;
349 [label="X[26] <= 0.5\ngini = 0.375\nsamples = 4\nvalue = [1, 3, 0]"] ;
348 -> 349 ;
350 [label="gini = 0.0\nsamples = 2\nvalue = [0, 2, 0]"] ;
349 -> 350 ;
351 [label="X[25] <= 1.5\ngini = 0.5\nsamples = 2\nvalue = [1, 1, 0]"] ;
349 -> 351 ;
352 [label="gini = 0.0\nsamples = 1\nvalue = [0, 1, 0]"] ;
351 -> 352 ;
353 [label="gini = 0.0\nsamples = 1\nvalue = [1, 0, 0]"] ;
351 -> 353 ;
354 [label="gini = 0.0\nsamples = 2\nvalue = [0, 0, 2]"] ;
348 -> 354 ;
355 [label="gini = 0.0\nsamples = 3\nvalue = [0, 3, 0]"] ;
347 -> 355 ;
356 [label="X[24] <= 1.0\ngini = 0.48\nsamples = 5\nvalue = [3, 2, 0]"] ;
346 -> 356 ;
357 [label="gini = 0.0\nsamples = 2\nvalue = [2, 0, 0]"] ;
356 -> 357 ;
358 [label="X[25] <= 0.5\ngini = 0.444\nsamples = 3\nvalue = [1, 2, 0]"] ;
356 -> 358 ;
359 [label="gini = 0.0\nsamples = 2\nvalue = [0, 2, 0]"] ;
358 -> 359 ;
360 [label="gini = 0.0\nsamples = 1\nvalue = [1, 0, 0]"] ;
358 -> 360 ;
361 [label="X[26] <= 1.5\ngini = 0.376\nsamples = 22\nvalue = [3, 17, 2]"] ;
341 -> 361 ;
362 [label="X[37] <= 0.5\ngini = 0.322\nsamples = 21\nvalue = [3, 17, 1]"] ;
361 -> 362 ;
363 [label="X[30] <= 1.5\ngini = 0.142\nsamples = 13\nvalue = [0, 12, 1]"] ;
362 -> 363 ;
364 [label="gini = 0.0\nsamples = 9\nvalue = [0, 9, 0]"] ;
363 -> 364 ;
365 [label="X[31] <= 0.5\ngini = 0.375\nsamples = 4\nvalue = [0, 3, 1]"] ;
363 -> 365 ;
366 [label="X[24] <= 1.5\ngini = 0.5\nsamples = 2\nvalue = [0, 1, 1]"] ;
365 -> 366 ;
367 [label="gini = 0.0\nsamples = 1\nvalue = [0, 0, 1]"] ;
366 -> 367 ;
368 [label="gini = 0.0\nsamples = 1\nvalue = [0, 1, 0]"] ;
366 -> 368 ;
369 [label="gini = 0.0\nsamples = 2\nvalue = [0, 2, 0]"] ;
365 -> 369 ;
370 [label="X[24] <= 0.5\ngini = 0.469\nsamples = 8\nvalue = [3, 5, 0]"] ;
362 -> 370 ;
371 [label="X[37] <= 1.5\ngini = 0.32\nsamples = 5\nvalue = [1, 4, 0]"] ;
370 -> 371 ;
372 [label="X[30] <= 1.0\ngini = 0.5\nsamples = 2\nvalue = [1, 1, 0]"] ;
371 -> 372 ;
373 [label="gini = 0.0\nsamples = 1\nvalue = [0, 1, 0]"] ;
372 -> 373 ;
374 [label="gini = 0.0\nsamples = 1\nvalue = [1, 0, 0]"] ;
372 -> 374 ;
375 [label="gini = 0.0\nsamples = 3\nvalue = [0, 3, 0]"] ;
371 -> 375 ;
376 [label="X[13] <= 1.5\ngini = 0.444\nsamples = 3\nvalue = [2, 1, 0]"] ;
370 -> 376 ;
377 [label="gini = 0.0\nsamples = 1\nvalue = [0, 1, 0]"] ;
376 -> 377 ;
378 [label="gini = 0.0\nsamples = 2\nvalue = [2, 0, 0]"] ;
376 -> 378 ;
379 [label="gini = 0.0\nsamples = 1\nvalue = [0, 0, 1]"] ;
361 -> 379 ;
380 [label="X[19] <= 1.5\ngini = 0.584\nsamples = 42\nvalue = [23, 13, 6]"] ;
340 -> 380 ;
381 [label="X[31] <= 1.0\ngini = 0.278\nsamples = 6\nvalue = [0, 5, 1]"] ;
380 -> 381 ;
382 [label="gini = 0.0\nsamples = 5\nvalue = [0, 5, 0]"] ;
381 -> 382 ;
383 [label="gini = 0.0\nsamples = 1\nvalue = [0, 0, 1]"] ;
381 -> 383 ;
384 [label="X[31] <= 1.5\ngini = 0.523\nsamples = 36\nvalue = [23, 8, 5]"] ;
380 -> 384 ;
385 [label="X[30] <= 1.5\ngini = 0.486\nsamples = 34\nvalue = [23, 7, 4]"] ;
384 -> 385 ;
386 [label="X[15] <= 1.5\ngini = 0.412\nsamples = 27\nvalue = [20, 5, 2]"] ;
385 -> 386 ;
387 [label="X[13] <= 1.5\ngini = 0.32\nsamples = 20\nvalue = [16, 4, 0]"] ;
386 -> 387 ;
388 [label="gini = 0.0\nsamples = 7\nvalue = [7, 0, 0]"] ;
387 -> 388 ;
389 [label="X[37] <= 0.5\ngini = 0.426\nsamples = 13\nvalue = [9, 4, 0]"] ;
387 -> 389 ;
390 [label="X[31] <= 0.5\ngini = 0.463\nsamples = 11\nvalue = [7, 4, 0]"] ;
389 -> 390 ;
391 [label="X[24] <= 0.5\ngini = 0.48\nsamples = 10\nvalue = [6, 4, 0]"] ;
390 -> 391 ;
392 [label="X[15] <= 0.5\ngini = 0.444\nsamples = 3\nvalue = [1, 2, 0]"] ;
391 -> 392 ;
393 [label="gini = 0.0\nsamples = 1\nvalue = [1, 0, 0]"] ;
392 -> 393 ;
394 [label="gini = 0.0\nsamples = 2\nvalue = [0, 2, 0]"] ;
392 -> 394 ;
395 [label="X[24] <= 1.5\ngini = 0.408\nsamples = 7\nvalue = [5, 2, 0]"] ;
391 -> 395 ;
396 [label="gini = 0.0\nsamples = 3\nvalue = [3, 0, 0]"] ;
395 -> 396 ;
397 [label="X[36] <= 0.5\ngini = 0.5\nsamples = 4\nvalue = [2, 2, 0]"] ;
395 -> 397 ;
398 [label="X[15] <= 0.5\ngini = 0.444\nsamples = 3\nvalue = [1, 2, 0]"] ;
397 -> 398 ;
399 [label="gini = 0.0\nsamples = 2\nvalue = [0, 2, 0]"] ;
398 -> 399 ;
400 [label="gini = 0.0\nsamples = 1\nvalue = [1, 0, 0]"] ;
398 -> 400 ;
401 [label="gini = 0.0\nsamples = 1\nvalue = [1, 0, 0]"] ;
397 -> 401 ;
402 [label="gini = 0.0\nsamples = 1\nvalue = [1, 0, 0]"] ;
390 -> 402 ;
403 [label="gini = 0.0\nsamples = 2\nvalue = [2, 0, 0]"] ;
389 -> 403 ;
404 [label="X[14] <= 1.5\ngini = 0.571\nsamples = 7\nvalue = [4, 1, 2]"] ;
386 -> 404 ;
405 [label="gini = 0.0\nsamples = 4\nvalue = [4, 0, 0]"] ;
404 -> 405 ;
406 [label="X[16] <= 0.5\ngini = 0.444\nsamples = 3\nvalue = [0, 1, 2]"] ;
404 -> 406 ;
407 [label="gini = 0.0\nsamples = 2\nvalue = [0, 0, 2]"] ;
406 -> 407 ;
408 [label="gini = 0.0\nsamples = 1\nvalue = [0, 1, 0]"] ;
406 -> 408 ;
409 [label="X[24] <= 0.5\ngini = 0.653\nsamples = 7\nvalue = [3, 2, 2]"] ;
385 -> 409 ;
410 [label="X[14] <= 1.5\ngini = 0.48\nsamples = 5\nvalue = [3, 2, 0]"] ;
409 -> 410 ;
411 [label="X[36] <= 0.5\ngini = 0.444\nsamples = 3\nvalue = [1, 2, 0]"] ;
410 -> 411 ;
412 [label="gini = 0.0\nsamples = 2\nvalue = [0, 2, 0]"] ;
411 -> 412 ;
413 [label="gini = 0.0\nsamples = 1\nvalue = [1, 0, 0]"] ;
411 -> 413 ;
414 [label="gini = 0.0\nsamples = 2\nvalue = [2, 0, 0]"] ;
410 -> 414 ;
415 [label="gini = 0.0\nsamples = 2\nvalue = [0, 0, 2]"] ;
409 -> 415 ;
416 [label="X[13] <= 1.5\ngini = 0.5\nsamples = 2\nvalue = [0, 1, 1]"] ;
384 -> 416 ;
417 [label="gini = 0.0\nsamples = 1\nvalue = [0, 0, 1]"] ;
416 -> 417 ;
418 [label="gini = 0.0\nsamples = 1\nvalue = [0, 1, 0]"] ;
416 -> 418 ;
419 [label="X[31] <= 1.5\ngini = 0.473\nsamples = 13\nvalue = [0, 5, 8]"] ;
339 -> 419 ;
420 [label="X[36] <= 0.5\ngini = 0.408\nsamples = 7\nvalue = [0, 5, 2]"] ;
419 -> 420 ;
421 [label="X[13] <= 1.5\ngini = 0.278\nsamples = 6\nvalue = [0, 5, 1]"] ;
420 -> 421 ;
422 [label="gini = 0.0\nsamples = 4\nvalue = [0, 4, 0]"] ;
421 -> 422 ;
423 [label="X[32] <= 1.5\ngini = 0.5\nsamples = 2\nvalue = [0, 1, 1]"] ;
421 -> 423 ;
424 [label="gini = 0.0\nsamples = 1\nvalue = [0, 1, 0]"] ;
423 -> 424 ;
425 [label="gini = 0.0\nsamples = 1\nvalue = [0, 0, 1]"] ;
423 -> 425 ;
426 [label="gini = 0.0\nsamples = 1\nvalue = [0, 0, 1]"] ;
420 -> 426 ;
427 [label="gini = 0.0\nsamples = 6\nvalue = [0, 0, 6]"] ;
419 -> 427 ;
428 [label="X[32] <= 1.0\ngini = 0.142\nsamples = 39\nvalue = [0, 36, 3]"] ;
338 -> 428 ;
429 [label="X[26] <= 0.5\ngini = 0.1\nsamples = 38\nvalue = [0, 36, 2]"] ;
428 -> 429 ;
430 [label="X[15] <= 1.5\ngini = 0.054\nsamples = 36\nvalue = [0, 35, 1]"] ;
429 -> 430 ;
431 [label="gini = 0.0\nsamples = 34\nvalue = [0, 34, 0]"] ;
430 -> 431 ;
432 [label="X[13] <= 1.5\ngini = 0.5\nsamples = 2\nvalue = [0, 1, 1]"] ;
430 -> 432 ;
433 [label="gini = 0.0\nsamples = 1\nvalue = [0, 0, 1]"] ;
432 -> 433 ;
434 [label="gini = 0.0\nsamples = 1\nvalue = [0, 1, 0]"] ;
432 -> 434 ;
435 [label="X[26] <= 1.5\ngini = 0.5\nsamples = 2\nvalue = [0, 1, 1]"] ;
429 -> 435 ;
436 [label="gini = 0.0\nsamples = 1\nvalue = [0, 0, 1]"] ;
435 -> 436 ;
437 [label="gini = 0.0\nsamples = 1\nvalue = [0, 1, 0]"] ;
435 -> 437 ;
438 [label="gini = 0.0\nsamples = 1\nvalue = [0, 0, 1]"] ;
428 -> 438 ;
439 [label="X[22] <= 1.5\ngini = 0.589\nsamples = 56\nvalue = [18, 8, 30]"] ;
337 -> 439 ;
440 [label="X[22] <= 0.5\ngini = 0.625\nsamples = 47\nvalue = [18, 8, 21]"] ;
439 -> 440 ;
441 [label="X[24] <= 1.5\ngini = 0.533\nsamples = 31\nvalue = [11, 2, 18]"] ;
440 -> 441 ;
442 [label="X[30] <= 1.5\ngini = 0.386\nsamples = 23\nvalue = [6, 0, 17]"] ;
441 -> 442 ;
443 [label="X[15] <= 0.5\ngini = 0.266\nsamples = 19\nvalue = [3, 0, 16]"] ;
442 -> 443 ;
444 [label="X[25] <= 0.5\ngini = 0.117\nsamples = 16\nvalue = [1, 0, 15]"] ;
443 -> 444 ;
445 [label="gini = 0.0\nsamples = 15\nvalue = [0, 0, 15]"] ;
444 -> 445 ;
446 [label="gini = 0.0\nsamples = 1\nvalue = [1, 0, 0]"] ;
444 -> 446 ;
447 [label="X[13] <= 1.5\ngini = 0.444\nsamples = 3\nvalue = [2, 0, 1]"] ;
443 -> 447 ;
448 [label="gini = 0.0\nsamples = 1\nvalue = [0, 0, 1]"] ;
447 -> 448 ;
449 [label="gini = 0.0\nsamples = 2\nvalue = [2, 0, 0]"] ;
447 -> 449 ;
450 [label="X[13] <= 0.5\ngini = 0.375\nsamples = 4\nvalue = [3, 0, 1]"] ;
442 -> 450 ;
451 [label="X[31] <= 0.5\ngini = 0.5\nsamples = 2\nvalue = [1, 0, 1]"] ;
450 -> 451 ;
452 [label="gini = 0.0\nsamples = 1\nvalue = [1, 0, 0]"] ;
451 -> 452 ;
453 [label="gini = 0.0\nsamples = 1\nvalue = [0, 0, 1]"] ;
451 -> 453 ;
454 [label="gini = 0.0\nsamples = 2\nvalue = [2, 0, 0]"] ;
450 -> 454 ;
455 [label="X[30] <= 0.5\ngini = 0.531\nsamples = 8\nvalue = [5, 2, 1]"] ;
441 -> 455 ;
456 [label="gini = 0.0\nsamples = 4\nvalue = [4, 0, 0]"] ;
455 -> 456 ;
457 [label="X[36] <= 0.5\ngini = 0.625\nsamples = 4\nvalue = [1, 2, 1]"] ;
455 -> 457 ;
458 [label="X[13] <= 0.5\ngini = 0.444\nsamples = 3\nvalue = [1, 2, 0]"] ;
457 -> 458 ;
459 [label="gini = 0.0\nsamples = 2\nvalue = [0, 2, 0]"] ;
458 -> 459 ;
460 [label="gini = 0.0\nsamples = 1\nvalue = [1, 0, 0]"] ;
458 -> 460 ;
461 [label="gini = 0.0\nsamples = 1\nvalue = [0, 0, 1]"] ;
457 -> 461 ;
462 [label="X[30] <= 0.5\ngini = 0.633\nsamples = 16\nvalue = [7, 6, 3]"] ;
440 -> 462 ;
463 [label="X[13] <= 1.5\ngini = 0.494\nsamples = 9\nvalue = [6, 2, 1]"] ;
462 -> 463 ;
464 [label="X[24] <= 1.5\ngini = 0.278\nsamples = 6\nvalue = [5, 0, 1]"] ;
463 -> 464 ;
465 [label="gini = 0.0\nsamples = 4\nvalue = [4, 0, 0]"] ;
464 -> 465 ;
466 [label="X[13] <= 0.5\ngini = 0.5\nsamples = 2\nvalue = [1, 0, 1]"] ;
464 -> 466 ;
467 [label="gini = 0.0\nsamples = 1\nvalue = [1, 0, 0]"] ;
466 -> 467 ;
468 [label="gini = 0.0\nsamples = 1\nvalue = [0, 0, 1]"] ;
466 -> 468 ;
469 [label="X[24] <= 0.5\ngini = 0.444\nsamples = 3\nvalue = [1, 2, 0]"] ;
463 -> 469 ;
470 [label="gini = 0.0\nsamples = 2\nvalue = [0, 2, 0]"] ;
469 -> 470 ;
471 [label="gini = 0.0\nsamples = 1\nvalue = [1, 0, 0]"] ;
469 -> 471 ;
472 [label="X[30] <= 1.5\ngini = 0.571\nsamples = 7\nvalue = [1, 4, 2]"] ;
462 -> 472 ;
473 [label="gini = 0.0\nsamples = 3\nvalue = [0, 3, 0]"] ;
472 -> 473 ;
474 [label="X[31] <= 0.5\ngini = 0.625\nsamples = 4\nvalue = [1, 1, 2]"] ;
472 -> 474 ;
475 [label="X[36] <= 0.5\ngini = 0.444\nsamples = 3\nvalue = [1, 0, 2]"] ;
474 -> 475 ;
476 [label="gini = 0.0\nsamples = 2\nvalue = [0, 0, 2]"] ;
475 -> 476 ;
477 [label="gini = 0.0\nsamples = 1\nvalue = [1, 0, 0]"] ;
475 -> 477 ;
478 [label="gini = 0.0\nsamples = 1\nvalue = [0, 1, 0]"] ;
474 -> 478 ;
479 [label="gini = 0.0\nsamples = 9\nvalue = [0, 0, 9]"] ;
439 -> 479 ;
480 [label="X[23] <= 1.5\ngini = 0.183\nsamples = 181\nvalue = [4, 14, 163]"] ;
336 -> 480 ;
481 [label="X[33] <= 0.5\ngini = 0.158\nsamples = 176\nvalue = [2, 13, 161]"] ;
480 -> 481 ;
482 [label="X[24] <= 1.5\ngini = 0.148\nsamples = 175\nvalue = [1, 13, 161]"] ;
481 -> 482 ;
483 [label="X[32] <= 1.5\ngini = 0.08\nsamples = 120\nvalue = [0, 5, 115]"] ;
482 -> 483 ;
484 [label="X[37] <= 1.5\ngini = 0.066\nsamples = 117\nvalue = [0, 4, 113]"] ;
483 -> 484 ;
485 [label="X[14] <= 0.5\ngini = 0.037\nsamples = 106\nvalue = [0, 2, 104]"] ;
484 -> 485 ;
486 [label="gini = 0.0\nsamples = 63\nvalue = [0, 0, 63]"] ;
485 -> 486 ;
487 [label="X[30] <= 1.5\ngini = 0.089\nsamples = 43\nvalue = [0, 2, 41]"] ;
485 -> 487 ;
488 [label="X[36] <= 0.5\ngini = 0.057\nsamples = 34\nvalue = [0, 1, 33]"] ;
487 -> 488 ;
489 [label="gini = 0.0\nsamples = 26\nvalue = [0, 0, 26]"] ;
488 -> 489 ;
490 [label="X[13] <= 1.5\ngini = 0.219\nsamples = 8\nvalue = [0, 1, 7]"] ;
488 -> 490 ;
491 [label="X[19] <= 1.5\ngini = 0.5\nsamples = 2\nvalue = [0, 1, 1]"] ;
490 -> 491 ;
492 [label="gini = 0.0\nsamples = 1\nvalue = [0, 1, 0]"] ;
491 -> 492 ;
493 [label="gini = 0.0\nsamples = 1\nvalue = [0, 0, 1]"] ;
491 -> 493 ;
494 [label="gini = 0.0\nsamples = 6\nvalue = [0, 0, 6]"] ;
490 -> 494 ;
495 [label="X[15] <= 0.5\ngini = 0.198\nsamples = 9\nvalue = [0, 1, 8]"] ;
487 -> 495 ;
496 [label="gini = 0.0\nsamples = 7\nvalue = [0, 0, 7]"] ;
495 -> 496 ;
497 [label="X[13] <= 1.5\ngini = 0.5\nsamples = 2\nvalue = [0, 1, 1]"] ;
495 -> 497 ;
498 [label="gini = 0.0\nsamples = 1\nvalue = [0, 0, 1]"] ;
497 -> 498 ;
499 [label="gini = 0.0\nsamples = 1\nvalue = [0, 1, 0]"] ;
497 -> 499 ;
500 [label="X[13] <= 0.5\ngini = 0.298\nsamples = 11\nvalue = [0, 2, 9]"] ;
484 -> 500 ;
501 [label="gini = 0.0\nsamples = 5\nvalue = [0, 0, 5]"] ;
500 -> 501 ;
502 [label="X[13] <= 1.5\ngini = 0.444\nsamples = 6\nvalue = [0, 2, 4]"] ;
500 -> 502 ;
503 [label="gini = 0.0\nsamples = 2\nvalue = [0, 2, 0]"] ;
502 -> 503 ;
504 [label="gini = 0.0\nsamples = 4\nvalue = [0, 0, 4]"] ;
502 -> 504 ;
505 [label="X[36] <= 0.5\ngini = 0.444\nsamples = 3\nvalue = [0, 1, 2]"] ;
483 -> 505 ;
506 [label="gini = 0.0\nsamples = 2\nvalue = [0, 0, 2]"] ;
505 -> 506 ;
507 [label="gini = 0.0\nsamples = 1\nvalue = [0, 1, 0]"] ;
505 -> 507 ;
508 [label="X[30] <= 1.5\ngini = 0.279\nsamples = 55\nvalue = [1, 8, 46]"] ;
482 -> 508 ;
509 [label="X[22] <= 1.5\ngini = 0.211\nsamples = 51\nvalue = [1, 5, 45]"] ;
508 -> 509 ;
510 [label="X[15] <= 0.5\ngini = 0.12\nsamples = 47\nvalue = [0, 3, 44]"] ;
509 -> 510 ;
511 [label="X[37] <= 1.5\ngini = 0.085\nsamples = 45\nvalue = [0, 2, 43]"] ;
510 -> 511 ;
512 [label="X[25] <= 1.5\ngini = 0.046\nsamples = 42\nvalue = [0, 1, 41]"] ;
511 -> 512 ;
513 [label="gini = 0.0\nsamples = 35\nvalue = [0, 0, 35]"] ;
512 -> 513 ;
514 [label="X[26] <= 0.5\ngini = 0.245\nsamples = 7\nvalue = [0, 1, 6]"] ;
512 -> 514 ;
515 [label="gini = 0.0\nsamples = 5\nvalue = [0, 0, 5]"] ;
514 -> 515 ;
516 [label="X[36] <= 0.5\ngini = 0.5\nsamples = 2\nvalue = [0, 1, 1]"] ;
514 -> 516 ;
517 [label="gini = 0.0\nsamples = 1\nvalue = [0, 1, 0]"] ;
516 -> 517 ;
518 [label="gini = 0.0\nsamples = 1\nvalue = [0, 0, 1]"] ;
516 -> 518 ;
519 [label="X[13] <= 0.5\ngini = 0.444\nsamples = 3\nvalue = [0, 1, 2]"] ;
511 -> 519 ;
520 [label="gini = 0.0\nsamples = 2\nvalue = [0, 0, 2]"] ;
519 -> 520 ;
521 [label="gini = 0.0\nsamples = 1\nvalue = [0, 1, 0]"] ;
519 -> 521 ;
522 [label="X[14] <= 1.5\ngini = 0.5\nsamples = 2\nvalue = [0, 1, 1]"] ;
510 -> 522 ;
523 [label="gini = 0.0\nsamples = 1\nvalue = [0, 1, 0]"] ;
522 -> 523 ;
524 [label="gini = 0.0\nsamples = 1\nvalue = [0, 0, 1]"] ;
522 -> 524 ;
525 [label="X[25] <= 0.5\ngini = 0.625\nsamples = 4\nvalue = [1, 2, 1]"] ;
509 -> 525 ;
526 [label="X[36] <= 0.5\ngini = 0.444\nsamples = 3\nvalue = [0, 2, 1]"] ;
525 -> 526 ;
527 [label="gini = 0.0\nsamples = 2\nvalue = [0, 2, 0]"] ;
526 -> 527 ;
528 [label="gini = 0.0\nsamples = 1\nvalue = [0, 0, 1]"] ;
526 -> 528 ;
529 [label="gini = 0.0\nsamples = 1\nvalue = [1, 0, 0]"] ;
525 -> 529 ;
530 [label="X[37] <= 0.5\ngini = 0.375\nsamples = 4\nvalue = [0, 3, 1]"] ;
508 -> 530 ;
531 [label="gini = 0.0\nsamples = 3\nvalue = [0, 3, 0]"] ;
530 -> 531 ;
532 [label="gini = 0.0\nsamples = 1\nvalue = [0, 0, 1]"] ;
530 -> 532 ;
533 [label="gini = 0.0\nsamples = 1\nvalue = [1, 0, 0]"] ;
481 -> 533 ;
534 [label="X[36] <= 0.5\ngini = 0.64\nsamples = 5\nvalue = [2, 1, 2]"] ;
480 -> 534 ;
535 [label="X[13] <= 0.5\ngini = 0.444\nsamples = 3\nvalue = [0, 1, 2]"] ;
534 -> 535 ;
536 [label="gini = 0.0\nsamples = 2\nvalue = [0, 0, 2]"] ;
535 -> 536 ;
537 [label="gini = 0.0\nsamples = 1\nvalue = [0, 1, 0]"] ;
535 -> 537 ;
538 [label="gini = 0.0\nsamples = 2\nvalue = [2, 0, 0]"] ;
534 -> 538 ;
539 [label="X[23] <= 1.5\ngini = 0.128\nsamples = 1507\nvalue = [57, 45, 1405]"] ;
5 -> 539 ;
540 [label="X[37] <= 1.5\ngini = 0.122\nsamples = 1496\nvalue = [54, 42, 1400]"] ;
539 -> 540 ;
541 [label="X[17] <= 1.5\ngini = 0.095\nsamples = 1273\nvalue = [33, 30, 1210]"] ;
540 -> 541 ;
542 [label="X[20] <= 0.5\ngini = 0.094\nsamples = 1272\nvalue = [32, 30, 1210]"] ;
541 -> 542 ;
543 [label="X[34] <= 1.5\ngini = 0.057\nsamples = 861\nvalue = [20, 5, 836]"] ;
542 -> 543 ;
544 [label="X[19] <= 1.5\ngini = 0.055\nsamples = 858\nvalue = [19, 5, 834]"] ;
543 -> 544 ;
545 [label="X[19] <= 0.5\ngini = 0.076\nsamples = 588\nvalue = [18, 5, 565]"] ;
544 -> 545 ;
546 [label="X[14] <= 0.5\ngini = 0.052\nsamples = 525\nvalue = [13, 1, 511]"] ;
545 -> 546 ;
547 [label="X[24] <= 0.5\ngini = 0.035\nsamples = 390\nvalue = [6, 1, 383]"] ;
546 -> 547 ;
548 [label="gini = 0.0\nsamples = 165\nvalue = [0, 0, 165]"] ;
547 -> 548 ;
549 [label="X[30] <= 1.5\ngini = 0.061\nsamples = 225\nvalue = [6, 1, 218]"] ;
547 -> 549 ;
550 [label="X[10] <= 1.5\ngini = 0.021\nsamples = 190\nvalue = [1, 1, 188]"] ;
549 -> 550 ;
551 [label="X[26] <= 1.5\ngini = 0.011\nsamples = 173\nvalue = [1, 0, 172]"] ;
550 -> 551 ;
552 [label="gini = 0.0\nsamples = 141\nvalue = [0, 0, 141]"] ;
551 -> 552 ;
553 [label="X[7] <= 1.5\ngini = 0.061\nsamples = 32\nvalue = [1, 0, 31]"] ;
551 -> 553 ;
554 [label="gini = 0.0\nsamples = 23\nvalue = [0, 0, 23]"] ;
553 -> 554 ;
555 [label="X[27] <= 0.5\ngini = 0.198\nsamples = 9\nvalue = [1, 0, 8]"] ;
553 -> 555 ;
556 [label="gini = 0.0\nsamples = 7\nvalue = [0, 0, 7]"] ;
555 -> 556 ;
557 [label="X[12] <= 0.5\ngini = 0.5\nsamples = 2\nvalue = [1, 0, 1]"] ;
555 -> 557 ;
558 [label="gini = 0.0\nsamples = 1\nvalue = [1, 0, 0]"] ;
557 -> 558 ;
559 [label="gini = 0.0\nsamples = 1\nvalue = [0, 0, 1]"] ;
557 -> 559 ;
560 [label="X[30] <= 0.5\ngini = 0.111\nsamples = 17\nvalue = [0, 1, 16]"] ;
550 -> 560 ;
561 [label="gini = 0.0\nsamples = 14\nvalue = [0, 0, 14]"] ;
560 -> 561 ;
562 [label="X[7] <= 1.5\ngini = 0.444\nsamples = 3\nvalue = [0, 1, 2]"] ;
560 -> 562 ;
563 [label="gini = 0.0\nsamples = 1\nvalue = [0, 1, 0]"] ;
562 -> 563 ;
564 [label="gini = 0.0\nsamples = 2\nvalue = [0, 0, 2]"] ;
562 -> 564 ;
565 [label="X[10] <= 0.5\ngini = 0.245\nsamples = 35\nvalue = [5, 0, 30]"] ;
549 -> 565 ;
566 [label="X[26] <= 0.5\ngini = 0.17\nsamples = 32\nvalue = [3, 0, 29]"] ;
565 -> 566 ;
567 [label="X[32] <= 1.5\ngini = 0.124\nsamples = 30\nvalue = [2, 0, 28]"] ;
566 -> 567 ;
568 [label="X[7] <= 1.5\ngini = 0.071\nsamples = 27\nvalue = [1, 0, 26]"] ;
567 -> 568 ;
569 [label="gini = 0.0\nsamples = 20\nvalue = [0, 0, 20]"] ;
568 -> 569 ;
570 [label="X[31] <= 0.5\ngini = 0.245\nsamples = 7\nvalue = [1, 0, 6]"] ;
568 -> 570 ;
571 [label="gini = 0.0\nsamples = 4\nvalue = [0, 0, 4]"] ;
570 -> 571 ;
572 [label="X[36] <= 0.5\ngini = 0.444\nsamples = 3\nvalue = [1, 0, 2]"] ;
570 -> 572 ;
573 [label="gini = 0.0\nsamples = 2\nvalue = [0, 0, 2]"] ;
572 -> 573 ;
574 [label="gini = 0.0\nsamples = 1\nvalue = [1, 0, 0]"] ;
572 -> 574 ;
575 [label="X[24] <= 1.5\ngini = 0.444\nsamples = 3\nvalue = [1, 0, 2]"] ;
567 -> 575 ;
576 [label="gini = 0.0\nsamples = 2\nvalue = [0, 0, 2]"] ;
575 -> 576 ;
577 [label="gini = 0.0\nsamples = 1\nvalue = [1, 0, 0]"] ;
575 -> 577 ;
578 [label="X[26] <= 1.5\ngini = 0.5\nsamples = 2\nvalue = [1, 0, 1]"] ;
566 -> 578 ;
579 [label="gini = 0.0\nsamples = 1\nvalue = [1, 0, 0]"] ;
578 -> 579 ;
580 [label="gini = 0.0\nsamples = 1\nvalue = [0, 0, 1]"] ;
578 -> 580 ;
581 [label="X[8] <= 1.5\ngini = 0.444\nsamples = 3\nvalue = [2, 0, 1]"] ;
565 -> 581 ;
582 [label="gini = 0.0\nsamples = 1\nvalue = [0, 0, 1]"] ;
581 -> 582 ;
583 [label="gini = 0.0\nsamples = 2\nvalue = [2, 0, 0]"] ;
581 -> 583 ;
584 [label="X[14] <= 1.5\ngini = 0.098\nsamples = 135\nvalue = [7, 0, 128]"] ;
546 -> 584 ;
585 [label="X[15] <= 1.5\ngini = 0.237\nsamples = 51\nvalue = [7, 0, 44]"] ;
584 -> 585 ;
586 [label="X[25] <= 1.5\ngini = 0.342\nsamples = 32\nvalue = [7, 0, 25]"] ;
585 -> 586 ;
587 [label="X[36] <= 0.5\ngini = 0.393\nsamples = 26\nvalue = [7, 0, 19]"] ;
586 -> 587 ;
588 [label="X[30] <= 1.5\ngini = 0.351\nsamples = 22\nvalue = [5, 0, 17]"] ;
587 -> 588 ;
589 [label="X[15] <= 0.5\ngini = 0.486\nsamples = 12\nvalue = [5, 0, 7]"] ;
588 -> 589 ;
590 [label="X[7] <= 1.5\ngini = 0.42\nsamples = 10\nvalue = [3, 0, 7]"] ;
589 -> 590 ;
591 [label="gini = 0.0\nsamples = 3\nvalue = [0, 0, 3]"] ;
590 -> 591 ;
592 [label="X[31] <= 1.0\ngini = 0.49\nsamples = 7\nvalue = [3, 0, 4]"] ;
590 -> 592 ;
593 [label="X[25] <= 0.5\ngini = 0.444\nsamples = 6\nvalue = [2, 0, 4]"] ;
592 -> 593 ;
594 [label="X[24] <= 0.5\ngini = 0.32\nsamples = 5\nvalue = [1, 0, 4]"] ;
593 -> 594 ;
595 [label="X[9] <= 0.5\ngini = 0.5\nsamples = 2\nvalue = [1, 0, 1]"] ;
594 -> 595 ;
596 [label="gini = 0.0\nsamples = 1\nvalue = [1, 0, 0]"] ;
595 -> 596 ;
597 [label="gini = 0.0\nsamples = 1\nvalue = [0, 0, 1]"] ;
595 -> 597 ;
598 [label="gini = 0.0\nsamples = 3\nvalue = [0, 0, 3]"] ;
594 -> 598 ;
599 [label="gini = 0.0\nsamples = 1\nvalue = [1, 0, 0]"] ;
593 -> 599 ;
600 [label="gini = 0.0\nsamples = 1\nvalue = [1, 0, 0]"] ;
592 -> 600 ;
601 [label="gini = 0.0\nsamples = 2\nvalue = [2, 0, 0]"] ;
589 -> 601 ;
602 [label="gini = 0.0\nsamples = 10\nvalue = [0, 0, 10]"] ;
588 -> 602 ;
603 [label="X[30] <= 1.0\ngini = 0.5\nsamples = 4\nvalue = [2, 0, 2]"] ;
587 -> 603 ;
604 [label="gini = 0.0\nsamples = 2\nvalue = [0, 0, 2]"] ;
603 -> 604 ;
605 [label="gini = 0.0\nsamples = 2\nvalue = [2, 0, 0]"] ;
603 -> 605 ;
606 [label="gini = 0.0\nsamples = 6\nvalue = [0, 0, 6]"] ;
586 -> 606 ;
607 [label="gini = 0.0\nsamples = 19\nvalue = [0, 0, 19]"] ;
585 -> 607 ;
608 [label="gini = 0.0\nsamples = 84\nvalue = [0, 0, 84]"] ;
584 -> 608 ;
609 [label="X[11] <= 1.5\ngini = 0.255\nsamples = 63\nvalue = [5, 4, 54]"] ;
545 -> 609 ;
610 [label="X[9] <= 1.5\ngini = 0.233\nsamples = 62\nvalue = [4, 4, 54]"] ;
609 -> 610 ;
611 [label="X[32] <= 1.5\ngini = 0.132\nsamples = 43\nvalue = [2, 1, 40]"] ;
610 -> 611 ;
612 [label="X[15] <= 1.5\ngini = 0.093\nsamples = 41\nvalue = [2, 0, 39]"] ;
611 -> 612 ;
613 [label="X[14] <= 0.5\ngini = 0.053\nsamples = 37\nvalue = [1, 0, 36]"] ;
612 -> 613 ;
614 [label="gini = 0.0\nsamples = 26\nvalue = [0, 0, 26]"] ;
613 -> 614 ;
615 [label="X[14] <= 1.5\ngini = 0.165\nsamples = 11\nvalue = [1, 0, 10]"] ;
613 -> 615 ;
616 [label="gini = 0.0\nsamples = 1\nvalue = [1, 0, 0]"] ;
615 -> 616 ;
617 [label="gini = 0.0\nsamples = 10\nvalue = [0, 0, 10]"] ;
615 -> 617 ;
618 [label="X[7] <= 1.0\ngini = 0.375\nsamples = 4\nvalue = [1, 0, 3]"] ;
612 -> 618 ;
619 [label="gini = 0.0\nsamples = 3\nvalue = [0, 0, 3]"] ;
618 -> 619 ;
620 [label="gini = 0.0\nsamples = 1\nvalue = [1, 0, 0]"] ;
618 -> 620 ;
621 [label="X[30] <= 1.5\ngini = 0.5\nsamples = 2\nvalue = [0, 1, 1]"] ;
611 -> 621 ;
622 [label="gini = 0.0\nsamples = 1\nvalue = [0, 1, 0]"] ;
621 -> 622 ;
623 [label="gini = 0.0\nsamples = 1\nvalue = [0, 0, 1]"] ;
621 -> 623 ;
624 [label="X[24] <= 1.5\ngini = 0.421\nsamples = 19\nvalue = [2, 3, 14]"] ;
610 -> 624 ;
625 [label="X[30] <= 0.5\ngini = 0.231\nsamples = 15\nvalue = [0, 2, 13]"] ;
624 -> 625 ;
626 [label="gini = 0.0\nsamples = 8\nvalue = [0, 0, 8]"] ;
625 -> 626 ;
627 [label="X[24] <= 0.5\ngini = 0.408\nsamples = 7\nvalue = [0, 2, 5]"] ;
625 -> 627 ;
628 [label="X[10] <= 1.5\ngini = 0.278\nsamples = 6\nvalue = [0, 1, 5]"] ;
627 -> 628 ;
629 [label="gini = 0.0\nsamples = 5\nvalue = [0, 0, 5]"] ;
628 -> 629 ;
630 [label="gini = 0.0\nsamples = 1\nvalue = [0, 1, 0]"] ;
628 -> 630 ;
631 [label="gini = 0.0\nsamples = 1\nvalue = [0, 1, 0]"] ;
627 -> 631 ;
632 [label="X[8] <= 1.5\ngini = 0.625\nsamples = 4\nvalue = [2, 1, 1]"] ;
624 -> 632 ;
633 [label="gini = 0.0\nsamples = 1\nvalue = [0, 0, 1]"] ;
632 -> 633 ;
634 [label="X[30] <= 0.5\ngini = 0.444\nsamples = 3\nvalue = [2, 1, 0]"] ;
632 -> 634 ;
635 [label="gini = 0.0\nsamples = 2\nvalue = [2, 0, 0]"] ;
634 -> 635 ;
636 [label="gini = 0.0\nsamples = 1\nvalue = [0, 1, 0]"] ;
634 -> 636 ;
637 [label="gini = 0.0\nsamples = 1\nvalue = [1, 0, 0]"] ;
609 -> 637 ;
638 [label="X[14] <= 0.5\ngini = 0.007\nsamples = 270\nvalue = [1, 0, 269]"] ;
544 -> 638 ;
639 [label="gini = 0.0\nsamples = 219\nvalue = [0, 0, 219]"] ;
638 -> 639 ;
640 [label="X[25] <= 0.5\ngini = 0.038\nsamples = 51\nvalue = [1, 0, 50]"] ;
638 -> 640 ;
641 [label="gini = 0.0\nsamples = 47\nvalue = [0, 0, 47]"] ;
640 -> 641 ;
642 [label="X[14] <= 1.5\ngini = 0.375\nsamples = 4\nvalue = [1, 0, 3]"] ;
640 -> 642 ;
643 [label="gini = 0.0\nsamples = 1\nvalue = [1, 0, 0]"] ;
642 -> 643 ;
644 [label="gini = 0.0\nsamples = 3\nvalue = [0, 0, 3]"] ;
642 -> 644 ;
645 [label="X[12] <= 0.5\ngini = 0.444\nsamples = 3\nvalue = [1, 0, 2]"] ;
543 -> 645 ;
646 [label="gini = 0.0\nsamples = 2\nvalue = [0, 0, 2]"] ;
645 -> 646 ;
647 [label="gini = 0.0\nsamples = 1\nvalue = [1, 0, 0]"] ;
645 -> 647 ;
648 [label="X[20] <= 1.5\ngini = 0.167\nsamples = 411\nvalue = [12, 25, 374]"] ;
542 -> 648 ;
649 [label="X[7] <= 1.5\ngini = 0.286\nsamples = 201\nvalue = [11, 22, 168]"] ;
648 -> 649 ;
650 [label="X[12] <= 0.5\ngini = 0.213\nsamples = 128\nvalue = [10, 5, 113]"] ;
649 -> 650 ;
651 [label="X[22] <= 1.5\ngini = 0.083\nsamples = 70\nvalue = [1, 2, 67]"] ;
650 -> 651 ;
652 [label="X[37] <= 0.5\ngini = 0.034\nsamples = 58\nvalue = [1, 0, 57]"] ;
651 -> 652 ;
653 [label="gini = 0.0\nsamples = 53\nvalue = [0, 0, 53]"] ;
652 -> 653 ;
654 [label="X[31] <= 1.0\ngini = 0.32\nsamples = 5\nvalue = [1, 0, 4]"] ;
652 -> 654 ;
655 [label="gini = 0.0\nsamples = 4\nvalue = [0, 0, 4]"] ;
654 -> 655 ;
656 [label="gini = 0.0\nsamples = 1\nvalue = [1, 0, 0]"] ;
654 -> 656 ;
657 [label="X[36] <= 0.5\ngini = 0.278\nsamples = 12\nvalue = [0, 2, 10]"] ;
651 -> 657 ;
658 [label="gini = 0.0\nsamples = 8\nvalue = [0, 0, 8]"] ;
657 -> 658 ;
659 [label="X[21] <= 1.5\ngini = 0.5\nsamples = 4\nvalue = [0, 2, 2]"] ;
657 -> 659 ;
660 [label="gini = 0.0\nsamples = 2\nvalue = [0, 2, 0]"] ;
659 -> 660 ;
661 [label="gini = 0.0\nsamples = 2\nvalue = [0, 0, 2]"] ;
659 -> 661 ;
662 [label="X[24] <= 1.5\ngini = 0.344\nsamples = 58\nvalue = [9, 3, 46]"] ;
650 -> 662 ;
663 [label="X[14] <= 0.5\ngini = 0.156\nsamples = 36\nvalue = [2, 1, 33]"] ;
662 -> 663 ;
664 [label="gini = 0.0\nsamples = 27\nvalue = [0, 0, 27]"] ;
663 -> 664 ;
665 [label="X[7] <= 0.5\ngini = 0.494\nsamples = 9\nvalue = [2, 1, 6]"] ;
663 -> 665 ;
666 [label="X[14] <= 1.5\ngini = 0.406\nsamples = 8\nvalue = [1, 1, 6]"] ;
665 -> 666 ;
667 [label="X[15] <= 1.0\ngini = 0.5\nsamples = 2\nvalue = [1, 0, 1]"] ;
666 -> 667 ;
668 [label="gini = 0.0\nsamples = 1\nvalue = [0, 0, 1]"] ;
667 -> 668 ;
669 [label="gini = 0.0\nsamples = 1\nvalue = [1, 0, 0]"] ;
667 -> 669 ;
670 [label="X[21] <= 0.5\ngini = 0.278\nsamples = 6\nvalue = [0, 1, 5]"] ;
666 -> 670 ;
671 [label="gini = 0.0\nsamples = 4\nvalue = [0, 0, 4]"] ;
670 -> 671 ;
672 [label="X[13] <= 1.5\ngini = 0.5\nsamples = 2\nvalue = [0, 1, 1]"] ;
670 -> 672 ;
673 [label="gini = 0.0\nsamples = 1\nvalue = [0, 0, 1]"] ;
672 -> 673 ;
674 [label="gini = 0.0\nsamples = 1\nvalue = [0, 1, 0]"] ;
672 -> 674 ;
675 [label="gini = 0.0\nsamples = 1\nvalue = [1, 0, 0]"] ;
665 -> 675 ;
676 [label="X[30] <= 0.5\ngini = 0.541\nsamples = 22\nvalue = [7, 2, 13]"] ;
662 -> 676 ;
677 [label="X[22] <= 1.5\ngini = 0.494\nsamples = 18\nvalue = [4, 2, 12]"] ;
676 -> 677 ;
678 [label="X[13] <= 0.5\ngini = 0.443\nsamples = 17\nvalue = [4, 1, 12]"] ;
677 -> 678 ;
679 [label="X[36] <= 0.5\ngini = 0.18\nsamples = 10\nvalue = [1, 0, 9]"] ;
678 -> 679 ;
680 [label="gini = 0.0\nsamples = 8\nvalue = [0, 0, 8]"] ;
679 -> 680 ;
681 [label="X[25] <= 1.0\ngini = 0.5\nsamples = 2\nvalue = [1, 0, 1]"] ;
679 -> 681 ;
682 [label="gini = 0.0\nsamples = 1\nvalue = [0, 0, 1]"] ;
681 -> 682 ;
683 [label="gini = 0.0\nsamples = 1\nvalue = [1, 0, 0]"] ;
681 -> 683 ;
684 [label="X[25] <= 1.5\ngini = 0.612\nsamples = 7\nvalue = [3, 1, 3]"] ;
678 -> 684 ;
685 [label="X[21] <= 0.5\ngini = 0.5\nsamples = 6\nvalue = [3, 0, 3]"] ;
684 -> 685 ;
686 [label="X[7] <= 0.5\ngini = 0.48\nsamples = 5\nvalue = [3, 0, 2]"] ;
685 -> 686 ;
687 [label="X[14] <= 0.5\ngini = 0.375\nsamples = 4\nvalue = [3, 0, 1]"] ;
686 -> 687 ;
688 [label="gini = 0.0\nsamples = 2\nvalue = [2, 0, 0]"] ;
687 -> 688 ;
689 [label="X[14] <= 1.5\ngini = 0.5\nsamples = 2\nvalue = [1, 0, 1]"] ;
687 -> 689 ;
690 [label="gini = 0.0\nsamples = 1\nvalue = [0, 0, 1]"] ;
689 -> 690 ;
691 [label="gini = 0.0\nsamples = 1\nvalue = [1, 0, 0]"] ;
689 -> 691 ;
692 [label="gini = 0.0\nsamples = 1\nvalue = [0, 0, 1]"] ;
686 -> 692 ;
693 [label="gini = 0.0\nsamples = 1\nvalue = [0, 0, 1]"] ;
685 -> 693 ;
694 [label="gini = 0.0\nsamples = 1\nvalue = [0, 1, 0]"] ;
684 -> 694 ;
695 [label="gini = 0.0\nsamples = 1\nvalue = [0, 1, 0]"] ;
677 -> 695 ;
696 [label="X[13] <= 1.0\ngini = 0.375\nsamples = 4\nvalue = [3, 0, 1]"] ;
676 -> 696 ;
697 [label="gini = 0.0\nsamples = 3\nvalue = [3, 0, 0]"] ;
696 -> 697 ;
698 [label="gini = 0.0\nsamples = 1\nvalue = [0, 0, 1]"] ;
696 -> 698 ;
699 [label="X[22] <= 1.5\ngini = 0.378\nsamples = 73\nvalue = [1, 17, 55]"] ;
649 -> 699 ;
700 [label="X[10] <= 1.5\ngini = 0.318\nsamples = 67\nvalue = [1, 12, 54]"] ;
699 -> 700 ;
701 [label="X[8] <= 0.5\ngini = 0.29\nsamples = 64\nvalue = [1, 10, 53]"] ;
700 -> 701 ;
702 [label="X[21] <= 1.5\ngini = 0.438\nsamples = 30\nvalue = [1, 8, 21]"] ;
701 -> 702 ;
703 [label="X[21] <= 0.5\ngini = 0.517\nsamples = 22\nvalue = [1, 8, 13]"] ;
702 -> 703 ;
704 [label="X[13] <= 0.5\ngini = 0.357\nsamples = 14\nvalue = [1, 2, 11]"] ;
703 -> 704 ;
705 [label="X[12] <= 0.5\ngini = 0.198\nsamples = 9\nvalue = [1, 0, 8]"] ;
704 -> 705 ;
706 [label="gini = 0.0\nsamples = 6\nvalue = [0, 0, 6]"] ;
705 -> 706 ;
707 [label="X[30] <= 1.5\ngini = 0.444\nsamples = 3\nvalue = [1, 0, 2]"] ;
705 -> 707 ;
708 [label="gini = 0.0\nsamples = 2\nvalue = [0, 0, 2]"] ;
707 -> 708 ;
709 [label="gini = 0.0\nsamples = 1\nvalue = [1, 0, 0]"] ;
707 -> 709 ;
710 [label="X[13] <= 1.5\ngini = 0.48\nsamples = 5\nvalue = [0, 2, 3]"] ;
704 -> 710 ;
711 [label="gini = 0.0\nsamples = 2\nvalue = [0, 2, 0]"] ;
710 -> 711 ;
712 [label="gini = 0.0\nsamples = 3\nvalue = [0, 0, 3]"] ;
710 -> 712 ;
713 [label="X[25] <= 0.5\ngini = 0.375\nsamples = 8\nvalue = [0, 6, 2]"] ;
703 -> 713 ;
714 [label="X[31] <= 0.5\ngini = 0.245\nsamples = 7\nvalue = [0, 6, 1]"] ;
713 -> 714 ;
715 [label="gini = 0.0\nsamples = 5\nvalue = [0, 5, 0]"] ;
714 -> 715 ;
716 [label="X[31] <= 1.5\ngini = 0.5\nsamples = 2\nvalue = [0, 1, 1]"] ;
714 -> 716 ;
717 [label="gini = 0.0\nsamples = 1\nvalue = [0, 0, 1]"] ;
716 -> 717 ;
718 [label="gini = 0.0\nsamples = 1\nvalue = [0, 1, 0]"] ;
716 -> 718 ;
719 [label="gini = 0.0\nsamples = 1\nvalue = [0, 0, 1]"] ;
713 -> 719 ;
720 [label="gini = 0.0\nsamples = 8\nvalue = [0, 0, 8]"] ;
702 -> 720 ;
721 [label="X[9] <= 0.5\ngini = 0.111\nsamples = 34\nvalue = [0, 2, 32]"] ;
701 -> 721 ;
722 [label="gini = 0.0\nsamples = 25\nvalue = [0, 0, 25]"] ;
721 -> 722 ;
723 [label="X[21] <= 1.0\ngini = 0.346\nsamples = 9\nvalue = [0, 2, 7]"] ;
721 -> 723 ;
724 [label="X[12] <= 0.5\ngini = 0.219\nsamples = 8\nvalue = [0, 1, 7]"] ;
723 -> 724 ;
725 [label="gini = 0.0\nsamples = 6\nvalue = [0, 0, 6]"] ;
724 -> 725 ;
726 [label="X[9] <= 1.5\ngini = 0.5\nsamples = 2\nvalue = [0, 1, 1]"] ;
724 -> 726 ;
727 [label="gini = 0.0\nsamples = 1\nvalue = [0, 1, 0]"] ;
726 -> 727 ;
728 [label="gini = 0.0\nsamples = 1\nvalue = [0, 0, 1]"] ;
726 -> 728 ;
729 [label="gini = 0.0\nsamples = 1\nvalue = [0, 1, 0]"] ;
723 -> 729 ;
730 [label="X[19] <= 1.5\ngini = 0.444\nsamples = 3\nvalue = [0, 2, 1]"] ;
700 -> 730 ;
731 [label="gini = 0.0\nsamples = 2\nvalue = [0, 2, 0]"] ;
730 -> 731 ;
732 [label="gini = 0.0\nsamples = 1\nvalue = [0, 0, 1]"] ;
730 -> 732 ;
733 [label="X[8] <= 0.5\ngini = 0.278\nsamples = 6\nvalue = [0, 5, 1]"] ;
699 -> 733 ;
734 [label="gini = 0.0\nsamples = 5\nvalue = [0, 5, 0]"] ;
733 -> 734 ;
735 [label="gini = 0.0\nsamples = 1\nvalue = [0, 0, 1]"] ;
733 -> 735 ;
736 [label="X[8] <= 1.5\ngini = 0.038\nsamples = 210\nvalue = [1, 3, 206]"] ;
648 -> 736 ;
737 [label="X[14] <= 0.5\ngini = 0.011\nsamples = 173\nvalue = [1, 0, 172]"] ;
736 -> 737 ;
738 [label="gini = 0.0\nsamples = 163\nvalue = [0, 0, 163]"] ;
737 -> 738 ;
739 [label="X[7] <= 1.0\ngini = 0.18\nsamples = 10\nvalue = [1, 0, 9]"] ;
737 -> 739 ;
740 [label="gini = 0.0\nsamples = 9\nvalue = [0, 0, 9]"] ;
739 -> 740 ;
741 [label="gini = 0.0\nsamples = 1\nvalue = [1, 0, 0]"] ;
739 -> 741 ;
742 [label="X[22] <= 0.5\ngini = 0.149\nsamples = 37\nvalue = [0, 3, 34]"] ;
736 -> 742 ;
743 [label="X[30] <= 0.5\ngini = 0.108\nsamples = 35\nvalue = [0, 2, 33]"] ;
742 -> 743 ;
744 [label="gini = 0.0\nsamples = 23\nvalue = [0, 0, 23]"] ;
743 -> 744 ;
745 [label="X[24] <= 0.5\ngini = 0.278\nsamples = 12\nvalue = [0, 2, 10]"] ;
743 -> 745 ;
746 [label="gini = 0.0\nsamples = 9\nvalue = [0, 0, 9]"] ;
745 -> 746 ;
747 [label="X[7] <= 1.5\ngini = 0.444\nsamples = 3\nvalue = [0, 2, 1]"] ;
745 -> 747 ;
748 [label="gini = 0.0\nsamples = 2\nvalue = [0, 2, 0]"] ;
747 -> 748 ;
749 [label="gini = 0.0\nsamples = 1\nvalue = [0, 0, 1]"] ;
747 -> 749 ;
750 [label="X[19] <= 1.5\ngini = 0.5\nsamples = 2\nvalue = [0, 1, 1]"] ;
742 -> 750 ;
751 [label="gini = 0.0\nsamples = 1\nvalue = [0, 1, 0]"] ;
750 -> 751 ;
752 [label="gini = 0.0\nsamples = 1\nvalue = [0, 0, 1]"] ;
750 -> 752 ;
753 [label="gini = 0.0\nsamples = 1\nvalue = [1, 0, 0]"] ;
541 -> 753 ;
754 [label="X[25] <= 0.5\ngini = 0.262\nsamples = 223\nvalue = [21, 12, 190]"] ;
540 -> 754 ;
755 [label="X[20] <= 0.5\ngini = 0.209\nsamples = 192\nvalue = [15, 7, 170]"] ;
754 -> 755 ;
756 [label="X[14] <= 0.5\ngini = 0.127\nsamples = 148\nvalue = [9, 1, 138]"] ;
755 -> 756 ;
757 [label="X[9] <= 1.5\ngini = 0.098\nsamples = 136\nvalue = [6, 1, 129]"] ;
756 -> 757 ;
758 [label="X[24] <= 1.5\ngini = 0.087\nsamples = 133\nvalue = [5, 1, 127]"] ;
757 -> 758 ;
759 [label="X[38] <= 1.5\ngini = 0.054\nsamples = 108\nvalue = [2, 1, 105]"] ;
758 -> 759 ;
760 [label="X[31] <= 0.5\ngini = 0.024\nsamples = 81\nvalue = [1, 0, 80]"] ;
759 -> 760 ;
761 [label="gini = 0.0\nsamples = 60\nvalue = [0, 0, 60]"] ;
760 -> 761 ;
762 [label="X[12] <= 0.5\ngini = 0.091\nsamples = 21\nvalue = [1, 0, 20]"] ;
760 -> 762 ;
763 [label="gini = 0.0\nsamples = 15\nvalue = [0, 0, 15]"] ;
762 -> 763 ;
764 [label="X[7] <= 1.5\ngini = 0.278\nsamples = 6\nvalue = [1, 0, 5]"] ;
762 -> 764 ;
765 [label="gini = 0.0\nsamples = 5\nvalue = [0, 0, 5]"] ;
764 -> 765 ;
766 [label="gini = 0.0\nsamples = 1\nvalue = [1, 0, 0]"] ;
764 -> 766 ;
767 [label="X[8] <= 0.5\ngini = 0.14\nsamples = 27\nvalue = [1, 1, 25]"] ;
759 -> 767 ;
768 [label="X[30] <= 1.5\ngini = 0.087\nsamples = 22\nvalue = [0, 1, 21]"] ;
767 -> 768 ;
769 [label="gini = 0.0\nsamples = 15\nvalue = [0, 0, 15]"] ;
768 -> 769 ;
770 [label="X[13] <= 0.5\ngini = 0.245\nsamples = 7\nvalue = [0, 1, 6]"] ;
768 -> 770 ;
771 [label="gini = 0.0\nsamples = 6\nvalue = [0, 0, 6]"] ;
770 -> 771 ;
772 [label="gini = 0.0\nsamples = 1\nvalue = [0, 1, 0]"] ;
770 -> 772 ;
773 [label="X[19] <= 0.5\ngini = 0.32\nsamples = 5\nvalue = [1, 0, 4]"] ;
767 -> 773 ;
774 [label="gini = 0.0\nsamples = 4\nvalue = [0, 0, 4]"] ;
773 -> 774 ;
775 [label="gini = 0.0\nsamples = 1\nvalue = [1, 0, 0]"] ;
773 -> 775 ;
776 [label="X[30] <= 1.5\ngini = 0.211\nsamples = 25\nvalue = [3, 0, 22]"] ;
758 -> 776 ;
777 [label="X[8] <= 1.5\ngini = 0.091\nsamples = 21\nvalue = [1, 0, 20]"] ;
776 -> 777 ;
778 [label="gini = 0.0\nsamples = 17\nvalue = [0, 0, 17]"] ;
777 -> 778 ;
779 [label="X[19] <= 0.5\ngini = 0.375\nsamples = 4\nvalue = [1, 0, 3]"] ;
777 -> 779 ;
780 [label="gini = 0.0\nsamples = 3\nvalue = [0, 0, 3]"] ;
779 -> 780 ;
781 [label="gini = 0.0\nsamples = 1\nvalue = [1, 0, 0]"] ;
779 -> 781 ;
782 [label="X[38] <= 0.5\ngini = 0.5\nsamples = 4\nvalue = [2, 0, 2]"] ;
776 -> 782 ;
783 [label="X[31] <= 0.5\ngini = 0.444\nsamples = 3\nvalue = [2, 0, 1]"] ;
782 -> 783 ;
784 [label="gini = 0.0\nsamples = 2\nvalue = [2, 0, 0]"] ;
783 -> 784 ;
785 [label="gini = 0.0\nsamples = 1\nvalue = [0, 0, 1]"] ;
783 -> 785 ;
786 [label="gini = 0.0\nsamples = 1\nvalue = [0, 0, 1]"] ;
782 -> 786 ;
787 [label="X[19] <= 0.5\ngini = 0.444\nsamples = 3\nvalue = [1, 0, 2]"] ;
757 -> 787 ;
788 [label="gini = 0.0\nsamples = 2\nvalue = [0, 0, 2]"] ;
787 -> 788 ;
789 [label="gini = 0.0\nsamples = 1\nvalue = [1, 0, 0]"] ;
787 -> 789 ;
790 [label="X[14] <= 1.5\ngini = 0.375\nsamples = 12\nvalue = [3, 0, 9]"] ;
756 -> 790 ;
791 [label="X[7] <= 1.0\ngini = 0.5\nsamples = 6\nvalue = [3, 0, 3]"] ;
790 -> 791 ;
792 [label="X[30] <= 1.0\ngini = 0.48\nsamples = 5\nvalue = [2, 0, 3]"] ;
791 -> 792 ;
793 [label="X[38] <= 1.0\ngini = 0.375\nsamples = 4\nvalue = [1, 0, 3]"] ;
792 -> 793 ;
794 [label="gini = 0.0\nsamples = 3\nvalue = [0, 0, 3]"] ;
793 -> 794 ;
795 [label="gini = 0.0\nsamples = 1\nvalue = [1, 0, 0]"] ;
793 -> 795 ;
796 [label="gini = 0.0\nsamples = 1\nvalue = [1, 0, 0]"] ;
792 -> 796 ;
797 [label="gini = 0.0\nsamples = 1\nvalue = [1, 0, 0]"] ;
791 -> 797 ;
798 [label="gini = 0.0\nsamples = 6\nvalue = [0, 0, 6]"] ;
790 -> 798 ;
799 [label="X[20] <= 1.5\ngini = 0.434\nsamples = 44\nvalue = [6, 6, 32]"] ;
755 -> 799 ;
800 [label="X[19] <= 1.5\ngini = 0.635\nsamples = 23\nvalue = [6, 6, 11]"] ;
799 -> 800 ;
801 [label="gini = 0.0\nsamples = 2\nvalue = [2, 0, 0]"] ;
800 -> 801 ;
802 [label="X[38] <= 1.5\ngini = 0.608\nsamples = 21\nvalue = [4, 6, 11]"] ;
800 -> 802 ;
803 [label="X[38] <= 0.5\ngini = 0.549\nsamples = 18\nvalue = [3, 4, 11]"] ;
802 -> 803 ;
804 [label="X[24] <= 1.0\ngini = 0.639\nsamples = 13\nvalue = [3, 4, 6]"] ;
803 -> 804 ;
805 [label="X[22] <= 0.5\ngini = 0.56\nsamples = 10\nvalue = [2, 2, 6]"] ;
804 -> 805 ;
806 [label="X[13] <= 1.0\ngini = 0.494\nsamples = 9\nvalue = [1, 2, 6]"] ;
805 -> 806 ;
807 [label="X[21] <= 0.5\ngini = 0.375\nsamples = 8\nvalue = [0, 2, 6]"] ;
806 -> 807 ;
808 [label="gini = 0.0\nsamples = 4\nvalue = [0, 0, 4]"] ;
807 -> 808 ;
809 [label="X[21] <= 1.5\ngini = 0.5\nsamples = 4\nvalue = [0, 2, 2]"] ;
807 -> 809 ;
810 [label="gini = 0.0\nsamples = 2\nvalue = [0, 2, 0]"] ;
809 -> 810 ;
811 [label="gini = 0.0\nsamples = 2\nvalue = [0, 0, 2]"] ;
809 -> 811 ;
812 [label="gini = 0.0\nsamples = 1\nvalue = [1, 0, 0]"] ;
806 -> 812 ;
813 [label="gini = 0.0\nsamples = 1\nvalue = [1, 0, 0]"] ;
805 -> 813 ;
814 [label="X[7] <= 0.5\ngini = 0.444\nsamples = 3\nvalue = [1, 2, 0]"] ;
804 -> 814 ;
815 [label="gini = 0.0\nsamples = 2\nvalue = [0, 2, 0]"] ;
814 -> 815 ;
816 [label="gini = 0.0\nsamples = 1\nvalue = [1, 0, 0]"] ;
814 -> 816 ;
817 [label="gini = 0.0\nsamples = 5\nvalue = [0, 0, 5]"] ;
803 -> 817 ;
818 [label="X[39] <= 0.5\ngini = 0.444\nsamples = 3\nvalue = [1, 2, 0]"] ;
802 -> 818 ;
819 [label="gini = 0.0\nsamples = 2\nvalue = [0, 2, 0]"] ;
818 -> 819 ;
820 [label="gini = 0.0\nsamples = 1\nvalue = [1, 0, 0]"] ;
818 -> 820 ;
821 [label="gini = 0.0\nsamples = 21\nvalue = [0, 0, 21]"] ;
799 -> 821 ;
822 [label="X[7] <= 1.5\ngini = 0.52\nsamples = 31\nvalue = [6, 5, 20]"] ;
754 -> 822 ;
823 [label="X[25] <= 1.5\ngini = 0.435\nsamples = 25\nvalue = [2, 5, 18]"] ;
822 -> 823 ;
824 [label="X[19] <= 0.5\ngini = 0.57\nsamples = 16\nvalue = [2, 5, 9]"] ;
823 -> 824 ;
825 [label="X[26] <= 1.5\ngini = 0.579\nsamples = 11\nvalue = [1, 5, 5]"] ;
824 -> 825 ;
826 [label="X[8] <= 1.0\ngini = 0.571\nsamples = 7\nvalue = [1, 4, 2]"] ;
825 -> 826 ;
827 [label="X[38] <= 1.5\ngini = 0.5\nsamples = 6\nvalue = [1, 4, 1]"] ;
826 -> 827 ;
828 [label="gini = 0.0\nsamples = 2\nvalue = [0, 2, 0]"] ;
827 -> 828 ;
829 [label="X[39] <= 0.5\ngini = 0.625\nsamples = 4\nvalue = [1, 2, 1]"] ;
827 -> 829 ;
830 [label="X[12] <= 0.5\ngini = 0.444\nsamples = 3\nvalue = [1, 2, 0]"] ;
829 -> 830 ;
831 [label="gini = 0.0\nsamples = 2\nvalue = [0, 2, 0]"] ;
830 -> 831 ;
832 [label="gini = 0.0\nsamples = 1\nvalue = [1, 0, 0]"] ;
830 -> 832 ;
833 [label="gini = 0.0\nsamples = 1\nvalue = [0, 0, 1]"] ;
829 -> 833 ;
834 [label="gini = 0.0\nsamples = 1\nvalue = [0, 0, 1]"] ;
826 -> 834 ;
835 [label="X[27] <= 0.5\ngini = 0.375\nsamples = 4\nvalue = [0, 1, 3]"] ;
825 -> 835 ;
836 [label="gini = 0.0\nsamples = 3\nvalue = [0, 0, 3]"] ;
835 -> 836 ;
837 [label="gini = 0.0\nsamples = 1\nvalue = [0, 1, 0]"] ;
835 -> 837 ;
838 [label="X[20] <= 0.5\ngini = 0.32\nsamples = 5\nvalue = [1, 0, 4]"] ;
824 -> 838 ;
839 [label="gini = 0.0\nsamples = 3\nvalue = [0, 0, 3]"] ;
838 -> 839 ;
840 [label="X[20] <= 1.5\ngini = 0.5\nsamples = 2\nvalue = [1, 0, 1]"] ;
838 -> 840 ;
841 [label="gini = 0.0\nsamples = 1\nvalue = [1, 0, 0]"] ;
840 -> 841 ;
842 [label="gini = 0.0\nsamples = 1\nvalue = [0, 0, 1]"] ;
840 -> 842 ;
843 [label="gini = 0.0\nsamples = 9\nvalue = [0, 0, 9]"] ;
823 -> 843 ;
844 [label="X[24] <= 1.5\ngini = 0.444\nsamples = 6\nvalue = [4, 0, 2]"] ;
822 -> 844 ;
845 [label="gini = 0.0\nsamples = 2\nvalue = [0, 0, 2]"] ;
844 -> 845 ;
846 [label="gini = 0.0\nsamples = 4\nvalue = [4, 0, 0]"] ;
844 -> 846 ;
847 [label="X[20] <= 1.5\ngini = 0.645\nsamples = 11\nvalue = [3, 3, 5]"] ;
539 -> 847 ;
848 [label="X[30] <= 0.5\ngini = 0.444\nsamples = 3\nvalue = [2, 1, 0]"] ;
847 -> 848 ;
849 [label="gini = 0.0\nsamples = 2\nvalue = [2, 0, 0]"] ;
848 -> 849 ;
850 [label="gini = 0.0\nsamples = 1\nvalue = [0, 1, 0]"] ;
848 -> 850 ;
851 [label="X[21] <= 1.5\ngini = 0.531\nsamples = 8\nvalue = [1, 2, 5]"] ;
847 -> 851 ;
852 [label="X[36] <= 0.5\ngini = 0.625\nsamples = 4\nvalue = [1, 2, 1]"] ;
851 -> 852 ;
853 [label="X[12] <= 0.5\ngini = 0.444\nsamples = 3\nvalue = [0, 2, 1]"] ;
852 -> 853 ;
854 [label="gini = 0.0\nsamples = 2\nvalue = [0, 2, 0]"] ;
853 -> 854 ;
855 [label="gini = 0.0\nsamples = 1\nvalue = [0, 0, 1]"] ;
853 -> 855 ;
856 [label="gini = 0.0\nsamples = 1\nvalue = [1, 0, 0]"] ;
852 -> 856 ;
857 [label="gini = 0.0\nsamples = 4\nvalue = [0, 0, 4]"] ;
851 -> 857 ;
858 [label="X[36] <= 0.5\ngini = 0.419\nsamples = 5279\nvalue = [458, 934, 3887]"] ;
4 -> 858 ;
859 [label="X[18] <= 1.5\ngini = 0.481\nsamples = 2974\nvalue = [277, 688, 2009]"] ;
858 -> 859 ;
860 [label="X[24] <= 1.5\ngini = 0.452\nsamples = 2402\nvalue = [224, 481, 1697]"] ;
859 -> 860 ;
861 [label="X[24] <= 0.5\ngini = 0.404\nsamples = 1866\nvalue = [152, 317, 1397]"] ;
860 -> 861 ;
862 [label="X[14] <= 0.5\ngini = 0.483\nsamples = 891\nvalue = [94, 194, 603]"] ;
861 -> 862 ;
863 [label="X[6] <= 0.5\ngini = 0.359\nsamples = 429\nvalue = [26, 67, 336]"] ;
862 -> 863 ;
864 [label="X[30] <= 1.5\ngini = 0.532\nsamples = 116\nvalue = [10, 36, 70]"] ;
863 -> 864 ;
865 [label="X[20] <= 1.5\ngini = 0.34\nsamples = 59\nvalue = [3, 9, 47]"] ;
864 -> 865 ;
866 [label="X[32] <= 0.5\ngini = 0.462\nsamples = 39\nvalue = [3, 9, 27]"] ;
865 -> 866 ;
867 [label="X[13] <= 1.5\ngini = 0.569\nsamples = 12\nvalue = [1, 6, 5]"] ;
866 -> 867 ;
868 [label="X[13] <= 0.5\ngini = 0.278\nsamples = 6\nvalue = [1, 0, 5]"] ;
867 -> 868 ;
869 [label="gini = 0.0\nsamples = 3\nvalue = [0, 0, 3]"] ;
868 -> 869 ;
870 [label="X[31] <= 1.0\ngini = 0.444\nsamples = 3\nvalue = [1, 0, 2]"] ;
868 -> 870 ;
871 [label="X[23] <= 0.5\ngini = 0.5\nsamples = 2\nvalue = [1, 0, 1]"] ;
870 -> 871 ;
872 [label="gini = 0.0\nsamples = 1\nvalue = [1, 0, 0]"] ;
871 -> 872 ;
873 [label="gini = 0.0\nsamples = 1\nvalue = [0, 0, 1]"] ;
871 -> 873 ;
874 [label="gini = 0.0\nsamples = 1\nvalue = [0, 0, 1]"] ;
870 -> 874 ;
875 [label="gini = 0.0\nsamples = 6\nvalue = [0, 6, 0]"] ;
867 -> 875 ;
876 [label="X[34] <= 1.5\ngini = 0.318\nsamples = 27\nvalue = [2, 3, 22]"] ;
866 -> 876 ;
877 [label="X[20] <= 0.5\ngini = 0.095\nsamples = 20\nvalue = [0, 1, 19]"] ;
876 -> 877 ;
878 [label="gini = 0.0\nsamples = 16\nvalue = [0, 0, 16]"] ;
877 -> 878 ;
879 [label="X[33] <= 0.5\ngini = 0.375\nsamples = 4\nvalue = [0, 1, 3]"] ;
877 -> 879 ;
880 [label="gini = 0.0\nsamples = 2\nvalue = [0, 0, 2]"] ;
879 -> 880 ;
881 [label="X[33] <= 1.5\ngini = 0.5\nsamples = 2\nvalue = [0, 1, 1]"] ;
879 -> 881 ;
882 [label="gini = 0.0\nsamples = 1\nvalue = [0, 1, 0]"] ;
881 -> 882 ;
883 [label="gini = 0.0\nsamples = 1\nvalue = [0, 0, 1]"] ;
881 -> 883 ;
884 [label="X[32] <= 1.5\ngini = 0.653\nsamples = 7\nvalue = [2, 2, 3]"] ;
876 -> 884 ;
885 [label="X[13] <= 0.5\ngini = 0.48\nsamples = 5\nvalue = [0, 2, 3]"] ;
884 -> 885 ;
886 [label="gini = 0.0\nsamples = 2\nvalue = [0, 0, 2]"] ;
885 -> 886 ;
887 [label="X[13] <= 1.5\ngini = 0.444\nsamples = 3\nvalue = [0, 2, 1]"] ;
885 -> 887 ;
888 [label="X[35] <= 0.5\ngini = 0.5\nsamples = 2\nvalue = [0, 1, 1]"] ;
887 -> 888 ;
889 [label="gini = 0.0\nsamples = 1\nvalue = [0, 1, 0]"] ;
888 -> 889 ;
890 [label="gini = 0.0\nsamples = 1\nvalue = [0, 0, 1]"] ;
888 -> 890 ;
891 [label="gini = 0.0\nsamples = 1\nvalue = [0, 1, 0]"] ;
887 -> 891 ;
892 [label="gini = 0.0\nsamples = 2\nvalue = [2, 0, 0]"] ;
884 -> 892 ;
893 [label="gini = 0.0\nsamples = 20\nvalue = [0, 0, 20]"] ;
865 -> 893 ;
894 [label="X[22] <= 1.5\ngini = 0.598\nsamples = 57\nvalue = [7, 27, 23]"] ;
864 -> 894 ;
895 [label="X[35] <= 0.5\ngini = 0.607\nsamples = 52\nvalue = [7, 22, 23]"] ;
894 -> 895 ;
896 [label="X[19] <= 0.5\ngini = 0.585\nsamples = 50\nvalue = [5, 22, 23]"] ;
895 -> 896 ;
897 [label="gini = 0.0\nsamples = 4\nvalue = [0, 0, 4]"] ;
896 -> 897 ;
898 [label="X[20] <= 1.5\ngini = 0.589\nsamples = 46\nvalue = [5, 22, 19]"] ;
896 -> 898 ;
899 [label="X[22] <= 0.5\ngini = 0.58\nsamples = 30\nvalue = [5, 17, 8]"] ;
898 -> 899 ;
900 [label="X[21] <= 0.5\ngini = 0.506\nsamples = 25\nvalue = [2, 16, 7]"] ;
899 -> 900 ;
901 [label="X[19] <= 1.5\ngini = 0.537\nsamples = 18\nvalue = [1, 10, 7]"] ;
900 -> 901 ;
902 [label="X[33] <= 1.5\ngini = 0.346\nsamples = 9\nvalue = [0, 7, 2]"] ;
901 -> 902 ;
903 [label="X[13] <= 0.5\ngini = 0.5\nsamples = 4\nvalue = [0, 2, 2]"] ;
902 -> 903 ;
904 [label="gini = 0.0\nsamples = 1\nvalue = [0, 1, 0]"] ;
903 -> 904 ;
905 [label="X[32] <= 1.5\ngini = 0.444\nsamples = 3\nvalue = [0, 1, 2]"] ;
903 -> 905 ;
906 [label="gini = 0.0\nsamples = 1\nvalue = [0, 1, 0]"] ;
905 -> 906 ;
907 [label="gini = 0.0\nsamples = 2\nvalue = [0, 0, 2]"] ;
905 -> 907 ;
908 [label="gini = 0.0\nsamples = 5\nvalue = [0, 5, 0]"] ;
902 -> 908 ;
909 [label="X[31] <= 1.5\ngini = 0.568\nsamples = 9\nvalue = [1, 3, 5]"] ;
901 -> 909 ;
910 [label="X[20] <= 0.5\ngini = 0.408\nsamples = 7\nvalue = [0, 2, 5]"] ;
909 -> 910 ;
911 [label="gini = 0.0\nsamples = 3\nvalue = [0, 0, 3]"] ;
910 -> 911 ;
912 [label="X[32] <= 1.5\ngini = 0.5\nsamples = 4\nvalue = [0, 2, 2]"] ;
910 -> 912 ;
913 [label="gini = 0.0\nsamples = 2\nvalue = [0, 0, 2]"] ;
912 -> 913 ;
914 [label="gini = 0.0\nsamples = 2\nvalue = [0, 2, 0]"] ;
912 -> 914 ;
915 [label="X[20] <= 0.5\ngini = 0.5\nsamples = 2\nvalue = [1, 1, 0]"] ;
909 -> 915 ;
916 [label="gini = 0.0\nsamples = 1\nvalue = [1, 0, 0]"] ;
915 -> 916 ;
917 [label="gini = 0.0\nsamples = 1\nvalue = [0, 1, 0]"] ;
915 -> 917 ;
918 [label="X[21] <= 1.5\ngini = 0.245\nsamples = 7\nvalue = [1, 6, 0]"] ;
900 -> 918 ;
919 [label="gini = 0.0\nsamples = 4\nvalue = [0, 4, 0]"] ;
918 -> 919 ;
920 [label="X[19] <= 1.5\ngini = 0.444\nsamples = 3\nvalue = [1, 2, 0]"] ;
918 -> 920 ;
921 [label="gini = 0.0\nsamples = 2\nvalue = [0, 2, 0]"] ;
920 -> 921 ;
922 [label="gini = 0.0\nsamples = 1\nvalue = [1, 0, 0]"] ;
920 -> 922 ;
923 [label="X[23] <= 0.5\ngini = 0.56\nsamples = 5\nvalue = [3, 1, 1]"] ;
899 -> 923 ;
924 [label="X[31] <= 1.5\ngini = 0.375\nsamples = 4\nvalue = [3, 1, 0]"] ;
923 -> 924 ;
925 [label="gini = 0.0\nsamples = 3\nvalue = [3, 0, 0]"] ;
924 -> 925 ;
926 [label="gini = 0.0\nsamples = 1\nvalue = [0, 1, 0]"] ;
924 -> 926 ;
927 [label="gini = 0.0\nsamples = 1\nvalue = [0, 0, 1]"] ;
923 -> 927 ;
928 [label="X[32] <= 1.5\ngini = 0.43\nsamples = 16\nvalue = [0, 5, 11]"] ;
898 -> 928 ;
929 [label="X[21] <= 1.5\ngini = 0.337\nsamples = 14\nvalue = [0, 3, 11]"] ;
928 -> 929 ;
930 [label="X[13] <= 0.5\ngini = 0.18\nsamples = 10\nvalue = [0, 1, 9]"] ;
929 -> 930 ;
931 [label="X[19] <= 1.5\ngini = 0.375\nsamples = 4\nvalue = [0, 1, 3]"] ;
930 -> 931 ;
932 [label="X[21] <= 0.5\ngini = 0.444\nsamples = 3\nvalue = [0, 1, 2]"] ;
931 -> 932 ;
933 [label="gini = 0.0\nsamples = 1\nvalue = [0, 0, 1]"] ;
932 -> 933 ;
934 [label="X[32] <= 0.5\ngini = 0.5\nsamples = 2\nvalue = [0, 1, 1]"] ;
932 -> 934 ;
935 [label="gini = 0.0\nsamples = 1\nvalue = [0, 0, 1]"] ;
934 -> 935 ;
936 [label="gini = 0.0\nsamples = 1\nvalue = [0, 1, 0]"] ;
934 -> 936 ;
937 [label="gini = 0.0\nsamples = 1\nvalue = [0, 0, 1]"] ;
931 -> 937 ;
938 [label="gini = 0.0\nsamples = 6\nvalue = [0, 0, 6]"] ;
930 -> 938 ;
939 [label="X[31] <= 0.5\ngini = 0.5\nsamples = 4\nvalue = [0, 2, 2]"] ;
929 -> 939 ;
940 [label="gini = 0.0\nsamples = 1\nvalue = [0, 0, 1]"] ;
939 -> 940 ;
941 [label="X[32] <= 0.5\ngini = 0.444\nsamples = 3\nvalue = [0, 2, 1]"] ;
939 -> 941 ;
942 [label="gini = 0.0\nsamples = 2\nvalue = [0, 2, 0]"] ;
941 -> 942 ;
943 [label="gini = 0.0\nsamples = 1\nvalue = [0, 0, 1]"] ;
941 -> 943 ;
944 [label="gini = 0.0\nsamples = 2\nvalue = [0, 2, 0]"] ;
928 -> 944 ;
945 [label="gini = 0.0\nsamples = 2\nvalue = [2, 0, 0]"] ;
895 -> 945 ;
946 [label="gini = 0.0\nsamples = 5\nvalue = [0, 5, 0]"] ;
894 -> 946 ;
947 [label="X[34] <= 1.5\ngini = 0.265\nsamples = 313\nvalue = [16, 31, 266]"] ;
863 -> 947 ;
948 [label="X[10] <= 1.5\ngini = 0.243\nsamples = 302\nvalue = [15, 26, 261]"] ;
947 -> 948 ;
949 [label="X[21] <= 0.5\ngini = 0.213\nsamples = 281\nvalue = [11, 22, 248]"] ;
948 -> 949 ;
950 [label="X[11] <= 1.5\ngini = 0.166\nsamples = 236\nvalue = [8, 13, 215]"] ;
949 -> 950 ;
951 [label="X[13] <= 1.5\ngini = 0.159\nsamples = 235\nvalue = [7, 13, 215]"] ;
950 -> 951 ;
952 [label="X[9] <= 1.5\ngini = 0.203\nsamples = 162\nvalue = [6, 12, 144]"] ;
951 -> 952 ;
953 [label="X[20] <= 1.5\ngini = 0.237\nsamples = 136\nvalue = [6, 12, 118]"] ;
952 -> 953 ;
954 [label="X[20] <= 0.5\ngini = 0.281\nsamples = 112\nvalue = [6, 12, 94]"] ;
953 -> 954 ;
955 [label="X[19] <= 1.5\ngini = 0.266\nsamples = 100\nvalue = [6, 9, 85]"] ;
954 -> 955 ;
956 [label="X[19] <= 0.5\ngini = 0.312\nsamples = 83\nvalue = [6, 9, 68]"] ;
955 -> 956 ;
957 [label="X[33] <= 1.5\ngini = 0.27\nsamples = 72\nvalue = [5, 6, 61]"] ;
956 -> 957 ;
958 [label="X[30] <= 1.5\ngini = 0.319\nsamples = 54\nvalue = [5, 5, 44]"] ;
957 -> 958 ;
959 [label="X[7] <= 1.5\ngini = 0.18\nsamples = 20\nvalue = [0, 2, 18]"] ;
958 -> 959 ;
960 [label="X[13] <= 0.5\ngini = 0.444\nsamples = 3\nvalue = [0, 1, 2]"] ;
959 -> 960 ;
961 [label="gini = 0.0\nsamples = 2\nvalue = [0, 0, 2]"] ;
960 -> 961 ;
962 [label="gini = 0.0\nsamples = 1\nvalue = [0, 1, 0]"] ;
960 -> 962 ;
963 [label="X[9] <= 0.5\ngini = 0.111\nsamples = 17\nvalue = [0, 1, 16]"] ;
959 -> 963 ;
964 [label="gini = 0.0\nsamples = 13\nvalue = [0, 0, 13]"] ;
963 -> 964 ;
965 [label="X[31] <= 1.5\ngini = 0.375\nsamples = 4\nvalue = [0, 1, 3]"] ;
963 -> 965 ;
966 [label="gini = 0.0\nsamples = 1\nvalue = [0, 1, 0]"] ;
965 -> 966 ;
967 [label="gini = 0.0\nsamples = 3\nvalue = [0, 0, 3]"] ;
965 -> 967 ;
968 [label="X[33] <= 0.5\ngini = 0.386\nsamples = 34\nvalue = [5, 3, 26]"] ;
958 -> 968 ;
969 [label="X[32] <= 1.5\ngini = 0.328\nsamples = 26\nvalue = [3, 2, 21]"] ;
968 -> 969 ;
970 [label="X[10] <= 0.5\ngini = 0.421\nsamples = 19\nvalue = [3, 2, 14]"] ;
969 -> 970 ;
971 [label="X[18] <= 0.5\ngini = 0.477\nsamples = 16\nvalue = [3, 2, 11]"] ;
970 -> 971 ;
972 [label="X[32] <= 0.5\ngini = 0.611\nsamples = 6\nvalue = [2, 1, 3]"] ;
971 -> 972 ;
973 [label="X[7] <= 1.5\ngini = 0.5\nsamples = 2\nvalue = [1, 1, 0]"] ;
972 -> 973 ;
974 [label="gini = 0.0\nsamples = 1\nvalue = [0, 1, 0]"] ;
973 -> 974 ;
975 [label="gini = 0.0\nsamples = 1\nvalue = [1, 0, 0]"] ;
973 -> 975 ;
976 [label="X[8] <= 1.5\ngini = 0.375\nsamples = 4\nvalue = [1, 0, 3]"] ;
972 -> 976 ;
977 [label="gini = 0.0\nsamples = 1\nvalue = [1, 0, 0]"] ;
976 -> 977 ;
978 [label="gini = 0.0\nsamples = 3\nvalue = [0, 0, 3]"] ;
976 -> 978 ;
979 [label="X[13] <= 0.5\ngini = 0.34\nsamples = 10\nvalue = [1, 1, 8]"] ;
971 -> 979 ;
980 [label="X[9] <= 0.5\ngini = 0.56\nsamples = 5\nvalue = [1, 1, 3]"] ;
979 -> 980 ;
981 [label="X[8] <= 1.5\ngini = 0.5\nsamples = 2\nvalue = [0, 1, 1]"] ;
980 -> 981 ;
982 [label="gini = 0.0\nsamples = 1\nvalue = [0, 1, 0]"] ;
981 -> 982 ;
983 [label="gini = 0.0\nsamples = 1\nvalue = [0, 0, 1]"] ;
981 -> 983 ;
984 [label="X[31] <= 1.5\ngini = 0.444\nsamples = 3\nvalue = [1, 0, 2]"] ;
980 -> 984 ;
985 [label="gini = 0.0\nsamples = 1\nvalue = [1, 0, 0]"] ;
984 -> 985 ;
986 [label="gini = 0.0\nsamples = 2\nvalue = [0, 0, 2]"] ;
984 -> 986 ;
987 [label="gini = 0.0\nsamples = 5\nvalue = [0, 0, 5]"] ;
979 -> 987 ;
988 [label="gini = 0.0\nsamples = 3\nvalue = [0, 0, 3]"] ;
970 -> 988 ;
989 [label="gini = 0.0\nsamples = 7\nvalue = [0, 0, 7]"] ;
969 -> 989 ;
990 [label="X[18] <= 0.5\ngini = 0.531\nsamples = 8\nvalue = [2, 1, 5]"] ;
968 -> 990 ;
991 [label="X[8] <= 1.5\ngini = 0.32\nsamples = 5\nvalue = [1, 0, 4]"] ;
990 -> 991 ;
992 [label="gini = 0.0\nsamples = 3\nvalue = [0, 0, 3]"] ;
991 -> 992 ;
993 [label="X[32] <= 1.5\ngini = 0.5\nsamples = 2\nvalue = [1, 0, 1]"] ;
991 -> 993 ;
994 [label="gini = 0.0\nsamples = 1\nvalue = [0, 0, 1]"] ;
993 -> 994 ;
995 [label="gini = 0.0\nsamples = 1\nvalue = [1, 0, 0]"] ;
993 -> 995 ;
996 [label="X[31] <= 1.5\ngini = 0.667\nsamples = 3\nvalue = [1, 1, 1]"] ;
990 -> 996 ;
997 [label="gini = 0.0\nsamples = 1\nvalue = [0, 1, 0]"] ;
996 -> 997 ;
998 [label="X[7] <= 1.5\ngini = 0.5\nsamples = 2\nvalue = [1, 0, 1]"] ;
996 -> 998 ;
999 [label="gini = 0.0\nsamples = 1\nvalue = [0, 0, 1]"] ;
998 -> 999 ;
1000 [label="gini = 0.0\nsamples = 1\nvalue = [1, 0, 0]"] ;
998 -> 1000 ;
1001 [label="X[32] <= 1.5\ngini = 0.105\nsamples = 18\nvalue = [0, 1, 17]"] ;
957 -> 1001 ;
1002 [label="gini = 0.0\nsamples = 12\nvalue = [0, 0, 12]"] ;
1001 -> 1002 ;
1003 [label="X[30] <= 1.5\ngini = 0.278\nsamples = 6\nvalue = [0, 1, 5]"] ;
1001 -> 1003 ;
1004 [label="X[18] <= 0.5\ngini = 0.5\nsamples = 2\nvalue = [0, 1, 1]"] ;
1003 -> 1004 ;
1005 [label="gini = 0.0\nsamples = 1\nvalue = [0, 1, 0]"] ;
1004 -> 1005 ;
1006 [label="gini = 0.0\nsamples = 1\nvalue = [0, 0, 1]"] ;
1004 -> 1006 ;
1007 [label="gini = 0.0\nsamples = 4\nvalue = [0, 0, 4]"] ;
1003 -> 1007 ;
1008 [label="X[31] <= 1.5\ngini = 0.512\nsamples = 11\nvalue = [1, 3, 7]"] ;
956 -> 1008 ;
1009 [label="X[9] <= 0.5\ngini = 0.375\nsamples = 4\nvalue = [0, 3, 1]"] ;
1008 -> 1009 ;
1010 [label="gini = 0.0\nsamples = 3\nvalue = [0, 3, 0]"] ;
1009 -> 1010 ;
1011 [label="gini = 0.0\nsamples = 1\nvalue = [0, 0, 1]"] ;
1009 -> 1011 ;
1012 [label="X[32] <= 0.5\ngini = 0.245\nsamples = 7\nvalue = [1, 0, 6]"] ;
1008 -> 1012 ;
1013 [label="gini = 0.0\nsamples = 4\nvalue = [0, 0, 4]"] ;
1012 -> 1013 ;
1014 [label="X[32] <= 1.5\ngini = 0.444\nsamples = 3\nvalue = [1, 0, 2]"] ;
1012 -> 1014 ;
1015 [label="gini = 0.0\nsamples = 1\nvalue = [1, 0, 0]"] ;
1014 -> 1015 ;
1016 [label="gini = 0.0\nsamples = 2\nvalue = [0, 0, 2]"] ;
1014 -> 1016 ;
1017 [label="gini = 0.0\nsamples = 17\nvalue = [0, 0, 17]"] ;
955 -> 1017 ;
1018 [label="X[7] <= 1.5\ngini = 0.375\nsamples = 12\nvalue = [0, 3, 9]"] ;
954 -> 1018 ;
1019 [label="gini = 0.0\nsamples = 6\nvalue = [0, 0, 6]"] ;
1018 -> 1019 ;
1020 [label="X[8] <= 0.5\ngini = 0.5\nsamples = 6\nvalue = [0, 3, 3]"] ;
1018 -> 1020 ;
1021 [label="gini = 0.0\nsamples = 2\nvalue = [0, 2, 0]"] ;
1020 -> 1021 ;
1022 [label="X[9] <= 0.5\ngini = 0.375\nsamples = 4\nvalue = [0, 1, 3]"] ;
1020 -> 1022 ;
1023 [label="gini = 0.0\nsamples = 3\nvalue = [0, 0, 3]"] ;
1022 -> 1023 ;
1024 [label="gini = 0.0\nsamples = 1\nvalue = [0, 1, 0]"] ;
1022 -> 1024 ;
1025 [label="gini = 0.0\nsamples = 24\nvalue = [0, 0, 24]"] ;
953 -> 1025 ;
1026 [label="gini = 0.0\nsamples = 26\nvalue = [0, 0, 26]"] ;
952 -> 1026 ;
1027 [label="X[30] <= 0.5\ngini = 0.054\nsamples = 73\nvalue = [1, 1, 71]"] ;
951 -> 1027 ;
1028 [label="X[9] <= 1.5\ngini = 0.18\nsamples = 10\nvalue = [0, 1, 9]"] ;
1027 -> 1028 ;
1029 [label="gini = 0.0\nsamples = 5\nvalue = [0, 0, 5]"] ;
1028 -> 1029 ;
1030 [label="X[19] <= 0.5\ngini = 0.32\nsamples = 5\nvalue = [0, 1, 4]"] ;
1028 -> 1030 ;
1031 [label="gini = 0.0\nsamples = 3\nvalue = [0, 0, 3]"] ;
1030 -> 1031 ;
1032 [label="X[7] <= 1.5\ngini = 0.5\nsamples = 2\nvalue = [0, 1, 1]"] ;
1030 -> 1032 ;
1033 [label="gini = 0.0\nsamples = 1\nvalue = [0, 0, 1]"] ;
1032 -> 1033 ;
1034 [label="gini = 0.0\nsamples = 1\nvalue = [0, 1, 0]"] ;
1032 -> 1034 ;
1035 [label="X[20] <= 0.5\ngini = 0.031\nsamples = 63\nvalue = [1, 0, 62]"] ;
1027 -> 1035 ;
1036 [label="gini = 0.0\nsamples = 55\nvalue = [0, 0, 55]"] ;
1035 -> 1036 ;
1037 [label="X[31] <= 1.5\ngini = 0.219\nsamples = 8\nvalue = [1, 0, 7]"] ;
1035 -> 1037 ;
1038 [label="gini = 0.0\nsamples = 7\nvalue = [0, 0, 7]"] ;
1037 -> 1038 ;
1039 [label="gini = 0.0\nsamples = 1\nvalue = [1, 0, 0]"] ;
1037 -> 1039 ;
1040 [label="gini = 0.0\nsamples = 1\nvalue = [1, 0, 0]"] ;
950 -> 1040 ;
1041 [label="X[20] <= 1.5\ngini = 0.418\nsamples = 45\nvalue = [3, 9, 33]"] ;
949 -> 1041 ;
1042 [label="X[21] <= 1.5\ngini = 0.601\nsamples = 23\nvalue = [3, 9, 11]"] ;
1041 -> 1042 ;
1043 [label="gini = 0.0\nsamples = 7\nvalue = [0, 7, 0]"] ;
1042 -> 1043 ;
1044 [label="X[19] <= 1.5\ngini = 0.477\nsamples = 16\nvalue = [3, 2, 11]"] ;
1042 -> 1044 ;
1045 [label="X[31] <= 1.0\ngini = 0.5\nsamples = 2\nvalue = [1, 1, 0]"] ;
1044 -> 1045 ;
1046 [label="gini = 0.0\nsamples = 1\nvalue = [1, 0, 0]"] ;
1045 -> 1046 ;
1047 [label="gini = 0.0\nsamples = 1\nvalue = [0, 1, 0]"] ;
1045 -> 1047 ;
1048 [label="X[23] <= 1.5\ngini = 0.357\nsamples = 14\nvalue = [2, 1, 11]"] ;
1044 -> 1048 ;
1049 [label="X[13] <= 0.5\ngini = 0.272\nsamples = 13\nvalue = [1, 1, 11]"] ;
1048 -> 1049 ;
1050 [label="gini = 0.0\nsamples = 7\nvalue = [0, 0, 7]"] ;
1049 -> 1050 ;
1051 [label="X[7] <= 1.5\ngini = 0.5\nsamples = 6\nvalue = [1, 1, 4]"] ;
1049 -> 1051 ;
1052 [label="X[22] <= 1.5\ngini = 0.32\nsamples = 5\nvalue = [1, 0, 4]"] ;
1051 -> 1052 ;
1053 [label="gini = 0.0\nsamples = 4\nvalue = [0, 0, 4]"] ;
1052 -> 1053 ;
1054 [label="gini = 0.0\nsamples = 1\nvalue = [1, 0, 0]"] ;
1052 -> 1054 ;
1055 [label="gini = 0.0\nsamples = 1\nvalue = [0, 1, 0]"] ;
1051 -> 1055 ;
1056 [label="gini = 0.0\nsamples = 1\nvalue = [1, 0, 0]"] ;
1048 -> 1056 ;
1057 [label="gini = 0.0\nsamples = 22\nvalue = [0, 0, 22]"] ;
1041 -> 1057 ;
1058 [label="X[11] <= 0.5\ngini = 0.544\nsamples = 21\nvalue = [4, 4, 13]"] ;
948 -> 1058 ;
1059 [label="X[18] <= 0.5\ngini = 0.64\nsamples = 15\nvalue = [4, 4, 7]"] ;
1058 -> 1059 ;
1060 [label="X[9] <= 1.5\ngini = 0.625\nsamples = 8\nvalue = [4, 2, 2]"] ;
1059 -> 1060 ;
1061 [label="X[7] <= 1.5\ngini = 0.667\nsamples = 6\nvalue = [2, 2, 2]"] ;
1060 -> 1061 ;
1062 [label="gini = 0.0\nsamples = 2\nvalue = [2, 0, 0]"] ;
1061 -> 1062 ;
1063 [label="X[8] <= 1.5\ngini = 0.5\nsamples = 4\nvalue = [0, 2, 2]"] ;
1061 -> 1063 ;
1064 [label="X[13] <= 0.5\ngini = 0.5\nsamples = 2\nvalue = [0, 1, 1]"] ;
1063 -> 1064 ;
1065 [label="gini = 0.0\nsamples = 1\nvalue = [0, 0, 1]"] ;
1064 -> 1065 ;
1066 [label="gini = 0.0\nsamples = 1\nvalue = [0, 1, 0]"] ;
1064 -> 1066 ;
1067 [label="X[31] <= 0.5\ngini = 0.5\nsamples = 2\nvalue = [0, 1, 1]"] ;
1063 -> 1067 ;
1068 [label="gini = 0.0\nsamples = 1\nvalue = [0, 0, 1]"] ;
1067 -> 1068 ;
1069 [label="gini = 0.0\nsamples = 1\nvalue = [0, 1, 0]"] ;
1067 -> 1069 ;
1070 [label="gini = 0.0\nsamples = 2\nvalue = [2, 0, 0]"] ;
1060 -> 1070 ;
1071 [label="X[30] <= 1.5\ngini = 0.408\nsamples = 7\nvalue = [0, 2, 5]"] ;
1059 -> 1071 ;
1072 [label="X[13] <= 0.5\ngini = 0.278\nsamples = 6\nvalue = [0, 1, 5]"] ;
1071 -> 1072 ;
1073 [label="gini = 0.0\nsamples = 4\nvalue = [0, 0, 4]"] ;
1072 -> 1073 ;
1074 [label="X[8] <= 1.5\ngini = 0.5\nsamples = 2\nvalue = [0, 1, 1]"] ;
1072 -> 1074 ;
1075 [label="gini = 0.0\nsamples = 1\nvalue = [0, 1, 0]"] ;
1074 -> 1075 ;
1076 [label="gini = 0.0\nsamples = 1\nvalue = [0, 0, 1]"] ;
1074 -> 1076 ;
1077 [label="gini = 0.0\nsamples = 1\nvalue = [0, 1, 0]"] ;
1071 -> 1077 ;
1078 [label="gini = 0.0\nsamples = 6\nvalue = [0, 0, 6]"] ;
1058 -> 1078 ;
1079 [label="X[35] <= 0.5\ngini = 0.579\nsamples = 11\nvalue = [1, 5, 5]"] ;
947 -> 1079 ;
1080 [label="X[7] <= 0.5\ngini = 0.531\nsamples = 8\nvalue = [1, 5, 2]"] ;
1079 -> 1080 ;
1081 [label="X[13] <= 1.5\ngini = 0.278\nsamples = 6\nvalue = [0, 5, 1]"] ;
1080 -> 1081 ;
1082 [label="gini = 0.0\nsamples = 4\nvalue = [0, 4, 0]"] ;
1081 -> 1082 ;
1083 [label="X[32] <= 1.5\ngini = 0.5\nsamples = 2\nvalue = [0, 1, 1]"] ;
1081 -> 1083 ;
1084 [label="gini = 0.0\nsamples = 1\nvalue = [0, 1, 0]"] ;
1083 -> 1084 ;
1085 [label="gini = 0.0\nsamples = 1\nvalue = [0, 0, 1]"] ;
1083 -> 1085 ;
1086 [label="X[32] <= 1.5\ngini = 0.5\nsamples = 2\nvalue = [1, 0, 1]"] ;
1080 -> 1086 ;
1087 [label="gini = 0.0\nsamples = 1\nvalue = [0, 0, 1]"] ;
1086 -> 1087 ;
1088 [label="gini = 0.0\nsamples = 1\nvalue = [1, 0, 0]"] ;
1086 -> 1088 ;
1089 [label="gini = 0.0\nsamples = 3\nvalue = [0, 0, 3]"] ;
1079 -> 1089 ;
1090 [label="X[14] <= 1.5\ngini = 0.569\nsamples = 462\nvalue = [68, 127, 267]"] ;
862 -> 1090 ;
1091 [label="X[19] <= 1.5\ngini = 0.644\nsamples = 244\nvalue = [52, 92, 100]"] ;
1090 -> 1091 ;
1092 [label="X[8] <= 0.5\ngini = 0.64\nsamples = 187\nvalue = [40, 83, 64]"] ;
1091 -> 1092 ;
1093 [label="X[33] <= 1.5\ngini = 0.614\nsamples = 143\nvalue = [21, 63, 59]"] ;
1092 -> 1093 ;
1094 [label="X[15] <= 1.5\ngini = 0.615\nsamples = 128\nvalue = [20, 60, 48]"] ;
1093 -> 1094 ;
1095 [label="X[30] <= 1.5\ngini = 0.531\nsamples = 56\nvalue = [7, 35, 14]"] ;
1094 -> 1095 ;
1096 [label="X[32] <= 1.5\ngini = 0.632\nsamples = 22\nvalue = [4, 9, 9]"] ;
1095 -> 1096 ;
1097 [label="X[18] <= 0.5\ngini = 0.49\nsamples = 14\nvalue = [0, 8, 6]"] ;
1096 -> 1097 ;
1098 [label="X[30] <= 0.5\ngini = 0.278\nsamples = 6\nvalue = [0, 5, 1]"] ;
1097 -> 1098 ;
1099 [label="gini = 0.0\nsamples = 1\nvalue = [0, 0, 1]"] ;
1098 -> 1099 ;
1100 [label="gini = 0.0\nsamples = 5\nvalue = [0, 5, 0]"] ;
1098 -> 1100 ;
1101 [label="X[30] <= 0.5\ngini = 0.469\nsamples = 8\nvalue = [0, 3, 5]"] ;
1097 -> 1101 ;
1102 [label="X[21] <= 1.0\ngini = 0.48\nsamples = 5\nvalue = [0, 3, 2]"] ;
1101 -> 1102 ;
1103 [label="gini = 0.0\nsamples = 2\nvalue = [0, 2, 0]"] ;
1102 -> 1103 ;
1104 [label="X[22] <= 0.5\ngini = 0.444\nsamples = 3\nvalue = [0, 1, 2]"] ;
1102 -> 1104 ;
1105 [label="gini = 0.0\nsamples = 2\nvalue = [0, 0, 2]"] ;
1104 -> 1105 ;
1106 [label="gini = 0.0\nsamples = 1\nvalue = [0, 1, 0]"] ;
1104 -> 1106 ;
1107 [label="gini = 0.0\nsamples = 3\nvalue = [0, 0, 3]"] ;
1101 -> 1107 ;
1108 [label="X[15] <= 0.5\ngini = 0.594\nsamples = 8\nvalue = [4, 1, 3]"] ;
1096 -> 1108 ;
1109 [label="X[18] <= 0.5\ngini = 0.48\nsamples = 5\nvalue = [2, 0, 3]"] ;
1108 -> 1109 ;
1110 [label="X[6] <= 0.5\ngini = 0.444\nsamples = 3\nvalue = [2, 0, 1]"] ;
1109 -> 1110 ;
1111 [label="gini = 0.0\nsamples = 1\nvalue = [1, 0, 0]"] ;
1110 -> 1111 ;
1112 [label="X[33] <= 0.5\ngini = 0.5\nsamples = 2\nvalue = [1, 0, 1]"] ;
1110 -> 1112 ;
1113 [label="gini = 0.0\nsamples = 1\nvalue = [1, 0, 0]"] ;
1112 -> 1113 ;
1114 [label="gini = 0.0\nsamples = 1\nvalue = [0, 0, 1]"] ;
1112 -> 1114 ;
1115 [label="gini = 0.0\nsamples = 2\nvalue = [0, 0, 2]"] ;
1109 -> 1115 ;
1116 [label="X[33] <= 0.5\ngini = 0.444\nsamples = 3\nvalue = [2, 1, 0]"] ;
1108 -> 1116 ;
1117 [label="gini = 0.0\nsamples = 2\nvalue = [2, 0, 0]"] ;
1116 -> 1117 ;
1118 [label="gini = 0.0\nsamples = 1\nvalue = [0, 1, 0]"] ;
1116 -> 1118 ;
1119 [label="X[33] <= 0.5\ngini = 0.386\nsamples = 34\nvalue = [3, 26, 5]"] ;
1095 -> 1119 ;
1120 [label="X[15] <= 0.5\ngini = 0.34\nsamples = 29\nvalue = [1, 23, 5]"] ;
1119 -> 1120 ;
1121 [label="X[6] <= 0.5\ngini = 0.408\nsamples = 14\nvalue = [0, 10, 4]"] ;
1120 -> 1121 ;
1122 [label="gini = 0.0\nsamples = 4\nvalue = [0, 4, 0]"] ;
1121 -> 1122 ;
1123 [label="X[20] <= 1.0\ngini = 0.48\nsamples = 10\nvalue = [0, 6, 4]"] ;
1121 -> 1123 ;
1124 [label="X[13] <= 1.5\ngini = 0.444\nsamples = 9\nvalue = [0, 6, 3]"] ;
1123 -> 1124 ;
1125 [label="gini = 0.0\nsamples = 2\nvalue = [0, 2, 0]"] ;
1124 -> 1125 ;
1126 [label="X[18] <= 0.5\ngini = 0.49\nsamples = 7\nvalue = [0, 4, 3]"] ;
1124 -> 1126 ;
1127 [label="X[32] <= 1.5\ngini = 0.444\nsamples = 3\nvalue = [0, 1, 2]"] ;
1126 -> 1127 ;
1128 [label="gini = 0.0\nsamples = 2\nvalue = [0, 0, 2]"] ;
1127 -> 1128 ;
1129 [label="gini = 0.0\nsamples = 1\nvalue = [0, 1, 0]"] ;
1127 -> 1129 ;
1130 [label="X[19] <= 0.5\ngini = 0.375\nsamples = 4\nvalue = [0, 3, 1]"] ;
1126 -> 1130 ;
1131 [label="gini = 0.0\nsamples = 2\nvalue = [0, 2, 0]"] ;
1130 -> 1131 ;
1132 [label="X[7] <= 1.0\ngini = 0.5\nsamples = 2\nvalue = [0, 1, 1]"] ;
1130 -> 1132 ;
1133 [label="gini = 0.0\nsamples = 1\nvalue = [0, 0, 1]"] ;
1132 -> 1133 ;
1134 [label="gini = 0.0\nsamples = 1\nvalue = [0, 1, 0]"] ;
1132 -> 1134 ;
1135 [label="gini = 0.0\nsamples = 1\nvalue = [0, 0, 1]"] ;
1123 -> 1135 ;
1136 [label="X[17] <= 0.5\ngini = 0.24\nsamples = 15\nvalue = [1, 13, 1]"] ;
1120 -> 1136 ;
1137 [label="X[6] <= 0.5\ngini = 0.142\nsamples = 13\nvalue = [1, 12, 0]"] ;
1136 -> 1137 ;
1138 [label="X[32] <= 0.5\ngini = 0.278\nsamples = 6\nvalue = [1, 5, 0]"] ;
1137 -> 1138 ;
1139 [label="X[19] <= 0.5\ngini = 0.444\nsamples = 3\nvalue = [1, 2, 0]"] ;
1138 -> 1139 ;
1140 [label="gini = 0.0\nsamples = 1\nvalue = [1, 0, 0]"] ;
1139 -> 1140 ;
1141 [label="gini = 0.0\nsamples = 2\nvalue = [0, 2, 0]"] ;
1139 -> 1141 ;
1142 [label="gini = 0.0\nsamples = 3\nvalue = [0, 3, 0]"] ;
1138 -> 1142 ;
1143 [label="gini = 0.0\nsamples = 7\nvalue = [0, 7, 0]"] ;
1137 -> 1143 ;
1144 [label="X[13] <= 1.5\ngini = 0.5\nsamples = 2\nvalue = [0, 1, 1]"] ;
1136 -> 1144 ;
1145 [label="gini = 0.0\nsamples = 1\nvalue = [0, 1, 0]"] ;
1144 -> 1145 ;
1146 [label="gini = 0.0\nsamples = 1\nvalue = [0, 0, 1]"] ;
1144 -> 1146 ;
1147 [label="X[31] <= 1.5\ngini = 0.48\nsamples = 5\nvalue = [2, 3, 0]"] ;
1119 -> 1147 ;
1148 [label="gini = 0.0\nsamples = 3\nvalue = [0, 3, 0]"] ;
1147 -> 1148 ;
1149 [label="gini = 0.0\nsamples = 2\nvalue = [2, 0, 0]"] ;
1147 -> 1149 ;
1150 [label="X[19] <= 0.5\ngini = 0.624\nsamples = 72\nvalue = [13, 25, 34]"] ;
1094 -> 1150 ;
1151 [label="X[17] <= 1.5\ngini = 0.615\nsamples = 60\nvalue = [13, 16, 31]"] ;
1150 -> 1151 ;
1152 [label="X[18] <= 0.5\ngini = 0.586\nsamples = 55\nvalue = [11, 13, 31]"] ;
1151 -> 1152 ;
1153 [label="X[30] <= 1.5\ngini = 0.466\nsamples = 33\nvalue = [4, 6, 23]"] ;
1152 -> 1153 ;
1154 [label="X[17] <= 0.5\ngini = 0.637\nsamples = 17\nvalue = [4, 5, 8]"] ;
1153 -> 1154 ;
1155 [label="X[7] <= 1.5\ngini = 0.663\nsamples = 13\nvalue = [4, 5, 4]"] ;
1154 -> 1155 ;
1156 [label="X[16] <= 0.5\ngini = 0.661\nsamples = 11\nvalue = [4, 3, 4]"] ;
1155 -> 1156 ;
1157 [label="X[32] <= 0.5\ngini = 0.653\nsamples = 7\nvalue = [2, 3, 2]"] ;
1156 -> 1157 ;
1158 [label="gini = 0.0\nsamples = 1\nvalue = [0, 0, 1]"] ;
1157 -> 1158 ;
1159 [label="X[32] <= 1.5\ngini = 0.611\nsamples = 6\nvalue = [2, 3, 1]"] ;
1157 -> 1159 ;
1160 [label="gini = 0.0\nsamples = 2\nvalue = [0, 2, 0]"] ;
1159 -> 1160 ;
1161 [label="X[31] <= 1.5\ngini = 0.625\nsamples = 4\nvalue = [2, 1, 1]"] ;
1159 -> 1161 ;
1162 [label="X[33] <= 0.5\ngini = 0.5\nsamples = 2\nvalue = [1, 1, 0]"] ;
1161 -> 1162 ;
1163 [label="gini = 0.0\nsamples = 1\nvalue = [0, 1, 0]"] ;
1162 -> 1163 ;
1164 [label="gini = 0.0\nsamples = 1\nvalue = [1, 0, 0]"] ;
1162 -> 1164 ;
1165 [label="X[6] <= 0.5\ngini = 0.5\nsamples = 2\nvalue = [1, 0, 1]"] ;
1161 -> 1165 ;
1166 [label="gini = 0.0\nsamples = 1\nvalue = [0, 0, 1]"] ;
1165 -> 1166 ;
1167 [label="gini = 0.0\nsamples = 1\nvalue = [1, 0, 0]"] ;
1165 -> 1167 ;
1168 [label="X[32] <= 1.5\ngini = 0.5\nsamples = 4\nvalue = [2, 0, 2]"] ;
1156 -> 1168 ;
1169 [label="X[16] <= 1.5\ngini = 0.444\nsamples = 3\nvalue = [2, 0, 1]"] ;
1168 -> 1169 ;
1170 [label="X[6] <= 0.5\ngini = 0.5\nsamples = 2\nvalue = [1, 0, 1]"] ;
1169 -> 1170 ;
1171 [label="gini = 0.0\nsamples = 1\nvalue = [1, 0, 0]"] ;
1170 -> 1171 ;
1172 [label="gini = 0.0\nsamples = 1\nvalue = [0, 0, 1]"] ;
1170 -> 1172 ;
1173 [label="gini = 0.0\nsamples = 1\nvalue = [1, 0, 0]"] ;
1169 -> 1173 ;
1174 [label="gini = 0.0\nsamples = 1\nvalue = [0, 0, 1]"] ;
1168 -> 1174 ;
1175 [label="gini = 0.0\nsamples = 2\nvalue = [0, 2, 0]"] ;
1155 -> 1175 ;
1176 [label="gini = 0.0\nsamples = 4\nvalue = [0, 0, 4]"] ;
1154 -> 1176 ;
1177 [label="X[16] <= 1.5\ngini = 0.117\nsamples = 16\nvalue = [0, 1, 15]"] ;
1153 -> 1177 ;
1178 [label="gini = 0.0\nsamples = 12\nvalue = [0, 0, 12]"] ;
1177 -> 1178 ;
1179 [label="X[32] <= 0.5\ngini = 0.375\nsamples = 4\nvalue = [0, 1, 3]"] ;
1177 -> 1179 ;
1180 [label="gini = 0.0\nsamples = 3\nvalue = [0, 0, 3]"] ;
1179 -> 1180 ;
1181 [label="gini = 0.0\nsamples = 1\nvalue = [0, 1, 0]"] ;
1179 -> 1181 ;
1182 [label="X[30] <= 1.5\ngini = 0.665\nsamples = 22\nvalue = [7, 7, 8]"] ;
1152 -> 1182 ;
1183 [label="X[16] <= 0.5\ngini = 0.42\nsamples = 10\nvalue = [3, 0, 7]"] ;
1182 -> 1183 ;
1184 [label="gini = 0.0\nsamples = 4\nvalue = [0, 0, 4]"] ;
1183 -> 1184 ;
1185 [label="X[17] <= 0.5\ngini = 0.5\nsamples = 6\nvalue = [3, 0, 3]"] ;
1183 -> 1185 ;
1186 [label="X[31] <= 1.5\ngini = 0.375\nsamples = 4\nvalue = [3, 0, 1]"] ;
1185 -> 1186 ;
1187 [label="gini = 0.0\nsamples = 3\nvalue = [3, 0, 0]"] ;
1186 -> 1187 ;
1188 [label="gini = 0.0\nsamples = 1\nvalue = [0, 0, 1]"] ;
1186 -> 1188 ;
1189 [label="gini = 0.0\nsamples = 2\nvalue = [0, 0, 2]"] ;
1185 -> 1189 ;
1190 [label="X[13] <= 1.5\ngini = 0.542\nsamples = 12\nvalue = [4, 7, 1]"] ;
1182 -> 1190 ;
1191 [label="X[31] <= 1.5\ngini = 0.449\nsamples = 7\nvalue = [1, 5, 1]"] ;
1190 -> 1191 ;
1192 [label="gini = 0.0\nsamples = 4\nvalue = [0, 4, 0]"] ;
1191 -> 1192 ;
1193 [label="X[32] <= 0.5\ngini = 0.667\nsamples = 3\nvalue = [1, 1, 1]"] ;
1191 -> 1193 ;
1194 [label="X[16] <= 0.5\ngini = 0.5\nsamples = 2\nvalue = [1, 0, 1]"] ;
1193 -> 1194 ;
1195 [label="gini = 0.0\nsamples = 1\nvalue = [1, 0, 0]"] ;
1194 -> 1195 ;
1196 [label="gini = 0.0\nsamples = 1\nvalue = [0, 0, 1]"] ;
1194 -> 1196 ;
1197 [label="gini = 0.0\nsamples = 1\nvalue = [0, 1, 0]"] ;
1193 -> 1197 ;
1198 [label="X[31] <= 0.5\ngini = 0.48\nsamples = 5\nvalue = [3, 2, 0]"] ;
1190 -> 1198 ;
1199 [label="X[6] <= 0.5\ngini = 0.444\nsamples = 3\nvalue = [1, 2, 0]"] ;
1198 -> 1199 ;
1200 [label="gini = 0.0\nsamples = 1\nvalue = [0, 1, 0]"] ;
1199 -> 1200 ;
1201 [label="X[16] <= 0.5\ngini = 0.5\nsamples = 2\nvalue = [1, 1, 0]"] ;
1199 -> 1201 ;
1202 [label="gini = 0.0\nsamples = 1\nvalue = [0, 1, 0]"] ;
1201 -> 1202 ;
1203 [label="gini = 0.0\nsamples = 1\nvalue = [1, 0, 0]"] ;
1201 -> 1203 ;
1204 [label="gini = 0.0\nsamples = 2\nvalue = [2, 0, 0]"] ;
1198 -> 1204 ;
1205 [label="X[6] <= 0.5\ngini = 0.48\nsamples = 5\nvalue = [2, 3, 0]"] ;
1151 -> 1205 ;
1206 [label="X[13] <= 1.5\ngini = 0.444\nsamples = 3\nvalue = [2, 1, 0]"] ;
1205 -> 1206 ;
1207 [label="gini = 0.0\nsamples = 1\nvalue = [0, 1, 0]"] ;
1206 -> 1207 ;
1208 [label="gini = 0.0\nsamples = 2\nvalue = [2, 0, 0]"] ;
1206 -> 1208 ;
1209 [label="gini = 0.0\nsamples = 2\nvalue = [0, 2, 0]"] ;
1205 -> 1209 ;
1210 [label="X[17] <= 0.5\ngini = 0.375\nsamples = 12\nvalue = [0, 9, 3]"] ;
1150 -> 1210 ;
1211 [label="X[31] <= 1.5\ngini = 0.298\nsamples = 11\nvalue = [0, 9, 2]"] ;
1210 -> 1211 ;
1212 [label="X[20] <= 1.0\ngini = 0.18\nsamples = 10\nvalue = [0, 9, 1]"] ;
1211 -> 1212 ;
1213 [label="gini = 0.0\nsamples = 6\nvalue = [0, 6, 0]"] ;
1212 -> 1213 ;
1214 [label="X[30] <= 0.5\ngini = 0.375\nsamples = 4\nvalue = [0, 3, 1]"] ;
1212 -> 1214 ;
1215 [label="gini = 0.0\nsamples = 3\nvalue = [0, 3, 0]"] ;
1214 -> 1215 ;
1216 [label="gini = 0.0\nsamples = 1\nvalue = [0, 0, 1]"] ;
1214 -> 1216 ;
1217 [label="gini = 0.0\nsamples = 1\nvalue = [0, 0, 1]"] ;
1211 -> 1217 ;
1218 [label="gini = 0.0\nsamples = 1\nvalue = [0, 0, 1]"] ;
1210 -> 1218 ;
1219 [label="X[13] <= 1.5\ngini = 0.418\nsamples = 15\nvalue = [1, 3, 11]"] ;
1093 -> 1219 ;
1220 [label="X[31] <= 1.5\ngini = 0.611\nsamples = 6\nvalue = [1, 3, 2]"] ;
1219 -> 1220 ;
1221 [label="X[18] <= 0.5\ngini = 0.444\nsamples = 3\nvalue = [1, 0, 2]"] ;
1220 -> 1221 ;
1222 [label="gini = 0.0\nsamples = 2\nvalue = [0, 0, 2]"] ;
1221 -> 1222 ;
1223 [label="gini = 0.0\nsamples = 1\nvalue = [1, 0, 0]"] ;
1221 -> 1223 ;
1224 [label="gini = 0.0\nsamples = 3\nvalue = [0, 3, 0]"] ;
1220 -> 1224 ;
1225 [label="gini = 0.0\nsamples = 9\nvalue = [0, 0, 9]"] ;
1219 -> 1225 ;
1226 [label="X[7] <= 1.5\ngini = 0.594\nsamples = 44\nvalue = [19, 20, 5]"] ;
1092 -> 1226 ;
1227 [label="X[30] <= 1.5\ngini = 0.582\nsamples = 14\nvalue = [8, 3, 3]"] ;
1226 -> 1227 ;
1228 [label="X[31] <= 1.0\ngini = 0.469\nsamples = 8\nvalue = [5, 0, 3]"] ;
1227 -> 1228 ;
1229 [label="X[30] <= 0.5\ngini = 0.408\nsamples = 7\nvalue = [5, 0, 2]"] ;
1228 -> 1229 ;
1230 [label="X[15] <= 0.5\ngini = 0.32\nsamples = 5\nvalue = [4, 0, 1]"] ;
1229 -> 1230 ;
1231 [label="gini = 0.0\nsamples = 1\nvalue = [0, 0, 1]"] ;
1230 -> 1231 ;
1232 [label="gini = 0.0\nsamples = 4\nvalue = [4, 0, 0]"] ;
1230 -> 1232 ;
1233 [label="X[15] <= 1.0\ngini = 0.5\nsamples = 2\nvalue = [1, 0, 1]"] ;
1229 -> 1233 ;
1234 [label="gini = 0.0\nsamples = 1\nvalue = [1, 0, 0]"] ;
1233 -> 1234 ;
