digraph Tree {
node [shape=box, fontname="helvetica"] ;
edge [fontname="helvetica"] ;
0 [label="X[0] <= 1.5\ngini = 0.499\nsamples = 54044\nvalue = [5246, 13309, 35489]"] ;
1 [label="X[36] <= 1.5\ngini = 0.446\nsamples = 36217\nvalue = [3246, 7189, 25782]"] ;
0 -> 1 [labeldistance=2.5, labelangle=45, headlabel="True"] ;
2 [label="X[6] <= 1.5\ngini = 0.39\nsamples = 25128\nvalue = [2093, 3914, 19121]"] ;
1 -> 2 ;
3 [label="X[0] <= 0.5\ngini = 0.306\nsamples = 14196\nvalue = [1019, 1487, 11690]"] ;
2 -> 3 ;
4 [label="X[12] <= 1.5\ngini = 0.376\nsamples = 7820\nvalue = [646, 1134, 6040]"] ;
3 -> 4 ;
5 [label="X[6] <= 0.5\ngini = 0.27\nsamples = 2541\nvalue = [188, 200, 2153]"] ;
4 -> 5 ;
6 [label="gini = 0.438\nsamples = 1034\nvalue = [131, 155, 748]"] ;
5 -> 6 ;
7 [label="gini = 0.128\nsamples = 1507\nvalue = [57, 45, 1405]"] ;
5 -> 7 ;
8 [label="X[36] <= 0.5\ngini = 0.419\nsamples = 5279\nvalue = [458, 934, 3887]"] ;
4 -> 8 ;
9 [label="gini = 0.481\nsamples = 2974\nvalue = [277, 688, 2009]"] ;
8 -> 9 ;
10 [label="gini = 0.319\nsamples = 2305\nvalue = [181, 246, 1878]"] ;
8 -> 10 ;
11 [label="X[1] <= 1.5\ngini = 0.208\nsamples = 6376\nvalue = [373, 353, 5650]"] ;
3 -> 11 ;
12 [label="X[6] <= 0.5\ngini = 0.114\nsamples = 3953\nvalue = [142, 94, 3717]"] ;
11 -> 12 ;
13 [label="gini = 0.16\nsamples = 2288\nvalue = [116, 80, 2092]"] ;
12 -> 13 ;
14 [label="gini = 0.047\nsamples = 1665\nvalue = [26, 14, 1625]"] ;
12 -> 14 ;
15 [label="X[6] <= 0.5\ngini = 0.343\nsamples = 2423\nvalue = [231, 259, 1933]"] ;
11 -> 15 ;
16 [label="gini = 0.425\nsamples = 1465\nvalue = [176, 213, 1076]"] ;
15 -> 16 ;
17 [label="gini = 0.194\nsamples = 958\nvalue = [55, 46, 857]"] ;
15 -> 17 ;
18 [label="X[36] <= 0.5\ngini = 0.479\nsamples = 10932\nvalue = [1074, 2427, 7431]"] ;
2 -> 18 ;
19 [label="X[0] <= 0.5\ngini = 0.515\nsamples = 6730\nvalue = [635, 1827, 4268]"] ;
18 -> 19 ;
20 [label="X[24] <= 1.5\ngini = 0.536\nsamples = 3367\nvalue = [262, 1121, 1984]"] ;
19 -> 20 ;
21 [label="gini = 0.524\nsamples = 3108\nvalue = [238, 974, 1896]"] ;
20 -> 21 ;
22 [label="gini = 0.554\nsamples = 259\nvalue = [24, 147, 88]"] ;
20 -> 22 ;
23 [label="X[1] <= 1.5\ngini = 0.482\nsamples = 3363\nvalue = [373, 706, 2284]"] ;
19 -> 23 ;
24 [label="gini = 0.4\nsamples = 2253\nvalue = [198, 359, 1696]"] ;
23 -> 24 ;
25 [label="gini = 0.597\nsamples = 1110\nvalue = [175, 347, 588]"] ;
23 -> 25 ;
26 [label="X[37] <= 1.5\ngini = 0.402\nsamples = 4202\nvalue = [439, 600, 3163]"] ;
18 -> 26 ;
27 [label="X[30] <= 1.5\ngini = 0.33\nsamples = 2811\nvalue = [241, 301, 2269]"] ;
26 -> 27 ;
28 [label="gini = 0.248\nsamples = 1859\nvalue = [127, 130, 1602]"] ;
27 -> 28 ;
29 [label="gini = 0.463\nsamples = 952\nvalue = [114, 171, 667]"] ;
27 -> 29 ;
30 [label="X[30] <= 1.5\ngini = 0.52\nsamples = 1391\nvalue = [198, 299, 894]"] ;
26 -> 30 ;
31 [label="gini = 0.473\nsamples = 1140\nvalue = [143, 209, 788]"] ;
30 -> 31 ;
32 [label="gini = 0.645\nsamples = 251\nvalue = [55, 90, 106]"] ;
30 -> 32 ;
33 [label="X[0] <= 0.5\ngini = 0.541\nsamples = 11089\nvalue = [1153, 3275, 6661]"] ;
1 -> 33 ;
34 [label="X[37] <= 1.5\ngini = 0.555\nsamples = 6186\nvalue = [510, 2271, 3405]"] ;
33 -> 34 ;
35 [label="X[37] <= 0.5\ngini = 0.535\nsamples = 5004\nvalue = [402, 1630, 2972]"] ;
34 -> 35 ;
36 [label="X[30] <= 1.5\ngini = 0.558\nsamples = 2746\nvalue = [194, 1132, 1420]"] ;
35 -> 36 ;
37 [label="gini = 0.549\nsamples = 2313\nvalue = [165, 879, 1269]"] ;
36 -> 37 ;
38 [label="gini = 0.533\nsamples = 433\nvalue = [29, 253, 151]"] ;
36 -> 38 ;
39 [label="X[38] <= 1.5\ngini = 0.47\nsamples = 2258\nvalue = [208, 498, 1552]"] ;
35 -> 39 ;
40 [label="gini = 0.391\nsamples = 1661\nvalue = [123, 278, 1260]"] ;
39 -> 40 ;
41 [label="gini = 0.605\nsamples = 597\nvalue = [85, 220, 292]"] ;
39 -> 41 ;
42 [label="X[38] <= 1.5\ngini = 0.563\nsamples = 1182\nvalue = [108, 641, 433]"] ;
34 -> 42 ;
43 [label="X[38] <= 0.5\ngini = 0.57\nsamples = 1132\nvalue = [106, 595, 431]"] ;
42 -> 43 ;
44 [label="gini = 0.519\nsamples = 611\nvalue = [45, 376, 190]"] ;
43 -> 44 ;
45 [label="gini = 0.596\nsamples = 521\nvalue = [61, 219, 241]"] ;
43 -> 45 ;
46 [label="X[18] <= 1.5\ngini = 0.15\nsamples = 50\nvalue = [2, 46, 2]"] ;
42 -> 46 ;
47 [label="gini = 0.083\nsamples = 46\nvalue = [2, 44, 0]"] ;
46 -> 47 ;
48 [label="gini = 0.5\nsamples = 4\nvalue = [0, 2, 2]"] ;
46 -> 48 ;
49 [label="X[18] <= 1.5\ngini = 0.5\nsamples = 4903\nvalue = [643, 1004, 3256]"] ;
33 -> 49 ;
50 [label="X[1] <= 1.5\ngini = 0.546\nsamples = 3768\nvalue = [592, 861, 2315]"] ;
49 -> 50 ;
51 [label="X[37] <= 1.5\ngini = 0.508\nsamples = 2853\nvalue = [407, 571, 1875]"] ;
50 -> 51 ;
52 [label="gini = 0.461\nsamples = 2170\nvalue = [281, 363, 1526]"] ;
51 -> 52 ;
53 [label="gini = 0.612\nsamples = 683\nvalue = [126, 208, 349]"] ;
51 -> 53 ;
54 [label="X[14] <= 0.5\ngini = 0.627\nsamples = 915\nvalue = [185, 290, 440]"] ;
50 -> 54 ;
55 [label="gini = 0.624\nsamples = 823\nvalue = [179, 234, 410]"] ;
54 -> 55 ;
56 [label="gini = 0.519\nsamples = 92\nvalue = [6, 56, 30]"] ;
54 -> 56 ;
57 [label="X[12] <= 1.5\ngini = 0.295\nsamples = 1135\nvalue = [51, 143, 941]"] ;
49 -> 57 ;
58 [label="X[6] <= 1.5\ngini = 0.21\nsamples = 867\nvalue = [32, 68, 767]"] ;
57 -> 58 ;
59 [label="gini = 0.105\nsamples = 582\nvalue = [10, 22, 550]"] ;
58 -> 59 ;
60 [label="gini = 0.388\nsamples = 285\nvalue = [22, 46, 217]"] ;
58 -> 60 ;
61 [label="X[24] <= 0.5\ngini = 0.495\nsamples = 268\nvalue = [19, 75, 174]"] ;
57 -> 61 ;
62 [label="gini = 0.42\nsamples = 222\nvalue = [18, 41, 163]"] ;
61 -> 62 ;
63 [label="gini = 0.396\nsamples = 46\nvalue = [1, 34, 11]"] ;
61 -> 63 ;
64 [label="X[36] <= 1.5\ngini = 0.573\nsamples = 17827\nvalue = [2000, 6120, 9707]"] ;
0 -> 64 [labeldistance=2.5, labelangle=-45, headlabel="False"] ;
65 [label="X[36] <= 0.5\ngini = 0.552\nsamples = 13827\nvalue = [1516, 4221, 8090]"] ;
64 -> 65 ;
66 [label="X[1] <= 1.5\ngini = 0.57\nsamples = 8404\nvalue = [827, 3084, 4493]"] ;
65 -> 66 ;
67 [label="X[1] <= 0.5\ngini = 0.544\nsamples = 6139\nvalue = [576, 1946, 3617]"] ;
66 -> 67 ;
68 [label="X[6] <= 1.5\ngini = 0.569\nsamples = 3063\nvalue = [259, 1253, 1551]"] ;
67 -> 68 ;
69 [label="gini = 0.555\nsamples = 2101\nvalue = [197, 716, 1188]"] ;
68 -> 69 ;
70 [label="gini = 0.542\nsamples = 962\nvalue = [62, 537, 363]"] ;
68 -> 70 ;
71 [label="X[2] <= 1.5\ngini = 0.488\nsamples = 3076\nvalue = [317, 693, 2066]"] ;
67 -> 71 ;
72 [label="gini = 0.408\nsamples = 2098\nvalue = [194, 337, 1567]"] ;
71 -> 72 ;
73 [label="gini = 0.591\nsamples = 978\nvalue = [123, 356, 499]"] ;
71 -> 73 ;
74 [label="X[19] <= 0.5\ngini = 0.586\nsamples = 2265\nvalue = [251, 1138, 876]"] ;
66 -> 74 ;
75 [label="X[18] <= 1.5\ngini = 0.605\nsamples = 1611\nvalue = [213, 732, 666]"] ;
74 -> 75 ;
76 [label="gini = 0.598\nsamples = 1405\nvalue = [182, 689, 534]"] ;
75 -> 76 ;
77 [label="gini = 0.523\nsamples = 206\nvalue = [31, 43, 132]"] ;
75 -> 77 ;
78 [label="X[6] <= 1.5\ngini = 0.508\nsamples = 654\nvalue = [38, 406, 210]"] ;
74 -> 78 ;
79 [label="gini = 0.538\nsamples = 541\nvalue = [34, 306, 201]"] ;
78 -> 79 ;
80 [label="gini = 0.209\nsamples = 113\nvalue = [4, 100, 9]"] ;
78 -> 80 ;
81 [label="X[37] <= 1.5\ngini = 0.5\nsamples = 5423\nvalue = [689, 1137, 3597]"] ;
65 -> 81 ;
82 [label="X[18] <= 0.5\ngini = 0.433\nsamples = 3780\nvalue = [381, 657, 2742]"] ;
81 -> 82 ;
83 [label="X[37] <= 0.5\ngini = 0.352\nsamples = 1930\nvalue = [173, 231, 1526]"] ;
82 -> 83 ;
84 [label="gini = 0.412\nsamples = 1286\nvalue = [133, 196, 957]"] ;
83 -> 84 ;
85 [label="gini = 0.213\nsamples = 644\nvalue = [40, 35, 569]"] ;
83 -> 85 ;
86 [label="X[18] <= 1.5\ngini = 0.502\nsamples = 1850\nvalue = [208, 426, 1216]"] ;
82 -> 86 ;
87 [label="gini = 0.591\nsamples = 819\nvalue = [111, 278, 430]"] ;
86 -> 87 ;
88 [label="gini = 0.389\nsamples = 1031\nvalue = [97, 148, 786]"] ;
86 -> 88 ;
89 [label="X[18] <= 0.5\ngini = 0.609\nsamples = 1643\nvalue = [308, 480, 855]"] ;
81 -> 89 ;
90 [label="X[13] <= 0.5\ngini = 0.573\nsamples = 992\nvalue = [199, 214, 579]"] ;
89 -> 90 ;
91 [label="gini = 0.56\nsamples = 709\nvalue = [165, 120, 424]"] ;
90 -> 91 ;
92 [label="gini = 0.575\nsamples = 283\nvalue = [34, 94, 155]"] ;
90 -> 92 ;
93 [label="X[18] <= 1.5\ngini = 0.625\nsamples = 651\nvalue = [109, 266, 276]"] ;
89 -> 93 ;
94 [label="gini = 0.557\nsamples = 320\nvalue = [62, 193, 65]"] ;
93 -> 94 ;
95 [label="gini = 0.525\nsamples = 331\nvalue = [47, 73, 211]"] ;
93 -> 95 ;
96 [label="X[1] <= 1.5\ngini = 0.597\nsamples = 4000\nvalue = [484, 1899, 1617]"] ;
64 -> 96 ;
97 [label="X[1] <= 0.5\ngini = 0.596\nsamples = 3268\nvalue = [378, 1461, 1429]"] ;
96 -> 97 ;
98 [label="X[37] <= 1.5\ngini = 0.57\nsamples = 1743\nvalue = [176, 939, 628]"] ;
97 -> 98 ;
99 [label="X[37] <= 0.5\ngini = 0.579\nsamples = 1516\nvalue = [153, 769, 594]"] ;
98 -> 99 ;
100 [label="gini = 0.526\nsamples = 810\nvalue = [66, 494, 250]"] ;
99 -> 100 ;
101 [label="gini = 0.596\nsamples = 706\nvalue = [87, 275, 344]"] ;
99 -> 101 ;
102 [label="X[6] <= 1.5\ngini = 0.406\nsamples = 227\nvalue = [23, 170, 34]"] ;
98 -> 102 ;
103 [label="gini = 0.487\nsamples = 170\nvalue = [21, 115, 34]"] ;
102 -> 103 ;
104 [label="gini = 0.068\nsamples = 57\nvalue = [2, 55, 0]"] ;
102 -> 104 ;
105 [label="X[2] <= 1.5\ngini = 0.589\nsamples = 1525\nvalue = [202, 522, 801]"] ;
97 -> 105 ;
106 [label="X[12] <= 1.5\ngini = 0.566\nsamples = 1208\nvalue = [155, 361, 692]"] ;
105 -> 106 ;
107 [label="gini = 0.527\nsamples = 793\nvalue = [99, 194, 500]"] ;
106 -> 107 ;
108 [label="gini = 0.606\nsamples = 415\nvalue = [56, 167, 192]"] ;
106 -> 108 ;
109 [label="X[37] <= 0.5\ngini = 0.602\nsamples = 317\nvalue = [47, 161, 109]"] ;
105 -> 109 ;
110 [label="gini = 0.544\nsamples = 201\nvalue = [23, 121, 57]"] ;
109 -> 110 ;
111 [label="gini = 0.637\nsamples = 116\nvalue = [24, 40, 52]"] ;
109 -> 111 ;
112 [label="X[18] <= 0.5\ngini = 0.555\nsamples = 732\nvalue = [106, 438, 188]"] ;
96 -> 112 ;
113 [label="X[38] <= 0.5\ngini = 0.624\nsamples = 365\nvalue = [70, 176, 119]"] ;
112 -> 113 ;
114 [label="X[5] <= 0.5\ngini = 0.602\nsamples = 285\nvalue = [56, 153, 76]"] ;
113 -> 114 ;
115 [label="gini = 0.595\nsamples = 278\nvalue = [55, 153, 70]"] ;
114 -> 115 ;
116 [label="gini = 0.245\nsamples = 7\nvalue = [1, 0, 6]"] ;
114 -> 116 ;
117 [label="X[6] <= 1.5\ngini = 0.598\nsamples = 80\nvalue = [14, 23, 43]"] ;
113 -> 117 ;
118 [label="gini = 0.572\nsamples = 69\nvalue = [8, 23, 38]"] ;
117 -> 118 ;
119 [label="gini = 0.496\nsamples = 11\nvalue = [6, 0, 5]"] ;
117 -> 119 ;
120 [label="X[18] <= 1.5\ngini = 0.445\nsamples = 367\nvalue = [36, 262, 69]"] ;
112 -> 120 ;
121 [label="X[30] <= 0.5\ngini = 0.348\nsamples = 285\nvalue = [20, 226, 39]"] ;
120 -> 121 ;
122 [label="gini = 0.234\nsamples = 201\nvalue = [12, 175, 14]"] ;
121 -> 122 ;
123 [label="gini = 0.534\nsamples = 84\nvalue = [8, 51, 25]"] ;
121 -> 123 ;
124 [label="X[20] <= 0.5\ngini = 0.635\nsamples = 82\nvalue = [16, 36, 30]"] ;
120 -> 124 ;
125 [label="gini = 0.639\nsamples = 64\nvalue = [16, 18, 30]"] ;
124 -> 125 ;
126 [label="gini = 0.0\nsamples = 18\nvalue = [0, 18, 0]"] ;
124 -> 126 ;
}